{"learner":{"attributes":{"scikit_learn":"{\"_estimator_type\": \"regressor\"}"},"feature_names":[],"feature_types":[],"gradient_booster":{"model":{"cats":{"enc":[],"feature_segments":[],"sorted_idx":[]},"gbtree_model_param":{"num_parallel_tree":"1","num_trees":"500"},"iteration_indptr":[0,1,2,3,4,5,6,7,8,9,10,11,12,13,14,15,16,17,18,19,20,21,22,23,24,25,26,27,28,29,30,31,32,33,34,35,36,37,38,39,40,41,42,43,44,45,46,47,48,49,50,51,52,53,54,55,56,57,58,59,60,61,62,63,64,65,66,67,68,69,70,71,72,73,74,75,76,77,78,79,80,81,82,83,84,85,86,87,88,89,90,91,92,93,94,95,96,97,98,99,100,101,102,103,104,105,106,107,108,109,110,111,112,113,114,115,116,117,118,119,120,121,122,123,124,125,126,127,128,129,130,131,132,133,134,135,136,137,138,139,140,141,142,143,144,145,146,147,148,149,150,151,152,153,154,155,156,157,158,159,160,161,162,163,164,165,166,167,168,169,170,171,172,173,174,175,176,177,178,179,180,181,182,183,184,185,186,187,188,189,190,191,192,193,194,195,196,197,198,199,200,201,202,203,204,205,206,207,208,209,210,211,212,213,214,215,216,217,218,219,220,221,222,223,224,225,226,227,228,229,230,231,232,233,234,235,236,237,238,239,240,241,242,243,244,245,246,247,248,249,250,251,252,253,254,255,256,257,258,259,260,261,262,263,264,265,266,267,268,269,270,271,272,273,274,275,276,277,278,279,280,281,282,283,284,285,286,287,288,289,290,291,292,293,294,295,296,297,298,299,300,301,302,303,304,305,306,307,308,309,310,311,312,313,314,315,316,317,318,319,320,321,322,323,324,325,326,327,328,329,330,331,332,333,334,335,336,337,338,339,340,341,342,343,344,345,346,347,348,349,350,351,352,353,354,355,356,357,358,359,360,361,362,363,364,365,366,367,368,369,370,371,372,373,374,375,376,377,378,379,380,381,382,383,384,385,386,387,388,389,390,391,392,393,394,395,396,397,398,399,400,401,402,403,404,405,406,407,408,409,410,411,412,413,414,415,416,417,418,419,420,421,422,423,424,425,426,427,428,429,430,431,432,433,434,435,436,437,438,439,440,441,442,443,444,445,446,447,448,449,450,451,452,453,454,455,456,457,458,459,460,461,462,463,464,465,466,467,468,469,470,471,472,473,474,475,476,477,478,479,480,481,482,483,484,485,486,487,488,489,490,491,492,493,494,495,496,497,498,499,500],"tree_info":[0,0,0,0,0,0,0,0,0,0,0,0,0,0,0,0,0,0,0,0,0,0,0,0,0,0,0,0,0,0,0,0,0,0,0,0,0,0,0,0,0,0,0,0,0,0,0,0,0,0,0,0,0,0,0,0,0,0,0,0,0,0,0,0,0,0,0,0,0,0,0,0,0,0,0,0,0,0,0,0,0,0,0,0,0,0,0,0,0,0,0,0,0,0,0,0,0,0,0,0,0,0,0,0,0,0,0,0,0,0,0,0,0,0,0,0,0,0,0,0,0,0,0,0,0,0,0,0,0,0,0,0,0,0,0,0,0,0,0,0,0,0,0,0,0,0,0,0,0,0,0,0,0,0,0,0,0,0,0,0,0,0,0,0,0,0,0,0,0,0,0,0,0,0,0,0,0,0,0,0,0,0,0,0,0,0,0,0,0,0,0,0,0,0,0,0,0,0,0,0,0,0,0,0,0,0,0,0,0,0,0,0,0,0,0,0,0,0,0,0,0,0,0,0,0,0,0,0,0,0,0,0,0,0,0,0,0,0,0,0,0,0,0,0,0,0,0,0,0,0,0,0,0,0,0,0,0,0,0,0,0,0,0,0,0,0,0,0,0,0,0,0,0,0,0,0,0,0,0,0,0,0,0,0,0,0,0,0,0,0,0,0,0,0,0,0,0,0,0,0,0,0,0,0,0,0,0,0,0,0,0,0,0,0,0,0,0,0,0,0,0,0,0,0,0,0,0,0,0,0,0,0,0,0,0,0,0,0,0,0,0,0,0,0,0,0,0,0,0,0,0,0,0,0,0,0,0,0,0,0,0,0,0,0,0,0,0,0,0,0,0,0,0,0,0,0,0,0,0,0,0,0,0,0,0,0,0,0,0,0,0,0,0,0,0,0,0,0,0,0,0,0,0,0,0,0,0,0,0,0,0,0,0,0,0,0,0,0,0,0,0,0,0,0,0,0,0,0,0,0,0,0,0,0,0,0,0,0,0,0,0,0,0,0,0,0,0,0,0,0,0,0,0,0,0,0,0,0,0,0,0,0,0,0,0,0,0,0,0,0,0,0,0,0,0,0,0,0,0,0,0,0,0,0,0,0,0,0,0,0,0,0,0,0,0,0,0,0,0,0],"trees":[{"base_weights":[-3.3341872E-5,-2.4870846E-2,3.0884928E-1,-3.3891924E-2,5.90931E-2,2.3702121E-1,5.2663E-1,-5.317336E-3,-4.159111E-2,7.416415E-2,-3.278033E-2,1.606265E-1,3.254469E-1,2.7389866E-1,6.659146E-1,-6.4038723E-3,7.764706E-1,-4.2034738E-2,1.4672896E-1,4.4397086E-2,1.1784885E-1,-3.830036E-2,2.65625E-1,1.0527443E-1,2.3137361E-1,2.1364237E-1,4.0661195E-1,2.4827981E-1,8.473684E-1,8.659004E-1,5.715178E-1,-2.283348E-2,3.3936128E-2,8.866667E-2,-3.3333343E-3,-4.4437252E-2,-2.3614308E-2,6.461538E-1,7.684209E-2,8.21132E-2,1.7272223E-2,9.884678E-2,2.2017802E-1,-4.4664044E-2,9.900978E-3,7.9166666E-2,-4.545456E-3,7.55E-1,9.956784E-2,3.558962E-1,1.9327609E-1,1.1081966E-1,2.827051E-1,3.3394808E-1,5.796721E-1,2.851804E-1,-4.8979605E-3,8.972222E-2,-2.5000006E-3,9.1239494E-1,3.6874998E-1,3.6844262E-1,6.2665147E-1,-3.7179783E-2,-7.2200983E-3,2.003125E-1,2.6050285E-2,-4.5800503E-2,-2.8580435E-2,3.8571426E-1,-2.4158068E-2,-3.3333343E-3,7.7272725E-1,6.25E-1,3.944443E-2,4.3081384E-2,1.5396994E-1,1.2972074E-2,4.5277777E-1,8.8382944E-2,2.623853E-1,8.8043466E-2,3.1024998E-1,9.642856E-2,-4.725202E-2,3.5333332E-1,-4.9425303E-3,-2.5000006E-3,8.444445E-2,3.8165126E-2,1.5399672E-1,1.5423727E-1,4.3084416E-1,1.8229316E-1,8.6363636E-2,3.5999987E-2,2.0992365E-1,2.1457626E-1,4.089172E-1,2.7558768E-1,5.113889E-1,2.0113635E-1,6.4103055E-1,3.6615044E-1,1.7116563E-1,9.365297E-1,6.0249996E-1,-4.500001E-3,6.2E-1,1.8813558E-1,5.289062E-1,3.1276596E-1,6.625954E-1,-3.7613274E-3,4.6249997E-2,1.8498732E-3,-2.3142758E-3,4.0661763E-2,4.7311815E-3,3.9218566E-3,-2.7470072E-3,-3.0290275E-3,-4.626124E-3,-2.9177188E-3,2.9166667E-2,-3.7500008E-3,7.125E-2,-1.5002856E-3,-4.2957347E-3,8.55E-2,-2.5000006E-3,7.6E-2,-2.5000006E-3,2.65625E-2,-9.333345E-4,-2.9948037E-4,8.008385E-3,2.3263358E-2,5.2682916E-3,4.193349E-4,1.4864864E-2,8.444445E-2,5.499999E-3,1.2014017E-2,3.5481357E-3,5.1931817E-2,8.71212E-3,4.8666667E-2,3.9112894E-3,6.0857143E-2,2.4548193E-2,-4.5833346E-3,6.333333E-2,5.405394E-4,-4.992959E-3,8.142857E-2,-4.444446E-3,2.4239533E-3,4.025E-2,4.177778E-2,1.3286467E-2,1.0294106E-3,3.3653848E-2,5.573034E-2,2.5378788E-2,1.6567277E-2,4.7916666E-2,1.1280476E-3,3.7083335E-2,5.525E-2,1.46875E-2,1.3802816E-2,4.0843375E-2,9.464285E-3,4.7346156E-2,1.87108E-2,3.696629E-2,-1.1353266E-9,5.753125E-2,-4.82143E-3,6E-2,3.1477273E-2,7.03653E-2,2.3966942E-2,5.070755E-2,-2.3076935E-3,2.3039998E-2,4.6249997E-2,9.409722E-2,-3.7500008E-3,7.176471E-2,1.2499999E-2,8.55E-2,1.3272727E-2,7.6E-2,3.749999E-3,6.3018866E-2,7.875E-2,1.4583333E-2,6.7740254E-2,-4.444446E-3],"categories":[],"categories_nodes":[],"categories_segments":[],"categories_sizes":[],"default_left":[0,0,0,0,0,0,0,0,0,0,0,0,0,0,0,0,0,0,0,0,0,0,0,0,0,0,0,0,0,0,0,0,0,0,0,0,0,0,0,0,0,0,0,0,0,0,0,0,0,0,0,0,0,0,0,0,0,0,0,0,0,0,0,0,0,0,0,0,0,0,0,0,0,0,0,0,0,0,0,0,0,0,0,0,0,0,0,0,0,0,0,0,0,0,0,0,0,0,0,0,0,0,0,0,0,0,0,0,0,0,0,0,0,0,0,0,0,0,0,0,0,0,0,0,0,0,0,0,0,0,0,0,0,0,0,0,0,0,0,0,0,0,0,0,0,0,0,0,0,0,0,0,0,0,0,0,0,0,0,0,0,0,0,0,0,0,0,0,0,0,0,0,0,0,0,0,0,0,0,0,0,0,0,0,0,0,0,0,0,0,0,0,0,0,0,0,0,0,0,0,0],"id":0,"left_children":[1,3,5,7,9,11,13,15,17,19,21,23,25,27,29,31,33,35,37,39,41,43,45,47,49,51,53,55,57,59,61,63,65,-1,-1,67,69,71,73,75,77,79,81,83,85,-1,-1,87,89,91,93,95,97,99,101,103,-1,-1,-1,105,107,109,111,113,115,117,119,121,123,125,127,-1,129,131,133,135,137,139,141,143,145,147,149,151,153,155,-1,-1,-1,157,159,161,163,165,-1,167,169,171,173,175,177,179,181,183,185,187,189,-1,191,193,195,197,199,-1,-1,-1,-1,-1,-1,-1,-1,-1,-1,-1,-1,-1,-1,-1,-1,-1,-1,-1,-1,-1,-1,-1,-1,-1,-1,-1,-1,-1,-1,-1,-1,-1,-1,-1,-1,-1,-1,-1,-1,-1,-1,-1,-1,-1,-1,-1,-1,-1,-1,-1,-1,-1,-1,-1,-1,-1,-1,-1,-1,-1,-1,-1,-1,-1,-1,-1,-1,-1,-1,-1,-1,-1,-1,-1,-1,-1,-1,-1,-1,-1,-1,-1,-1,-1,-1,-1,-1],"loss_changes":[5.2942065E2,4.838155E1,8.021646E1,1.26885605E1,8.582977E0,2.6050034E1,4.4629242E1,1.0404676E1,3.8018875E0,6.9179134E0,1.4498316E0,8.101337E0,1.6156693E1,6.4596252E0,1.4985107E1,8.104468E0,1.546588E0,2.0049515E0,3.6849945E0,3.2395854E0,4.172453E0,2.6393008E-1,2.6542377E0,4.248028E0,4.2482567E0,5.3300896E0,1.2834351E1,4.7964745E0,8.487568E-1,5.696518E0,6.0390167E0,1.9460177E0,4.638014E0,0E0,0E0,8.654709E-1,1.1738365E0,1.1438236E0,1.9228306E0,3.7095928E0,3.4474566E0,3.0929775E0,3.98353E0,2.8170133E-1,2.0752945E0,0E0,0E0,7.1877766E-1,3.8609104E0,3.1376972E0,4.988968E0,2.2539961E0,3.7902603E0,7.4393005E0,6.955101E0,3.5192566E0,0E0,0E0,0E0,1.215805E0,2.5228124E0,3.4302864E0,4.745682E0,9.98188E-1,1.7048178E0,5.031134E0,2.3832035E0,2.624359E-1,6.1566186E-1,9.948214E-1,8.988097E-1,0E0,7.433181E-1,5.4550004E-1,9.954118E-1,1.4664818E0,3.7006493E0,2.1754568E0,2.757889E0,2.8735914E0,4.8631487E0,2.672636E0,3.7149467E0,1.098363E0,1.05451345E-1,2.7865398E0,0E0,0E0,0E0,2.7553444E0,3.3614988E0,1.544755E0,3.3066845E0,3.3202477E0,0E0,1.4442774E0,2.7483172E0,4.321254E0,3.1398773E0,4.533867E0,5.8841667E0,4.405032E0,5.131447E0,3.9067726E0,1.8807678E0,2.6000977E-2,1.5007935E0,0E0,1.6380005E0,1.768604E0,3.1616974E0,3.6098404E0,4.1445312E0,0E0,0E0,0E0,0E0,0E0,0E0,0E0,0E0,0E0,0E0,0E0,0E0,0E0,0E0,0E0,0E0,0E0,0E0,0E0,0E0,0E0,0E0,0E0,0E0,0E0,0E0,0E0,0E0,0E0,0E0,0E0,0E0,0E0,0E0,0E0,0E0,0E0,0E0,0E0,0E0,0E0,0E0,0E0,0E0,0E0,0E0,0E0,0E0,0E0,0E0,0E0,0E0,0E0,0E0,0E0,0E0,0E0,0E0,0E0,0E0,0E0,0E0,0E0,0E0,0E0,0E0,0E0,0E0,0E0,0E0,0E0,0E0,0E0,0E0,0E0,0E0,0E0,0E0,0E0,0E0,0E0,0E0,0E0,0E0,0E0,0E0,0E0,0E0],"parents":[2147483647,0,0,1,1,2,2,3,3,4,4,5,5,6,6,7,7,8,8,9,9,10,10,11,11,12,12,13,13,14,14,15,15,16,16,17,17,18,18,19,19,20,20,21,21,22,22,23,23,24,24,25,25,26,26,27,27,28,28,29,29,30,30,31,31,32,32,35,35,36,36,37,37,38,38,39,39,40,40,41,41,42,42,43,43,44,44,47,47,48,48,49,49,50,50,51,51,52,52,53,53,54,54,55,55,59,59,60,60,61,61,62,62,63,63,64,64,65,65,66,66,67,67,68,68,69,69,70,70,72,72,73,73,74,74,75,75,76,76,77,77,78,78,79,79,80,80,81,81,82,82,83,83,84,84,85,85,89,89,90,90,91,91,92,92,93,93,95,95,96,96,97,97,98,98,99,99,100,100,101,101,102,102,103,103,104,104,105,105,106,106,108,108,109,109,110,110,111,111,112,112],"right_children":[2,4,6,8,10,12,14,16,18,20,22,24,26,28,30,32,34,36,38,40,42,44,46,48,50,52,54,56,58,60,62,64,66,-1,-1,68,70,72,74,76,78,80,82,84,86,-1,-1,88,90,92,94,96,98,100,102,104,-1,-1,-1,106,108,110,112,114,116,118,120,122,124,126,128,-1,130,132,134,136,138,140,142,144,146,148,150,152,154,156,-1,-1,-1,158,160,162,164,166,-1,168,170,172,174,176,178,180,182,184,186,188,190,-1,192,194,196,198,200,-1,-1,-1,-1,-1,-1,-1,-1,-1,-1,-1,-1,-1,-1,-1,-1,-1,-1,-1,-1,-1,-1,-1,-1,-1,-1,-1,-1,-1,-1,-1,-1,-1,-1,-1,-1,-1,-1,-1,-1,-1,-1,-1,-1,-1,-1,-1,-1,-1,-1,-1,-1,-1,-1,-1,-1,-1,-1,-1,-1,-1,-1,-1,-1,-1,-1,-1,-1,-1,-1,-1,-1,-1,-1,-1,-1,-1,-1,-1,-1,-1,-1,-1,-1,-1,-1,-1,-1],"split_conditions":[7.142E1,5.235E1,9.401E1,9.510814E1,1E0,8.841E1,1E1,1.5384E2,7.878833E1,5.847E1,7.114E1,1.4619E2,1.2174E2,4.4091743E1,2.5271887E1,4.081E1,1.0297E2,4.081E1,3.533E1,9.510814E1,1.2E1,5.1590214E0,8.801E1,8.6288196E-1,1.89E0,8.243667E1,2.2025E2,2.3E1,7.114E1,2.815E1,8.552E1,1.5795E1,1.64E1,2.0381906E0,-5.1400003E0,1.4661833E1,4.86E0,2.0067E2,1.32E1,4.159E1,4.8251667E1,3.0695E1,6.172E1,2.14E0,4E0,4.711522E0,-1.8260002E0,1.2439567E1,4.45E1,5.7661667E1,4.178095E1,1.1274E2,7.668E1,1.2E1,2.813E1,5.41E0,-6.148751E-1,4.0979996E0,-1.0760002E0,2.12E0,8.509E1,5.732822E0,1.02E0,4.559E1,6.22E0,1.4E1,3.324E1,1.06875E0,1.1543135E2,6.491E1,1E0,-5.1200004E0,1.422E1,4.608E1,2.5420681E1,1.0924E2,5.182E1,1.1045333E2,2.804E1,4.97275E1,1.463E1,1.452E1,1.5614855E1,1.286E1,2.6983333E0,1.856E1,-5.248502E-1,-6.622E0,4.141E0,4.861E1,4.224E1,1.28E0,4.815E1,1.0192056E2,2.2909997E0,1.3882385E2,9.261E1,1.1302083E1,6.3076675E-1,4.985E1,2.0247875E1,7.712583E1,2.1E-1,4.05E0,1.5292E2,6.8282394E1,9.7E-1,-2.7700043E-1,1.1954232E1,3.4543E2,1.9181324E1,3.2324585E1,1.0678E2,-2.97E0,6.4940004E0,1.0910991E0,-1.3450005E0,6.1587996E0,1.1093493E0,1.2917494E0,-1.3990005E0,-4.5036006E0,-3.573E0,-1.7639999E0,1.8879002E1,-2.686E0,5.795999E0,-5.3700066E-1,-2.0167007E0,2.1626999E1,-7.6700006E0,1.7049996E0,-5.1399994E-1,4.461E0,-4.4125086E-1,-3.568014E-2,2.0074492E0,4.564699E0,1.6926241E0,1.06049396E-1,2.7464483E0,3.0580003E0,1.6369995E0,2.3459997E0,9.2739964E-1,7.543599E0,1.3570489E0,5.695999E0,1.8760003E0,9.451687E0,2.6474998E0,-1.7110001E0,9.529999E-1,6.1800003E-1,-7.620003E-1,1.2629998E0,-1.0849999E0,5.882997E-1,4.152E0,9.535375E0,1.6046499E0,4.6815968E0,6.303224E0,4.5737996E0,2.0270998E0,3.425598E0,7.9119997E0,1.051399E0,5.3819995E0,3.7110002E0,4.91015E0,3.5570114E0,5.6865983E0,6.762897E0,9.650001E0,3.3558996E0,6.6337852E0,4.069349E0,7.6029983E0,-6.4600125E-2,1.9013E1,5.630199E0,6.5338626E0,1.2549899E1,1.0398449E1,-7.9015034E-1,6.611699E0,2.4199998E0,5.7172003E0,-4.8415003E0,1.7147001E1,7.029999E-1,5.1520004E0,5.9847484E0,2.486E0,1.307325E1,1.3186437E1,9.3862505E0,1.4251999E1,9.926125E0,-2.8199998E-1],"split_indices":[0,0,18,12,90,0,85,45,21,18,40,32,32,65,37,18,1,0,28,12,85,50,30,64,54,21,28,84,2,4,0,49,66,0,0,26,30,7,67,46,64,64,0,59,84,0,0,1,20,25,50,31,71,85,2,55,0,0,0,75,71,50,57,67,59,84,4,64,25,5,90,0,2,0,26,32,40,49,4,51,53,4,35,2,62,4,0,0,0,56,79,77,46,37,0,38,78,64,48,71,37,25,74,57,1,25,53,0,35,79,35,51,43,0,0,0,0,0,0,0,0,0,0,0,0,0,0,0,0,0,0,0,0,0,0,0,0,0,0,0,0,0,0,0,0,0,0,0,0,0,0,0,0,0,0,0,0,0,0,0,0,0,0,0,0,0,0,0,0,0,0,0,0,0,0,0,0,0,0,0,0,0,0,0,0,0,0,0,0,0,0,0,0,0,0,0,0,0,0,0,0],"split_type":[0,0,0,0,0,0,0,0,0,0,0,0,0,0,0,0,0,0,0,0,0,0,0,0,0,0,0,0,0,0,0,0,0,0,0,0,0,0,0,0,0,0,0,0,0,0,0,0,0,0,0,0,0,0,0,0,0,0,0,0,0,0,0,0,0,0,0,0,0,0,0,0,0,0,0,0,0,0,0,0,0,0,0,0,0,0,0,0,0,0,0,0,0,0,0,0,0,0,0,0,0,0,0,0,0,0,0,0,0,0,0,0,0,0,0,0,0,0,0,0,0,0,0,0,0,0,0,0,0,0,0,0,0,0,0,0,0,0,0,0,0,0,0,0,0,0,0,0,0,0,0,0,0,0,0,0,0,0,0,0,0,0,0,0,0,0,0,0,0,0,0,0,0,0,0,0,0,0,0,0,0,0,0,0,0,0,0,0,0,0,0,0,0,0,0,0,0,0,0,0,0],"sum_hessian":[6.9006E4,6.3871E4,5.135E3,5.7675E4,6.196E3,3.863E3,1.272E3,1.2242E4,4.5433E4,5.323E3,8.73E2,2.074E3,1.789E3,4.53E2,8.19E2,1.2226E4,1.6E1,4.5327E4,1.06E2,3.167E3,2.156E3,8.58E2,1.5E1,1.165E3,9.09E2,7.54E2,1.035E3,4.35E2,1.8E1,2.6E2,5.59E2,8.688E3,3.538E3,1.4E1,2E0,4.0096E4,5.231E3,1.2E1,9.4E1,1.324E3,1.843E3,1.82E3,3.36E2,7.58E2,1E2,5E0,1E1,9E0,1.156E3,2.11E2,6.98E2,3.04E2,4.5E2,7.31E2,3.04E2,3.87E2,4.8E1,1.7E1,1E0,2.37E2,2.3E1,1.21E2,4.38E2,4.527E3,4.161E3,1.59E2,3.379E3,3.692E4,3.176E3,6E0,5.225E3,2E0,1E1,5E0,8.9E1,8.59E2,4.65E2,1.826E3,1.7E1,1.712E3,1.08E2,1.37E2,1.99E2,1.3E1,7.45E2,1.4E1,8.6E1,1E0,8E0,5.44E2,6.12E2,5.8E1,1.53E2,6.88E2,1E1,1.74E2,1.3E2,2.94E2,1.56E2,5.52E2,1.79E2,4.3E1,2.61E2,2.25E2,1.62E2,2.18E2,1.9E1,9E0,1.4E1,5.8E1,6.3E1,4.6E1,3.92E2,4.524E3,3E0,1.591E3,2.57E3,6.7E1,9.2E1,2.712E3,6.67E2,1.067E3,3.5853E4,3.171E3,5E0,3E0,3E0,3.515E3,1.71E3,9E0,1E0,4E0,1E0,1.5E1,7.4E1,3.83E2,4.76E2,2.61E2,2.04E2,1.716E3,1.1E2,8E0,9E0,1.069E3,6.43E2,4.3E1,6.5E1,1.4E1,1.23E2,3.4E1,1.65E2,1.1E1,2E0,3.6E1,7.09E2,6E0,8E0,5.25E2,1.9E1,4.4E1,5.68E2,3.3E1,2.5E1,8.8E1,6.5E1,6.53E2,3.5E1,1.63E2,1.1E1,1.9E1,1.11E2,2.12E2,8.2E1,2.7E1,1.29E2,2.86E2,2.66E2,2E1,1.59E2,2.7E1,1.6E1,4.3E1,2.18E2,1.2E2,1.05E2,3.8E1,1.24E2,3E0,2.15E2,3E0,1.6E1,5E0,9E0,5.4E1,4E0,1.1E1,5.2E1,1.1E1,3.5E1,3.84E2,8E0],"tree_param":{"num_deleted":"0","num_feature":"92","num_nodes":"201","size_leaf_vector":"1"}},{"base_weights":[-4.832224E-3,-2.5766348E-2,2.592902E-1,-3.6056403E-2,3.3850294E-2,8.1365854E-1,2.359586E-1,-1.1972407E-2,-4.2273838E-2,1.3837485E-2,7.7676445E-2,1.12903215E-1,9.3314284E-1,1.5930355E-1,3.4267154E-1,-1.2819839E-2,6.678571E-1,-4.255955E-2,1.1730768E-1,5.1346406E-2,-5.2956357E-3,3.0319137E-2,1.0303422E-1,-1.1111123E-2,7.6E-2,-2.5000006E-3,9.3879305E-2,9.470543E-2,2.16833E-1,1.9240946E-1,4.239607E-1,5.8245786E-2,-1.940874E-2,-3.7500008E-3,8.6363636E-2,-4.47229E-2,-2.640812E-2,5.8125E-1,6.338027E-2,2.2440475E-1,4.4425983E-2,-7.86334E-3,4.5208332E-1,5.285714E-1,2.6896875E-2,2.1808034E-1,8.785923E-2,4.75E-2,-4.8076934E-3,8.186426E-2,3.6749998E-1,2.602624E-1,1.1029747E-1,9.063544E-2,2.6440474E-1,3.9613166E-1,7.302752E-1,5.2072253E-2,5.3749996E-1,-2.669727E-2,1.5639128E-2,-4.4774592E-2,3.5999998E-1,6.686045E-2,-2.7992481E-2,7.9166666E-2,-3.3333343E-3,7.125E-2,2.4264693E-2,5.525E-1,1.1999999E-1,7.0688106E-2,1.4696958E-2,2.1403508E-1,-1.0860814E-2,8.55E-2,1.5333332E-1,-3.3333343E-3,7.6E-2,2.2740657E-2,4.090909E-1,1.425824E-1,5.3255814E-1,-1.594204E-2,1.0213474E-1,6.461538E-1,7.602361E-2,8.965516E-2,6.0781246E-1,1.5622447E-1,3.4801036E-1,9.570405E-2,4.2631578E-1,7.688355E-2,5.8125E-1,2.0189653E-1,4.0076333E-1,3.5163105E-1,5.159021E-1,1.5333332E-1,8.136842E-1,4.823905E-3,7.6E-2,-4.000001E-3,8.3125E-2,-9.538309E-4,-3.509465E-3,1.1707584E-3,3.9722223E-2,-4.6373275E-3,-3.7415922E-3,-3.3333343E-3,6.333333E-2,7.857131E-4,3.0588234E-2,-3.3874635E-3,-6.23257E-4,4.6249997E-2,-3.0769347E-4,7.5333335E-2,-4.166668E-3,6.9491514E-3,5.2857142E-2,4.3701213E-3,1.7892376E-2,2.8518518E-2,7.1057974E-4,8.142857E-2,1.2745097E-2,1.6547618E-2,-1.2631718E-3,-4.545456E-3,5.6E-2,9.147716E-4,1.0863308E-2,-4.000001E-3,6.714286E-2,5.439999E-3,3.301724E-2,1.7499998E-2,7.596154E-2,-3.3689854E-3,1.4285713E-2,1.4947915E-2,6.3586943E-3,-3.7500008E-3,8.55E-2,2.916655E-4,1.0482985E-2,7.6E-2,-4.800001E-3,-4.166668E-3,7.296296E-2,1.3707982E-2,7.5333335E-2,4.4219997E-2,2.7537992E-2,1.8811187E-2,4.765342E-3,-4.285715E-3,6.4615384E-2,6.2456126E-3,5.8125E-2,7.9166666E-2,-3.3333343E-3,3.4939747E-3,2.6754806E-2,8.648648E-3,5.1894736E-2,5.320261E-2,3.137042E-2,4.8387083E-3,5.6296296E-2,-4.5833346E-3,7.125E-2,-4.000001E-3,8.516484E-2],"categories":[],"categories_nodes":[],"categories_segments":[],"categories_sizes":[],"default_left":[0,0,0,0,0,0,0,0,0,0,0,0,0,0,0,0,0,0,0,0,0,0,0,0,0,0,0,0,0,0,0,0,0,0,0,0,0,0,0,0,0,0,0,0,0,0,0,0,0,0,0,0,0,0,0,0,0,0,0,0,0,0,0,0,0,0,0,0,0,0,0,0,0,0,0,0,0,0,0,0,0,0,0,0,0,0,0,0,0,0,0,0,0,0,0,0,0,0,0,0,0,0,0,0,0,0,0,0,0,0,0,0,0,0,0,0,0,0,0,0,0,0,0,0,0,0,0,0,0,0,0,0,0,0,0,0,0,0,0,0,0,0,0,0,0,0,0,0,0,0,0,0,0,0,0,0,0,0,0,0,0,0,0,0,0,0,0,0,0,0,0,0,0,0,0,0,0],"id":1,"left_children":[1,3,5,7,9,11,13,15,17,19,21,23,25,27,29,31,33,35,37,39,41,43,45,47,-1,-1,-1,49,51,53,55,57,59,-1,-1,61,63,65,67,69,71,73,75,77,79,81,83,-1,-1,85,87,89,91,93,95,97,99,101,103,105,107,109,111,113,115,-1,-1,-1,117,119,121,123,125,127,129,-1,131,-1,-1,133,135,137,139,141,143,145,147,149,151,153,155,157,159,161,163,165,167,169,171,173,175,-1,-1,-1,-1,-1,-1,-1,-1,-1,-1,-1,-1,-1,-1,-1,-1,-1,-1,-1,-1,-1,-1,-1,-1,-1,-1,-1,-1,-1,-1,-1,-1,-1,-1,-1,-1,-1,-1,-1,-1,-1,-1,-1,-1,-1,-1,-1,-1,-1,-1,-1,-1,-1,-1,-1,-1,-1,-1,-1,-1,-1,-1,-1,-1,-1,-1,-1,-1,-1,-1,-1,-1,-1,-1,-1,-1],"loss_changes":[3.8292392E2,3.936625E1,6.55918E1,8.193901E0,8.283866E0,1.7059143E1,3.9880615E1,6.4782677E0,1.9881287E0,4.6550317E0,3.5526676E0,2.4961722E0,9.7088623E-1,1.0544884E1,2.483635E1,5.2534275E0,1.9657054E0,1.515892E0,1.9146584E0,2.6140518E0,5.048837E0,1.748908E0,3.3467884E0,5.0801283E-1,0E0,0E0,0E0,4.6674376E0,6.9253387E0,5.2370014E0,1.0988556E1,2.7886863E0,2.6228414E0,0E0,0E0,8.1710815E-1,7.6008534E-1,1.0609376E0,1.7854505E0,2.8110952E0,1.6447768E0,2.844445E0,2.7578125E0,9.356191E-1,1.6236565E0,5.2423697E0,2.5281267E0,0E0,0E0,4.176118E0,3.951682E0,9.686401E0,1.9745517E0,1.9726276E0,3.4989681E0,6.2943726E0,5.1205482E0,2.5168643E0,2.0689375E0,1.2242885E0,2.6477222E0,4.4865417E-1,5.5866665E-1,1.210462E0,6.4565253E-1,0E0,0E0,0E0,8.1620365E-1,2.4179592E0,1.3046296E0,3.260716E0,2.0307598E0,2.8586318E0,1.3189573E0,0E0,1.2380606E0,0E0,0E0,1.1875525E0,1.3228053E0,2.9927077E0,3.3580732E0,5.8820873E-1,2.7262049E0,1.8881831E0,2.6742334E0,2.7124968E0,2.5621681E0,5.4981403E0,3.832344E0,1.8515024E0,1.9873915E0,2.0884957E0,1.0609376E0,3.1693325E0,4.8207855E0,5.9154816E0,7.1672897E0,1.7031665E0,3.1129608E0,0E0,0E0,0E0,0E0,0E0,0E0,0E0,0E0,0E0,0E0,0E0,0E0,0E0,0E0,0E0,0E0,0E0,0E0,0E0,0E0,0E0,0E0,0E0,0E0,0E0,0E0,0E0,0E0,0E0,0E0,0E0,0E0,0E0,0E0,0E0,0E0,0E0,0E0,0E0,0E0,0E0,0E0,0E0,0E0,0E0,0E0,0E0,0E0,0E0,0E0,0E0,0E0,0E0,0E0,0E0,0E0,0E0,0E0,0E0,0E0,0E0,0E0,0E0,0E0,0E0,0E0,0E0,0E0,0E0,0E0,0E0,0E0,0E0,0E0,0E0,0E0],"parents":[2147483647,0,0,1,1,2,2,3,3,4,4,5,5,6,6,7,7,8,8,9,9,10,10,11,11,12,12,13,13,14,14,15,15,16,16,17,17,18,18,19,19,20,20,21,21,22,22,23,23,27,27,28,28,29,29,30,30,31,31,32,32,35,35,36,36,37,37,38,38,39,39,40,40,41,41,42,42,43,43,44,44,45,45,46,46,49,49,50,50,51,51,52,52,53,53,54,54,55,55,56,56,57,57,58,58,59,59,60,60,61,61,62,62,63,63,64,64,68,68,69,69,70,70,71,71,72,72,73,73,74,74,76,76,79,79,80,80,81,81,82,82,83,83,84,84,85,85,86,86,87,87,88,88,89,89,90,90,91,91,92,92,93,93,94,94,95,95,96,96,97,97,98,98,99,99,100,100],"right_children":[2,4,6,8,10,12,14,16,18,20,22,24,26,28,30,32,34,36,38,40,42,44,46,48,-1,-1,-1,50,52,54,56,58,60,-1,-1,62,64,66,68,70,72,74,76,78,80,82,84,-1,-1,86,88,90,92,94,96,98,100,102,104,106,108,110,112,114,116,-1,-1,-1,118,120,122,124,126,128,130,-1,132,-1,-1,134,136,138,140,142,144,146,148,150,152,154,156,158,160,162,164,166,168,170,172,174,176,-1,-1,-1,-1,-1,-1,-1,-1,-1,-1,-1,-1,-1,-1,-1,-1,-1,-1,-1,-1,-1,-1,-1,-1,-1,-1,-1,-1,-1,-1,-1,-1,-1,-1,-1,-1,-1,-1,-1,-1,-1,-1,-1,-1,-1,-1,-1,-1,-1,-1,-1,-1,-1,-1,-1,-1,-1,-1,-1,-1,-1,-1,-1,-1,-1,-1,-1,-1,-1,-1,-1,-1,-1,-1,-1,-1],"split_conditions":[7.142E1,4.688E1,4.5632225E-1,9.510814E1,5.924E1,2.1818292E2,9.399E1,1.5384E2,7.878833E1,9.510814E1,3.9407433E1,9.401E1,2.1607E2,1.3339E2,4.896E1,3.383E1,8.695266E0,3.77925E1,1.07E1,1.906E1,4.8251667E1,1.1660832E0,1.716E1,8.552E1,3.4982796E0,-6.1865897E0,3.3674786E0,2.0638614E2,2.894E1,8.476667E1,1.1543135E2,2.4663E2,4.896E1,-4.6260004E0,1.8035614E0,1.1543135E2,1.63625E0,1.335E1,1.32E1,1.074875E1,1.42005E2,1.49375E0,2.894E1,1.5975E2,3.5923E2,7.9E-1,2E0,2.0306199E0,-4.364899E-1,8.6288196E-1,2.4541172E1,1.747952E1,1.0671E2,2.309E2,1.1188E2,1.8130833E2,3.0480928E0,1.2123709E2,3.312E1,6.977E1,2.6729187E2,8.270042E1,1.398E1,1.1923292E2,5.174E1,1.14953E1,-4.608E0,1.5344994E0,2.1441757E1,7.078554E1,2.8915E1,1E1,8.6E-1,1.1821347E0,2.743E1,2.7522004E0,8.55575E1,-2.0176003E0,1.4501401E1,8.101E1,4.67E1,4.44E0,6.687666E1,1.6415806E1,3.48E0,3.434E1,3.437E1,3.14E0,1.761E1,4.178095E1,6.171E1,4.694E1,4.892945E0,1.2002E2,5.738E1,3.465494E1,2.683E1,8.55E1,2.4026667E1,1.922E1,3.885E1,1.3232633E0,3.0362632E0,-1.1541748E0,3.7641199E0,-8.9016104E-1,-2.3294106E0,3.4137234E-1,6.0634995E0,-3.6867006E0,-2.2156003E0,-8.5099E0,1.6991102E1,3.2789946E-1,6.3992996E0,-1.6639003E0,-1.5890811E-1,4.6146502E0,-7.9403876E-4,5.79012E0,-1.7546998E-1,2.994983E0,2.80953E0,1.1576847E0,3.3960302E0,1.104013E1,5.9872884E-1,1.1483948E0,4.5904703E0,5.2552505E0,-3.4236127E-1,-4.4869995E-1,1.4732994E0,3.374706E-1,2.6662111E0,-2.2659989E-1,6.8998246E0,2.0028987E0,5.0008445E0,9.84365E0,3.672465E0,-1.4655045E-1,6.1936917E0,2.7433994E0,1.9039425E0,-5.3215127E0,3.7268999E0,2.4016869E-1,1.9401436E0,1.214717E1,-1.0392444E0,-8.483048E-2,4.0843325E0,2.795276E0,2.0618997E0,5.76294E0,4.156388E0,3.0203454E0,1.4311401E0,-3.6946565E-1,1.0483411E1,2.3829596E0,5.2138605E0,4.796244E0,-3.240379E0,1.32836E0,8.6882E0,2.784006E0,7.1983185E0,1.1978839E1,5.480931E0,4.2908626E0,6.849834E0,-3.4965127E0,1.7883743E0,-1.05386354E-1,1.38156E1],"split_indices":[0,0,22,12,18,34,0,45,21,12,39,18,1,32,19,72,26,14,38,72,64,35,4,0,0,0,0,38,68,21,25,1,19,0,0,25,64,2,67,64,38,64,20,7,7,77,85,0,0,64,26,26,20,32,32,38,52,39,17,73,36,38,2,38,20,0,0,0,26,37,62,85,53,50,81,0,17,0,0,20,44,59,21,22,59,1,19,54,4,50,17,70,65,41,5,26,2,7,51,2,72,0,0,0,0,0,0,0,0,0,0,0,0,0,0,0,0,0,0,0,0,0,0,0,0,0,0,0,0,0,0,0,0,0,0,0,0,0,0,0,0,0,0,0,0,0,0,0,0,0,0,0,0,0,0,0,0,0,0,0,0,0,0,0,0,0,0,0,0,0,0,0,0,0,0,0,0],"split_type":[0,0,0,0,0,0,0,0,0,0,0,0,0,0,0,0,0,0,0,0,0,0,0,0,0,0,0,0,0,0,0,0,0,0,0,0,0,0,0,0,0,0,0,0,0,0,0,0,0,0,0,0,0,0,0,0,0,0,0,0,0,0,0,0,0,0,0,0,0,0,0,0,0,0,0,0,0,0,0,0,0,0,0,0,0,0,0,0,0,0,0,0,0,0,0,0,0,0,0,0,0,0,0,0,0,0,0,0,0,0,0,0,0,0,0,0,0,0,0,0,0,0,0,0,0,0,0,0,0,0,0,0,0,0,0,0,0,0,0,0,0,0,0,0,0,0,0,0,0,0,0,0,0,0,0,0,0,0,0,0,0,0,0,0,0,0,0,0,0,0,0,0,0,0,0,0,0],"sum_hessian":[6.9253E4,6.4168E4,5.085E3,5.4723E4,9.445E3,2.04E2,4.881E3,1.1229E4,4.3494E4,6.485E3,2.96E3,3E1,1.74E2,2.842E3,2.039E3,1.1216E4,1.3E1,4.3417E4,7.7E1,2.19E3,4.295E3,1.033E3,1.927E3,2.6E1,4E0,1E0,1.73E2,1.34E3,1.502E3,7.17E2,1.322E3,9.51E2,1.0265E4,3E0,1E1,3.8287E4,5.13E3,7E0,7E1,8.3E1,2.107E3,4.272E3,2.3E1,6E0,1.027E3,2.23E2,1.704E3,1E0,2.5E1,1.281E3,5.9E1,1.066E3,4.36E2,2.98E2,4.19E2,1.214E3,1.08E2,9.4E2,1.1E1,8.498E3,1.767E3,3.8283E4,4E0,8.5E1,5.045E3,5E0,2E0,3E0,6.7E1,1.9E1,6.4E1,1.118E3,9.89E2,5.6E1,4.216E3,9E0,1.4E1,2E0,4E0,1.017E3,1E1,1.81E2,4.2E1,2.06E2,1.498E3,1.2E1,1.269E3,2.8E1,3.1E1,4.89E2,5.77E2,4.18E2,1.8E1,2.91E2,7E0,2.89E2,1.3E2,8.88E2,3.26E2,1.4E1,9.4E1,9.36E2,4E0,4E0,7E0,2.793E3,5.705E3,1.75E3,1.7E1,3.1446E4,6.837E3,2E0,2E0,6.9E1,1.6E1,3.971E3,1.074E3,3E0,6.4E1,1.4E1,5E0,5.8E1,6E0,8.96E2,2.22E2,2.6E1,9.63E2,6E0,5E1,4.1E1,4.175E3,1E1,4E0,8.79E2,1.38E2,4E0,6E0,1.24E2,5.7E1,1.7E1,2.5E1,1.86E2,2E1,6.71E2,8.27E2,3E0,9E0,3.59E2,9.1E2,4E0,2.4E1,5E0,2.6E1,4.75E2,1.4E1,2.49E2,3.28E2,1.42E2,2.76E2,6E0,1.2E1,2.84E2,7E0,5E0,2E0,8.2E1,2.07E2,3.6E1,9.4E1,1.52E2,7.36E2,3E1,2.96E2,1.1E1,3E0,4E0,9E1],"tree_param":{"num_deleted":"0","num_feature":"92","num_nodes":"177","size_leaf_vector":"1"}},{"base_weights":[-7.783617E-3,-2.4386387E-2,2.2538577E-1,-3.6122564E-2,2.7404075E-2,1.9978467E-1,8.186842E-1,-1.2091729E-2,-4.2235993E-2,3.9801788E-2,-3.2414645E-2,1.376715E-1,2.7922478E-1,-4.7222236E-3,9.0404624E-1,-1.3253363E-2,7.176471E-1,-4.2485043E-2,1.0136985E-1,7.6570883E-3,6.2012643E-2,-3.5402022E-2,6.557376E-2,1.0056592E-1,2.2956459E-1,1.8124999E-1,3.401426E-1,9.3244046E-1,-4.166668E-3,-2.3371378E-2,1.949185E-2,8.8214286E-2,-3.7500008E-3,-4.5139298E-2,-3.2476407E-2,5.8125E-1,4.1666657E-2,6.517956E-3,5.8125E-1,3.2756854E-2,9.174137E-2,-4.427455E-2,-1.4017106E-2,6.55E-1,-4.9038474E-3,6.461538E-1,9.646723E-2,4.0267855E-1,1.757798E-1,2.417824E-1,9.712459E-2,3.1300926E-1,5.9646016E-1,-2.5000006E-3,9.383233E-1,9.57864E-3,-3.2572202E-2,2.5328946E-1,1.2213572E-2,3.5593208E-2,-4.5281947E-2,3.9999998E-1,-3.291587E-2,7.9166666E-2,-3.3333343E-3,6.333333E-2,1.3281238E-2,3.8702285E-3,2.465909E-1,7.9166666E-2,-3.3333343E-3,2.7603436E-2,3.31E-1,2.0465949E-1,7.969106E-2,1.6E-1,-4.497148E-2,2.0967741E-1,-2.64865E-2,-3.3333343E-3,8.3125E-2,-3.7500008E-3,8.55E-2,3.0592105E-1,8.6934514E-2,4.7934783E-1,4.8387084E-2,1.4145784E-1,3.1495327E-1,8.437499E-2,2.9595014E-1,2.0795454E-1,1.6208779E-2,2.4332705E-1,3.7996355E-1,-4.687501E-3,6.9540817E-1,2.9999998E-1,9.442424E-2,6.3922754E-3,-1.1171463E-3,1.5166665E-2,-3.3438448E-3,5.2884616E-2,1.0784312E-2,-5.034142E-4,5.6331865E-3,-4.9074087E-3,7.9166666E-2,-4.65292E-3,-3.7428394E-3,7.6E-2,-4.000001E-3,-1.1720975E-3,-3.6970985E-3,3.3125E-2,-3.1578958E-3,6.746317E-5,1.9692307E-2,5.431818E-2,-4.78261E-3,-3.6751482E-4,4.674818E-3,-6.2500115E-4,6.1851855E-2,3.951389E-2,1.3774037E-2,5.627553E-3,1.23681305E-2,-3.7500008E-3,4.75E-2,-4.6345885E-3,4.761904E-3,8.142857E-2,3.199999E-3,4.527026E-3,-3.7448145E-3,2.8846143E-3,4.4117644E-2,7.786523E-3,2.408602E-2,7.7179484E-2,3.605E-2,-1.1111123E-3,3.6E-2,1.8738737E-2,-2.80375E-4,5.468085E-2,1.3114753E-2,6.055045E-3,7.125E-2,4.0216345E-2,9.956139E-3,1.2298849E-2,3.6413044E-2,4.6249997E-2,6.1452395E-4,2.7628755E-2,1.044775E-3,2.2847826E-2,4.8765626E-2,8.190789E-2,2.5652174E-2,4.75E-2,-2.5000006E-3],"categories":[],"categories_nodes":[],"categories_segments":[],"categories_sizes":[],"default_left":[0,0,0,0,0,0,0,0,0,0,0,0,0,0,0,0,0,0,0,0,0,0,0,0,0,0,0,0,0,0,0,0,0,0,0,0,0,0,0,0,0,0,0,0,0,0,0,0,0,0,0,0,0,0,0,0,0,0,0,0,0,0,0,0,0,0,0,0,0,0,0,0,0,0,0,0,0,0,0,0,0,0,0,0,0,0,0,0,0,0,0,0,0,0,0,0,0,0,0,0,0,0,0,0,0,0,0,0,0,0,0,0,0,0,0,0,0,0,0,0,0,0,0,0,0,0,0,0,0,0,0,0,0,0,0,0,0,0,0,0,0,0,0,0,0,0,0,0,0,0,0,0,0,0,0,0,0,0,0,0,0,0,0,0,0],"id":2,"left_children":[1,3,5,7,9,11,13,15,17,19,21,23,25,-1,27,29,31,33,35,37,39,41,43,45,47,49,51,53,-1,55,57,-1,-1,59,61,63,65,67,69,71,73,75,77,79,-1,81,83,85,87,89,91,93,95,-1,97,99,101,103,105,107,109,111,113,-1,-1,-1,115,117,119,-1,-1,121,123,125,127,129,131,133,135,-1,-1,-1,-1,137,139,141,143,145,147,149,151,153,155,157,159,-1,161,163,-1,-1,-1,-1,-1,-1,-1,-1,-1,-1,-1,-1,-1,-1,-1,-1,-1,-1,-1,-1,-1,-1,-1,-1,-1,-1,-1,-1,-1,-1,-1,-1,-1,-1,-1,-1,-1,-1,-1,-1,-1,-1,-1,-1,-1,-1,-1,-1,-1,-1,-1,-1,-1,-1,-1,-1,-1,-1,-1,-1,-1,-1,-1,-1,-1,-1,-1],"loss_changes":[2.679585E2,3.927602E1,6.9721466E1,7.7386093E0,8.854695E0,2.1731598E1,1.4086639E1,9.067068E0,1.5062714E0,7.059886E0,6.0241437E-1,8.426262E0,1.1487228E1,0E0,4.6844025E0,3.5352716E0,2.1447945E0,1.112236E0,2.0672588E0,2.6372478E0,5.0832176E0,3.769586E-1,4.153003E0,3.8890305E0,6.5585785E0,3.7651997E0,8.103378E0,9.697113E-1,0E0,2.4714293E0,4.2833476E0,0E0,0E0,3.8318634E-1,1.6839628E0,1.0609376E0,1.100039E0,2.563884E0,1.0609376E0,4.523392E0,3.9297142E0,2.0736122E-1,1.6373144E0,1.2408962E0,0E0,1.8881831E0,3.4775467E0,4.5402317E0,2.558752E0,3.658434E0,2.8035803E0,4.946312E0,7.225807E0,0E0,3.4770203E-1,2.0079238E0,1.022017E0,2.9889493E0,1.8600203E0,3.8157175E0,3.222351E-1,1.456E0,7.544451E-1,0E0,0E0,0E0,9.2336553E-1,2.4626079E0,3.8681195E0,0E0,0E0,1.7367513E0,4.852147E0,3.5019064E0,2.6938438E0,3.28875E-1,1.8062139E-1,3.3041253E0,4.3824282E-1,0E0,0E0,0E0,0E0,2.835441E0,2.326519E0,4.5181904E0,5.7875264E-1,2.9092808E0,4.4882336E0,1.6329143E0,6.655731E0,1.706809E0,8.145689E-1,4.0806446E0,8.844887E0,0E0,5.1090775E0,1.825E-1,0E0,0E0,0E0,0E0,0E0,0E0,0E0,0E0,0E0,0E0,0E0,0E0,0E0,0E0,0E0,0E0,0E0,0E0,0E0,0E0,0E0,0E0,0E0,0E0,0E0,0E0,0E0,0E0,0E0,0E0,0E0,0E0,0E0,0E0,0E0,0E0,0E0,0E0,0E0,0E0,0E0,0E0,0E0,0E0,0E0,0E0,0E0,0E0,0E0,0E0,0E0,0E0,0E0,0E0,0E0,0E0,0E0,0E0,0E0,0E0,0E0,0E0,0E0,0E0,0E0,0E0,0E0],"parents":[2147483647,0,0,1,1,2,2,3,3,4,4,5,5,6,6,7,7,8,8,9,9,10,10,11,11,12,12,14,14,15,15,16,16,17,17,18,18,19,19,20,20,21,21,22,22,23,23,24,24,25,25,26,26,27,27,29,29,30,30,33,33,34,34,35,35,36,36,37,37,38,38,39,39,40,40,41,41,42,42,43,43,45,45,46,46,47,47,48,48,49,49,50,50,51,51,52,52,54,54,55,55,56,56,57,57,58,58,59,59,60,60,61,61,62,62,66,66,67,67,68,68,71,71,72,72,73,73,74,74,75,75,76,76,77,77,78,78,83,83,84,84,85,85,86,86,87,87,88,88,89,89,90,90,91,91,92,92,93,93,94,94,96,96,97,97],"right_children":[2,4,6,8,10,12,14,16,18,20,22,24,26,-1,28,30,32,34,36,38,40,42,44,46,48,50,52,54,-1,56,58,-1,-1,60,62,64,66,68,70,72,74,76,78,80,-1,82,84,86,88,90,92,94,96,-1,98,100,102,104,106,108,110,112,114,-1,-1,-1,116,118,120,-1,-1,122,124,126,128,130,132,134,136,-1,-1,-1,-1,138,140,142,144,146,148,150,152,154,156,158,160,-1,162,164,-1,-1,-1,-1,-1,-1,-1,-1,-1,-1,-1,-1,-1,-1,-1,-1,-1,-1,-1,-1,-1,-1,-1,-1,-1,-1,-1,-1,-1,-1,-1,-1,-1,-1,-1,-1,-1,-1,-1,-1,-1,-1,-1,-1,-1,-1,-1,-1,-1,-1,-1,-1,-1,-1,-1,-1,-1,-1,-1,-1,-1,-1,-1,-1,-1,-1,-1],"split_conditions":[7.416E1,4.424E1,3.7E1,9.510814E1,1E0,9.639E1,2.1607E2,1.5384E2,6.687666E1,1.03E2,7.114E1,1.7454E2,5.282E1,-4.509407E-1,2.3067E2,4.112042E1,4.807E1,9.267953E0,1.2439567E1,1.5762E2,1.4878324E1,5E0,6.2295833E0,8.6288196E-1,1.856E1,6.491E1,1.1543135E2,1.24E0,-5.157189E-1,6E0,1.452E1,1.6540154E0,-2.6282384E0,1.195E1,5.5404167E0,3.2931E2,1.393E1,4.195271E1,3.65825E1,4.7390625E1,1.14E0,9.8587716E-1,4E0,1.0385E2,-1.3316938E0,5.981E1,2.567E1,1.77E1,1.2E1,1.05668335E2,3.31E0,4.874E1,1.12E0,-5.100319E-1,9.724E1,3.168E1,2.532E1,7.609E1,5.6355E1,9.581518E0,3.195E1,6.924593E1,2.218E1,1.0639191E1,-2.1775215E0,1.7929596E0,2.4960388E1,1.1353E2,2.821E1,1.4879611E1,-5.5816474E0,5.135E1,8.35E0,4.013E1,5.757E1,2.66E0,1.6E0,1.856E1,4.872066E0,-1.5951996E-1,9.381555E0,-2.4352002E0,3.7892358E0,2.7E-1,8.846003E1,4.09E1,4.9E-1,2.454675E2,9.510814E1,9.195E1,1.6303E2,3.0073E2,2.245E0,3.18E1,5.5795975E1,-2.8927994E-1,3.145E0,2.2018E2,9.129205E-1,2.8295774E0,-5.4424214E-1,2.2706878E0,-2.2175083E0,8.199503E0,3.1667097E0,-2.295827E-1,2.1364741E0,-2.663991E0,3.1639695E0,-3.5369308E0,-1.9050821E0,1.6958311E1,-9.120064E-1,-4.5364743E-1,-2.0123408E0,3.5534356E0,-8.120845E-1,9.542915E-3,1.2374386E1,1.3307179E0,-9.059203E-1,-9.8198995E-2,1.2302456E0,2.252462E0,2.5831783E0,3.829242E0,2.6089637E0,1.8790997E0,2.6879966E0,-1.6945466E0,5.224533E-1,-1.1113802E0,8.749857E-1,1.1029526E0,5.1550847E-2,4.900112E0,-6.917339E-1,2.295918E0,1.1268592E1,1.7626346E0,4.0566707E0,5.2297373E0,5.7823153E0,2.926604E0,5.5888267E0,2.6859288E0,4.5154792E-1,1.114156E1,3.5258477E0,1.6212139E0,3.254474E0,6.708366E0,2.2390602E0,3.0338027E0,1.1560078E1,5.1135764E0,5.1161546E-2,6.171988E0,4.110145E0,5.1385508E0,6.8548164E0,1.3981137E1,4.2262273E0,5.486867E0,-8.465134E0],"split_indices":[14,14,9,12,90,14,1,45,21,32,2,32,19,0,78,25,19,26,29,19,26,83,64,64,4,5,25,3,0,85,66,0,0,69,38,7,4,64,4,62,3,24,84,1,0,1,80,56,85,38,55,2,58,0,7,43,71,73,19,50,14,24,66,0,0,0,26,20,4,0,0,14,59,20,20,3,76,4,35,0,0,0,0,77,39,71,77,78,12,41,30,78,60,67,39,0,56,1,0,0,0,0,0,0,0,0,0,0,0,0,0,0,0,0,0,0,0,0,0,0,0,0,0,0,0,0,0,0,0,0,0,0,0,0,0,0,0,0,0,0,0,0,0,0,0,0,0,0,0,0,0,0,0,0,0,0,0,0,0,0,0,0,0,0,0],"split_type":[0,0,0,0,0,0,0,0,0,0,0,0,0,0,0,0,0,0,0,0,0,0,0,0,0,0,0,0,0,0,0,0,0,0,0,0,0,0,0,0,0,0,0,0,0,0,0,0,0,0,0,0,0,0,0,0,0,0,0,0,0,0,0,0,0,0,0,0,0,0,0,0,0,0,0,0,0,0,0,0,0,0,0,0,0,0,0,0,0,0,0,0,0,0,0,0,0,0,0,0,0,0,0,0,0,0,0,0,0,0,0,0,0,0,0,0,0,0,0,0,0,0,0,0,0,0,0,0,0,0,0,0,0,0,0,0,0,0,0,0,0,0,0,0,0,0,0,0,0,0,0,0,0,0,0,0,0,0,0,0,0,0,0,0,0],"sum_hessian":[6.9215E4,6.4615E4,4.6E3,5.2678E4,1.1937E4,4.411E3,1.89E2,1.0684E4,4.1994E4,9.888E3,2.049E3,2.477E3,1.934E3,1.7E1,1.72E2,1.0668E4,1.6E1,4.1922E4,7.2E1,4.041E3,5.847E3,1.989E3,6E1,1.766E3,7.11E2,7.43E2,1.191E3,1.67E2,5E0,8.15E3,2.518E3,1.3E1,3E0,3.3132E4,8.79E3,7E0,6.5E1,4.034E3,7E0,2.948E3,2.899E3,1.405E3,5.84E2,9E0,5.1E1,1.2E1,1.754E3,1.67E2,5.44E2,4.31E2,3.12E2,1.079E3,1.12E2,1E0,1.66E2,1.779E3,6.371E3,7.5E1,2.443E3,5.8E1,3.3074E4,8E0,8.782E3,5E0,2E0,2E0,6.3E1,3.991E3,4.3E1,5E0,2E0,2.899E3,4.9E1,2.78E2,2.621E3,4E0,1.401E3,3E1,5.54E2,2E0,7E0,3E0,9E0,7.5E1,1.679E3,1.37E2,3E1,4.38E2,1.06E2,1.11E2,3.2E2,1.31E2,1.81E2,5.31E2,5.48E2,1.5E1,9.7E1,2E0,1.64E2,4.91E2,1.288E3,2.9E1,6.342E3,2.5E1,5E1,1.757E3,6.86E2,5.3E1,5E0,2.8537E4,4.537E3,4E0,4E0,1.411E3,7.371E3,7E0,5.6E1,3.927E3,6.4E1,2.1E1,2.2E1,1.101E3,1.798E3,2.3E1,2.6E1,7.1E1,2.07E2,1.712E3,9.09E2,3E0,1E0,1.381E3,2E1,6E0,2.4E1,7.3E1,4.81E2,2.5E1,5E1,1.587E3,9.2E1,3.8E1,9.9E1,2.6E1,4E0,3.32E2,1.06E2,4.6E1,6E1,1.08E2,3E0,2.07E2,1.13E2,8.6E1,4.5E1,3E0,1.78E2,4.65E2,6.6E1,2.29E2,3.19E2,7.5E1,2.2E1,1E0,1E0],"tree_param":{"num_deleted":"0","num_feature":"92","num_nodes":"165","size_leaf_vector":"1"}},{"base_weights":[-1.1104609E-2,-2.2419615E-2,2.4593201E-1,-3.2669414E-2,4.797288E-2,8.021164E-1,2.0726605E-1,-3.9651833E-2,-5.906479E-3,5.9386E-2,-3.351065E-2,-4.7368435E-3,8.9181286E-1,1.768122E-1,4.024523E-1,-4.3185826E-2,-2.6985805E-2,4.5277777E-1,-6.5976996E-3,3.2803945E-2,8.82278E-2,-3.9102577E-2,2.3809522E-1,9.320122E-1,-4.375001E-3,1.5272091E-1,3.1148458E-1,2.534091E-1,4.8411015E-1,-4.4497263E-2,-2.9312028E-2,-2.7472485E-2,6.7142856E-1,6.461538E-1,-4.166668E-3,-7.830169E-3,1.78481E-1,2.8092287E-2,1.8521738E-1,5.9898723E-2,1.23945E-1,2.2222104E-3,-4.539774E-2,7.0625E-1,-4.6428586E-3,-2.5000006E-3,9.380368E-2,3.4042552E-1,1.3843262E-1,3.476708E-1,-2.0833345E-2,4.642856E-2,3.4615383E-1,3.1323528E-1,6.0962963E-1,-4.3181935E-3,-4.4767864E-2,4.6249998E-1,-2.9938582E-2,-2.82734E-2,5.8064505E-2,7.9166666E-2,-2.5000006E-3,-3.7500008E-3,8.55E-2,-1.7671296E-2,1.2675495E-2,8.9411765E-2,-1.746033E-2,6.7861597E-3,6.411551E-2,7.9166666E-2,1.5045454E-1,7.687806E-2,-1.8607967E-2,1.18636936E-1,5.9999996E-1,-4.9553583E-3,2.4374999E-1,1.2499999E-1,-4.65143E-2,-2.5000006E-3,8.142857E-2,2.231818E-1,7.3281246E-1,1.20718054E-1,3.2E-1,3.7728813E-1,2.3214275E-2,4.75E-2,-4.8571443E-3,3.8571426E-1,-2.0833345E-2,2.25E-1,5.85E-1,5.042553E-1,1.4732142E-1,4.5060974E-1,8.398148E-1,5.3749997E-2,-3.540671E-3,-4.5324913E-3,-3.094296E-3,-2.5000006E-3,6.333333E-2,-3.0859008E-3,2.8888887E-2,-2.871188E-3,1.0781249E-2,6.55E-2,-1.3690488E-3,-2.3688702E-3,7.4145594E-4,1.0468452E-3,3.3653848E-2,-4.9152556E-3,3.6E-2,-3.341981E-4,5.3985496E-3,5.6007453E-3,2.9891303E-2,-4.8837224E-3,2.742647E-2,7.3174494E-3,7.333334E-2,-2.6867827E-3,5.6E-2,1.1003332E-2,3.7959184E-2,8.0000006E-2,-4.000001E-3,8.142857E-2,8.333322E-4,4.75E-2,-4.000001E-3,6.6666654E-3,-4.763554E-3,-1.8181831E-3,3.224359E-2,-3.7500008E-3,8.137931E-2,1.0073151E-2,2.0240238E-2,5.099999E-3,4.3318965E-2,2.9368687E-2,5.4234695E-2,6.333333E-2,-4.8076934E-3,7.125E-2,-3.7500008E-3,-4.8571443E-3,4.75E-2,6.55E-2,1.3962263E-2,8.124999E-3,7.347826E-2,7.525E-2,3.0892855E-2,4.235294E-2,2.6249988E-3,6.942857E-2,2.6354168E-2,8.921569E-2,-3.7500008E-3],"categories":[],"categories_nodes":[],"categories_segments":[],"categories_sizes":[],"default_left":[0,0,0,0,0,0,0,0,0,0,0,0,0,0,0,0,0,0,0,0,0,0,0,0,0,0,0,0,0,0,0,0,0,0,0,0,0,0,0,0,0,0,0,0,0,0,0,0,0,0,0,0,0,0,0,0,0,0,0,0,0,0,0,0,0,0,0,0,0,0,0,0,0,0,0,0,0,0,0,0,0,0,0,0,0,0,0,0,0,0,0,0,0,0,0,0,0,0,0,0,0,0,0,0,0,0,0,0,0,0,0,0,0,0,0,0,0,0,0,0,0,0,0,0,0,0,0,0,0,0,0,0,0,0,0,0,0,0,0,0,0,0,0,0,0,0,0,0,0,0,0,0,0,0,0,0,0,0,0,0,0,0,0,0,0],"id":3,"left_children":[1,3,5,7,9,11,13,15,17,19,21,-1,23,25,27,29,31,33,35,37,39,41,43,45,-1,47,49,51,53,55,57,59,61,63,-1,65,67,69,71,73,75,77,79,81,-1,-1,-1,83,85,87,89,91,93,95,97,99,101,103,105,107,109,-1,-1,-1,-1,111,113,-1,115,117,119,-1,121,123,125,127,129,-1,131,133,135,-1,-1,137,139,141,143,145,147,-1,-1,149,151,153,155,157,159,161,163,-1,-1,-1,-1,-1,-1,-1,-1,-1,-1,-1,-1,-1,-1,-1,-1,-1,-1,-1,-1,-1,-1,-1,-1,-1,-1,-1,-1,-1,-1,-1,-1,-1,-1,-1,-1,-1,-1,-1,-1,-1,-1,-1,-1,-1,-1,-1,-1,-1,-1,-1,-1,-1,-1,-1,-1,-1,-1,-1,-1,-1,-1,-1,-1,-1,-1],"loss_changes":[2.0092741E2,4.774525E1,6.2479004E1,1.0793758E1,7.8240604E0,1.444326E1,1.6126717E1,2.0493698E0,3.79271E0,5.6536293E0,1.5797491E0,0E0,6.4719086E0,7.606041E0,4.34391E0,6.503296E-1,3.4161162E0,1.7479699E0,2.724044E0,2.7530956E0,3.5724506E0,2.638892E-1,2.8300152E0,9.6902466E-1,0E0,5.324871E0,4.3002853E0,2.517849E0,4.8708E0,3.5556793E-1,9.678712E-1,6.860361E-1,6.059525E-1,1.8881831E0,0E0,2.393155E0,1.1093212E1,2.8600945E0,2.3053093E0,2.6340895E0,3.8809338E0,1.7002931E0,1.7324233E-1,6.523659E-1,0E0,0E0,0E0,6.323141E0,5.953499E0,3.085514E0,5.1819646E-1,9.665178E-1,2.5016546E0,3.1583862E0,4.563114E0,3.7247825E0,2.4888611E-1,3.489583E-1,9.165757E-1,5.937176E-1,3.9924457E0,0E0,0E0,0E0,0E0,1.2097518E0,2.7455192E0,0E0,7.7133596E-1,1.1202316E0,2.6199555E0,0E0,2.7275722E0,3.8946571E0,1.697332E0,3.433733E0,2.2080007E0,0E0,3.216741E0,3.655E-1,1.1421561E-1,0E0,0E0,2.6410584E0,2.0266895E0,2.753378E0,5.001829E0,3.9114609E0,1.2483401E0,0E0,0E0,9.948214E-1,5.1819646E-1,2.1847076E0,2.203888E0,2.046505E0,1.8615723E0,3.5549164E0,2.5131607E0,0E0,0E0,0E0,0E0,0E0,0E0,0E0,0E0,0E0,0E0,0E0,0E0,0E0,0E0,0E0,0E0,0E0,0E0,0E0,0E0,0E0,0E0,0E0,0E0,0E0,0E0,0E0,0E0,0E0,0E0,0E0,0E0,0E0,0E0,0E0,0E0,0E0,0E0,0E0,0E0,0E0,0E0,0E0,0E0,0E0,0E0,0E0,0E0,0E0,0E0,0E0,0E0,0E0,0E0,0E0,0E0,0E0,0E0,0E0,0E0,0E0,0E0,0E0,0E0,0E0,0E0],"parents":[2147483647,0,0,1,1,2,2,3,3,4,4,5,5,6,6,7,7,8,8,9,9,10,10,12,12,13,13,14,14,15,15,16,16,17,17,18,18,19,19,20,20,21,21,22,22,23,23,25,25,26,26,27,27,28,28,29,29,30,30,31,31,32,32,33,33,35,35,36,36,37,37,38,38,39,39,40,40,41,41,42,42,43,43,47,47,48,48,49,49,50,50,51,51,52,52,53,53,54,54,55,55,56,56,57,57,58,58,59,59,60,60,65,65,66,66,68,68,69,69,70,70,72,72,73,73,74,74,75,75,76,76,78,78,79,79,80,80,83,83,84,84,85,85,86,86,87,87,88,88,91,91,92,92,93,93,94,94,95,95,96,96,97,97,98,98],"right_children":[2,4,6,8,10,12,14,16,18,20,22,-1,24,26,28,30,32,34,36,38,40,42,44,46,-1,48,50,52,54,56,58,60,62,64,-1,66,68,70,72,74,76,78,80,82,-1,-1,-1,84,86,88,90,92,94,96,98,100,102,104,106,108,110,-1,-1,-1,-1,112,114,-1,116,118,120,-1,122,124,126,128,130,-1,132,134,136,-1,-1,138,140,142,144,146,148,-1,-1,150,152,154,156,158,160,162,164,-1,-1,-1,-1,-1,-1,-1,-1,-1,-1,-1,-1,-1,-1,-1,-1,-1,-1,-1,-1,-1,-1,-1,-1,-1,-1,-1,-1,-1,-1,-1,-1,-1,-1,-1,-1,-1,-1,-1,-1,-1,-1,-1,-1,-1,-1,-1,-1,-1,-1,-1,-1,-1,-1,-1,-1,-1,-1,-1,-1,-1,-1,-1,-1,-1,-1],"split_conditions":[8.552E1,5.235E1,1.3738899E-1,3.8419167E1,1E0,2.1607E2,1.209225E2,8.3269585E1,1.2805833E1,1.3211E2,7.114E1,-3.2284623E-1,2.3067E2,1.0088E2,1.5E1,3.311E1,3.3152176E1,1.504E1,1.5384E2,3.43925E1,6.244E1,4E0,6.1854167E0,2.919E1,-1.1643685E0,3.629E1,2.57E0,1.1463E2,1.1E1,2.012E1,1.122E1,3.1E1,2.231E1,3.078E1,-2.1916797E0,5.037E1,2.8533047E1,5.705E1,1.309E1,1.6077873E1,1.5762E2,1E0,1.466644E0,5.341E1,-1.4759941E0,-7.006149E-1,2.6082702E0,1.42E0,9.724384E1,1.4859011E1,1.1733333E0,3.517E1,7.992244E0,5.185E1,1.2318186E1,9.41E0,1.3604998E1,1.677E1,1.6242E2,3.1413626E1,2E0,5.336553E0,-1.3314469E0,-2.1976165E-1,1.9463425E1,3.058E1,1.22547554E2,1.488614E0,8.909825E0,1.6755E2,9.625E1,7.633675E-1,3.125E1,1.5384E2,7.418916E1,1.2123709E2,1.2302E2,-8.98016E-1,1.856E1,1.0468E2,2.05E0,-1.4356767E-1,4.444983E0,4.387E1,3.086E1,1.20895E2,4.347E1,5.8771105E0,2.92E1,8.34613E-1,-3.8257957E-1,1.951E1,2.739E1,1.2823167E2,2.565E1,3.824665E0,1.0159E2,8.311708E1,8.101E1,3.6196632E0,-1.5602872E0,-3.1913376E0,-2.057306E0,-5.8363953E0,2.8451478E0,-1.5635799E0,1.2567099E1,-1.6598967E0,9.843239E-1,8.043573E0,-1.0291075E0,-1.0277536E0,2.4761546E-1,2.601512E-1,4.8612347E0,-1.3403944E0,1.4211663E0,-7.1925394E-2,1.5449371E0,1.5789658E0,7.871907E0,-7.9816014E-1,1.3069211E0,2.0837083E0,1.4023774E0,-4.7641736E-1,7.333093E0,2.468204E0,4.389211E0,7.6638412E0,-2.8000457E0,9.926575E-1,3.2806396E-3,6.335915E-1,-1.5250915E0,8.044373E-1,-6.764087E-1,9.01643E-1,6.460508E0,-1.0793823E0,1.4200373E1,2.246938E0,5.9669514E0,2.280336E0,7.1904387E0,6.522693E0,9.592633E0,1.0350304E0,-4.0032873E-1,4.210595E0,-2.2312353E0,-1.835715E-1,3.2877352E-2,1.21997175E1,2.3560562E0,2.1142273E-1,1.7103378E1,1.4566338E1,3.2316678E0,9.4433775E0,7.468204E0,1.23196125E1,5.0507927E0,7.00039E0,-1.3715607E0],"split_indices":[0,0,22,25,90,1,18,38,38,32,2,0,7,19,84,0,11,40,45,64,25,84,64,5,0,78,75,29,85,80,78,84,0,66,0,18,39,18,17,52,19,86,24,0,0,0,0,77,39,52,60,15,65,17,52,32,26,1,20,26,85,0,0,0,0,68,35,0,63,36,71,0,5,45,23,39,1,0,66,1,59,0,0,19,5,14,19,48,40,0,0,2,3,36,43,50,7,23,20,0,0,0,0,0,0,0,0,0,0,0,0,0,0,0,0,0,0,0,0,0,0,0,0,0,0,0,0,0,0,0,0,0,0,0,0,0,0,0,0,0,0,0,0,0,0,0,0,0,0,0,0,0,0,0,0,0,0,0,0,0,0,0,0,0,0],"split_type":[0,0,0,0,0,0,0,0,0,0,0,0,0,0,0,0,0,0,0,0,0,0,0,0,0,0,0,0,0,0,0,0,0,0,0,0,0,0,0,0,0,0,0,0,0,0,0,0,0,0,0,0,0,0,0,0,0,0,0,0,0,0,0,0,0,0,0,0,0,0,0,0,0,0,0,0,0,0,0,0,0,0,0,0,0,0,0,0,0,0,0,0,0,0,0,0,0,0,0,0,0,0,0,0,0,0,0,0,0,0,0,0,0,0,0,0,0,0,0,0,0,0,0,0,0,0,0,0,0,0,0,0,0,0,0,0,0,0,0,0,0,0,0,0,0,0,0,0,0,0,0,0,0,0,0,0,0,0,0,0,0,0,0,0,0],"sum_hessian":[6.9083E4,6.6171E4,2.912E3,5.7761E4,8.41E3,1.88E2,2.724E3,4.5809E4,1.1952E4,7.377E3,1.033E3,1.8E1,1.7E2,2.358E3,3.66E2,3.5814E4,9.995E3,1.7E1,1.1935E4,3.84E3,3.537E3,1.013E3,2E1,1.63E2,7E0,2.002E3,3.56E2,1.31E2,2.35E2,3.2719E4,3.095E3,9.989E3,6E0,1.2E1,5E0,1.1857E4,7.8E1,3.726E3,1.14E2,1.974E3,1.563E3,1.34E2,8.79E2,7E0,1.3E1,1E0,1.62E2,1.4E2,1.862E3,3.21E2,3.5E1,4.1E1,9E1,1.01E2,1.34E2,2.19E2,3.25E4,3E0,3.092E3,9.897E3,9.2E1,5E0,1E0,3E0,9E0,8.012E3,3.845E3,1.6E1,6.2E1,2.342E3,1.384E3,5E0,1.09E2,1.623E3,3.51E2,1.547E3,1.6E1,1.11E2,2.3E1,5E0,8.74E2,1E0,6E0,1.09E2,3.1E1,1.698E3,1.64E2,2.94E2,2.7E1,1E0,3.4E1,6E0,3.5E1,6.1E1,2.9E1,4.6E1,5.5E1,8.1E1,5.3E1,1.1E1,2.08E2,3.1239E4,1.261E3,1E0,2E0,3.084E3,8E0,9.866E3,3.1E1,9E0,8.3E1,6.462E3,1.55E3,3.82E3,2.5E1,5.8E1,4E0,1.929E3,4.13E2,1.339E3,4.5E1,4.2E1,6.7E1,1.615E3,8E0,3.47E2,4E0,1.499E3,4.8E1,1.2E1,4E0,6E0,1.7E1,1E0,4E0,8E0,8.66E2,3.2E1,7.7E1,3E0,2.8E1,1.366E3,3.32E2,4.9E1,1.15E2,1.97E2,9.7E1,2E0,2.5E1,3E0,3E0,3.4E1,1E0,9E0,5.2E1,7E0,2.2E1,1.9E1,2.7E1,1.6E1,3.9E1,3.4E1,4.7E1,5E1,3E0],"tree_param":{"num_deleted":"0","num_feature":"92","num_nodes":"165","size_leaf_vector":"1"}},{"base_weights":[-1.3402476E-2,-2.5581066E-2,1.5702684E-1,-3.7838753E-2,9.415998E-3,8.420382E-1,1.3288882E-1,-1.9526934E-2,-4.2093687E-2,2.0441793E-2,-3.719989E-2,2.499999E-2,9.15625E-1,1.18395194E-1,3.4253472E-1,-2.081439E-2,8.1071424E-1,-4.2428248E-2,5.4850735E-2,1.025382E-2,5.45367E-2,4.75E-2,-3.750781E-2,-4.615386E-3,4.75E-2,9.223776E-1,-2.5000006E-3,1.6538674E-1,8.284993E-2,2.0040321E-1,4.4727272E-1,3.9999998E-1,-2.123266E-2,8.769231E-2,-2.5000006E-3,-4.4878654E-2,-3.1442948E-2,4.5277777E-1,-6.8376185E-3,4.53125E-1,9.57313E-3,4.9526904E-2,3.3272725E-1,-4.463969E-2,-2.0750795E-2,9.292253E-1,-2.5000006E-3,3.565625E-1,1.466117E-1,-7.1283216E-3,1.0619374E-1,5.025E-1,1.4095236E-1,6.057471E-1,2.670886E-1,-4.000001E-3,7.6E-2,-4.474661E-3,-3.080078E-2,-4.494138E-2,4.6249998E-1,-3.210281E-2,2.0249999E-1,8.142857E-2,2.0416665E-1,5.285714E-1,-4.0540554E-2,7.55E-1,-4.285715E-3,3.0306865E-2,-5.178935E-3,6.0577646E-2,-1.4491162E-2,8E-1,1.8372092E-1,-3.7878905E-3,-4.585434E-2,-4.13081E-2,1.081793E-2,6.222222E-1,9.4291046E-2,5.3846143E-2,4.5040983E-1,8.724358E-2,2.0034923E-1,-1.2860094E-2,4.583333E-1,3.9170027E-2,1.2983523E-1,8.55E-2,1.3636363E-1,1.0677082E-1,4.5499998E-1,7.754386E-1,2.7419353E-1,9.999999E-2,4.969697E-1,2.1447368E-2,-7.043571E-4,4.583333E-2,-3.1307854E-3,-3.9174045E-3,-4.7632973E-3,6.333333E-2,-2.5000006E-3,-1.960051E-3,-3.8569288E-3,7.9166666E-2,-4.666668E-3,-4.375001E-3,5.6E-2,-3.3333343E-3,7.6E-2,-4.9545467E-3,4.75E-2,-2.5000006E-3,8.444445E-2,2.9244616E-3,7.9166666E-2,-1.6058028E-3,1.3642461E-3,-5.1764824E-4,7.3310486E-3,1.2608695E-2,-2.1976756E-3,-2.5000006E-3,8.708333E-2,3.199999E-3,3.736842E-2,4.583333E-2,-4.918034E-3,-4.7982074E-3,-2.1468939E-3,-4.3005194E-3,3E-2,2.5652174E-2,-5.0420285E-4,7.0625E-2,-2.5000006E-3,4.6249997E-2,6.944433E-4,5.573034E-2,1.5735293E-2,2.0997364E-3,1.5012498E-2,1.1161472E-2,2.6173567E-2,-1.8645845E-3,3.857143E-2,-3.3333343E-3,7.125E-2,-1.3718423E-3,1.0619265E-2,4.9038462E-2,1.2290298E-2,-4.444446E-3,6.333333E-2,1.532257E-3,2.6571428E-2,7.9166666E-2,-4.000001E-3,-3.7500008E-3,8.212963E-2,4.525E-2,-4.5833346E-3,1.2499884E-4,5.8125E-2,-4.166668E-3,5.9464283E-2],"categories":[],"categories_nodes":[],"categories_segments":[],"categories_sizes":[],"default_left":[0,0,0,0,0,0,0,0,0,0,0,0,0,0,0,0,0,0,0,0,0,0,0,0,0,0,0,0,0,0,0,0,0,0,0,0,0,0,0,0,0,0,0,0,0,0,0,0,0,0,0,0,0,0,0,0,0,0,0,0,0,0,0,0,0,0,0,0,0,0,0,0,0,0,0,0,0,0,0,0,0,0,0,0,0,0,0,0,0,0,0,0,0,0,0,0,0,0,0,0,0,0,0,0,0,0,0,0,0,0,0,0,0,0,0,0,0,0,0,0,0,0,0,0,0,0,0,0,0,0,0,0,0,0,0,0,0,0,0,0,0,0,0,0,0,0,0,0,0,0,0,0,0,0,0,0,0,0,0,0,0,0,0,0,0,0,0,0,0],"id":4,"left_children":[1,3,5,7,9,11,13,15,17,19,21,23,25,27,29,31,33,35,37,39,41,-1,43,-1,-1,45,-1,47,49,51,53,55,57,-1,-1,59,61,63,65,67,69,71,73,75,77,79,-1,81,83,85,87,89,91,93,95,-1,-1,97,99,101,103,105,107,-1,109,111,113,115,-1,117,119,121,123,125,127,129,131,133,135,137,-1,139,141,143,145,147,149,151,153,-1,155,157,159,161,163,165,167,-1,-1,-1,-1,-1,-1,-1,-1,-1,-1,-1,-1,-1,-1,-1,-1,-1,-1,-1,-1,-1,-1,-1,-1,-1,-1,-1,-1,-1,-1,-1,-1,-1,-1,-1,-1,-1,-1,-1,-1,-1,-1,-1,-1,-1,-1,-1,-1,-1,-1,-1,-1,-1,-1,-1,-1,-1,-1,-1,-1,-1,-1,-1,-1,-1,-1,-1,-1,-1,-1,-1,-1],"loss_changes":[1.4371985E2,2.7722954E1,7.624586E1,3.728302E0,8.617074E0,9.4164505E0,1.3517372E1,9.664764E0,1.2619247E0,4.7089214E0,5.2361774E-1,4.701923E-1,9.37706E-1,6.959919E0,4.1976967E0,1.5949047E0,7.96566E-1,1.0404129E0,3.292456E0,3.1428833E0,4.3304005E0,0E0,3.822198E-1,0E0,0E0,9.5093536E-1,0E0,6.397751E0,4.997694E0,2.1562E0,4.549713E0,1.456E0,1.443747E0,0E0,0E0,1.0278397E0,1.0966635E0,1.4514983E0,2.1326768E0,2.4279506E0,3.1888037E0,2.1692033E0,3.682486E0,1.113739E-1,6.228071E-1,9.887695E-3,0E0,4.521206E0,5.2082253E0,1.3158431E0,2.9881115E0,2.4646711E0,1.0785561E0,4.6821594E0,2.984734E0,0E0,0E0,1.843E0,1.4360366E0,4.8928452E-1,3.489583E-1,5.686412E-1,2.9729586E0,0E0,1.0831041E0,9.356191E-1,5.388403E-1,7.1877766E-1,0E0,3.481979E0,1.2476152E0,2.1889172E0,4.7841537E-1,7.8145885E-1,1.2273625E0,1.4070107E0,1.12235546E-1,3.494348E-1,1.4782003E0,5.07118E-1,0E0,7.442842E-1,3.734066E0,3.2460594E0,4.649845E0,1.1279331E0,7.7354157E-1,1.7525496E0,3.4289207E0,0E0,1.0165656E0,1.3912982E0,1.6981666E0,2.155735E0,1.7896883E0,2.232875E0,1.7609177E0,0E0,0E0,0E0,0E0,0E0,0E0,0E0,0E0,0E0,0E0,0E0,0E0,0E0,0E0,0E0,0E0,0E0,0E0,0E0,0E0,0E0,0E0,0E0,0E0,0E0,0E0,0E0,0E0,0E0,0E0,0E0,0E0,0E0,0E0,0E0,0E0,0E0,0E0,0E0,0E0,0E0,0E0,0E0,0E0,0E0,0E0,0E0,0E0,0E0,0E0,0E0,0E0,0E0,0E0,0E0,0E0,0E0,0E0,0E0,0E0,0E0,0E0,0E0,0E0,0E0,0E0,0E0,0E0,0E0,0E0,0E0,0E0],"parents":[2147483647,0,0,1,1,2,2,3,3,4,4,5,5,6,6,7,7,8,8,9,9,10,10,11,11,12,12,13,13,14,14,15,15,16,16,17,17,18,18,19,19,20,20,22,22,25,25,27,27,28,28,29,29,30,30,31,31,32,32,35,35,36,36,37,37,38,38,39,39,40,40,41,41,42,42,43,43,44,44,45,45,47,47,48,48,49,49,50,50,51,51,52,52,53,53,54,54,57,57,58,58,59,59,60,60,61,61,62,62,64,64,65,65,66,66,67,67,69,69,70,70,71,71,72,72,73,73,74,74,75,75,76,76,77,77,78,78,79,79,81,81,82,82,83,83,84,84,85,85,86,86,87,87,88,88,90,90,91,91,92,92,93,93,94,94,95,95,96,96],"right_children":[2,4,6,8,10,12,14,16,18,20,22,24,26,28,30,32,34,36,38,40,42,-1,44,-1,-1,46,-1,48,50,52,54,56,58,-1,-1,60,62,64,66,68,70,72,74,76,78,80,-1,82,84,86,88,90,92,94,96,-1,-1,98,100,102,104,106,108,-1,110,112,114,116,-1,118,120,122,124,126,128,130,132,134,136,138,-1,140,142,144,146,148,150,152,154,-1,156,158,160,162,164,166,168,-1,-1,-1,-1,-1,-1,-1,-1,-1,-1,-1,-1,-1,-1,-1,-1,-1,-1,-1,-1,-1,-1,-1,-1,-1,-1,-1,-1,-1,-1,-1,-1,-1,-1,-1,-1,-1,-1,-1,-1,-1,-1,-1,-1,-1,-1,-1,-1,-1,-1,-1,-1,-1,-1,-1,-1,-1,-1,-1,-1,-1,-1,-1,-1,-1,-1,-1,-1,-1,-1,-1,-1],"split_conditions":[7.414E1,3.837E1,9.6767E-2,9.510814E1,1E0,2.65E0,1.3441E2,1.5384E2,4.392913E1,6.003E1,1.225E-1,9.401E1,2.4964E2,3.66E0,1.6517E2,1.81E0,4.389E1,8.3269585E1,3.25E0,4.86E0,4.7390625E1,2.9139328E0,5E0,-5.645615E-1,1.0965966E0,2.4964E2,-2.8533936E-3,3.465E1,3.0987083E1,7.572E1,2.2059E2,5.715E0,7E0,1.3397522E0,-6.1353564E0,6.797667E1,1.22E2,6.1647915E1,1.693E1,2.142E1,9.510814E1,1.363E1,3.476E1,2.472E1,1.0804667E2,2.16E0,-1.3633728E-3,1.1240225E0,7.004E1,3.623E1,8.434E1,1.908E1,1.9495166E2,2.16E2,1.5767E2,-1.7381748E0,1.8218735E0,2E-1,2.532E1,9.731544E1,3.024E1,2.584E1,2.269E1,1.751708E1,3.3606E2,5.803E1,5E0,5.9E-1,-3.6801312E0,1.5384E2,4.9599583E1,2E0,1.498E1,5E0,2.3417E2,3.8E0,6.557E1,3.5923E2,1.0936584E2,2.07E0,1.7822561E0,1.2551E2,3.17E0,4.958E1,8.841E1,3.988E1,1.639E1,3.2599617E1,2.272E1,3.724376E0,6.588234E1,1.29E0,6E-1,1.04475914E2,7.908E1,1.1282964E1,3.6293503E1,6.1971083E0,-3.3748832E-1,2.2096086E0,-2.0357394E0,-2.3504555E0,-2.8952034E0,1.2686112E0,-5.8147135E0,-7.2398317E-1,-2.0700579E0,4.802898E0,-1.1983025E0,-1.9725116E0,1.5481648E1,-6.2983555E-1,2.6231644E0,-1.8070822E0,8.8589174E-1,-3.2019502E-1,1.0776108E1,1.2042103E0,9.700379E-1,-5.459843E-1,2.7987415E-1,-8.982687E-2,1.8364115E0,3.6857243E0,-4.8903012E-1,-4.9386096E0,2.2267632E0,1.8416169E0,7.162964E0,8.609389E0,-2.7609196E0,-1.0813307E0,-1.0156546E0,-1.7396173E0,4.0004845E0,6.055288E0,-3.4993146E-2,2.7963326E0,-8.0642704E-4,4.3251696E0,1.8274063E-2,1.2796073E1,5.086985E0,1.6318502E0,2.175119E0,2.746508E0,5.9845715E0,-4.9586198E-1,1.3348229E0,-5.5471416E0,5.629288E-1,-1.1997552E-1,2.2561853E0,1.3894691E1,2.8026614E0,-2.277439E0,6.7742815E0,2.8266847E0,7.6423845E0,3.1535103E0,-1.0282669E0,-2.008112E0,1.2328462E1,4.6520834E0,-2.833252E-1,2.6708362E-1,3.1535103E0,-1.7913209E-1,1.0092045E1],"split_indices":[0,0,22,12,90,58,18,45,24,0,54,18,44,56,31,44,18,38,27,30,62,0,83,0,0,46,0,80,51,14,79,62,85,0,0,21,8,25,4,20,12,57,46,71,38,54,0,63,71,58,33,67,34,27,18,0,0,6,71,12,0,66,0,0,81,29,8,3,0,45,25,85,4,3,80,58,20,79,38,3,0,27,56,2,0,4,2,35,44,0,22,6,76,38,17,63,37,0,0,0,0,0,0,0,0,0,0,0,0,0,0,0,0,0,0,0,0,0,0,0,0,0,0,0,0,0,0,0,0,0,0,0,0,0,0,0,0,0,0,0,0,0,0,0,0,0,0,0,0,0,0,0,0,0,0,0,0,0,0,0,0,0,0,0,0,0,0,0,0],"split_type":[0,0,0,0,0,0,0,0,0,0,0,0,0,0,0,0,0,0,0,0,0,0,0,0,0,0,0,0,0,0,0,0,0,0,0,0,0,0,0,0,0,0,0,0,0,0,0,0,0,0,0,0,0,0,0,0,0,0,0,0,0,0,0,0,0,0,0,0,0,0,0,0,0,0,0,0,0,0,0,0,0,0,0,0,0,0,0,0,0,0,0,0,0,0,0,0,0,0,0,0,0,0,0,0,0,0,0,0,0,0,0,0,0,0,0,0,0,0,0,0,0,0,0,0,0,0,0,0,0,0,0,0,0,0,0,0,0,0,0,0,0,0,0,0,0,0,0,0,0,0,0,0,0,0,0,0,0,0,0,0,0,0,0,0,0,0,0,0,0],"sum_hessian":[6.924E4,6.4623E4,4.617E3,4.786E4,1.6763E4,1.56E2,4.461E3,9.025E3,3.8835E4,1.3557E4,3.206E3,1.3E1,1.43E2,4.174E3,2.87E2,9.012E3,1.3E1,3.8702E4,1.33E2,1.0439E4,3.118E3,1E0,3.205E3,1.2E1,1E0,1.42E2,1E0,1.796E3,2.378E3,1.23E2,1.64E2,8E0,9.004E3,1.2E1,1E0,3.1641E4,7.061E3,1.7E1,1.16E2,1.5E1,1.0424E4,3.064E3,5.4E1,2.247E3,9.58E2,1.41E2,1E0,1.59E2,1.637E3,4.9E2,1.888E3,1.9E1,1.04E2,8.6E1,7.8E1,4E0,4E0,3.273E3,5.731E3,3.1638E4,3E0,7.042E3,1.9E1,6E0,1.1E1,6E0,1.1E2,9E0,6E0,4.333E3,6.091E3,2.613E3,4.51E2,1.2E1,4.2E1,6.5E1,2.182E3,5.8E2,3.78E2,8E0,1.33E2,3.8E1,1.21E2,7.79E2,8.58E2,4.85E2,5E0,4.93E2,1.395E3,9E0,1E1,9.5E1,9E0,5.6E1,3E1,4.6E1,3.2E1,3.7E1,3.236E3,5E0,5.726E3,1.0072E4,2.1566E4,2E0,1E0,2.402E3,4.64E3,5E0,1.4E1,7E0,4E0,2E0,4E0,1.09E2,1E0,1E0,8E0,4.328E3,5E0,3.86E3,2.231E3,4.24E2,2.189E3,2.2E1,4.29E2,1E0,1.1E1,2.4E1,1.8E1,5E0,6E1,2.006E3,1.76E2,5.78E2,2E0,2.2E1,3.56E2,7E0,1E0,3E0,3.5E1,8.8E1,3.3E1,3.8E2,3.99E2,3.52E2,5.06E2,4.79E2,6E0,2E0,3E0,2.76E2,2.17E2,2.5E1,1.37E3,8E0,2E0,6.1E1,3.4E1,5E0,4E0,3E0,5.3E1,1.9E1,1.1E1,3.9E1,7E0,5E0,2.7E1],"tree_param":{"num_deleted":"0","num_feature":"92","num_nodes":"169","size_leaf_vector":"1"}},{"base_weights":[-1.6785111E-2,-2.8983489E-2,7.512968E-2,-3.8653616E-2,-4.170575E-3,5.3745154E-2,1.453679E-1,-4.1587394E-2,-1.5303011E-2,-1.7854182E-2,1.3382243E-2,2.6204294E-2,7.829066E-2,4.1733333E-1,1.3404958E-1,-4.5051273E-2,-3.5350718E-2,4.285714E-1,-1.72096E-2,-3.2383874E-2,-7.0950347E-3,7.084157E-2,4.432612E-3,3.6136362E-1,2.3657937E-2,6.26686E-2,1.5749998E-1,9.464285E-2,5.96875E-1,1.1648868E-1,2.582589E-1,-4.5130674E-2,6.333333E-2,-3.86957E-2,-2.0147188E-2,5.78125E-1,-4.166668E-3,-3.1502407E-2,4.107131E-3,2.2727272E-1,-3.3075992E-2,9.9626854E-2,-9.745932E-3,6.482035E-2,7.3333335E-1,-1.0744209E-2,3.1910732E-2,-4.5833346E-3,7.7272725E-1,-1.5845971E-2,3.8439706E-2,5.6880377E-2,2.6233765E-1,3.7037036E-1,1.196739E-1,-6.2500113E-3,5.6E-1,2.6842105E-1,7.8499997E-1,7.0775084E-2,1.6098014E-1,2.9183167E-1,-4.78261E-3,-4.5170374E-2,4.75E-2,2.4285713E-1,-3.886504E-2,-2.382295E-2,2.85E-1,-4.000001E-3,7.8749996E-1,1.6785713E-1,-3.2451026E-2,4.583333E-1,2.7109855E-3,-4.375001E-3,7.125E-2,-3.489689E-2,3.6190465E-2,4.53125E-1,5.1260494E-2,-1.0869982E-2,2.32E-1,3.75E-1,5.6499477E-2,-2.5000006E-3,8.3125E-2,7.068272E-2,-1.5899274E-2,8.6634606E-2,1.5986573E-2,-2.5000006E-3,8.55E-2,3.8571426E-1,-1.9402048E-2,3.8095236E-1,3.4988053E-2,3.9716195E-3,7.585327E-2,6.758621E-1,1.2244887E-2,-4.7058836E-3,4.7384614E-1,4.15525E-2,1.8987602E-1,4.75E-2,-4.78261E-3,7.125E-2,-2.5000006E-3,8.666666E-2,7.6E-2,2.1249999E-1,8.4074074E-1,4.333333E-1,5.7818647E-2,1.0393995E-1,2.7135035E-1,9.636363E-2,3.6249998E-1,-2.119254E-3,-4.585335E-3,6.333333E-2,-4.000001E-3,-8.586968E-4,-4.0133335E-3,1.5199999E-2,-2.5599364E-3,7.23077E-2,-4.7222236E-3,-2.5000006E-3,8.6363636E-2,7.125E-2,-4.545456E-3,2.4285713E-2,-3.3103698E-3,-3.3333343E-3,7.125E-2,9.767441E-3,-3.9956332E-4,-3.948061E-3,-6.272739E-4,-9.090921E-4,6.714286E-2,-4.166668E-3,6.818182E-2,-2.6704557E-3,2.6406249E-2,3.1071428E-2,-1.1708696E-3,8.142857E-2,5.2631466E-4,6E-2,-4.500001E-3,4.7201677E-3,3.3870965E-2,2.9099999E-2,1.5249988E-3,-1.7020202E-3,2.1578947E-2,1.6971543E-2,1.1999988E-3,7.034555E-4,1.2056737E-2,-3.7500008E-3,7.125E-2,-2.2908635E-3,2.55E-2,4.5454535E-3,6.818182E-2,3.90625E-2,3.2235568E-3,-6.2591094E-4,3.736842E-2,7.114388E-3,3.578125E-2,8.525E-2,2.55E-2,4.75E-2,-7.2916783E-4,2.4193548E-2,6.657143E-2,5.6E-2,2.9302314E-3,5.964286E-2,1.6419213E-2,6.333333E-2,-4.615386E-3,4.75E-2,-3.3333343E-3,8.75E-2,-2.5000006E-3,-4.500001E-3,6.75E-2,1.7499998E-2,4.0436736E-3,5.0881603E-3,2.569343E-2,4.8227847E-2,1.8494897E-2,-2.7173925E-3,6.55E-2,1.27941165E-2,4.2869564E-2],"categories":[],"categories_nodes":[],"categories_segments":[],"categories_sizes":[],"default_left":[0,0,0,0,0,0,0,0,0,0,0,0,0,0,0,0,0,0,0,0,0,0,0,0,0,0,0,0,0,0,0,0,0,0,0,0,0,0,0,0,0,0,0,0,0,0,0,0,0,0,0,0,0,0,0,0,0,0,0,0,0,0,0,0,0,0,0,0,0,0,0,0,0,0,0,0,0,0,0,0,0,0,0,0,0,0,0,0,0,0,0,0,0,0,0,0,0,0,0,0,0,0,0,0,0,0,0,0,0,0,0,0,0,0,0,0,0,0,0,0,0,0,0,0,0,0,0,0,0,0,0,0,0,0,0,0,0,0,0,0,0,0,0,0,0,0,0,0,0,0,0,0,0,0,0,0,0,0,0,0,0,0,0,0,0,0,0,0,0,0,0,0,0,0,0,0,0,0,0,0,0,0,0,0,0,0,0,0,0,0,0,0,0,0,0,0,0,0,0,0,0,0,0],"id":5,"left_children":[1,3,5,7,9,11,13,15,17,19,21,23,25,27,29,31,33,35,37,39,41,43,45,47,49,51,53,55,57,59,61,63,-1,65,67,69,-1,71,73,75,77,79,81,83,85,87,89,-1,91,93,95,97,99,101,103,105,107,109,111,113,115,117,-1,119,-1,121,123,125,127,-1,129,131,133,135,137,-1,-1,139,141,143,145,147,149,151,153,-1,-1,155,157,159,161,-1,-1,163,165,167,169,171,173,175,177,-1,179,181,183,-1,-1,-1,-1,185,-1,187,189,191,193,195,197,199,201,-1,-1,-1,-1,-1,-1,-1,-1,-1,-1,-1,-1,-1,-1,-1,-1,-1,-1,-1,-1,-1,-1,-1,-1,-1,-1,-1,-1,-1,-1,-1,-1,-1,-1,-1,-1,-1,-1,-1,-1,-1,-1,-1,-1,-1,-1,-1,-1,-1,-1,-1,-1,-1,-1,-1,-1,-1,-1,-1,-1,-1,-1,-1,-1,-1,-1,-1,-1,-1,-1,-1,-1,-1,-1,-1,-1,-1,-1,-1,-1,-1,-1,-1,-1],"loss_changes":[7.747451E1,1.4636906E1,1.2152473E1,3.0064163E0,4.109339E0,4.194584E0,5.7587624E0,8.408127E-1,4.1550226E0,1.5026994E0,3.8539128E0,2.4894545E0,4.051321E0,4.2887383E0,3.9288445E0,1.3787498E0,7.075882E-1,1.5009303E0,1.4872525E0,7.4254274E-1,1.5640419E0,3.9813666E0,2.7052026E0,3.7205498E0,1.6975318E0,3.155242E0,4.3037844E0,1.318134E0,2.75523E0,3.2265205E0,2.3158064E0,5.390701E-1,0E0,5.537319E-1,2.8266134E0,2.1022186E0,0E0,5.5804443E-1,1.2417225E0,1.4777555E0,5.1586246E-1,2.2678266E0,1.4677145E0,2.56494E0,6.890626E-1,1.7553054E0,2.0098796E0,0E0,7.433181E-1,1.1384428E0,2.4870956E0,2.67692E0,7.9550223E0,3.520997E0,2.5148835E0,5.0292116E-1,4.6387494E-1,1.6317194E0,7.7869034E-1,3.6718488E0,5.0459976E0,2.755375E0,0E0,4.0948486E-1,0E0,7.9847616E-1,4.3781662E-1,7.800412E-1,4.4003124E0,0E0,7.639203E-1,1.6588879E0,5.3074574E-1,7.7354157E-1,1.2454975E0,0E0,0E0,5.2142286E-1,3.0263724E0,1.838897E0,1.9813949E0,1.4514787E0,3.2963552E0,2.4839995E0,2.547595E0,0E0,0E0,3.0365467E0,1.0245775E0,3.2223306E0,1.67403E0,0E0,0E0,9.948214E-1,7.6214254E-1,2.088745E0,2.0381763E0,2.6689513E0,2.5811262E0,1.9384775E0,4.4645515E-1,0E0,2.7311964E0,1.3744769E0,2.428999E0,0E0,0E0,0E0,0E0,1.118359E0,0E0,2.7395833E-1,8.2268524E-1,3.1515002E0,1.5429556E0,4.3136234E0,4.90431E0,3.8134902E0,2.2431126E0,0E0,0E0,0E0,0E0,0E0,0E0,0E0,0E0,0E0,0E0,0E0,0E0,0E0,0E0,0E0,0E0,0E0,0E0,0E0,0E0,0E0,0E0,0E0,0E0,0E0,0E0,0E0,0E0,0E0,0E0,0E0,0E0,0E0,0E0,0E0,0E0,0E0,0E0,0E0,0E0,0E0,0E0,0E0,0E0,0E0,0E0,0E0,0E0,0E0,0E0,0E0,0E0,0E0,0E0,0E0,0E0,0E0,0E0,0E0,0E0,0E0,0E0,0E0,0E0,0E0,0E0,0E0,0E0,0E0,0E0,0E0,0E0,0E0,0E0,0E0,0E0,0E0,0E0,0E0,0E0,0E0,0E0,0E0,0E0],"parents":[2147483647,0,0,1,1,2,2,3,3,4,4,5,5,6,6,7,7,8,8,9,9,10,10,11,11,12,12,13,13,14,14,15,15,16,16,17,17,18,18,19,19,20,20,21,21,22,22,23,23,24,24,25,25,26,26,27,27,28,28,29,29,30,30,31,31,33,33,34,34,35,35,37,37,38,38,39,39,40,40,41,41,42,42,43,43,44,44,45,45,46,46,48,48,49,49,50,50,51,51,52,52,53,53,54,54,55,55,56,56,57,57,58,58,59,59,60,60,61,61,63,63,65,65,66,66,67,67,68,68,70,70,71,71,72,72,73,73,74,74,77,77,78,78,79,79,80,80,81,81,82,82,83,83,84,84,87,87,88,88,89,89,90,90,93,93,94,94,95,95,96,96,97,97,98,98,99,99,100,100,102,102,103,103,104,104,109,109,111,111,112,112,113,113,114,114,115,115,116,116,117,117,118,118],"right_children":[2,4,6,8,10,12,14,16,18,20,22,24,26,28,30,32,34,36,38,40,42,44,46,48,50,52,54,56,58,60,62,64,-1,66,68,70,-1,72,74,76,78,80,82,84,86,88,90,-1,92,94,96,98,100,102,104,106,108,110,112,114,116,118,-1,120,-1,122,124,126,128,-1,130,132,134,136,138,-1,-1,140,142,144,146,148,150,152,154,-1,-1,156,158,160,162,-1,-1,164,166,168,170,172,174,176,178,-1,180,182,184,-1,-1,-1,-1,186,-1,188,190,192,194,196,198,200,202,-1,-1,-1,-1,-1,-1,-1,-1,-1,-1,-1,-1,-1,-1,-1,-1,-1,-1,-1,-1,-1,-1,-1,-1,-1,-1,-1,-1,-1,-1,-1,-1,-1,-1,-1,-1,-1,-1,-1,-1,-1,-1,-1,-1,-1,-1,-1,-1,-1,-1,-1,-1,-1,-1,-1,-1,-1,-1,-1,-1,-1,-1,-1,-1,-1,-1,-1,-1,-1,-1,-1,-1,-1,-1,-1,-1,-1,-1,-1,-1,-1,-1,-1,-1],"split_conditions":[6.003E1,9.418667E1,9.641E1,1.3604998E1,1E0,1.3211E2,2.006E1,2.2950417E1,3.97E0,8.84889E0,3.383E1,8.6288196E-1,1.42E0,1.3492E2,1.2096E2,2.8349209E1,1E0,3.220646E0,8.302E1,3.25E0,1.0522916E0,1.2123709E2,4.211E1,1.05328125E2,1.0853384E1,1.0946884E2,2.2800652E1,8.497669E0,3.14525E1,4.445E1,2.06E0,3.3641666E1,1.3025952E1,4.18125E-1,2.684827E1,5.025E-1,-1.7752606E0,4.86E0,1.7224646E-1,1.3637705E0,3.61E0,2.308E1,4.8251667E1,2.682E1,3.667E1,3.203E1,2.135E1,-6.651222E-1,6.365E1,3.025E-1,9.0958805E0,1.1649944E1,2.31E1,9.353354E0,4.550854E1,1.633E1,7E0,4.5866497E1,3.1451483E1,5.693333E0,6.3E-1,4.534E1,-3.65899E-1,5.9E-1,1.3466233E0,1.779E1,1.4E-1,1.113E1,2.451E1,-3.701852E0,2.5265156E1,1.15675E1,1.81E0,2.915E1,4.715E1,-1.6818161E-1,7.3928374E-1,6E0,5.509E1,1.653E1,3E0,1.502E1,2.894E1,1.6243334E1,3.5311115E1,-7.300621E-1,2.9639976E0,4.837273E0,2.4307156E2,4.901E1,9.59E1,-7.483551E-1,3.3163736E0,6.464E1,3.2030014E1,1.186E2,1.193E1,1.61E2,4.7390625E1,4.9725E0,8.065E1,-1.0052643E-1,1.4347E2,2.469989E1,2.1633334E0,4.877548E0,-3.2350144E-1,4.039911E0,-4.2768874E0,2.753E1,3.7605798E0,1.4783E2,2.664E1,7.307462E-1,1.822E1,1.8902881E2,1.1723E2,4.7992695E1,2.9439752E0,-3.0556977E0,-2.977394E0,1.891861E-2,-2.0186226E0,-2.9061738E-1,-1.7305787E0,1.7191372E1,-1.4099902E0,3.7092018E0,-1.9843304E0,-4.2871475E-1,1.3933484E1,7.8575554E0,-2.9630241E0,3.0629182E0,-1.7119156E0,-2.3153713E0,6.1700373E0,1.75534E0,-1.4719291E-1,-1.16077E0,-3.6711094E-1,-2.9307285E-1,1.5127556E0,-1.2165146E-1,2.326348E0,-7.9975384E-1,2.3298872E0,2.005224E0,-3.5735056E-1,1.2009827E0,7.022179E-1,4.6506615E0,-2.223887E0,1.1545385E0,5.8905234E0,1.3321652E1,3.9267826E-1,-9.3541425E-1,5.5498514E0,5.1729646E0,6.4637554E-1,2.500453E-1,2.5048065E0,-2.3538425E0,4.6490273E0,-1.4326073E-1,1.1163841E0,5.840629E0,3.6939874E0,1.9356667E0,1.0129925E0,-5.8342118E-2,2.5166993E0,1.8928015E0,1.8511349E0,1.0085944E1,1.020359E0,1.5563339E0,3.0156472E-1,1.8812388E0,1.3825632E1,1.0290076E1,8.059201E-1,2.109169E0,2.6596022E0,2.6785905E0,-1.6121903E-1,3.6286852E-1,-3.110441E0,1.2296103E1,-2.5158653E0,-2.2048225E0,1.2893218E1,7.177523E0,1.9762595E0,1.4302429E0,4.56286E0,6.333355E0,4.809853E0,-2.3657587E-1,4.694818E0,5.171087E0,1.1341847E1],"split_indices":[0,34,0,26,91,32,81,25,34,26,72,64,76,31,19,52,91,50,32,33,62,39,0,36,24,39,37,65,49,41,75,23,0,64,65,3,0,33,65,48,75,19,64,21,0,71,68,0,14,58,26,26,67,26,49,15,3,35,39,34,74,70,0,56,0,17,77,15,4,0,24,23,46,0,81,0,0,83,19,19,87,81,20,64,65,0,0,65,38,15,71,0,0,0,63,30,66,8,62,62,31,0,33,37,64,0,0,0,0,19,0,1,4,48,68,38,80,26,50,0,0,0,0,0,0,0,0,0,0,0,0,0,0,0,0,0,0,0,0,0,0,0,0,0,0,0,0,0,0,0,0,0,0,0,0,0,0,0,0,0,0,0,0,0,0,0,0,0,0,0,0,0,0,0,0,0,0,0,0,0,0,0,0,0,0,0,0,0,0,0,0,0,0,0,0,0,0,0,0,0,0,0,0],"split_type":[0,0,0,0,0,0,0,0,0,0,0,0,0,0,0,0,0,0,0,0,0,0,0,0,0,0,0,0,0,0,0,0,0,0,0,0,0,0,0,0,0,0,0,0,0,0,0,0,0,0,0,0,0,0,0,0,0,0,0,0,0,0,0,0,0,0,0,0,0,0,0,0,0,0,0,0,0,0,0,0,0,0,0,0,0,0,0,0,0,0,0,0,0,0,0,0,0,0,0,0,0,0,0,0,0,0,0,0,0,0,0,0,0,0,0,0,0,0,0,0,0,0,0,0,0,0,0,0,0,0,0,0,0,0,0,0,0,0,0,0,0,0,0,0,0,0,0,0,0,0,0,0,0,0,0,0,0,0,0,0,0,0,0,0,0,0,0,0,0,0,0,0,0,0,0,0,0,0,0,0,0,0,0,0,0,0,0,0,0,0,0,0,0,0,0,0,0,0,0,0,0,0,0],"sum_hessian":[6.9096E4,6.1001E4,8.095E3,4.3894E4,1.7107E4,6.207E3,1.888E3,3.8994E4,4.9E3,9.613E3,7.494E3,2.926E3,3.281E3,7.4E1,1.814E3,2.5066E4,1.3928E4,2E1,4.88E3,4.089E3,5.524E3,1.009E3,6.485E3,2.1E1,2.905E3,2.742E3,5.39E2,2.7E1,4.7E1,1.591E3,2.23E2,2.5064E4,2E0,1.1415E4,2.513E3,1.5E1,5E0,2.921E3,1.959E3,1E1,4.079E3,1.33E2,5.391E3,1.001E3,8E0,4.178E3,2.307E3,1.1E1,1E1,7.91E2,2.114E3,2.666E3,7.6E1,8E1,4.59E2,2.3E1,4E0,1.8E1,2.9E1,7.86E2,8.05E2,2.01E2,2.2E1,2.5063E4,1E0,6E0,1.1409E4,2.484E3,2.9E1,4E0,1.1E1,1.3E1,2.908E3,5E0,1.954E3,7E0,3E0,3.975E3,1.04E2,1.5E1,1.18E2,5.367E3,2.4E1,2.5E1,9.76E2,1E0,7E0,2.48E2,3.93E3,5.19E2,1.788E3,1E0,9E0,6E0,7.85E2,2E1,2.094E3,7.04E2,1.962E3,2.8E1,4.8E1,1.6E1,6.4E1,2.18E2,2.41E2,1E0,2.2E1,3E0,1E0,1.4E1,4E0,3E0,2.6E1,2.6E1,7.6E2,5.32E2,2.73E2,5.4E1,1.47E2,6.95E2,2.4368E4,2E0,4E0,4.59E2,1.095E4,2.4E1,2.46E3,1.2E1,1.7E1,1E0,1E1,3E0,1E1,6E0,2.902E3,2E0,3E0,1.28E2,1.826E3,3.426E3,5.49E2,9.8E1,6E0,5E0,1E1,8.7E1,3.1E1,1.3E1,5.354E3,6E0,1.8E1,1.6E1,9E0,9.46E2,3E1,4.9E1,1.99E2,3.912E3,1.8E1,2.45E2,2.74E2,1.648E3,1.4E2,3E0,3E0,7.76E2,9E0,1E1,1E1,1.5E1,2.079E3,6.86E2,1.8E1,1.931E3,3.1E1,1.9E1,9E0,1E0,4.7E1,3E1,3.4E1,4E0,2.14E2,1.3E1,2.28E2,2E0,1.2E1,1E0,2E0,2.5E1,1E0,9E0,1.7E1,9.7E1,6.63E2,3.96E2,1.36E2,7.8E1,1.95E2,4.5E1,9E0,3.3E1,1.14E2],"tree_param":{"num_deleted":"0","num_feature":"92","num_nodes":"203","size_leaf_vector":"1"}},{"base_weights":[-1.868819E-2,-2.9799338E-2,5.8359176E-2,-3.8709987E-2,-7.134062E-3,4.5375824E-2,1.4986123E-1,-3.0314185E-2,-4.4962753E-2,1.3862942E-2,-1.854723E-2,4.1574907E-2,2.0596589E-1,1.3338234E-1,4.1854838E-1,-3.1287406E-2,1.3564813E-1,-4.6290737E-2,-2.888773E-2,1.216373E-2,7.392857E-1,4.285714E-1,-1.939805E-2,1.2774529E-2,5.3880785E-2,1.2814814E-1,4.5119047E-1,1.2343749E-1,4.689655E-1,1.3333333E-1,7.183333E-1,-3.7336037E-2,-2.2475298E-2,4.945054E-2,5.638889E-1,7.272726E-2,-4.646025E-2,1.5949355E-2,-4.065204E-2,2.529262E-2,-2.2958882E-2,8.708333E-2,-3.3333343E-3,-4.166668E-3,5.78125E-1,-2.6257545E-2,-5.2023013E-5,-2.3965362E-2,4.4761095E-2,5.3157896E-1,5.212499E-2,7.6470576E-2,4.8235294E-1,2.25E-1,6.666666E-1,2.4656084E-1,9.434079E-2,-4.375001E-3,6.340909E-1,-1.1111123E-2,6.7142856E-1,8.72E-1,-4.166668E-3,8.416665E-2,-3.8004994E-2,2.32E-1,-2.3324858E-2,1.8749988E-2,7.125E-2,8E-1,-4.166668E-3,4.583333E-1,-1.2500011E-2,-4.94194E-2,-4.3985426E-2,6.9767325E-3,3.9999998E-1,2.9166666E-1,-4.195595E-2,2.3019334E-2,6.40625E-1,-2.475401E-2,7.125E-2,7.2307694E-1,-3.7500008E-3,3.7083334E-1,-2.6841145E-2,-1.0731819E-2,5.945329E-2,-3.5997868E-2,8.009258E-2,3.144006E-2,2.4013157E-1,8E-1,-4.285715E-3,1.8048914E-2,6.831204E-2,4.8912927E-3,3.0892855E-1,-4.285715E-3,7.7272725E-1,2.499999E-2,5.111111E-1,7.4210525E-1,-3.3333343E-3,1.2445651E-1,3.5867345E-1,3.9331198E-2,1.293279E-1,7.4210525E-1,-3.7500008E-3,-4.800001E-3,2.9999998E-1,-2.5000006E-3,7.9166666E-2,9.104167E-2,-2.5000006E-3,7.5500004E-2,-4.901962E-3,-3.950707E-3,6.4788613E-4,5.2631466E-4,8.142857E-2,-2.380474E-3,1.8823529E-2,4.5624997E-2,-2.469137E-3,8.708333E-2,-2.5000006E-3,-3.3333343E-3,7.125E-2,-4.814816E-3,4.75E-2,-4.9514202E-3,-9.615396E-4,3.5416656E-3,-4.4134897E-3,9.882811E-3,-3.8269244E-3,-4.000001E-3,7.6E-2,6.333333E-2,-3.7500008E-3,2.9166667E-2,-4.32686E-3,1.3692945E-2,1.6321294E-3,8.708333E-2,-4.000001E-3,3.3653833E-3,-3.0931353E-3,2.125E-2,8.55E-2,6.714286E-2,-4.166668E-3,-3.3894242E-3,-1.6721617E-3,5.6E-2,-1.1895999E-3,1.5702479E-2,2.2257043E-3,3E-2,-3.7043025E-3,7.125E-2,5.5238083E-3,6.908809E-3,-2.0233064E-3,1.6811593E-2,8.3125E-2,-2.5000006E-3,8.708333E-2,6.511616E-4,1.1889534E-2,2.7590362E-2,6.3287816E-3,4.6249997E-2,-1.5730349E-3,8.142857E-2,1.340909E-2,-2.5000006E-3,8.55E-2,-4.615386E-3,4.75E-2,6.714286E-2,-3.3333343E-3,8.352941E-2,-3.3333343E-3,1.9827576E-3,2.9428571E-2,2.1640625E-2,6.0857143E-2,2.6072597E-3,3.7083335E-2,2.5132744E-2,9.261212E-3,-3.3333343E-3,8.352941E-2,-2.5000006E-3,4.75E-2],"categories":[],"categories_nodes":[],"categories_segments":[],"categories_sizes":[],"default_left":[0,0,0,0,0,0,0,0,0,0,0,0,0,0,0,0,0,0,0,0,0,0,0,0,0,0,0,0,0,0,0,0,0,0,0,0,0,0,0,0,0,0,0,0,0,0,0,0,0,0,0,0,0,0,0,0,0,0,0,0,0,0,0,0,0,0,0,0,0,0,0,0,0,0,0,0,0,0,0,0,0,0,0,0,0,0,0,0,0,0,0,0,0,0,0,0,0,0,0,0,0,0,0,0,0,0,0,0,0,0,0,0,0,0,0,0,0,0,0,0,0,0,0,0,0,0,0,0,0,0,0,0,0,0,0,0,0,0,0,0,0,0,0,0,0,0,0,0,0,0,0,0,0,0,0,0,0,0,0,0,0,0,0,0,0,0,0,0,0,0,0,0,0,0,0,0,0,0,0,0,0,0,0,0,0,0,0,0,0,0,0,0,0,0,0,0,0,0,0],"id":6,"left_children":[1,3,5,7,9,11,13,15,17,19,21,23,25,27,29,31,33,35,37,39,41,43,45,47,49,51,53,55,57,59,61,63,65,67,69,71,73,75,77,79,81,-1,-1,-1,83,85,87,89,91,93,95,97,99,101,103,105,107,-1,109,111,113,115,-1,117,119,121,123,125,-1,127,-1,129,131,133,135,137,139,141,143,145,147,149,-1,151,-1,153,155,157,159,161,163,165,167,169,-1,171,173,175,177,-1,179,181,183,185,-1,187,189,191,193,195,-1,-1,197,-1,-1,-1,-1,-1,-1,-1,-1,-1,-1,-1,-1,-1,-1,-1,-1,-1,-1,-1,-1,-1,-1,-1,-1,-1,-1,-1,-1,-1,-1,-1,-1,-1,-1,-1,-1,-1,-1,-1,-1,-1,-1,-1,-1,-1,-1,-1,-1,-1,-1,-1,-1,-1,-1,-1,-1,-1,-1,-1,-1,-1,-1,-1,-1,-1,-1,-1,-1,-1,-1,-1,-1,-1,-1,-1,-1,-1,-1,-1,-1,-1,-1,-1,-1,-1,-1],"loss_changes":[5.9113533E1,1.2187546E1,1.0332394E1,2.2726517E0,4.081606E0,4.644436E0,4.7304783E0,2.9911938E0,5.286102E-1,7.384423E0,4.2058463E0,2.6389866E0,3.3007588E0,3.3461857E0,5.2054195E0,9.791565E-1,3.9587545E0,4.659691E-1,1.001273E0,2.7603893E0,1.4519343E0,1.5009303E0,1.4615998E0,2.622906E0,4.3488417E0,2.4342134E0,1.8970232E0,3.5305634E0,2.4829493E0,2.572381E0,3.5399323E0,8.8923264E-1,1.6238225E0,1.8390349E0,2.6069446E0,1.0902462E0,1.6551208E-1,1.3583561E0,6.635084E-1,6.0799417E0,2.1683116E0,0E0,0E0,0E0,1.4548917E0,1.8942504E0,1.8334333E0,1.3037918E0,3.097277E0,2.96391E0,2.8670406E0,1.9785509E0,2.625745E0,1.2461113E0,1.1336842E0,2.5426645E0,1.5423131E0,0E0,1.6237411E0,3.2426667E-1,6.059525E-1,8.8425255E-1,0E0,5.397757E0,7.2469807E-1,3.2963552E0,7.620511E-1,1.6837578E0,0E0,7.8145885E-1,0E0,7.7354157E-1,5.094676E-1,3.8845062E-2,1.4965439E-1,1.6121174E0,1.456E0,6.9854164E-1,6.686363E-1,3.3105998E0,2.5418024E0,5.877103E-1,0E0,6.939521E-1,0E0,1.5159227E0,5.789895E-1,1.6318686E0,1.5897652E0,3.3840358E-1,1.6582048E0,2.1763453E0,3.0955563E0,7.8145885E-1,0E0,1.9492438E0,3.6590672E0,8.754464E-1,2.3647645E0,0E0,7.433181E-1,4.701923E-1,8.0793643E-1,1.4008255E0,0E0,1.6289172E0,3.3524246E0,1.3704416E0,2.1760635E0,1.4008255E0,0E0,0E0,1.825E-1,0E0,0E0,0E0,0E0,0E0,0E0,0E0,0E0,0E0,0E0,0E0,0E0,0E0,0E0,0E0,0E0,0E0,0E0,0E0,0E0,0E0,0E0,0E0,0E0,0E0,0E0,0E0,0E0,0E0,0E0,0E0,0E0,0E0,0E0,0E0,0E0,0E0,0E0,0E0,0E0,0E0,0E0,0E0,0E0,0E0,0E0,0E0,0E0,0E0,0E0,0E0,0E0,0E0,0E0,0E0,0E0,0E0,0E0,0E0,0E0,0E0,0E0,0E0,0E0,0E0,0E0,0E0,0E0,0E0,0E0,0E0,0E0,0E0,0E0,0E0,0E0,0E0,0E0,0E0,0E0,0E0,0E0,0E0,0E0,0E0,0E0],"parents":[2147483647,0,0,1,1,2,2,3,3,4,4,5,5,6,6,7,7,8,8,9,9,10,10,11,11,12,12,13,13,14,14,15,15,16,16,17,17,18,18,19,19,20,20,21,21,22,22,23,23,24,24,25,25,26,26,27,27,28,28,29,29,30,30,31,31,32,32,33,33,34,34,35,35,36,36,37,37,38,38,39,39,40,40,44,44,45,45,46,46,47,47,48,48,49,49,50,50,51,51,52,52,53,53,54,54,55,55,56,56,58,58,59,59,60,60,61,61,63,63,64,64,65,65,66,66,67,67,69,69,71,71,72,72,73,73,74,74,75,75,76,76,77,77,78,78,79,79,80,80,81,81,83,83,85,85,86,86,87,87,88,88,89,89,90,90,91,91,92,92,93,93,95,95,96,96,97,97,98,98,100,100,101,101,102,102,103,103,105,105,106,106,107,107,108,108,109,109,112,112],"right_children":[2,4,6,8,10,12,14,16,18,20,22,24,26,28,30,32,34,36,38,40,42,44,46,48,50,52,54,56,58,60,62,64,66,68,70,72,74,76,78,80,82,-1,-1,-1,84,86,88,90,92,94,96,98,100,102,104,106,108,-1,110,112,114,116,-1,118,120,122,124,126,-1,128,-1,130,132,134,136,138,140,142,144,146,148,150,-1,152,-1,154,156,158,160,162,164,166,168,170,-1,172,174,176,178,-1,180,182,184,186,-1,188,190,192,194,196,-1,-1,198,-1,-1,-1,-1,-1,-1,-1,-1,-1,-1,-1,-1,-1,-1,-1,-1,-1,-1,-1,-1,-1,-1,-1,-1,-1,-1,-1,-1,-1,-1,-1,-1,-1,-1,-1,-1,-1,-1,-1,-1,-1,-1,-1,-1,-1,-1,-1,-1,-1,-1,-1,-1,-1,-1,-1,-1,-1,-1,-1,-1,-1,-1,-1,-1,-1,-1,-1,-1,-1,-1,-1,-1,-1,-1,-1,-1,-1,-1,-1,-1,-1,-1,-1,-1,-1,-1],"split_conditions":[5.847E1,3.5724583E1,1.1278E2,9.731544E1,9.510814E1,1.3441E2,7E0,2.5237469E1,5.842E1,1.5384E2,3.97E0,3.2035416E1,1.2E1,4.0756E1,2.502E1,2.365E1,5.435E1,1.225E-1,3E0,3.294E1,4.607E1,1.9585887E0,5.135E1,1.6049408E1,8.6288196E-1,2.192E0,3.06E0,1.857E1,6.674447E-1,2.1607E2,6.253E1,2.9207292E0,1.0155833E1,1.0732589E1,2.713E1,1.6245029E0,1.464E1,7.222787E1,2.207E1,3.5311115E1,3.5E1,1.066449E0,-3.012003E0,-3.8584366E-1,3.1280823E0,1.215E0,1.5383002E1,7.912E1,2.9E1,8.9916664E-1,1.1188E2,2.9257E2,4.84E0,1.5232E2,2.739E1,4.08749E0,6.077E1,-5.225838E-1,6.735E1,5.757E1,6.326E1,3.2E1,-5.809215E0,1.545E0,1.1344E2,2.922E1,4.392913E1,1.806E1,3.3382814E0,3.359E1,-1.3940998E0,1.653E1,7.958E1,3.5801E2,3.25E0,6.4E1,5.5E-1,1.941E1,1.12E0,2.581E1,8.61E0,7.8477764E0,3.6339614E0,3.078E1,-1.5977345E0,3.53E0,2E0,3.02E0,1.3524E2,9.7E-1,5.194E1,6.042917E0,3.7019E1,3.566E1,-5.986099E-1,1.8479E2,2.837E1,3.517E1,1.7685E2,-2.7404816E0,7.176E1,6.59E1,1.18E0,3.4254158E1,-3.3701456E0,4.2901127E1,5E0,3.5754E2,1.0159E2,3.797985E1,-4.817825E0,-2.0276001E-1,1.20895E2,-2.4094071E0,5.0105867E0,1.1055488E1,-8.153435E-1,2.228482E0,-3.1537113E0,-2.3849027E0,3.4612742E-1,7.650347E0,5.4118066E0,-1.2608154E0,2.5320396E0,2.3538094E0,-5.134083E-1,1.1723357E1,-1.4425892E0,-2.0592194E0,3.979887E0,-8.44851E-1,1.2304947E1,-3.4889436E0,-3.6414415E-1,8.199996E0,-1.8943987E0,1.4451782E1,-6.2068266E-1,-1.3137436E-1,5.202569E0,1.0188607E1,-3.80885E0,2.1646856E1,-2.225558E0,4.8729653E0,7.174599E-1,5.388386E0,-3.6088564E-2,3.616968E0,-1.592811E0,8.30025E0,1.613556E1,1.2360604E0,-2.6224656E0,-1.1243106E0,-5.1326966E-1,1.6468788E0,-3.5881048E-1,1.3772854E0,9.33943E-1,2.4600983E0,-4.9245244E-1,2.9439874E0,7.027258E-1,3.1004438E0,-4.4132614E-1,5.3490376E0,6.1405663E0,-4.5792618E-1,2.984736E0,1.8635403E-1,2.5436602E0,5.794041E0,1.6687039E0,2.5240982E0,-1.7643666E-1,7.3343353E0,9.88649E0,-5.3254538E0,1.17249775E1,-8.733826E-2,7.994995E-1,2.1043205E0,-5.8137363E-1,6.345582E0,-5.4560167E-1,1.7356669E0,4.168181E0,9.9944105E0,1.0374057E1,1.0405889E0,7.7515407E0,7.915464E0,3.2906582E0,-8.2930297E-1,1.4786491E1,-4.8098903E0,4.5637803E0],"split_indices":[0,25,0,12,12,18,9,65,43,45,34,51,85,66,4,0,40,56,85,4,18,50,15,26,64,6,3,68,65,1,20,25,25,26,18,35,0,35,7,65,8,0,0,0,50,20,50,20,84,62,32,31,56,7,3,48,18,0,31,20,2,8,0,18,34,2,24,69,0,4,0,0,71,80,32,45,74,0,56,71,59,26,0,4,0,3,87,2,81,40,32,64,26,41,0,31,41,14,27,0,1,41,3,24,0,22,83,78,7,22,0,0,0,0,0,0,0,0,0,0,0,0,0,0,0,0,0,0,0,0,0,0,0,0,0,0,0,0,0,0,0,0,0,0,0,0,0,0,0,0,0,0,0,0,0,0,0,0,0,0,0,0,0,0,0,0,0,0,0,0,0,0,0,0,0,0,0,0,0,0,0,0,0,0,0,0,0,0,0,0,0,0,0,0,0,0,0,0,0],"split_type":[0,0,0,0,0,0,0,0,0,0,0,0,0,0,0,0,0,0,0,0,0,0,0,0,0,0,0,0,0,0,0,0,0,0,0,0,0,0,0,0,0,0,0,0,0,0,0,0,0,0,0,0,0,0,0,0,0,0,0,0,0,0,0,0,0,0,0,0,0,0,0,0,0,0,0,0,0,0,0,0,0,0,0,0,0,0,0,0,0,0,0,0,0,0,0,0,0,0,0,0,0,0,0,0,0,0,0,0,0,0,0,0,0,0,0,0,0,0,0,0,0,0,0,0,0,0,0,0,0,0,0,0,0,0,0,0,0,0,0,0,0,0,0,0,0,0,0,0,0,0,0,0,0,0,0,0,0,0,0,0,0,0,0,0,0,0,0,0,0,0,0,0,0,0,0,0,0,0,0,0,0,0,0,0,0,0,0,0,0,0,0,0,0,0,0,0,0,0,0],"sum_hessian":[6.9048E4,6.0346E4,8.702E3,4.3316E4,1.703E4,7.622E3,1.08E3,1.8492E4,2.4824E4,5.997E3,1.1033E4,7.447E3,1.75E2,1.019E3,6.1E1,1.8385E4,1.07E2,2.2928E4,1.896E3,5.984E3,1.3E1,2E1,1.1013E4,2.23E3,5.217E3,1.34E2,4.1E1,9.91E2,2.8E1,3.2E1,2.9E1,1.09E4,7.485E3,9E1,1.7E1,3.2E1,2.2896E4,3.94E2,1.502E3,4.356E3,1.628E3,1.1E1,2E0,5E0,1.5E1,8.13E3,2.883E3,1.038E3,1.192E3,1.8E1,5.199E3,1.18E2,1.6E1,2.1E1,2E1,1.88E2,8.03E2,7E0,2.1E1,2.6E1,6E0,2.4E1,5E0,5.9E1,1.0841E4,2.4E1,7.461E3,8.7E1,3E0,1.2E1,5E0,5E0,2.7E1,1.0419E4,1.2477E4,3.86E2,8E0,5E0,1.497E3,4.341E3,1.5E1,1.625E3,3E0,1.2E1,3E0,1.1E1,8.119E3,2.445E3,4.38E2,9.31E2,1.07E2,1.117E3,7.5E1,1.2E1,6E0,1.675E3,3.524E3,9.1E1,2.7E1,6E0,1E1,1.3E1,8E0,1.8E1,2E0,9.1E1,9.7E1,3.13E2,4.9E2,1.8E1,3E0,2.4E1,2E0,1E0,5E0,2.3E1,1E0,9E0,5E1,1.0487E4,3.54E2,1.8E1,6E0,7.445E3,1.6E1,7E0,8E1,1.1E1,1E0,2E0,3E0,2.6E1,1E0,1.0394E4,2.5E1,2.3E1,1.2454E4,1.27E2,2.59E2,4E0,4E0,2E0,3E0,5E0,1.492E3,2.4E2,4.101E3,1.1E1,4E0,1.55E2,1.47E3,3E0,9E0,6E0,5E0,4.783E3,3.336E3,4E0,2.441E3,1.2E2,3.18E2,2E0,9.29E2,3E0,1.04E2,6.46E2,4.71E2,6.8E1,7E0,1E0,1.1E1,1.504E3,1.71E2,8.2E1,3.442E3,3E0,8.8E1,6E0,2.1E1,1E0,9E0,1.2E1,1E0,6E0,2E0,1.6E1,2E0,5.7E1,3.4E1,6.3E1,3.4E1,3.02E2,1.1E1,1.12E2,3.78E2,2E0,1.6E1,1E0,1E0],"tree_param":{"num_deleted":"0","num_feature":"92","num_nodes":"199","size_leaf_vector":"1"}},{"base_weights":[-1.9504692E-2,-3.218809E-2,2.9723898E-2,-3.8802702E-2,-1.404155E-2,2.0783504E-2,9.9072345E-2,-3.9042793E-2,2.7419353E-1,6.7582545E-3,-2.315868E-2,2.760321E-2,-2.9341329E-2,8.574674E-2,3.6089742E-1,-3.1464655E-2,-4.4733763E-2,-4.761906E-3,8.6363636E-2,7.6E-2,5.9145675E-3,2.525E-1,-2.3697391E-2,9.059828E-2,2.0961758E-2,-3.2457925E-2,2.1578947E-1,6.64453E-2,1.8007661E-1,1.511111E-1,6.279412E-1,7.637794E-2,-3.226184E-2,-4.724129E-2,-3.751687E-2,-4.287646E-3,5.630809E-2,8.142857E-2,-4.6428586E-3,-1.6425492E-2,-3.7661232E-2,5.2306723E-2,2.1210316E-1,3.2755622E-4,3.370567E-2,-3.3760983E-2,3.5999998E-1,5.8125E-1,-4.5833346E-3,1.2470413E-1,4.5493096E-2,-1.5833344E-2,2.3737623E-1,2.8205117E-2,8.142857E-2,8.3653843E-1,-4.444446E-3,5.3541666E-1,-3.0288473E-2,1.9944222E-3,-3.4558654E-2,-4.729961E-2,2.9999998E-1,-4.564711E-2,-2.919933E-2,6.333333E-2,-4.80098E-3,1.8520407E-1,3.696645E-2,-2.746E-2,-5.2402522E-3,-4.0881995E-2,-3.7829066E-3,4.7619048E-1,4.0856767E-2,6.612903E-1,1.4842342E-1,3.525E-1,-1.5275336E-3,-1.9127099E-2,4.1322455E-2,2.9999998E-1,-3.4415156E-2,-3.3333343E-3,6.333333E-2,7.9166666E-2,-3.3333343E-3,1.0868901E-1,5.9090906E-1,1.1684771E-2,9.2984684E-2,4.75E-2,-3.2203402E-2,3.951389E-1,1.4885496E-1,-2.1621633E-2,6.333333E-2,-3.3333343E-3,9.104167E-2,7.305556E-2,-4.285715E-3,1.0769229E-2,-4.9456535E-3,-5.009375E-4,6.818182E-2,-3.696298E-3,-1.2244257E-3,6.3888878E-3,-4.741431E-3,-2.5000006E-3,4.75E-2,2.4285713E-2,-4.630683E-3,-3.014707E-3,2.0416666E-2,-2.087307E-3,1.3760127E-3,7.23077E-2,1.0174418E-2,1.3676469E-2,1.8558548E-3,8.958332E-3,-3.0003039E-3,4.7869664E-3,-1.2465905E-3,3E-2,-4.119034E-3,7.333334E-2,-2.6182446E-3,1.2083332E-2,8.55E-2,7.9565885E-4,1.197826E-2,7.666667E-2,-4.000001E-3,7.1676294E-3,4.11E-2,5.25E-2,-4.285715E-3,-1.1432382E-3,3.6248404E-3,6.333333E-2,-2.1621634E-3,1.15229275E-4,5.0420254E-3,4.75E-2,-2.5000006E-3,-4.228189E-3,-1.5560653E-3,4.025E-2,8.932038E-3,-3.3333343E-3,7.333334E-2,1.8E-2,2.8956338E-5,7.1267597E-3,2.9342104E-2,4.75E-2,-4.9137943E-3,1.3703703E-2,5.3804345E-2,2.345679E-2,9.80391E-4,4.75E-2,-4.861112E-3],"categories":[],"categories_nodes":[],"categories_segments":[],"categories_sizes":[],"default_left":[0,0,0,0,0,0,0,0,0,0,0,0,0,0,0,0,0,0,0,0,0,0,0,0,0,0,0,0,0,0,0,0,0,0,0,0,0,0,0,0,0,0,0,0,0,0,0,0,0,0,0,0,0,0,0,0,0,0,0,0,0,0,0,0,0,0,0,0,0,0,0,0,0,0,0,0,0,0,0,0,0,0,0,0,0,0,0,0,0,0,0,0,0,0,0,0,0,0,0,0,0,0,0,0,0,0,0,0,0,0,0,0,0,0,0,0,0,0,0,0,0,0,0,0,0,0,0,0,0,0,0,0,0,0,0,0,0,0,0,0,0,0,0,0,0,0,0,0,0,0,0,0,0,0,0,0,0,0,0,0,0,0,0,0,0],"id":7,"left_children":[1,3,5,7,9,11,13,15,17,19,21,23,25,27,29,31,33,-1,-1,-1,35,37,39,41,43,45,47,49,51,53,55,57,59,61,63,65,67,-1,-1,69,71,73,75,77,79,81,83,85,-1,87,89,91,93,95,-1,97,-1,99,101,103,105,107,109,111,113,-1,115,117,119,121,123,125,127,129,131,133,135,137,139,141,143,145,147,-1,-1,-1,-1,149,151,153,155,-1,157,159,161,163,-1,-1,-1,-1,-1,-1,-1,-1,-1,-1,-1,-1,-1,-1,-1,-1,-1,-1,-1,-1,-1,-1,-1,-1,-1,-1,-1,-1,-1,-1,-1,-1,-1,-1,-1,-1,-1,-1,-1,-1,-1,-1,-1,-1,-1,-1,-1,-1,-1,-1,-1,-1,-1,-1,-1,-1,-1,-1,-1,-1,-1,-1,-1,-1,-1,-1,-1,-1,-1],"loss_changes":[4.316288E1,6.597149E0,8.778414E0,3.0377884E0,2.784939E0,4.289493E0,5.610729E0,1.734539E0,5.9215193E0,2.8400033E0,1.5221753E0,4.618676E0,1.1552562E0,2.7919168E0,4.2748375E0,1.4869137E0,4.141922E-1,0E0,0E0,0E0,2.2994108E0,3.396482E0,1.0342126E0,4.8881054E0,2.6274905E0,7.7157724E-1,1.8432839E0,1.5567598E0,2.93363E0,3.6448984E0,4.8059464E0,6.234647E0,1.3487282E0,3.595543E-1,3.9980984E-1,1.2206429E0,1.8704271E0,0E0,0E0,8.2716465E-1,3.805442E-1,3.8730109E0,7.1100893E0,2.4935753E0,2.4865127E0,3.336823E-1,5.5866665E-1,1.0609376E0,0E0,2.4593935E0,1.5130048E0,4.9739477E-1,2.7621841E0,1.1896049E0,0E0,1.7012253E0,0E0,2.7395592E0,2.8038776E-1,5.1361485E0,8.613987E-1,2.2052002E-1,1.825E-1,5.81862E-1,6.552901E-1,0E0,1.1094251E0,4.3257313E0,1.202584E0,1.0069447E0,1.278497E0,3.4723282E-1,5.0385637E0,2.7235541E0,2.0296457E0,2.3215485E0,4.4442844E0,1.3864822E0,1.4211186E0,1.2815831E0,1.9730597E0,1.825E-1,2.1871233E-1,0E0,0E0,0E0,0E0,1.8306041E0,1.0024242E0,1.0586765E0,1.6854229E0,0E0,5.3010666E-1,2.581912E0,1.5590205E0,5.1902217E-1,0E0,0E0,0E0,0E0,0E0,0E0,0E0,0E0,0E0,0E0,0E0,0E0,0E0,0E0,0E0,0E0,0E0,0E0,0E0,0E0,0E0,0E0,0E0,0E0,0E0,0E0,0E0,0E0,0E0,0E0,0E0,0E0,0E0,0E0,0E0,0E0,0E0,0E0,0E0,0E0,0E0,0E0,0E0,0E0,0E0,0E0,0E0,0E0,0E0,0E0,0E0,0E0,0E0,0E0,0E0,0E0,0E0,0E0,0E0,0E0,0E0,0E0,0E0,0E0,0E0,0E0,0E0,0E0,0E0],"parents":[2147483647,0,0,1,1,2,2,3,3,4,4,5,5,6,6,7,7,8,8,9,9,10,10,11,11,12,12,13,13,14,14,15,15,16,16,20,20,21,21,22,22,23,23,24,24,25,25,26,26,27,27,28,28,29,29,30,30,31,31,32,32,33,33,34,34,35,35,36,36,39,39,40,40,41,41,42,42,43,43,44,44,45,45,46,46,47,47,49,49,50,50,51,51,52,52,53,53,55,55,57,57,58,58,59,59,60,60,61,61,62,62,63,63,64,64,66,66,67,67,68,68,69,69,70,70,71,71,72,72,73,73,74,74,75,75,76,76,77,77,78,78,79,79,80,80,81,81,82,82,87,87,88,88,89,89,90,90,92,92,93,93,94,94,95,95],"right_children":[2,4,6,8,10,12,14,16,18,20,22,24,26,28,30,32,34,-1,-1,-1,36,38,40,42,44,46,48,50,52,54,56,58,60,62,64,66,68,-1,-1,70,72,74,76,78,80,82,84,86,-1,88,90,92,94,96,-1,98,-1,100,102,104,106,108,110,112,114,-1,116,118,120,122,124,126,128,130,132,134,136,138,140,142,144,146,148,-1,-1,-1,-1,150,152,154,156,-1,158,160,162,164,-1,-1,-1,-1,-1,-1,-1,-1,-1,-1,-1,-1,-1,-1,-1,-1,-1,-1,-1,-1,-1,-1,-1,-1,-1,-1,-1,-1,-1,-1,-1,-1,-1,-1,-1,-1,-1,-1,-1,-1,-1,-1,-1,-1,-1,-1,-1,-1,-1,-1,-1,-1,-1,-1,-1,-1,-1,-1,-1,-1,-1,-1,-1,-1,-1,-1,-1,-1,-1],"split_conditions":[4.809667E1,3.171E1,1.0074E2,1.5384E2,9.510814E1,1E0,7E0,9.731544E1,1.9591257E1,1.81E0,4.86E0,1.668E1,7.022E1,1.5744E2,3.4268086E0,1.82E0,2.0485264E1,-7.979328E-1,9.5980376E-1,1.1508231E1,5.037E1,4.58E0,1E0,5.24E0,1.0153E2,7.493752E1,2.48E1,1.2207E2,1.6455E2,1.7577002E0,1.2895285E1,1.8711666E1,3.203E1,1.0678E2,2.5966667E1,9.7E-1,1.909E1,1.0926579E1,-2.1420143E0,8.37E1,6.1735E1,8.6288196E-1,7.133333E-1,6.2E0,2E0,1.741E1,4.729E1,7.9E-1,-6.983124E-1,6.57E0,1.9023E2,2.7325802E1,2.0425E2,2.4E1,7.5034623E0,3.1E-1,-6.012024E-1,1.9692364E1,6.423E1,1.22E2,1.1185E2,1.2E-1,2.42E1,2.012E1,9.908E1,5.362268E0,2.2644583E1,2.284E1,1.3684901E0,3.3E0,2.5874135E0,1.225E-1,6.275833E0,6.5005E1,1.2E1,7.7E-1,7.330156E1,5.393E1,1.3251E2,2.2331592E-1,1.673125E1,4.1E0,5E0,-3.1598995E0,4.545822E-1,3.2682831E0,-5.40947E-2,1.13E0,5.182E1,9.7E-1,2.2E1,3.32489E-1,3.25E0,5.135E1,3.047701E0,6.34E0,1.056156E1,-7.3380893E-1,7.228428E0,2.205396E1,-4.195498E0,6.312213E0,-2.2406604E0,-1.7168777E-1,4.734156E0,-1.9690201E0,-7.6215756E-1,1.1074452E1,-2.5029976E0,-1.332069E0,4.0193102E-1,6.981308E-1,-1.9569149E0,-1.2318162E0,4.503496E0,-9.870264E-1,7.180641E-1,6.6013193E0,2.5668669E0,2.9700837E0,3.6104038E-1,1.2878402E0,-1.1141493E0,1.6838087E0,-4.3992686E-1,2.5301201E0,-1.5135607E0,1.8104137E1,-1.2344148E0,1.5027672E0,2.1891823E0,1.8999496E-1,1.6261961E0,9.30245E0,-1.0261887E0,4.1185184E0,4.727964E0,1.9413548E1,-5.9007545E0,-3.378591E-1,1.2610232E0,2.5977936E-1,-4.6672064E-1,7.9575576E-2,1.3915261E0,3.1707E-2,-5.691395E-1,-6.279513E-1,-9.380313E-2,1.2765212E1,2.0642533E0,-4.1896972E-1,9.139564E0,6.6199694E0,4.271502E-2,2.1933146E0,3.702533E0,1.5824203E0,-5.542856E-1,7.269221E0,9.4465065E0,8.482611E0,2.3767812E0,6.5616174E0,-3.0934185E-1],"split_indices":[21,0,0,45,12,90,9,12,26,44,30,66,2,0,48,19,39,0,0,0,0,19,90,59,32,58,20,79,80,61,52,34,72,40,47,43,71,0,0,33,47,64,60,29,85,27,0,6,0,75,28,26,81,10,0,6,0,30,70,10,28,57,0,79,71,0,51,4,65,20,50,54,64,21,85,77,51,16,33,48,51,2,83,0,0,0,0,60,2,55,82,0,31,17,63,2,0,0,0,0,0,0,0,0,0,0,0,0,0,0,0,0,0,0,0,0,0,0,0,0,0,0,0,0,0,0,0,0,0,0,0,0,0,0,0,0,0,0,0,0,0,0,0,0,0,0,0,0,0,0,0,0,0,0,0,0,0,0,0,0,0,0,0,0,0],"split_type":[0,0,0,0,0,0,0,0,0,0,0,0,0,0,0,0,0,0,0,0,0,0,0,0,0,0,0,0,0,0,0,0,0,0,0,0,0,0,0,0,0,0,0,0,0,0,0,0,0,0,0,0,0,0,0,0,0,0,0,0,0,0,0,0,0,0,0,0,0,0,0,0,0,0,0,0,0,0,0,0,0,0,0,0,0,0,0,0,0,0,0,0,0,0,0,0,0,0,0,0,0,0,0,0,0,0,0,0,0,0,0,0,0,0,0,0,0,0,0,0,0,0,0,0,0,0,0,0,0,0,0,0,0,0,0,0,0,0,0,0,0,0,0,0,0,0,0,0,0,0,0,0,0,0,0,0,0,0,0,0,0,0,0,0,0],"sum_hessian":[6.9126E4,5.4965E4,1.4161E4,4.0281E4,1.4684E4,1.2545E4,1.616E3,4.0251E4,3E1,4.475E3,1.0209E4,1.1043E4,1.502E3,1.539E3,7.7E1,1.7266E4,2.2985E4,2E1,1E1,4E0,4.471E3,1.9E1,1.019E4,1.052E3,9.991E3,1.484E3,1.8E1,1.279E3,2.6E2,4.4E1,3.3E1,1.26E2,1.714E4,1.7054E4,5.931E3,3.719E3,7.52E2,6E0,1.3E1,6.702E3,3.488E3,8.01E2,2.51E2,3.815E3,6.176E3,1.48E3,4E0,7E0,1.1E1,3.37E2,9.42E2,5.9E1,2.01E2,3.8E1,6E0,2.5E1,8E0,2.3E1,1.03E2,1.077E3,1.6063E4,1.7052E4,2E0,2.997E3,2.934E3,2E0,3.717E3,9.7E1,6.55E2,3.373E3,3.329E3,3.185E3,3.03E2,2E1,7.81E2,3E1,2.21E2,1.9E1,3.796E3,7.78E2,5.398E3,2E0,1.478E3,2E0,2E0,5E0,2E0,3.27E2,1E1,5.51E2,3.91E2,1E0,5.8E1,7.1E1,1.3E2,3.6E1,2E0,2E0,2.3E1,1.7E1,6E0,1.2E1,9.1E1,1.067E3,1E1,1.45E4,1.563E3,1.7E1,1.7035E4,1E0,1E0,6E0,2.991E3,2.923E3,1.1E1,1.992E3,1.725E3,1.2E1,8.5E1,1.01E2,5.54E2,7.1E1,3.302E3,3.98E2,2.931E3,2E0,3.183E3,8E0,2.95E2,1.1E1,9E0,5.52E2,2.29E2,2.6E1,4E0,1.72E2,4.9E1,1.3E1,6E0,3.008E3,7.88E2,2E0,7.76E2,9.97E2,4.401E3,1E0,1E0,1.042E3,4.36E2,1.9E1,3.08E2,2E0,8E0,3.4E1,5.17E2,3.54E2,3.7E1,1E0,5.7E1,2.6E1,4.5E1,8E1,5E1,1E0,3.5E1],"tree_param":{"num_deleted":"0","num_feature":"92","num_nodes":"165","size_leaf_vector":"1"}},{"base_weights":[-1.9469569E-2,-2.9506441E-2,3.464555E-2,-3.5851832E-2,-8.158398E-3,2.9172327E-2,1.3634719E-1,-2.7462669E-2,-4.2247634E-2,3.9722222E-1,-8.703632E-3,3.4967765E-2,-2.6310392E-2,3.7625E-1,1.1741244E-1,-2.8120335E-2,9.900989E-2,-4.4953205E-2,-3.0926801E-2,6.6666655E-2,6.55E-1,8.4680645E-3,-1.8396735E-2,1.850401E-2,5.1029276E-2,-2.832133E-2,6.333333E-2,5.7894725E-2,6.340909E-1,9.598307E-2,3.5595238E-1,-3.465531E-2,-1.9391578E-2,-6.428583E-3,3.265625E-1,7.656249E-2,-4.5139913E-2,-3.841053E-2,8.587774E-3,4.75E-2,-4.375001E-3,7.3333335E-1,-2.5000006E-3,5.9471703E-3,7.65625E-1,-2.3753274E-2,4.0351823E-3,1.2304526E-1,1.2669256E-2,8.287312E-2,3.8363464E-2,-3.2239594E-2,2.875E-1,6.333333E-2,-4.7058836E-3,7.4210525E-1,-3.7500008E-3,8.899572E-2,6.25E-1,3.199999E-2,7.861111E-1,1.1020763E-3,-3.7667558E-2,2.3055555E-1,-1.9932404E-2,-3.4558836E-2,6.333333E-2,8E-1,2.4999888E-3,7.6E-2,-4.82143E-3,-4.518802E-2,2.9999998E-1,3.8461525E-2,-4.012575E-2,1.426923E-1,-1.7960439E-2,-2.5000006E-3,8.3125E-2,7.08128E-2,-3.4071865E-5,8.8214286E-2,-3.3333343E-3,-2.427348E-2,1.8823528E-1,5.111111E-1,1.2499881E-3,3.2833332E-1,2.2727153E-3,8.573445E-2,6.206282E-3,6.0547933E-2,1.8191056E-1,3.3475466E-2,2.142857E-1,4.75E-2,-3.326383E-2,6.25E-1,-4.285715E-3,8.352941E-1,-3.3333343E-3,6.25E-1,8.185744E-2,-2.5000006E-3,7.6E-2,6.333333E-2,-4.78261E-3,8.352941E-1,-2.5000006E-3,8.095238E-2,-1.906177E-3,1.1370251E-3,-3.936635E-3,2.499999E-3,7.6E-2,-2.1155982E-3,5.4074065E-3,4.75E-2,-4.9253744E-3,-2.5000006E-3,8.708333E-2,4.75E-2,-4.7368435E-3,-4.528152E-3,7.0588225E-3,4.75E-2,-2.5000006E-3,-3.6184222E-3,3.90625E-2,-4.5763026E-3,-2.6875527E-3,4.2625E-2,1.6483505E-3,1.2705882E-2,-3.944155E-3,6.206467E-3,7.6E-2,1.9003103E-3,-1.985636E-3,-3.2591962E-3,-1.255685E-3,-4.615386E-3,7.6E-2,-3.3333343E-3,6.714286E-2,3.181818E-2,-8.8958244E-5,8.9411765E-2,1.9391892E-2,-9.933787E-4,4.6249997E-2,2.6825396E-2,4.606163E-3,5.6E-2,5.5124884E-4,1.7456895E-2,4.6989783E-3,2.8152866E-2,6.1110995E-4,9.951807E-3,2.391076E-3,4.128205E-2,6.415093E-3,4.6428563E-3,-3.687365E-3,-2.5000006E-3,7.6E-2,-2.5000006E-3,8.9062504E-2,-2.5000006E-3,7.6E-2,7.2333324E-3,3.8214285E-2,-2.5000006E-3,8.9062504E-2],"categories":[],"categories_nodes":[],"categories_segments":[],"categories_sizes":[],"default_left":[0,0,0,0,0,0,0,0,0,0,0,0,0,0,0,0,0,0,0,0,0,0,0,0,0,0,0,0,0,0,0,0,0,0,0,0,0,0,0,0,0,0,0,0,0,0,0,0,0,0,0,0,0,0,0,0,0,0,0,0,0,0,0,0,0,0,0,0,0,0,0,0,0,0,0,0,0,0,0,0,0,0,0,0,0,0,0,0,0,0,0,0,0,0,0,0,0,0,0,0,0,0,0,0,0,0,0,0,0,0,0,0,0,0,0,0,0,0,0,0,0,0,0,0,0,0,0,0,0,0,0,0,0,0,0,0,0,0,0,0,0,0,0,0,0,0,0,0,0,0,0,0,0,0,0,0,0,0,0,0,0,0,0,0,0,0,0,0,0,0,0,0,0,0,0],"id":8,"left_children":[1,3,5,7,9,11,13,15,17,19,21,23,25,27,29,31,33,35,37,39,41,43,45,47,49,51,-1,53,55,57,59,61,63,65,67,69,71,73,75,-1,-1,77,-1,79,81,83,85,87,89,91,93,95,97,-1,-1,99,-1,101,103,105,107,109,111,113,115,117,-1,119,121,-1,-1,123,125,127,129,131,133,-1,-1,135,137,-1,-1,139,141,143,145,147,149,151,153,155,157,159,161,-1,163,165,-1,167,-1,169,171,-1,-1,-1,-1,173,-1,-1,-1,-1,-1,-1,-1,-1,-1,-1,-1,-1,-1,-1,-1,-1,-1,-1,-1,-1,-1,-1,-1,-1,-1,-1,-1,-1,-1,-1,-1,-1,-1,-1,-1,-1,-1,-1,-1,-1,-1,-1,-1,-1,-1,-1,-1,-1,-1,-1,-1,-1,-1,-1,-1,-1,-1,-1,-1,-1,-1,-1,-1,-1,-1,-1,-1],"loss_changes":[3.7610664E1,7.912163E0,6.0266104E0,2.4147835E0,2.961909E0,3.3070621E0,2.467826E0,1.6231537E0,7.810974E-1,1.4901111E0,2.2252192E0,2.4609241E0,1.3086238E0,3.2466898E0,2.593279E0,1.1048632E0,2.4253721E0,4.7120667E-1,1.4585066E0,4.2656252E-1,5.5099964E-1,9.203075E0,1.0268412E0,2.8037047E0,1.8973026E0,1.2108538E0,0E0,1.1772962E0,1.6237411E0,1.69279E0,5.827584E0,1.1936865E0,1.1265709E0,1.2816538E0,4.907547E0,2.7655113E0,3.553772E-1,5.482049E-1,2.8009079E0,0E0,0E0,6.890626E-1,0E0,1.8657837E0,1.5188904E0,7.6526403E-1,2.32684E0,6.023992E0,2.0569239E0,2.951767E0,2.8932934E0,5.1455057E-1,1.3647323E0,0E0,0E0,1.4008255E0,0E0,1.7394755E0,5.4550004E-1,1.230342E0,7.389555E-1,1.4066799E1,8.519039E-1,1.9399445E0,7.5119233E-1,5.325741E-1,0E0,7.8145885E-1,4.937566E-1,0E0,0E0,2.2600555E-1,1.825E-1,2.4062972E0,3.017335E-1,4.6453457E0,2.0516808E0,0E0,0E0,2.4006455E0,1.6622725E0,0E0,0E0,6.7034197E-1,2.3133395E0,8.0793643E-1,1.1123638E0,6.671074E0,8.6973023E-1,2.55098E0,1.5353242E0,1.6845727E0,4.30643E0,2.0714204E0,2.6859517E0,0E0,2.7759266E-1,5.4550004E-1,0E0,8.3148E-1,0E0,5.4550004E-1,1.2965169E0,0E0,0E0,0E0,0E0,8.3148E-1,0E0,0E0,0E0,0E0,0E0,0E0,0E0,0E0,0E0,0E0,0E0,0E0,0E0,0E0,0E0,0E0,0E0,0E0,0E0,0E0,0E0,0E0,0E0,0E0,0E0,0E0,0E0,0E0,0E0,0E0,0E0,0E0,0E0,0E0,0E0,0E0,0E0,0E0,0E0,0E0,0E0,0E0,0E0,0E0,0E0,0E0,0E0,0E0,0E0,0E0,0E0,0E0,0E0,0E0,0E0,0E0,0E0,0E0,0E0,0E0,0E0,0E0,0E0,0E0,0E0,0E0,0E0],"parents":[2147483647,0,0,1,1,2,2,3,3,4,4,5,5,6,6,7,7,8,8,9,9,10,10,11,11,12,12,13,13,14,14,15,15,16,16,17,17,18,18,19,19,20,20,21,21,22,22,23,23,24,24,25,25,27,27,28,28,29,29,30,30,31,31,32,32,33,33,34,34,35,35,36,36,37,37,38,38,41,41,43,43,44,44,45,45,46,46,47,47,48,48,49,49,50,50,51,51,52,52,55,55,57,57,58,58,59,59,60,60,61,61,62,62,63,63,64,64,65,65,67,67,68,68,71,71,72,72,73,73,74,74,75,75,76,76,79,79,80,80,83,83,84,84,85,85,86,86,87,87,88,88,89,89,90,90,91,91,92,92,93,93,94,94,96,96,97,97,99,99,101,101,102,102,107,107],"right_children":[2,4,6,8,10,12,14,16,18,20,22,24,26,28,30,32,34,36,38,40,42,44,46,48,50,52,-1,54,56,58,60,62,64,66,68,70,72,74,76,-1,-1,78,-1,80,82,84,86,88,90,92,94,96,98,-1,-1,100,-1,102,104,106,108,110,112,114,116,118,-1,120,122,-1,-1,124,126,128,130,132,134,-1,-1,136,138,-1,-1,140,142,144,146,148,150,152,154,156,158,160,162,-1,164,166,-1,168,-1,170,172,-1,-1,-1,-1,174,-1,-1,-1,-1,-1,-1,-1,-1,-1,-1,-1,-1,-1,-1,-1,-1,-1,-1,-1,-1,-1,-1,-1,-1,-1,-1,-1,-1,-1,-1,-1,-1,-1,-1,-1,-1,-1,-1,-1,-1,-1,-1,-1,-1,-1,-1,-1,-1,-1,-1,-1,-1,-1,-1,-1,-1,-1,-1,-1,-1,-1,-1,-1,-1,-1,-1,-1],"split_conditions":[5.341E1,3.7350834E1,1.339E2,9.731544E1,1.07E1,1E0,8.9916664E-1,2.6073837E1,7.734209E1,3.2268E2,9.510814E1,6.09375E1,6.664E1,5.425E-1,1.2167328E1,2.3918333E1,2.952E1,1.225E-1,5.907E1,8.87E0,1.99E0,1.5384E2,1.3211E2,1.909E1,1.1715E2,7.022E1,4.09124E-1,1E-1,1.966E2,2.4E1,1.3982417E2,1.9335833E1,1.2E0,1.7195E2,2.8724167E1,3.06225E1,1.315175E2,1.4816667E0,6.275833E0,5.259201E0,-8.478859E-1,7.338E1,-2.8354814E0,2.5298885E1,1.1555E2,1.209225E2,1.32E1,9.707197E0,1.667E1,7.7611E0,3.4556E2,3.1093334E1,7.345E1,6.9532137E0,-1.5946335E0,4.812E1,-6.876111E0,4.86E0,6.023E1,3.465E1,3.428E1,1.06875E0,3E1,3.4293E2,3.1E1,8.55E0,1.5397561E0,2.422E1,1.994E1,1.1281986E1,-1.3066255E-1,1.3293834E2,2.124E1,1.5994E2,5.7843447E0,3.81E1,4E0,-9.402465E0,9.833922E0,1.2123709E2,7.77125E0,8.638237E-1,-2.7826087E0,2E0,5E0,2.273E1,5.425E-1,3.028E1,3.45685E2,6.229E1,9.7E-1,1.11E0,1.692034E2,4.992E1,1E0,5.773163E-2,2.6983333E0,1.971E1,-1.0665649E0,1.452E1,-4.366609E0,5.38E0,8.813E1,-2.887352E-1,9.5054035E0,9.633237E0,-1.3223599E0,1.1E-1,-3.375406E0,1.984613E1,-2.0407577E0,4.2413354E-1,-2.018709E0,7.230829E0,1.0129159E1,-1.0103811E0,4.771816E0,1.0595015E1,-1.5682945E0,-7.3939365E-1,3.169069E0,1.5268624E0,-9.231186E-2,-2.0953255E0,1.3630505E0,2.105306E0,-3.4299564E0,-4.9962646E-1,5.222427E0,-1.5078334E0,-8.695943E-1,9.266686E0,5.439155E0,8.77803E0,-1.2625345E0,2.2002852E0,1.7619057E0,9.748045E-1,-7.6246125E-1,-1.0794004E0,-3.99654E-1,-1.4526062E0,3.2494912E0,-1.4096527E0,1.1566483E0,2.777214E0,-3.5820793E-2,6.0710435E0,6.18479E0,-8.846137E-2,3.892218E0,6.618343E0,1.1247005E0,4.7716904E0,1.4737813E-1,4.9762325E0,2.0824947E0,6.0377264E0,2.0824564E-1,1.9589188E0,8.651423E-1,9.30542E0,1.9720547E0,7.725946E-1,-3.7807617E-1,-6.284813E-1,2.9414551E0,-4.8310676E0,1.2459582E1,-1.242689E1,1.1924194E1,3.1549451E0,2.8401687E0,-4.2888948E-1,6.5746202E0],"split_indices":[0,25,0,12,38,90,62,65,38,81,12,25,58,62,48,21,68,55,43,2,3,45,28,71,79,2,0,74,30,8,21,38,0,1,23,36,45,62,64,0,0,5,0,72,31,15,4,52,4,61,28,21,2,0,0,4,0,27,1,7,4,64,72,81,84,15,0,17,14,0,0,34,0,80,52,71,84,0,0,39,64,0,0,87,83,2,62,67,31,70,40,3,38,15,87,0,62,4,0,4,0,2,2,0,0,0,0,74,0,0,0,0,0,0,0,0,0,0,0,0,0,0,0,0,0,0,0,0,0,0,0,0,0,0,0,0,0,0,0,0,0,0,0,0,0,0,0,0,0,0,0,0,0,0,0,0,0,0,0,0,0,0,0,0,0,0,0,0,0,0,0,0,0,0,0],"split_type":[0,0,0,0,0,0,0,0,0,0,0,0,0,0,0,0,0,0,0,0,0,0,0,0,0,0,0,0,0,0,0,0,0,0,0,0,0,0,0,0,0,0,0,0,0,0,0,0,0,0,0,0,0,0,0,0,0,0,0,0,0,0,0,0,0,0,0,0,0,0,0,0,0,0,0,0,0,0,0,0,0,0,0,0,0,0,0,0,0,0,0,0,0,0,0,0,0,0,0,0,0,0,0,0,0,0,0,0,0,0,0,0,0,0,0,0,0,0,0,0,0,0,0,0,0,0,0,0,0,0,0,0,0,0,0,0,0,0,0,0,0,0,0,0,0,0,0,0,0,0,0,0,0,0,0,0,0,0,0,0,0,0,0,0,0,0,0,0,0,0,0,0,0,0,0],"sum_hessian":[6.9243E4,5.841E4,1.0833E4,4.5026E4,1.3384E4,1.0281E4,5.52E2,1.948E4,2.5546E4,1.7E1,1.3367E4,9.309E3,9.72E2,3.9E1,5.13E2,1.938E4,1E2,2.0616E4,4.93E3,8E0,9E0,4.823E3,8.544E3,4.598E3,4.711E3,9.7E2,2E0,1.8E1,2.1E1,4.72E2,4.1E1,1.1081E4,8.299E3,6.9E1,3.1E1,3.1E1,2.0585E4,4.145E3,7.85E2,1E0,7E0,8E0,1E0,4.808E3,1.5E1,6.897E3,1.647E3,2.42E2,4.356E3,1.339E3,3.372E3,9.59E2,1.1E1,2E0,1.6E1,1.8E1,3E0,4.67E2,5E0,2.4E1,1.7E1,8.61E2,1.022E4,1.7E1,8.282E3,6.7E1,2E0,1.2E1,1.9E1,4E0,2.7E1,2.0583E4,2E0,9E1,4.055E3,1.29E2,6.56E2,1E0,7E0,4.05E2,4.403E3,1.3E1,2E0,6.881E3,1.6E1,8E0,1.639E3,8.9E1,1.53E2,3.53E2,4.003E3,1.094E3,2.45E2,3.282E3,9E1,1E0,9.58E2,5E0,6E0,1.6E1,2E0,5E0,4.62E2,1E0,4E0,2E0,2.2E1,1.6E1,1E0,2E1,8.41E2,3.42E2,9.878E3,1.3E1,4E0,8.148E3,1.34E2,1E0,6.6E1,1E0,1.1E1,1E0,1.8E1,2.0567E4,1.6E1,1E0,1E0,7.5E1,1.5E1,2.843E3,1.212E3,3.9E1,9E1,8.4E1,5.72E2,4.01E2,4E0,2.246E3,2.157E3,4.023E3,2.858E3,1.2E1,4E0,2E0,6E0,1E1,1.629E3,1.6E1,7.3E1,1.5E2,3E0,6.2E1,2.91E2,4E0,3.999E3,1.15E2,9.79E2,1.56E2,8.9E1,4.14E2,2.868E3,3.8E1,5.2E1,4.1E1,9.17E2,1E0,4E0,1E0,1.5E1,1E0,4E0,4.49E2,1.3E1,1E0,1.5E1],"tree_param":{"num_deleted":"0","num_feature":"92","num_nodes":"175","size_leaf_vector":"1"}},{"base_weights":[-2.0538654E-2,-3.34025E-2,1.2109582E-2,-4.073735E-2,-2.3685578E-2,6.2984107E-3,7.63401E-2,-4.097872E-2,3.0249998E-1,-1.8530115E-2,-3.9637666E-2,1.2380909E-2,-2.9338697E-2,3.85E-1,7.048305E-2,-4.1900452E-2,8.183187E-4,-4.5833346E-3,7.3333335E-1,-2.1912592E-2,2.2807675E-3,-4.3551516E-2,-6.822274E-3,-4.600164E-3,2.5102705E-2,-3.1163607E-2,3.3846152E-1,-4.5833346E-3,6.368421E-1,4.5641974E-2,1.2054923E-1,1.5249988E-2,-4.2315125E-2,-9.579844E-3,3.6470586E-1,8.3125E-2,-2.5000006E-3,-2.327504E-2,1.8543035E-2,-4.607762E-3,1.04195796E-1,-1.1346166E-2,-4.5444228E-2,2.3714285E-1,-2.3135766E-2,1.4339493E-2,-2.2462279E-2,7.289869E-2,1.9438405E-2,-3.1896897E-2,2.9166666E-1,-4.375001E-3,7.9166666E-2,-4.000001E-3,8.2E-1,6.290501E-2,-4.3930646E-2,2.3357652E-2,1.5420917E-1,7.6E-2,-3.8265425E-3,-2.3064397E-2,-4.3213792E-2,-3.566352E-2,5.373562E-2,7.3333335E-1,-4.444446E-3,-2.693054E-2,-8.009253E-3,9.232953E-2,-2.8237421E-2,4.8799988E-2,-1.6102193E-2,6.6666655E-2,4.2E-1,-3.360325E-2,3.8214284E-1,2.1249999E-1,-4.5668498E-2,-4.78261E-3,7.2307694E-1,2.6206896E-1,-3.979799E-2,1.3794641E-1,9.834188E-3,1.04615375E-1,-2.4947222E-2,6.55E-1,6.64853E-2,7.748147E-2,1.3964518E-2,-4.074377E-2,-1.0356212E-2,-3.7500008E-3,6.333333E-2,8.8214286E-2,-2.5000006E-3,3.5572506E-2,1.3692945E-1,-4.9695135E-3,5.499999E-2,-4.1666785E-3,6.25E-1,3.268817E-1,1.00166656E-1,4.5624997E-2,-2.3280436E-3,4.153846E-2,-2.7736637E-3,-3.7717426E-3,-4.6474137E-3,-4.252452E-3,1.5333332E-2,1.8749999E-2,-4.9494966E-3,8.3125E-2,-2.5000006E-3,-1.2841282E-3,-3.2698323E-3,3.384615E-2,-9.7485614E-4,2.239999E-3,2.5865382E-2,-3.8446982E-3,1.5333332E-2,3.2105263E-2,3.4173657E-3,-2.500001E-3,2.0527847E-3,3.525E-2,1.4090898E-3,7.333334E-2,-4.285715E-3,4.6249997E-2,-4.1598375E-3,8.142857E-2,-4.375001E-3,-3.3333343E-3,4.75E-2,-4.5893076E-3,2.125E-2,-3.3333343E-3,8.6363636E-2,-4.7500012E-3,8.55E-2,2.0624999E-2,-4.375001E-3,9.0499995E-3,4.923077E-2,4.3773106E-3,-2.3168698E-4,-2.2368433E-3,2.7321428E-2,2.0416666E-2,-2.5771805E-3,8.3125E-2,-3.3333343E-3,1.2144692E-3,1.0581613E-2,1.38814E-2,2.622939E-4,7.0017627E-3,9.143278E-4,3E-2,-4.1277185E-3,-1.2749017E-3,2.9166667E-2,2.7199998E-2,2.6148958E-3,4.3636363E-2,8.89952E-3,-4.444446E-3,4.75E-2,1.2608695E-2,-3.1363647E-3,7.6E-2,-2.5000006E-3,1.6953124E-2,6.516667E-2,3E-2,4.684873E-3],"categories":[],"categories_nodes":[],"categories_segments":[],"categories_sizes":[],"default_left":[0,0,0,0,0,0,0,0,0,0,0,0,0,0,0,0,0,0,0,0,0,0,0,0,0,0,0,0,0,0,0,0,0,0,0,0,0,0,0,0,0,0,0,0,0,0,0,0,0,0,0,0,0,0,0,0,0,0,0,0,0,0,0,0,0,0,0,0,0,0,0,0,0,0,0,0,0,0,0,0,0,0,0,0,0,0,0,0,0,0,0,0,0,0,0,0,0,0,0,0,0,0,0,0,0,0,0,0,0,0,0,0,0,0,0,0,0,0,0,0,0,0,0,0,0,0,0,0,0,0,0,0,0,0,0,0,0,0,0,0,0,0,0,0,0,0,0,0,0,0,0,0,0,0,0,0,0,0,0,0,0,0,0,0,0,0,0,0,0,0,0,0,0,0,0,0,0,0,0,0,0],"id":9,"left_children":[1,3,5,7,9,11,13,15,17,19,21,23,25,27,29,31,33,-1,35,37,39,41,43,45,47,49,51,-1,53,55,57,59,61,63,65,-1,-1,67,69,71,73,75,77,79,81,83,85,87,89,91,93,-1,-1,-1,95,97,99,101,103,-1,105,107,109,111,113,115,-1,117,119,121,123,125,127,129,131,133,135,137,139,-1,141,143,145,147,149,151,153,155,157,159,161,163,165,-1,-1,-1,-1,167,169,-1,171,173,175,177,179,-1,-1,-1,-1,-1,-1,-1,-1,-1,-1,-1,-1,-1,-1,-1,-1,-1,-1,-1,-1,-1,-1,-1,-1,-1,-1,-1,-1,-1,-1,-1,-1,-1,-1,-1,-1,-1,-1,-1,-1,-1,-1,-1,-1,-1,-1,-1,-1,-1,-1,-1,-1,-1,-1,-1,-1,-1,-1,-1,-1,-1,-1,-1,-1,-1,-1,-1,-1,-1,-1,-1,-1,-1,-1,-1,-1],"loss_changes":[2.9067766E1,3.5376244E0,7.3014994E0,2.356224E0,1.7558393E0,3.8893018E0,2.9069815E0,1.0892334E0,3.0350833E0,1.1364636E0,6.696167E-1,3.3109875E0,1.766412E0,3.2842479E0,1.9769521E0,6.562004E-1,2.3153725E0,0E0,6.890626E-1,7.658644E-1,1.585697E0,2.835369E-1,2.2223036E0,2.2212768E0,2.370726E0,6.257427E-1,2.2864985E0,0E0,2.3882108E0,1.6526611E0,1.7237296E0,2.8443575E0,4.7411346E-1,9.845589E-1,2.5966012E0,0E0,0E0,7.495127E-1,1.5662572E0,1.2997806E0,1.666816E0,2.2898998E0,2.6429653E-1,4.881246E0,2.4958014E0,1.7734416E0,1.0696328E0,3.420905E0,2.4882631E0,4.9486375E-1,6.9854164E-1,0E0,0E0,0E0,8.097143E-1,1.8059587E0,1.0139239E-1,2.2712972E0,3.625268E0,0E0,1.7648764E0,2.5250793E0,4.6841812E-1,5.537311E-1,2.411972E0,6.890626E-1,0E0,8.803978E-1,1.5683019E0,2.0412588E0,5.2123976E-1,1.4823E0,5.682788E-1,1.9336325E0,2.2068567E0,9.9894154E-1,2.612277E0,2.7395833E-1,2.6474E-1,0E0,1.410955E0,5.3636513E0,4.9035478E-1,1.8385222E0,1.2686247E0,1.3977177E0,6.3154244E-1,1.2408962E0,1.9628572E0,3.0987391E0,1.9345876E0,3.4718227E-1,5.5151093E-1,0E0,0E0,0E0,0E0,1.4522184E0,3.4202757E0,0E0,4.3877777E-1,4.7156507E-1,5.4550004E-1,4.642293E0,3.1823552E0,0E0,0E0,0E0,0E0,0E0,0E0,0E0,0E0,0E0,0E0,0E0,0E0,0E0,0E0,0E0,0E0,0E0,0E0,0E0,0E0,0E0,0E0,0E0,0E0,0E0,0E0,0E0,0E0,0E0,0E0,0E0,0E0,0E0,0E0,0E0,0E0,0E0,0E0,0E0,0E0,0E0,0E0,0E0,0E0,0E0,0E0,0E0,0E0,0E0,0E0,0E0,0E0,0E0,0E0,0E0,0E0,0E0,0E0,0E0,0E0,0E0,0E0,0E0,0E0,0E0,0E0,0E0,0E0,0E0,0E0,0E0,0E0,0E0,0E0,0E0,0E0],"parents":[2147483647,0,0,1,1,2,2,3,3,4,4,5,5,6,6,7,7,8,8,9,9,10,10,11,11,12,12,13,13,14,14,15,15,16,16,18,18,19,19,20,20,21,21,22,22,23,23,24,24,25,25,26,26,28,28,29,29,30,30,31,31,32,32,33,33,34,34,37,37,38,38,39,39,40,40,41,41,42,42,43,43,44,44,45,45,46,46,47,47,48,48,49,49,50,50,54,54,55,55,56,56,57,57,58,58,60,60,61,61,62,62,63,63,64,64,65,65,67,67,68,68,69,69,70,70,71,71,72,72,73,73,74,74,75,75,76,76,77,77,78,78,80,80,81,81,82,82,83,83,84,84,85,85,86,86,87,87,88,88,89,89,90,90,91,91,92,92,97,97,98,98,100,100,101,101,102,102,103,103,104,104],"right_children":[2,4,6,8,10,12,14,16,18,20,22,24,26,28,30,32,34,-1,36,38,40,42,44,46,48,50,52,-1,54,56,58,60,62,64,66,-1,-1,68,70,72,74,76,78,80,82,84,86,88,90,92,94,-1,-1,-1,96,98,100,102,104,-1,106,108,110,112,114,116,-1,118,120,122,124,126,128,130,132,134,136,138,140,-1,142,144,146,148,150,152,154,156,158,160,162,164,166,-1,-1,-1,-1,168,170,-1,172,174,176,178,180,-1,-1,-1,-1,-1,-1,-1,-1,-1,-1,-1,-1,-1,-1,-1,-1,-1,-1,-1,-1,-1,-1,-1,-1,-1,-1,-1,-1,-1,-1,-1,-1,-1,-1,-1,-1,-1,-1,-1,-1,-1,-1,-1,-1,-1,-1,-1,-1,-1,-1,-1,-1,-1,-1,-1,-1,-1,-1,-1,-1,-1,-1,-1,-1,-1,-1,-1,-1,-1,-1,-1,-1,-1,-1,-1,-1],"split_conditions":[4.1413334E1,2.3720833E1,9.639E1,2.6091278E1,1E0,1E0,1.1785417E1,1.127175E2,1.5033817E1,5.282E1,6.1735E1,1.03E2,1.5767E2,9.97E0,7.612E1,2.012E1,1.966E2,-5.4456407E-1,3.3727E2,8.861E1,2.46E0,1.50504215E-2,5.9085E1,5E0,4.082E1,7.493752E1,1.94558E1,-1.4036468E0,1.85E1,8.53E0,1.476E1,1.81E0,2.686E1,1.2062E2,2.2038E2,9.535513E0,-3.027128E0,4.049E1,9.391896E1,5.374E1,5.641E1,1.3107E2,1.545E0,7.995167E1,3.4162595E0,4E-1,1.452E1,4.1735353E0,2.687E1,5E0,4.729E1,-2.59861E-1,4.5873003E0,-2.7226396E0,1.691E1,6.166E1,9.664E1,7.596575E0,1.707E1,1.0344013E0,3.97E0,6.7E-1,9.731544E1,1.5383002E1,1.3838309E0,2.694E1,-2.302366E0,2E0,2.14E0,6.25E0,3.02E0,3.201E1,9.54007E0,3.022E1,8.258667E1,1.693E1,7.124E1,1.2E0,3.61E0,-5.5956644E-1,3.051E1,3.042E1,4.362E1,1.6683123E1,3.2564828E0,4.541E1,1.779E1,4.533E1,7.08142E0,3.144E1,1.611E1,2.788E1,7.229E1,-2.73597E0,3.6821136E-1,8.85053E0,-1.4430694E-1,1.64E1,7.019963E0,-4.859062E-1,1.209225E2,1.2478843E-1,3.438E1,1.7863031E2,1.169675E2,1.8193585E0,-7.44705E-1,6.0438275E0,-1.7488463E0,-1.8252541E0,-2.1597934E0,-1.4636271E0,1.0635605E0,1.0369761E1,-1.2150018E0,8.32273E0,-2.187048E0,-5.047552E-1,-1.2879229E0,1.8608582E0,-2.168608E-1,1.2808163E0,3.5690944E0,-7.061922E-1,1.2938042E0,6.1007395E0,1.1158066E0,-6.673711E-1,1.0215731E0,6.0341096E0,1.1117977E0,8.773086E0,-8.329773E-3,5.532243E0,-1.9685925E0,8.507651E0,-2.5312526E0,-7.592251E-1,9.864235E-2,-1.4235803E0,1.687706E-1,-2.3213235E-1,6.5676317E0,-2.5955553E0,1.4421283E1,1.5749808E1,-1.8189449E0,2.5326688E0,3.9488068E0,1.8829893E0,-1.20605886E-1,-5.1867057E-2,6.7552667E0,3.192588E0,-7.756287E-1,1.1611922E1,-3.8077927E-1,4.5209694E-1,4.501394E0,4.1727886E0,3.9980173E-1,1.3166002E0,