{"learner":{"attributes":{"scikit_learn":"{\"_estimator_type\": \"regressor\"}"},"feature_names":[],"feature_types":[],"gradient_booster":{"model":{"cats":{"enc":[],"feature_segments":[],"sorted_idx":[]},"gbtree_model_param":{"num_parallel_tree":"1","num_trees":"1"},"iteration_indptr":[0,1],"tree_info":[0],"trees":[{"base_weights":[1.250769E-4,-3.927203E-2,7.395961E-1,-4.4595633E-2,1.1489957E-1,5.265487E-1,8.03464E-1,-4.670643E-2,-8.010654E-3,2.748134E-1,9.1969036E-2,6.1607885E-1,3.8564515E-1,7.4192333E-1,8.6599845E-1,-4.7131017E-2,1.6966568E-2,9.076304E-2,-1.5853282E-2,1.4296295E-1,4.05597E-1,5.5603746E-2,1.9400406E-1,3.7534246E-1,6.57439E-1,4.1780573E-1,1.03030294E-1,6.5769976E-1,7.937729E-1,3.3846152E-1,8.7066144E-1,-4.8388746E-2,-3.630217E-2,2.847222E-1,-1.0310747E-2,1.7991802E-1,5.078113E-3,-2.6275625E-2,2.4265831E-2,2.7499998E-1,-1.6935496E-2,5.949153E-1,2.5328946E-1,1.7652173E-1,4.4602036E-2,1.2055554E-1,2.8206277E-1,6.666666E-1,2.5283018E-1,6.972701E-1,4.269841E-1,3.5931817E-1,6.2881356E-1,4.8387084E-2,6.333333E-2,6.323093E-1,9.273809E-2,5.436046E-1,8.220027E-1,6.6666655E-2,7.6E-2,8.8771147E-1,7.4785274E-1,-4.8633154E-2,-3.4661584E-2,2.9166666E-1,-3.6621008E-2,1.3703702E-1,6.55E-1,6.333333E-2,-1.5767056E-2,6.907894E-2,3.5531914E-1,-3.9285727E-2,1.4516129E-1,6.249999E-2,-3.0602371E-2,1.2971696E-1,3.597774E-3,5.9999996E-1,1.7499998E-1,2.9999998E-1,-3.250001E-2,2.0416665E-1,6.802083E-1,6.55E-1,1.8955223E-1,1.2355768E-1,6.2083334E-1,3.4430366E-2,1.8588234E-1,1.0286258E-1,6.222222E-1,5.645161E-1,2.3523314E-1,-3.7500008E-3,7.861111E-1,4.517857E-1,2.8846143E-2,7.308064E-1,4.128205E-1,1.9999988E-2,5.428571E-1,8.289473E-2,4.147541E-1,7.0612246E-1,2.2727272E-1,-9.615396E-3,2.9166666E-1,6.9842654E-1,5.278075E-1,5.9166664E-1,6.6666655E-2,8.472637E-1,7.003788E-1,4.75E-2,-4.375001E-3,-3.3333343E-3,8.8938445E-1,4.3199998E-1,7.992806E-1,-4.8652617E-3,3E-2,6.333333E-2,-3.6816206E-3,-3.3333343E-3,4.6249997E-2,-4.0307916E-3,-1.5307275E-3,6.333333E-2,7.199999E-3,8.3125E-2,-3.3333343E-3,-4.977274E-3,4.060149E-3,5.6E-2,3.4027768E-3,6.7307684E-3,6.795455E-2,3E-2,-4.947918E-3,3.8214285E-2,-4.7222236E-3,8.173065E-4,4.923077E-2,-3.3721456E-3,4.141413E-3,4.235294E-2,7.2777765E-3,-8.5630047E-4,1.8E-2,-3.3333343E-3,6.866667E-2,7.6041655E-3,5.909091E-2,4.75E-2,-2.5000006E-3,-4.9074087E-3,9.999999E-3,5.6E-2,-4.375001E-3,7.560976E-2,2.0624999E-2,-3.3333343E-3,8.3125E-2,2.6470587E-2,-4.7058836E-3,7.819148E-3,5E-2,7.5500004E-2,-3.3333343E-3,6.043245E-4,9.012499E-3,5.964286E-2,1.0347221E-2,7.6E-2,8.972867E-3,8.142857E-2,-3.3333343E-3,8.124999E-3,7.020833E-2,4.689655E-2,1.9272728E-2,8.352941E-2,-2.5000006E-3,1.5333332E-2,7.392857E-2,4.75E-2,-8.0000114E-4,2.0624999E-2,7.422442E-2,8.666666E-3,5.92E-2,4.75E-2,-4.6428586E-3,-4.285715E-3,6.255814E-2,3.7083335E-2,-4.814816E-3,4.9514927E-2,1.91E-2,7.382979E-2,-3.3333343E-3,5.6E-2,-4.285715E-3,4.75E-2,-4.800001E-3,6.333333E-2,-3.7500008E-3,3.9583333E-2,7.390439E-2,4.434028E-2,7.9204544E-2,6.675E-2,3.2105263E-2,-4.375001E-3,4.75E-2,5.0833333E-2,8.562287E-2,7.983696E-2,4.634146E-2,2.125E-2,8.910107E-2,1.0769229E-2,7.23077E-2,8.180147E-2,-3.7500008E-3],"categories":[],"categories_nodes":[],"categories_segments":[],"categories_sizes":[],"default_left":[0,0,0,0,0,0,0,0,0,0,0,0,0,0,0,0,0,0,0,0,0,0,0,0,0,0,0,0,0,0,0,0,0,0,0,0,0,0,0,0,0,0,0,0,0,0,0,0,0,0,0,0,0,0,0,0,0,0,0,0,0,0,0,0,0,0,0,0,0,0,0,0,0,0,0,0,0,0,0,0,0,0,0,0,0,0,0,0,0,0,0,0,0,0,0,0,0,0,0,0,0,0,0,0,0,0,0,0,0,0,0,0,0,0,0,0,0,0,0,0,0,0,0,0,0,0,0,0,0,0,0,0,0,0,0,0,0,0,0,0,0,0,0,0,0,0,0,0,0,0,0,0,0,0,0,0,0,0,0,0,0,0,0,0,0,0,0,0,0,0,0,0,0,0,0,0,0,0,0,0,0,0,0,0,0,0,0,0,0,0,0,0,0,0,0,0,0,0,0,0,0,0,0,0,0,0,0,0,0,0,0,0,0,0,0,0,0,0,0,0,0,0,0,0,0,0,0],"id":0,"left_children":[1,3,5,7,9,11,13,15,17,19,21,23,25,27,29,31,33,35,37,39,41,43,45,47,49,51,53,55,57,59,61,63,65,67,69,71,73,75,77,79,81,83,85,87,89,91,93,95,97,99,101,103,105,107,-1,109,-1,111,113,115,-1,117,119,121,123,125,127,129,131,-1,133,135,137,139,141,143,145,147,149,151,153,155,157,159,161,163,165,167,169,171,173,175,177,179,181,-1,183,185,187,189,191,193,195,197,199,201,203,205,207,209,211,213,215,217,219,-1,-1,-1,221,223,225,-1,-1,-1,-1,-1,-1,-1,-1,-1,-1,-1,-1,-1,-1,-1,-1,-1,-1,-1,-1,-1,-1,-1,-1,-1,-1,-1,-1,-1,-1,-1,-1,-1,-1,-1,-1,-1,-1,-1,-1,-1,-1,-1,-1,-1,-1,-1,-1,-1,-1,-1,-1,-1,-1,-1,-1,-1,-1,-1,-1,-1,-1,-1,-1,-1,-1,-1,-1,-1,-1,-1,-1,-1,-1,-1,-1,-1,-1,-1,-1,-1,-1,-1,-1,-1,-1,-1,-1,-1,-1,-1,-1,-1,-1,-1,-1,-1,-1,-1,-1,-1,-1,-1,-1,-1,-1],"loss_changes":[1.9680227E3,5.2644646E1,4.6071777E1,4.787178E0,7.8255825E0,9.740967E0,9.467163E0,1.585434E0,2.6220644E0,4.5633717E0,6.942749E0,4.552475E0,2.7745628E0,5.290344E0,2.895813E0,7.9125977E-1,2.8440578E0,1.9012563E0,1.3114914E0,2.8548472E0,3.71315E0,1.8319383E0,3.1481438E0,2.4368744E0,3.4657593E0,3.2049446E0,9.256109E-1,2.9262848E0,5.337158E0,1.4387693E0,2.0267944E0,1.7332458E-1,6.4467955E-1,1.8788843E0,1.2532063E0,2.3472934E0,8.01175E-1,9.579611E-1,1.4096504E0,2.2999997E0,3.1559277E-1,1.8274841E0,1.8217411E0,2.6295338E0,1.817225E0,2.332508E0,2.8168697E0,1.795763E0,2.3487992E0,3.0180206E0,2.960126E0,3.336853E0,1.6710358E0,4.4023988E-1,0E0,2.8926086E0,0E0,1.9319E0,1.6616516E0,4.2656252E-1,0E0,1.7601318E0,2.3024216E0,3.622818E-1,1.3416934E0,3.4854168E-1,4.7543144E-1,8.2589626E-1,1.2408962E0,0E0,6.767524E-1,1.2887036E0,4.3431625E0,3.5377607E-1,1.4313774E0,2.7045915E0,5.346575E-1,1.7424977E0,1.1642333E0,9.560008E-1,2.3422112E0,1.825E-1,1.3667129E-1,1.0831041E0,1.5705357E0,1.2408962E0,1.2038629E0,1.736991E0,1.0783749E0,1.8729522E0,2.8141053E0,2.1930723E0,1.1603177E0,2.0038843E0,1.8270712E0,0E0,7.389555E-1,2.2891846E0,4.3121538E-1,1.7068481E0,2.2278566E0,4.7542858E-1,2.4009962E0,1.4516827E0,3.1973667E0,1.1904335E0,1.0126754E0,5.064462E-1,6.9854164E-1,3.2225494E0,3.8194504E0,1.3863792E0,4.2656252E-1,1.3969727E0,2.6951065E0,0E0,0E0,0E0,1.0446167E0,2.2820926E0,2.2096863E0,0E0,0E0,0E0,0E0,0E0,0E0,0E0,0E0,0E0,0E0,0E0,0E0,0E0,0E0,0E0,0E0,0E0,0E0,0E0,0E0,0E0,0E0,0E0,0E0,0E0,0E0,0E0,0E0,0E0,0E0,0E0,0E0,0E0,0E0,0E0,0E0,0E0,0E0,0E0,0E0,0E0,0E0,0E0,0E0,0E0,0E0,0E0,0E0,0E0,0E0,0E0,0E0,0E0,0E0,0E0,0E0,0E0,0E0,0E0,0E0,0E0,0E0,0E0,0E0,0E0,0E0,0E0,0E0,0E0,0E0,0E0,0E0,0E0,0E0,0E0,0E0,0E0,0E0,0E0,0E0,0E0,0E0,0E0,0E0,0E0,0E0,0E0,0E0,0E0,0E0,0E0,0E0,0E0,0E0,0E0,0E0,0E0,0E0,0E0,0E0,0E0,0E0,0E0,0E0,0E0,0E0],"parents":[2147483647,0,0,1,1,2,2,3,3,4,4,5,5,6,6,7,7,8,8,9,9,10,10,11,11,12,12,13,13,14,14,15,15,16,16,17,17,18,18,19,19,20,20,21,21,22,22,23,23,24,24,25,25,26,26,27,27,28,28,29,29,30,30,31,31,32,32,33,33,34,34,35,35,36,36,37,37,38,38,39,39,40,40,41,41,42,42,43,43,44,44,45,45,46,46,47,47,48,48,49,49,50,50,51,51,52,52,53,53,55,55,57,57,58,58,59,59,61,61,62,62,63,63,64,64,65,65,66,66,67,67,68,68,70,70,71,71,72,72,73,73,74,74,75,75,76,76,77,77,78,78,79,79,80,80,81,81,82,82,83,83,84,84,85,85,86,86,87,87,88,88,89,89,90,90,91,91,92,92,93,93,94,94,96,96,97,97,98,98,99,99,100,100,101,101,102,102,103,103,104,104,105,105,106,106,107,107,108,108,109,109,110,110,111,111,112,112,113,113,114,114,118,118,119,119,120,120],"right_children":[2,4,6,8,10,12,14,16,18,20,22,24,26,28,30,32,34,36,38,40,42,44,46,48,50,52,54,56,58,60,62,64,66,68,70,72,74,76,78,80,82,84,86,88,90,92,94,96,98,100,102,104,106,108,-1,110,-1,112,114,116,-1,118,120,122,124,126,128,130,132,-1,134,136,138,140,142,144,146,148,150,152,154,156,158,160,162,164,166,168,170,172,174,176,178,180,182,-1,184,186,188,190,192,194,196,198,200,202,204,206,208,210,212,214,216,218,220,-1,-1,-1,222,224,226,-1,-1,-1,-1,-1,-1,-1,-1,-1,-1,-1,-1,-1,-1,-1,-1,-1,-1,-1,-1,-1,-1,-1,-1,-1,-1,-1,-1,-1,-1,-1,-1,-1,-1,-1,-1,-1,-1,-1,-1,-1,-1,-1,-1,-1,-1,-1,-1,-1,-1,-1,-1,-1,-1,-1,-1,-1,-1,-1,-1,-1,-1,-1,-1,-1,-1,-1,-1,-1,-1,-1,-1,-1,-1,-1,-1,-1,-1,-1,-1,-1,-1,-1,-1,-1,-1,-1,-1,-1,-1,-1,-1,-1,-1,-1,-1,-1,-1,-1,-1,-1,-1,-1,-1,-1,-1],"split_conditions":[8.042E1,6.823E1,8.764E1,5.636E1,5.178619E1,8.007083E1,2.0174E2,5.3285297E1,4.1303333E1,4.577E1,7.66E1,7.23E1,1.386E1,9.966E1,1.056E1,1.6980938E1,1.99775E1,4.6367157E1,6.8039894E1,9.510814E1,5.7048332E1,9.96E0,1.6271E2,3.53E0,2.997E1,3.7592947E0,3.1481232E1,3E0,4.3042084E1,3.83E0,2.976E1,5.325E1,3.23E0,3.672E1,6.1325E0,2.1E1,6.24E0,2.865E1,5.7136665E1,6.08E1,3.08E0,1.81E0,4.9E-1,8.764E1,3.124E1,3.96E1,1.2579E2,8.245E1,6.259667E1,2.3776E2,4.8E-1,3.961E1,6.815E1,2.0555E2,8.971276E0,9.085E1,2.2614377E0,3.5363E2,5.008202E1,2.23E1,7.8540263E0,2.8210463E-6,3.76E-1,7.675208E1,1.4806666E1,4.02E0,1.4376E2,2.2583334E1,4.5978022E-1,1.1929775E1,3.81E1,3.4448028E-2,4.269E1,2.331E1,7.56E0,2.2232986E2,9.613E1,4.878E1,3.427E1,8.655E1,5.0388332E1,6.938E1,1.6745E2,1.1865E2,3.685737E1,1.503074E1,5.4E-1,9.213333E0,2.6053233E0,2.0757776E1,3.7841988E1,4.2666668E-1,2.2232986E2,1.716E1,1.86E1,-7.224274E-3,9.627E1,6.18E0,1.625E1,8.564793E1,6.0057645E0,3.459E1,1.0113917E2,1.787E1,5.372E1,1.294E1,1.6885E2,7.279E1,2.2049E2,5.854E1,8.037E1,8.505E1,1.7438E2,2.387E1,5.405E1,2.3737755E0,-1.154747E-1,-4.6972427E-1,1.898E1,3.427E1,2.4E0,-3.3172245E0,3.6957757E0,1.9828775E1,-1.3671247E0,-7.356225E0,4.258775E0,-2.2648249E0,-6.4247495E-1,1.2194777E1,1.1724525E1,1.4359775E1,-5.645225E0,-2.9542246E0,2.9296253E0,1.0310775E1,1.8831732E0,1.2305871E1,5.9217753E0,1.0817757E0,-3.650249E-1,1.4907753E0,-4.9122468E-1,2.6497507E-1,6.8297753E0,-6.618246E-1,7.491005E-1,5.399526E0,9.632751E-1,-9.502491E-2,3.2109745E0,-6.9422454E-1,8.702775E0,2.1869755E0,4.703776E0,1.7637757E0,-6.102225E0,-1.23624705E-1,9.987755E-1,3.0532753E0,-2.6474763E-2,4.323625E0,3.6077577E-1,-7.0022434E-1,1.8587754E0,8.746752E-1,-9.922486E-2,9.7257465E-1,1.6909775E1,1.3102775E1,-6.6122437E-1,8.43746E-2,1.1057752E0,1.6827751E0,3.0079744E0,3.7477753E0,1.1360749E0,1.9497757E0,-2.6922455E-1,1.1857758E0,2.9111755E0,3.9696743E0,2.4679625E0,5.7457757E0,-6.912247E-1,7.6907754E0,2.6427758E0,1.6877519E-1,1.1363748E0,6.1907754E0,3.253725E0,3.2177582E-1,8.93721E0,1.1791756E0,-7.022476E-2,-4.3224335E-2,2.0750253E0,1.0767754E0,-1.8424343E-2,2.1619754E0,9.362754E-1,2.3199253E0,-1.5982246E0,2.3077546E-1,-2.2822419E-1,1.2877579E-1,-1.6046152E-2,1.457756E-1,-2.319748E-1,2.2359746E0,4.3516254E0,2.8053756E0,4.330975E0,1.2033774E1,1.1900776E1,-6.7122424E-1,8.922776E0,1.7549778E1,1.4555623E1,1.2493774E1,7.2097754E0,8.0777514E-1,7.422776E0,1.1157753E0,5.602775E0,9.661375E0,-1.2217247E0],"split_indices":[0,0,0,0,21,21,1,26,21,44,0,32,58,0,19,26,32,35,25,12,49,44,31,58,4,61,22,9,25,57,4,0,1,4,1,84,57,70,21,33,41,54,56,18,55,67,28,0,21,28,74,19,42,31,0,15,0,7,35,15,0,48,74,25,25,0,1,21,75,0,0,61,2,28,53,1,73,18,67,7,21,0,31,30,26,48,77,62,48,26,39,60,1,66,66,0,5,58,18,36,65,19,38,66,46,58,7,1,7,32,73,5,1,71,40,0,0,0,5,67,74,0,0,0,0,0,0,0,0,0,0,0,0,0,0,0,0,0,0,0,0,0,0,0,0,0,0,0,0,0,0,0,0,0,0,0,0,0,0,0,0,0,0,0,0,0,0,0,0,0,0,0,0,0,0,0,0,0,0,0,0,0,0,0,0,0,0,0,0,0,0,0,0,0,0,0,0,0,0,0,0,0,0,0,0,0,0,0,0,0,0,0,0,0,0,0,0,0,0,0,0,0,0,0,0,0,0],"split_type":[0,0,0,0,0,0,0,0,0,0,0,0,0,0,0,0,0,0,0,0,0,0,0,0,0,0,0,0,0,0,0,0,0,0,0,0,0,0,0,0,0,0,0,0,0,0,0,0,0,0,0,0,0,0,0,0,0,0,0,0,0,0,0,0,0,0,0,0,0,0,0,0,0,0,0,0,0,0,0,0,0,0,0,0,0,0,0,0,0,0,0,0,0,0,0,0,0,0,0,0,0,0,0,0,0,0,0,0,0,0,0,0,0,0,0,0,0,0,0,0,0,0,0,0,0,0,0,0,0,0,0,0,0,0,0,0,0,0,0,0,0,0,0,0,0,0,0,0,0,0,0,0,0,0,0,0,0,0,0,0,0,0,0,0,0,0,0,0,0,0,0,0,0,0,0,0,0,0,0,0,0,0,0,0,0,0,0,0,0,0,0,0,0,0,0,0,0,0,0,0,0,0,0,0,0,0,0,0,0,0,0,0,0,0,0,0,0,0,0,0,0,0,0,0,0,0,0],"sum_hessian":[6.7551E4,6.4135E4,3.416E3,6.1995E4,2.14E3,7.9E2,2.626E3,5.8613E4,3.382E3,2.67E2,1.873E3,4.81E2,3.09E2,1.33E3,1.296E3,5.8225E4,3.88E2,2.48E2,3.134E3,1.34E2,1.33E2,1.382E3,4.91E2,7.2E1,4.09E2,2.77E2,3.2E1,5.12E2,8.18E2,1.2E1,1.284E3,5.2163E4,6.062E3,3.5E1,3.53E2,1.21E2,1.27E2,2.488E3,6.46E2,7.3E1,6.1E1,5.8E1,7.5E1,1.14E2,1.268E3,2.69E2,2.22E2,2E1,5.2E1,3.47E2,6.2E1,2.19E2,5.8E1,3E1,2E0,4.71E2,4.1E1,8.5E1,7.33E2,8E0,4E0,1.122E3,1.62E2,5.1248E4,9.15E2,5E0,6.057E3,2.6E1,9E0,2E0,3.51E2,7.5E1,4.6E1,9.7E1,3E1,1.15E2,2.373E3,1.05E2,5.41E2,1.6E1,5.7E1,2E0,5.9E1,1.1E1,4.7E1,9E0,6.6E1,1.03E2,1.1E1,1.184E3,8.4E1,2.61E2,8E0,3E1,1.92E2,3E0,1.7E1,2.7E1,2.5E1,3.09E2,3.8E1,1.4E1,4.8E1,3.7E1,1.82E2,4.8E1,1E1,2.5E1,5E0,2.85E2,1.86E2,7.7E1,8E0,6.02E2,1.31E2,1E0,7E0,2E0,1.12E3,2.4E1,1.38E2,5.1246E4,2E0,2E0,9.13E2,2E0,3E0,5.163E3,8.94E2,2E0,2.4E1,7E0,2E0,2.19E2,1.32E2,4E0,7.1E1,2.5E1,2.1E1,2E0,9.5E1,1.3E1,1.7E1,1.03E2,1.2E1,2.275E3,9.8E1,1.6E1,8.9E1,5.07E2,3.4E1,2E0,1.4E1,4.7E1,1E1,1E0,1E0,5.3E1,6E0,4E0,7E0,4E1,7E0,2E0,7E0,5E1,1.6E1,9.3E1,1E1,9E0,2E0,7.85E2,3.99E2,1.3E1,7.1E1,4E0,2.57E2,6E0,2E0,7E0,2.3E1,2.8E1,1.64E2,1.6E1,1E0,1.4E1,1.3E1,1E0,2.4E1,7E0,3.02E2,1.4E1,2.4E1,1E0,1.3E1,6E0,4.2E1,1.1E1,2.6E1,1.33E2,4.9E1,4.6E1,2E0,4E0,6E0,1E0,2.4E1,2E0,3E0,3.5E1,2.5E2,1.43E2,4.3E1,5.9E1,1.8E1,7E0,1E0,1.7E1,5.85E2,9.1E1,4E1,3E0,1.117E3,1.2E1,1.2E1,1.35E2,3E0],"tree_param":{"num_deleted":"0","num_feature":"92","num_nodes":"227","size_leaf_vector":"1"}}]},"name":"gbtree"},"learner_model_param":{"base_score":"[8.0762245E1]","boost_from_average":"1","num_class":"0","num_feature":"92","num_target":"1"},"objective":{"name":"reg:quantileerror","quantile_loss_param":{"quantile_alpha":"[9.5E-1]"}}},"version":[3,2,0]}