{"learner":{"attributes":{"scikit_learn":"{\"_estimator_type\": \"regressor\"}"},"feature_names":[],"feature_types":[],"gradient_booster":{"model":{"cats":{"enc":[],"feature_segments":[],"sorted_idx":[]},"gbtree_model_param":{"num_parallel_tree":"1","num_trees":"500"},"iteration_indptr":[0,1,2,3,4,5,6,7,8,9,10,11,12,13,14,15,16,17,18,19,20,21,22,23,24,25,26,27,28,29,30,31,32,33,34,35,36,37,38,39,40,41,42,43,44,45,46,47,48,49,50,51,52,53,54,55,56,57,58,59,60,61,62,63,64,65,66,67,68,69,70,71,72,73,74,75,76,77,78,79,80,81,82,83,84,85,86,87,88,89,90,91,92,93,94,95,96,97,98,99,100,101,102,103,104,105,106,107,108,109,110,111,112,113,114,115,116,117,118,119,120,121,122,123,124,125,126,127,128,129,130,131,132,133,134,135,136,137,138,139,140,141,142,143,144,145,146,147,148,149,150,151,152,153,154,155,156,157,158,159,160,161,162,163,164,165,166,167,168,169,170,171,172,173,174,175,176,177,178,179,180,181,182,183,184,185,186,187,188,189,190,191,192,193,194,195,196,197,198,199,200,201,202,203,204,205,206,207,208,209,210,211,212,213,214,215,216,217,218,219,220,221,222,223,224,225,226,227,228,229,230,231,232,233,234,235,236,237,238,239,240,241,242,243,244,245,246,247,248,249,250,251,252,253,254,255,256,257,258,259,260,261,262,263,264,265,266,267,268,269,270,271,272,273,274,275,276,277,278,279,280,281,282,283,284,285,286,287,288,289,290,291,292,293,294,295,296,297,298,299,300,301,302,303,304,305,306,307,308,309,310,311,312,313,314,315,316,317,318,319,320,321,322,323,324,325,326,327,328,329,330,331,332,333,334,335,336,337,338,339,340,341,342,343,344,345,346,347,348,349,350,351,352,353,354,355,356,357,358,359,360,361,362,363,364,365,366,367,368,369,370,371,372,373,374,375,376,377,378,379,380,381,382,383,384,385,386,387,388,389,390,391,392,393,394,395,396,397,398,399,400,401,402,403,404,405,406,407,408,409,410,411,412,413,414,415,416,417,418,419,420,421,422,423,424,425,426,427,428,429,430,431,432,433,434,435,436,437,438,439,440,441,442,443,444,445,446,447,448,449,450,451,452,453,454,455,456,457,458,459,460,461,462,463,464,465,466,467,468,469,470,471,472,473,474,475,476,477,478,479,480,481,482,483,484,485,486,487,488,489,490,491,492,493,494,495,496,497,498,499,500],"tree_info":[0,0,0,0,0,0,0,0,0,0,0,0,0,0,0,0,0,0,0,0,0,0,0,0,0,0,0,0,0,0,0,0,0,0,0,0,0,0,0,0,0,0,0,0,0,0,0,0,0,0,0,0,0,0,0,0,0,0,0,0,0,0,0,0,0,0,0,0,0,0,0,0,0,0,0,0,0,0,0,0,0,0,0,0,0,0,0,0,0,0,0,0,0,0,0,0,0,0,0,0,0,0,0,0,0,0,0,0,0,0,0,0,0,0,0,0,0,0,0,0,0,0,0,0,0,0,0,0,0,0,0,0,0,0,0,0,0,0,0,0,0,0,0,0,0,0,0,0,0,0,0,0,0,0,0,0,0,0,0,0,0,0,0,0,0,0,0,0,0,0,0,0,0,0,0,0,0,0,0,0,0,0,0,0,0,0,0,0,0,0,0,0,0,0,0,0,0,0,0,0,0,0,0,0,0,0,0,0,0,0,0,0,0,0,0,0,0,0,0,0,0,0,0,0,0,0,0,0,0,0,0,0,0,0,0,0,0,0,0,0,0,0,0,0,0,0,0,0,0,0,0,0,0,0,0,0,0,0,0,0,0,0,0,0,0,0,0,0,0,0,0,0,0,0,0,0,0,0,0,0,0,0,0,0,0,0,0,0,0,0,0,0,0,0,0,0,0,0,0,0,0,0,0,0,0,0,0,0,0,0,0,0,0,0,0,0,0,0,0,0,0,0,0,0,0,0,0,0,0,0,0,0,0,0,0,0,0,0,0,0,0,0,0,0,0,0,0,0,0,0,0,0,0,0,0,0,0,0,0,0,0,0,0,0,0,0,0,0,0,0,0,0,0,0,0,0,0,0,0,0,0,0,0,0,0,0,0,0,0,0,0,0,0,0,0,0,0,0,0,0,0,0,0,0,0,0,0,0,0,0,0,0,0,0,0,0,0,0,0,0,0,0,0,0,0,0,0,0,0,0,0,0,0,0,0,0,0,0,0,0,0,0,0,0,0,0,0,0,0,0,0,0,0,0,0,0,0,0,0,0,0,0,0,0,0,0,0,0,0,0,0,0,0,0,0,0,0,0,0,0,0,0,0,0,0,0,0,0,0,0,0,0,0,0,0,0,0,0,0,0],"trees":[{"base_weights":[2.4350418E-4,-1.8735502E-2,1.06151365E-1,2.9700723E-2,-3.2111127E-2,9.903388E-2,5.16E-1,7.0629176E-3,9.028765E-2,-4.094998E-2,3.264612E-3,2.143778E-1,7.8078896E-2,9.402062E-2,-1.1392416E-2,6.0443927E-2,-5.8390764E-3,1.4627893E-1,2.5080169E-2,1.2058558E-2,-4.2719465E-2,2.0121782E-4,8.8709676E-1,1.3031389E-1,4.2837527E-1,7.268341E-2,3.8571426E-1,-3.6363646E-2,6.333333E-2,1.430044E-1,8.433723E-3,-1.34909265E-2,3.940113E-2,1.321592E-1,5.014493E-1,2.3673469E-1,1.8199855E-2,2.7943036E-1,-3.0029893E-2,-2.3625666E-2,-4.6190083E-2,2.6272567E-2,-4.103897E-2,-2.5000006E-3,9.183333E-2,6.3117445E-2,4.2829266E-1,2.8519416E-1,5.536638E-1,1.1514092E-1,3.387647E-2,2.4703388E-1,9.183333E-2,2.9999998E-1,-4.9333344E-3,6.368421E-1,1.2859303E-1,8.976743E-2,-1.1791919E-2,7.0646647E-3,-3.2823727E-2,8.813352E-3,1.8270269E-1,2.0097917E-1,7.155913E-2,9.999999E-2,7.4186045E-1,5.9999996E-1,4.242423E-2,3.402927E-3,1.0547944E-1,1.9230652E-3,5.4320985E-1,-4.8858706E-2,1.7411764E-1,1.3733332E-1,-2.5910137E-2,1.5259729E-2,-4.651196E-2,2.0301886E-1,1.7289618E-2,-4.3801542E-2,9.357142E-2,4.8710752E-2,7.025E-1,6.505E-1,2.1462263E-1,1.6122448E-1,5.8416665E-1,1.0781249E-1,6.2189054E-1,3.2922372E-1,1.0274333E-1,2.843835E-2,6.097561E-1,-4.8333346E-3,3.438202E-1,-2.5000006E-3,4.75E-2,-4.000001E-3,8.2E-2,5.829326E-3,2.469512E-2,3.0520832E-2,2.767856E-3,4.583333E-2,-1.5058152E-3,7.480915E-3,-3.088079E-4,4.6249997E-2,-3.3432243E-3,-1.971984E-3,4.148147E-3,4.4366196E-2,1.999999E-3,6.361111E-2,1.6996073E-2,-9.7593706E-4,1.2603231E-2,-4.7500012E-3,4.5624997E-2,-4.000001E-3,8.230769E-2,-3.7500008E-3,7.392857E-2,-4.8076934E-3,3.3125E-2,-9.103032E-4,8.720237E-3,8.169013E-3,8.142857E-2,7.6E-2,-4.932434E-3,3.471698E-2,8.8275865E-2,-4.994543E-3,1.6E-2,5.85E-2,-4.9107154E-3,-2.6136376E-3,3.578125E-2,-2.994245E-3,5.99156E-3,3.3653848E-2,-4.9612415E-3,-4.6612527E-3,1.1944443E-2,-3.7037048E-3,3.07027E-2,-7.33355E-4,5.824399E-3,4.75E-2,-4.409427E-3,5.0833333E-2,-4.9056616E-3,4.845494E-4,2.2099447E-2,8.866667E-2,1.2499999E-2,3.076922E-3,7.3465906E-2,1.3033706E-2,6.1944444E-2,1.0708954E-2,6.6785716E-2,6.679245E-2,-4.375001E-3,-4.7916677E-3,5.111111E-2,7.1314104E-2,2.9891303E-2,8.338235E-2,2.3521503E-2,1.527931E-2,7.1712206E-3,6.664236E-3,-5.8926357E-4,-4.6428586E-3,9.1607146E-2,4.027397E-2,7.0588225E-3],"categories":[],"categories_nodes":[],"categories_segments":[],"categories_sizes":[],"default_left":[0,0,0,0,0,0,0,0,0,0,0,0,0,0,0,0,0,0,0,0,0,0,0,0,0,0,0,0,0,0,0,0,0,0,0,0,0,0,0,0,0,0,0,0,0,0,0,0,0,0,0,0,0,0,0,0,0,0,0,0,0,0,0,0,0,0,0,0,0,0,0,0,0,0,0,0,0,0,0,0,0,0,0,0,0,0,0,0,0,0,0,0,0,0,0,0,0,0,0,0,0,0,0,0,0,0,0,0,0,0,0,0,0,0,0,0,0,0,0,0,0,0,0,0,0,0,0,0,0,0,0,0,0,0,0,0,0,0,0,0,0,0,0,0,0,0,0,0,0,0,0,0,0,0,0,0,0,0,0,0,0,0,0,0,0,0,0,0,0,0,0,0,0,0,0,0,0,0,0,0,0],"id":0,"left_children":[1,3,5,7,9,11,13,15,17,19,21,23,25,-1,27,29,31,33,35,37,39,41,43,45,47,49,51,53,-1,55,57,59,61,63,65,67,69,71,73,75,77,79,81,-1,-1,83,85,87,89,91,93,95,-1,97,-1,99,101,103,105,107,109,111,113,115,117,119,121,123,125,127,129,131,133,135,137,139,141,143,145,147,149,151,153,155,157,159,161,163,165,167,169,171,173,175,177,-1,179,-1,-1,-1,-1,-1,-1,-1,-1,-1,-1,-1,-1,-1,-1,-1,-1,-1,-1,-1,-1,-1,-1,-1,-1,-1,-1,-1,-1,-1,-1,-1,-1,-1,-1,-1,-1,-1,-1,-1,-1,-1,-1,-1,-1,-1,-1,-1,-1,-1,-1,-1,-1,-1,-1,-1,-1,-1,-1,-1,-1,-1,-1,-1,-1,-1,-1,-1,-1,-1,-1,-1,-1,-1,-1,-1,-1,-1,-1,-1,-1,-1,-1,-1,-1],"loss_changes":[1.3578325E2,3.711518E1,2.989576E1,1.7002533E1,1.4036701E1,2.437593E1,3.916225E1,6.216753E0,1.2307669E1,3.3694458E0,2.429987E1,2.7845848E1,1.415033E1,0E0,1.2948983E0,7.5433292E0,2.517197E0,9.030769E0,2.2659836E0,1.3073432E1,2.3021622E0,9.6186285E0,9.061718E-1,2.2298742E1,7.6814117E0,1.3829739E1,1.0631123E1,3.5071516E-1,0E0,4.75047E0,1.776042E0,2.4716444E0,4.609596E0,7.2673035E0,6.585205E0,3.4332712E0,1.951052E0,1.15646715E1,3.8677382E0,1.9700508E0,5.8241653E-1,8.6986885E0,1.2926302E0,0E0,0E0,8.357354E0,9.593594E0,7.540903E0,6.990158E0,1.060651E1,1.3724568E1,3.389944E0,0E0,1.825E-1,0E0,2.3882108E0,5.485491E0,2.8674955E0,1.3351421E0,2.073925E0,9.8149085E-1,8.0990314E-1,7.8460007E0,1.0919037E1,4.120829E0,1.4404374E0,2.7634182E0,1.5372324E0,8.7851477E-1,1.3558478E0,3.626262E0,3.0677454E0,5.08531E0,2.168045E-1,7.824855E0,2.7124767E0,1.8269999E0,3.2263703E0,4.938774E-1,6.6278315E0,5.2613873E0,5.366826E-1,4.1659045E0,6.740013E0,2.0162916E0,5.192993E0,3.5360498E0,3.9601789E0,3.1847992E0,2.0342624E0,5.710678E0,1.0192524E1,5.8768463E0,5.703148E0,8.283508E0,0E0,1.404355E0,0E0,0E0,0E0,0E0,0E0,0E0,0E0,0E0,0E0,0E0,0E0,0E0,0E0,0E0,0E0,0E0,0E0,0E0,0E0,0E0,0E0,0E0,0E0,0E0,0E0,0E0,0E0,0E0,0E0,0E0,0E0,0E0,0E0,0E0,0E0,0E0,0E0,0E0,0E0,0E0,0E0,0E0,0E0,0E0,0E0,0E0,0E0,0E0,0E0,0E0,0E0,0E0,0E0,0E0,0E0,0E0,0E0,0E0,0E0,0E0,0E0,0E0,0E0,0E0,0E0,0E0,0E0,0E0,0E0,0E0,0E0,0E0,0E0,0E0,0E0,0E0,0E0,0E0,0E0,0E0,0E0,0E0,0E0,0E0],"parents":[2147483647,0,0,1,1,2,2,3,3,4,4,5,5,6,6,7,7,8,8,9,9,10,10,11,11,12,12,14,14,15,15,16,16,17,17,18,18,19,19,20,20,21,21,22,22,23,23,24,24,25,25,26,26,27,27,29,29,30,30,31,31,32,32,33,33,34,34,35,35,36,36,37,37,38,38,39,39,40,40,41,41,42,42,45,45,46,46,47,47,48,48,49,49,50,50,51,51,53,53,55,55,56,56,57,57,58,58,59,59,60,60,61,61,62,62,63,63,64,64,65,65,66,66,67,67,68,68,69,69,70,70,71,71,72,72,73,73,74,74,75,75,76,76,77,77,78,78,79,79,80,80,81,81,82,82,83,83,84,84,85,85,86,86,87,87,88,88,89,89,90,90,91,91,92,92,93,93,94,94,96,96],"right_children":[2,4,6,8,10,12,14,16,18,20,22,24,26,-1,28,30,32,34,36,38,40,42,44,46,48,50,52,54,-1,56,58,60,62,64,66,68,70,72,74,76,78,80,82,-1,-1,84,86,88,90,92,94,96,-1,98,-1,100,102,104,106,108,110,112,114,116,118,120,122,124,126,128,130,132,134,136,138,140,142,144,146,148,150,152,154,156,158,160,162,164,166,168,170,172,174,176,178,-1,180,-1,-1,-1,-1,-1,-1,-1,-1,-1,-1,-1,-1,-1,-1,-1,-1,-1,-1,-1,-1,-1,-1,-1,-1,-1,-1,-1,-1,-1,-1,-1,-1,-1,-1,-1,-1,-1,-1,-1,-1,-1,-1,-1,-1,-1,-1,-1,-1,-1,-1,-1,-1,-1,-1,-1,-1,-1,-1,-1,-1,-1,-1,-1,-1,-1,-1,-1,-1,-1,-1,-1,-1,-1,-1,-1,-1,-1,-1,-1,-1,-1,-1,-1,-1],"split_conditions":[5.325E1,9.510814E1,4.6082764E1,3.542E1,1E1,1.807E1,3.375E1,6.039E1,2.919E1,8.1E-1,3.832625E1,2.7495549E0,1.33E2,2.2489998E0,9.731544E1,3.138E1,4.3344166E1,3.1902082E1,7.303606E-1,2.141E1,3E0,1E0,2.134E1,8.9E-1,7.5172286E0,9.510814E1,1.7902263E0,1.4375E2,3.0800018E-1,1.825E1,2.0424E2,4.275E0,5.68E0,1.5E1,3.23E1,3.127E1,2.7E1,1.9975065E1,8.936E1,1.14325E1,6.15E-1,7.5268224E-2,3.1E1,-3.2740002E0,1.4086078E0,1.4800525E2,7.783E1,5.47E0,8E0,1.567E1,3.832625E1,5.654E1,1.1785333E1,5.381E1,-5.315002E-1,3.144E1,1.1E1,3.184E1,1.7007805E-1,2.155E1,1.226E1,1.052E1,7.527726E-1,1.73E0,4.844084E0,5.815E1,5.679E1,7.894E1,5.509E1,7.385E1,6.627167E1,2.4E0,1.6182047E0,5.17E1,4.3035526E1,8.132E1,6.932E1,2.1195E1,1.6063E2,1.15E0,3.838E1,9.533333E-1,1E0,2.6529236E1,6E0,4.433E1,2.2232986E2,9.852408E1,2.277E1,1.9839E2,2.4E1,1.771E1,2.645E1,3.04E0,4.42E1,-9.6020025E-1,6.938E1,-4.3240004E0,2.3799972E-1,-3.5370004E0,8.227E0,1.5508392E0,4.3246994E0,9.4764E0,2.4262993E0,2.0110002E0,-5.45002E-1,4.3106494E0,-1.3542561E-1,2.1760004E0,-1.7431005E0,-3.5740203E-1,2.5628116E0,1.269235E1,5.837497E-1,1.4466498E1,3.8507996E0,-5.3960055E-1,2.4131994E0,-6.190003E-1,4.4199996E0,-2.4280002E0,5.6036344E0,-9.599991E-2,2.2049997E0,-1.2178005E0,1.018E0,-4.268515E-1,3.7903976E0,2.7919297E0,3.9557998E0,1.8651001E1,-5.2288003E0,1.7669046E1,2.1677E1,-3.9818E0,1.1399994E-1,4.6275E0,-5.184003E-1,-1.1200005E0,4.308E0,-1.5591012E0,1.0925999E0,1.75595E1,-2.7188005E0,-3.8400002E0,3.567E0,-1.0079006E0,3.8272495E0,-2.0890045E-1,1.6339997E0,5.3799975E-1,-1.5500007E0,6.5169997E0,-3.2376003E0,2.1739972E-1,4.30191E0,1.5676E1,1.2489998E0,4.067E0,6.0665E0,3.7039895E0,5.713001E0,1.5238485E0,6.3970003E0,7.231145E0,-2.0108001E0,-8.926007E-1,7.9300003E0,6.095E0,4.759299E0,9.685125E0,9.250098E0,3.9649994E0,2.0476995E0,1.2744491E0,-2.0100021E-1,-2.3600006E-1,2.3409996E0,3.3567998E0,2.3699996E0],"split_indices":[0,12,50,44,85,4,5,5,69,58,64,63,9,0,12,4,25,64,48,30,85,90,4,77,65,12,65,78,0,69,7,62,59,84,71,56,84,30,41,49,60,61,84,0,0,37,70,58,85,67,64,20,0,0,0,43,85,69,35,67,4,46,61,56,65,42,31,31,42,20,25,15,48,0,39,31,19,34,46,60,19,43,83,26,84,18,1,12,69,28,84,46,69,54,2,0,59,0,0,0,0,0,0,0,0,0,0,0,0,0,0,0,0,0,0,0,0,0,0,0,0,0,0,0,0,0,0,0,0,0,0,0,0,0,0,0,0,0,0,0,0,0,0,0,0,0,0,0,0,0,0,0,0,0,0,0,0,0,0,0,0,0,0,0,0,0,0,0,0,0,0,0,0,0,0,0,0,0,0,0,0],"split_type":[0,0,0,0,0,0,0,0,0,0,0,0,0,0,0,0,0,0,0,0,0,0,0,0,0,0,0,0,0,0,0,0,0,0,0,0,0,0,0,0,0,0,0,0,0,0,0,0,0,0,0,0,0,0,0,0,0,0,0,0,0,0,0,0,0,0,0,0,0,0,0,0,0,0,0,0,0,0,0,0,0,0,0,0,0,0,0,0,0,0,0,0,0,0,0,0,0,0,0,0,0,0,0,0,0,0,0,0,0,0,0,0,0,0,0,0,0,0,0,0,0,0,0,0,0,0,0,0,0,0,0,0,0,0,0,0,0,0,0,0,0,0,0,0,0,0,0,0,0,0,0,0,0,0,0,0,0,0,0,0,0,0,0,0,0,0,0,0,0,0,0,0,0,0,0,0,0,0,0,0,0],"sum_hessian":[6.7551E4,5.7286E4,1.0265E4,1.2396E4,4.489E4,1.0091E4,1.74E2,9.025E3,3.371E3,3.5916E4,8.974E3,1.55E3,8.541E3,9.6E1,7.8E1,1.756E3,7.269E3,1.813E3,1.558E3,1.16E3,3.4756E4,8.944E3,3E1,1.114E3,4.36E2,8.395E3,1.46E2,7.6E1,2E0,6.78E2,1.078E3,6.218E3,1.051E3,1.745E3,6.8E1,4.8E1,1.51E3,1.57E2,1.003E3,5.347E3,2.9409E4,5.48E3,3.464E3,1E0,2.9E1,9.1E2,2.04E2,2.05E2,2.31E2,4.008E3,4.387E3,1.17E2,2.9E1,2E0,7.4E1,1.8E1,6.6E2,2.14E2,8.64E2,3.014E3,3.204E3,8.67E2,1.84E2,8.16E2,9.29E2,2.6E1,4.2E1,1.6E1,3.2E1,1.292E3,2.18E2,7.7E1,8E1,9.19E2,8.4E1,7.4E1,5.273E3,1.53E2,2.9256E4,2.64E2,5.216E3,3.395E3,6.9E1,8.91E2,1.9E1,9.9E1,1.05E2,1.46E2,5.9E1,3.1E1,2E2,2.18E2,3.79E3,4.347E3,4E1,2.9E1,8.8E1,1E0,1E0,4E0,1.4E1,4.15E2,2.45E2,4.7E1,1.67E2,5E0,8.59E2,3.92E2,2.622E3,3E0,3.201E3,4.63E2,4.04E2,7E1,1.14E2,5.3E1,7.63E2,3.73E2,5.56E2,1.9E1,7E0,4E0,3.8E1,3E0,1.3E1,2.5E1,7E0,1.125E3,1.67E2,2.12E2,6E0,4E0,7.3E1,5.2E1,2.8E1,9.15E2,4E0,2.9E1,5.5E1,4.3E1,3.1E1,5.037E3,2.36E2,2.5E1,1.28E2,2.9239E4,1.7E1,8E1,1.84E2,3.258E3,1.958E3,1E0,3.394E3,1.7E1,5.2E1,7.11E2,1.8E2,1.4E1,5E0,1.2E1,8.7E1,8.8E1,1.7E1,1.33E2,1.3E1,5.2E1,7E0,2.3E1,8E0,1.55E2,4.5E1,3.3E1,1.85E2,1.449E3,2.341E3,2.057E3,2.29E3,1.3E1,2.7E1,7.2E1,1.6E1],"tree_param":{"num_deleted":"0","num_feature":"92","num_nodes":"181","size_leaf_vector":"1"}},{"base_weights":[-3.3302486E-3,-2.3803264E-2,7.329882E-2,2.0048227E-2,-3.4334753E-2,6.7554615E-2,4.6985292E-1,2.9927515E-3,8.287392E-2,-4.1010097E-2,-2.878519E-3,2.1888758E-1,5.768096E-2,-2.9500011E-2,9.409524E-2,6.6933535E-2,-8.57351E-3,1.5811372E-1,4.648358E-2,-2.0531842E-2,-4.4399895E-2,7.492129E-2,-1.41051E-2,1.7070967E-1,6.3595504E-1,2.6234513E-2,9.506284E-2,-4.9473695E-3,2.9166666E-1,6.043478E-1,5.6805205E-2,1.128205E-1,-1.06643215E-2,1.4781073E-1,6.678571E-1,9.692923E-2,-4.2953137E-3,-2.8833043E-2,3.4539957E-2,7.6840864E-3,-4.604669E-2,6.0563367E-2,5E-1,-2.9526675E-2,2.8126756E-2,2.7917609E-2,3.5427728E-1,2.499999E-2,7.4013156E-1,6.1308734E-2,1.817622E-4,-1.5648298E-2,1.0886346E-1,-3.7500008E-3,6.333333E-2,8.352941E-1,-4.285715E-3,2.935714E-1,4.2443857E-2,6.261681E-2,5.9090906E-1,3.7083334E-1,-1.1338165E-2,2.7025E-1,9.941059E-2,7.8749996E-1,-3.3333343E-3,5.85895E-2,2.040609E-1,-1.8074805E-2,4.1041666E-1,-3.0633653E-2,1.0877192E-1,3.237288E-1,6.2809796E-3,3.930328E-1,-4.993874E-3,-4.6606924E-2,-2.3244394E-2,4.1607141E-1,4.9386147E-2,1.4062499E-1,8.28125E-1,-3.112172E-2,4.53125E-1,3.9802632E-1,1.149526E-2,-1.1820664E-2,2.3642856E-1,8.181817E-2,4.647303E-1,-4.615386E-3,4.75E-2,8.0785716E-1,-4.285715E-3,8.16403E-2,-3.495328E-2,-2.8203377E-3,8.8214286E-2,-2.3606824E-2,1.8269229E-1,1.0311316E-1,4.344086E-1,-2.5000006E-3,8.9062504E-2,1.2127659E-2,6.1874997E-2,2.7717391E-2,3.270439E-3,5.55E-2,1.1734682E-3,-3.7500008E-3,8.3125E-2,7.9166666E-2,-4.285715E-3,-2.4119772E-3,9.158975E-4,5E-2,1.426923E-2,2.645739E-3,1.5574912E-2,-2.5000006E-3,8.6363636E-2,2.5999999E-2,3.6272535E-3,6.6785716E-2,1.6766304E-2,7.125E-2,-2.211406E-3,7.727273E-2,9.642856E-3,-3.293464E-3,5.1260493E-3,2.7884606E-3,7.9166666E-2,-4.8275874E-3,6.612903E-2,-1.01181635E-4,3.384615E-2,1.614035E-2,5.871212E-2,-8.6734816E-4,-4.6734386E-3,7.2560967E-3,-3.5657696E-3,2.3809522E-2,8.3125E-2,7.970679E-3,-2.9718888E-3,7.125E-2,-4.615386E-3,-2.5000006E-3,8.866667E-2,-3.944794E-3,8.4624434E-4,-4.285715E-3,7.5500004E-2,-4.8333346E-3,6.744681E-2,1.4933628E-2,-9.7477966E-4,-3.1722065E-3,1.6184209E-2,5.3061214E-3,6.340909E-2,7.9166666E-2,3.5638288E-3,5.339713E-2,1.21212E-3,8.862903E-2,1.7777776E-2,7.790835E-3,5.238095E-2,2.017857E-2,-4.793308E-3,2.6710525E-2,-5.336126E-4,2.0624999E-2,-2.6447587E-3,-4.6428586E-3,4.153846E-2,9.369386E-3,2.7499998E-2,8.890625E-2,1.9274194E-2],"categories":[],"categories_nodes":[],"categories_segments":[],"categories_sizes":[],"default_left":[0,0,0,0,0,0,0,0,0,0,0,0,0,0,0,0,0,0,0,0,0,0,0,0,0,0,0,0,0,0,0,0,0,0,0,0,0,0,0,0,0,0,0,0,0,0,0,0,0,0,0,0,0,0,0,0,0,0,0,0,0,0,0,0,0,0,0,0,0,0,0,0,0,0,0,0,0,0,0,0,0,0,0,0,0,0,0,0,0,0,0,0,0,0,0,0,0,0,0,0,0,0,0,0,0,0,0,0,0,0,0,0,0,0,0,0,0,0,0,0,0,0,0,0,0,0,0,0,0,0,0,0,0,0,0,0,0,0,0,0,0,0,0,0,0,0,0,0,0,0,0,0,0,0,0,0,0,0,0,0,0,0,0,0,0,0,0,0,0,0,0,0,0,0,0,0,0,0,0,0,0,0,0,0,0],"id":1,"left_children":[1,3,5,7,9,11,13,15,17,19,21,23,25,27,-1,29,31,33,35,37,39,41,43,45,47,49,51,-1,53,55,57,59,61,63,65,67,69,71,73,75,77,79,81,83,85,87,89,91,93,95,97,99,101,-1,-1,103,-1,105,107,109,111,113,115,117,119,121,-1,123,125,127,129,131,133,135,137,139,-1,141,143,145,147,149,151,153,155,157,159,161,163,165,167,-1,-1,169,-1,171,173,175,-1,177,179,181,183,-1,-1,-1,-1,-1,-1,-1,-1,-1,-1,-1,-1,-1,-1,-1,-1,-1,-1,-1,-1,-1,-1,-1,-1,-1,-1,-1,-1,-1,-1,-1,-1,-1,-1,-1,-1,-1,-1,-1,-1,-1,-1,-1,-1,-1,-1,-1,-1,-1,-1,-1,-1,-1,-1,-1,-1,-1,-1,-1,-1,-1,-1,-1,-1,-1,-1,-1,-1,-1,-1,-1,-1,-1,-1,-1,-1,-1,-1,-1,-1,-1,-1],"loss_changes":[1.0639652E2,2.4717371E1,3.2539795E1,1.1106077E1,9.061829E0,2.1049744E1,4.8017715E1,6.0301723E0,6.0518494E0,2.4704056E0,6.6006627E0,1.7232075E1,1.5554432E1,6.55918E-1,0E0,6.764114E0,1.7537758E0,3.687893E0,3.8248465E0,2.313321E0,2.620163E0,5.786112E0,4.301895E0,2.0304407E1,5.646099E0,6.5691533E0,9.239281E0,0E0,6.9854164E-1,3.4735994E0,4.159685E0,2.7712114E0,1.7494496E0,4.1687965E0,1.2007442E0,3.064486E0,4.2647357E0,1.0925417E0,5.416123E0,2.08256E1,3.7714767E-1,3.6470768E0,3.539063E0,3.7386403E0,1.0865978E1,3.6237175E0,1.0163818E1,4.701923E-1,4.0647736E0,5.999586E0,1.0927043E1,1.0634854E0,1.0018974E1,0E0,0E0,8.3148E-1,0E0,3.8468218E0,2.6382911E0,2.6742122E0,1.6925282E0,2.1230655E0,1.7759647E0,5.7899303E0,2.0879078E0,7.639203E-1,0E0,2.476233E0,3.2136202E0,2.1463623E0,2.6557565E0,8.1950617E-1,3.1264637E0,7.440818E0,1.46597E0,5.3899384E0,0E0,1.3931656E-1,8.493413E-1,1.8710566E0,2.1514378E0,1.7419109E0,8.2126045E-1,1.58993E0,2.4279506E0,9.410426E0,4.95591E0,1.2769907E0,5.070635E0,3.2170777E0,7.546253E0,0E0,0E0,3.301777E0,0E0,4.134077E0,1.6536334E0,2.7944632E0,0E0,4.2727265E-1,1.405467E0,8.529308E0,1.0046988E1,0E0,0E0,0E0,0E0,0E0,0E0,0E0,0E0,0E0,0E0,0E0,0E0,0E0,0E0,0E0,0E0,0E0,0E0,0E0,0E0,0E0,0E0,0E0,0E0,0E0,0E0,0E0,0E0,0E0,0E0,0E0,0E0,0E0,0E0,0E0,0E0,0E0,0E0,0E0,0E0,0E0,0E0,0E0,0E0,0E0,0E0,0E0,0E0,0E0,0E0,0E0,0E0,0E0,0E0,0E0,0E0,0E0,0E0,0E0,0E0,0E0,0E0,0E0,0E0,0E0,0E0,0E0,0E0,0E0,0E0,0E0,0E0,0E0,0E0,0E0,0E0,0E0,0E0,0E0,0E0,0E0,0E0],"parents":[2147483647,0,0,1,1,2,2,3,3,4,4,5,5,6,6,7,7,8,8,9,9,10,10,11,11,12,12,13,13,15,15,16,16,17,17,18,18,19,19,20,20,21,21,22,22,23,23,24,24,25,25,26,26,28,28,29,29,30,30,31,31,32,32,33,33,34,34,35,35,36,36,37,37,38,38,39,39,40,40,41,41,42,42,43,43,44,44,45,45,46,46,47,47,48,48,49,49,50,50,51,51,52,52,55,55,57,57,58,58,59,59,60,60,61,61,62,62,63,63,64,64,65,65,67,67,68,68,69,69,70,70,71,71,72,72,73,73,74,74,75,75,77,77,78,78,79,79,80,80,81,81,82,82,83,83,84,84,85,85,86,86,87,87,88,88,89,89,90,90,93,93,95,95,96,96,97,97,99,99,100,100,101,101,102,102],"right_children":[2,4,6,8,10,12,14,16,18,20,22,24,26,28,-1,30,32,34,36,38,40,42,44,46,48,50,52,-1,54,56,58,60,62,64,66,68,70,72,74,76,78,80,82,84,86,88,90,92,94,96,98,100,102,-1,-1,104,-1,106,108,110,112,114,116,118,120,122,-1,124,126,128,130,132,134,136,138,140,-1,142,144,146,148,150,152,154,156,158,160,162,164,166,168,-1,-1,170,-1,172,174,176,-1,178,180,182,184,-1,-1,-1,-1,-1,-1,-1,-1,-1,-1,-1,-1,-1,-1,-1,-1,-1,-1,-1,-1,-1,-1,-1,-1,-1,-1,-1,-1,-1,-1,-1,-1,-1,-1,-1,-1,-1,-1,-1,-1,-1,-1,-1,-1,-1,-1,-1,-1,-1,-1,-1,-1,-1,-1,-1,-1,-1,-1,-1,-1,-1,-1,-1,-1,-1,-1,-1,-1,-1,-1,-1,-1,-1,-1,-1,-1,-1,-1,-1,-1,-1,-1],"split_conditions":[4.7422916E1,9.510814E1,5.374921E1,3.681E1,1E1,1.567E1,8.837083E0,5.858E1,6.36E0,3E0,1.37E0,1.02E0,1.3106E2,4E0,1.2478422E0,2.1839602E0,1.017E1,2.2414688E1,5.481E1,8.332E1,3.4857106E-1,3.135119E1,9.852408E1,4.844084E0,4.1148083E1,9.510814E1,1.368E1,-1.8688501E0,2.2232986E2,1.115E1,1.88E1,3.350066E1,1.21E0,8.621833E1,5.152E1,1.0651872E1,2.5291306E1,2.0174E2,6.6791664E1,2.1195E1,9.89E1,4.4432083E1,1.4225794E1,6.5261665E1,5.52E0,5.29E0,5.701E1,1.823E2,1.153144E1,3.624E1,4.27175E1,2.4492876E2,1.7866266E2,-3.2198498E0,2.1419983E-1,3E0,-4.3827343E0,1.53E0,1.633E1,2.096E1,6.705E1,1.8679793E0,3.0865E1,3.363167E0,7.2704167E0,1.89E1,-2.7257004E-1,5.136049E-1,2.68E1,2.07E0,4.1415E1,1.6E0,1.6317827E1,2.471E1,1.88E0,3.9872146E-1,-4.6612206E0,7.75E-2,2.36E1,1.7188334E1,7.527E1,2.219E1,1.21E0,3.2843E2,6E-1,2.7402916E1,2.311E1,7.5E-1,3.6E-1,1.888E1,9.432E1,-6.842812E-1,4.288701E0,8.804E1,-8.267006E-1,2.2881575E2,3E0,3.19576E0,1.2663552E0,6.810754E-2,1.915E2,3.034E1,2.4466581E0,-4.1953E0,1.185753E1,1.0444743E1,5.186351E0,2.8028038E0,1.447915E0,2.8229356E0,8.35866E-1,-3.22469E0,2.8445427E0,6.3515434E0,-6.972069E-1,-1.615391E0,4.4467908E-1,7.6235595E0,4.8564525E0,1.024201E0,4.0207605E0,-5.5553203E0,8.06592E0,4.2519946E0,9.1818E-1,3.978E0,4.085405E0,3.9228494E0,-8.9104253E-1,2.637333E0,1.617685E0,-1.708907E0,2.3256328E0,1.6365544E0,5.022555E0,-3.0616853E-1,5.012861E0,-1.7063104E-3,1.88974E0,1.2042676E1,1.8307056E1,-5.719011E-1,-3.5430005E0,9.929994E-1,-2.5345008E0,4.845175E0,2.2062752E0,1.7165736E0,-6.723302E-1,2.9385993E0,-8.851097E-1,-2.2810975E-1,2.8831003E0,-1.3910004E0,2.4972394E-1,-8.387398E-1,2.8638902E0,-2.1191103E0,6.8386E0,2.4344745E0,-2.4379542E-1,-5.0320494E-1,5.6129723E0,1.090935E0,4.822817E0,1.1043308E1,7.238979E-1,5.4855E0,2.9134922E0,5.5194993E0,1.9353501E0,2.271074E0,3.8775322E0,1.4952205E0,-2.2556973E0,4.397115E0,-1.3168132E-1,4.1805E0,-6.216369E-1,-3.2249984E-1,1.07295E1,2.2013085E0,7.068142E0,1.4085635E1,1.8590091E0],"split_indices":[25,12,52,45,85,4,64,5,53,85,59,77,32,8,0,26,1,64,72,46,39,26,12,65,51,12,44,0,1,55,67,37,20,36,2,50,26,27,38,34,72,38,50,21,20,55,14,1,52,4,64,38,39,0,0,58,0,74,68,67,5,35,25,52,64,0,0,61,4,55,46,76,52,68,75,65,0,6,4,21,46,4,0,81,76,25,4,6,75,2,73,0,0,25,0,39,85,26,0,50,27,58,50,0,0,0,0,0,0,0,0,0,0,0,0,0,0,0,0,0,0,0,0,0,0,0,0,0,0,0,0,0,0,0,0,0,0,0,0,0,0,0,0,0,0,0,0,0,0,0,0,0,0,0,0,0,0,0,0,0,0,0,0,0,0,0,0,0,0,0,0,0,0,0,0,0,0,0,0,0,0,0,0,0,0],"split_type":[0,0,0,0,0,0,0,0,0,0,0,0,0,0,0,0,0,0,0,0,0,0,0,0,0,0,0,0,0,0,0,0,0,0,0,0,0,0,0,0,0,0,0,0,0,0,0,0,0,0,0,0,0,0,0,0,0,0,0,0,0,0,0,0,0,0,0,0,0,0,0,0,0,0,0,0,0,0,0,0,0,0,0,0,0,0,0,0,0,0,0,0,0,0,0,0,0,0,0,0,0,0,0,0,0,0,0,0,0,0,0,0,0,0,0,0,0,0,0,0,0,0,0,0,0,0,0,0,0,0,0,0,0,0,0,0,0,0,0,0,0,0,0,0,0,0,0,0,0,0,0,0,0,0,0,0,0,0,0,0,0,0,0,0,0,0,0,0,0,0,0,0,0,0,0,0,0,0,0,0,0,0,0,0,0],"sum_hessian":[6.7817E4,5.3519E4,1.4298E4,1.0364E4,4.3155E4,1.4095E4,2.03E2,8.152E3,2.212E3,3.56E4,7.555E3,8.62E2,1.3233E4,9.9E1,1.04E2,1.248E3,6.904E3,7.2E2,1.492E3,5.057E3,3.0543E4,9.52E2,6.603E3,7.74E2,8.8E1,7.188E3,6.045E3,9.4E1,5E0,2.2E1,1.226E3,1.16E2,6.788E3,7.07E2,1.3E1,7.48E2,7.44E2,4.395E3,6.62E2,9.36E2,2.9607E4,9.22E2,3E1,4.837E3,1.766E3,4.36E2,3.38E2,1.3E1,7.5E1,3.063E3,4.125E3,6.7E2,5.375E3,3E0,2E0,1.6E1,6E0,6.9E1,1.157E3,1.06E2,1E1,1.1E1,6.777E3,1.99E2,5.08E2,1.1E1,2E0,5.52E2,1.96E2,7.21E2,2.3E1,4.339E3,5.6E1,5.8E1,6.04E2,1.21E2,8.15E2,2.8896E4,7.11E2,2.7E1,8.95E2,1.5E1,1.5E1,4.822E3,1.5E1,7.5E1,1.691E3,3.67E2,6.9E1,9.8E1,2.4E2,1.2E1,1E0,6.9E1,6E0,2.529E3,5.34E2,4.112E3,1.3E1,6.45E2,2.5E1,5.283E3,9.2E1,1E0,1.5E1,4.6E1,2.3E1,4.5E1,1.112E3,9E0,9.7E1,3E0,7E0,5E0,6E0,4.174E3,2.603E3,7E1,1.29E2,2.22E2,2.86E2,1E0,1E1,5.4E1,4.98E2,1.3E1,1.83E2,3E0,7.18E2,1E1,1.3E1,4.221E3,1.18E2,5.1E1,5E0,2.8E1,3E1,5.92E2,1.2E1,5.6E1,6.5E1,9.7E1,2.8799E4,8.1E1,6.3E2,2E1,7E0,6.47E2,2.48E2,3E0,1.2E1,1E0,1.4E1,3.984E3,8.38E2,6E0,9E0,2.9E1,4.6E1,2.25E2,1.466E3,3.3E2,3.7E1,4.8E1,2.1E1,5E0,9.3E1,2.08E2,3.2E1,6.1E1,8E0,2.509E3,2E1,2.7E1,5.07E2,3.7E1,4.075E3,7E0,6.38E2,1.3E1,1.2E1,5.01E3,2.73E2,3.1E1,6.1E1],"tree_param":{"num_deleted":"0","num_feature":"92","num_nodes":"185","size_leaf_vector":"1"}},{"base_weights":[-6.053125E-3,-2.5705375E-2,5.9021182E-2,1.1691356E-2,-3.4586765E-2,5.4008875E-2,4.7715053E-1,-1.7578892E-2,3.7284147E-2,-4.073321E-2,-4.759928E-3,6.5600075E-2,-3.8417112E-2,-2.7222235E-2,9.402062E-2,6.570396E-2,-2.283825E-2,1.7336309E-1,2.8119355E-2,-2.2146082E-2,-4.3606147E-2,7.4490935E-2,-1.5875924E-2,1.6033302E-1,4.770396E-2,1.7224869E-2,-4.602759E-2,-4.9404777E-3,2.4285713E-1,-2.0809261E-2,2.0761904E-1,6.333333E-2,-2.3282368E-2,5.2556805E-2,3.043478E-1,-2.626355E-3,5.925029E-2,-3.0354908E-2,2.4677176E-2,8.83966E-4,-4.4979356E-2,6.850796E-2,8.142857E-2,5.4373755E-3,-3.9865106E-2,7.249824E-2,3.2441097E-1,6.828333E-2,9.156138E-3,-4.385966E-2,2.8461537E-1,-4.7332026E-2,2.9166666E-1,-4.000001E-3,6.333333E-2,-3.2163754E-2,6.333333E-2,-4.814816E-3,2.9240504E-1,-2.4306364E-2,1.9047618E-1,1.6969685E-2,5.3749996E-1,4.017856E-2,4.410377E-1,-6.361078E-3,2.4078946E-1,2.0549645E-1,4.047726E-2,1.8264721E-3,-3.671994E-2,5.6923074E-1,1.4306557E-2,3.4698275E-1,-4.993672E-3,-4.558696E-2,-2.1045404E-2,1.0367277E-1,-6.9642975E-3,-3.3083424E-2,2.3525516E-2,6.333333E-2,-4.0533256E-2,7.705088E-3,1.8304923E-1,1.2345667E-2,3.608918E-1,6.437964E-2,8.0125E-1,4.71077E-2,-1.3337285E-2,4.75E-2,-4.970589E-3,-4.7500012E-3,6.0249996E-1,5.499999E-2,-4.7978807E-2,-3.7500008E-3,6.333333E-2,-3.7869834E-3,3E-2,6.0434785E-2,1.614035E-2,-3.2478513E-3,-2.2605169E-5,1.1764695E-3,7.6E-2,-1.6333346E-3,3.2812502E-2,-3.7500008E-3,7.333334E-2,6.333333E-2,6.4814696E-4,-4.761906E-3,5.5523254E-2,4.4615376E-3,-1.7828895E-3,2.5925913E-3,7.041667E-2,3.2767296E-2,4.7177407E-3,1.249141E-3,9.522849E-3,-3.1013757E-3,2.5328947E-2,-3.888376E-3,5.733332E-3,8.444445E-2,-4.000001E-3,1.6811593E-2,-2.917354E-4,1.5462962E-2,5.063492E-2,-4.206884E-3,-4.7470033E-3,8.510637E-3,-4.650768E-3,-4.1025653E-3,1.385093E-2,-1.3848933E-3,6.333333E-2,-3.4929588E-3,6.333333E-2,-1.6252019E-3,7.1762404E-3,-4.375001E-3,8.223684E-3,2.8058243E-4,3.7083335E-2,5.1999997E-2,1.3545257E-2,6.25E-2,-3.6184222E-3,3.9149277E-2,4.7580632E-3,5.303922E-3,2.0271929E-2,9.2285715E-2,-4.166668E-3,3.6871114E-3,3.2129627E-2,4.583333E-2,-1.4449282E-3,8.2E-2,-4.166668E-3,4.75E-2,-4.444446E-3,8.333322E-4,-4.862602E-3],"categories":[],"categories_nodes":[],"categories_segments":[],"categories_sizes":[],"default_left":[0,0,0,0,0,0,0,0,0,0,0,0,0,0,0,0,0,0,0,0,0,0,0,0,0,0,0,0,0,0,0,0,0,0,0,0,0,0,0,0,0,0,0,0,0,0,0,0,0,0,0,0,0,0,0,0,0,0,0,0,0,0,0,0,0,0,0,0,0,0,0,0,0,0,0,0,0,0,0,0,0,0,0,0,0,0,0,0,0,0,0,0,0,0,0,0,0,0,0,0,0,0,0,0,0,0,0,0,0,0,0,0,0,0,0,0,0,0,0,0,0,0,0,0,0,0,0,0,0,0,0,0,0,0,0,0,0,0,0,0,0,0,0,0,0,0,0,0,0,0,0,0,0,0,0,0,0,0,0,0,0,0,0,0,0,0,0,0,0],"id":2,"left_children":[1,3,5,7,9,11,13,15,17,19,21,23,25,27,-1,29,31,33,35,37,39,41,43,45,47,49,51,-1,53,55,57,-1,59,61,63,65,67,69,71,73,75,77,-1,79,81,83,85,87,89,91,93,95,97,-1,-1,99,-1,-1,101,103,105,107,109,111,113,115,117,119,121,123,125,127,129,131,-1,133,135,137,139,141,143,-1,145,147,149,151,153,155,157,159,161,-1,-1,-1,163,165,167,-1,-1,-1,-1,-1,-1,-1,-1,-1,-1,-1,-1,-1,-1,-1,-1,-1,-1,-1,-1,-1,-1,-1,-1,-1,-1,-1,-1,-1,-1,-1,-1,-1,-1,-1,-1,-1,-1,-1,-1,-1,-1,-1,-1,-1,-1,-1,-1,-1,-1,-1,-1,-1,-1,-1,-1,-1,-1,-1,-1,-1,-1,-1,-1,-1,-1,-1,-1,-1,-1,-1,-1],"loss_changes":[8.663382E1,1.7281384E1,3.2905407E1,7.481241E0,7.7078705E0,1.6638103E1,4.3466385E1,2.0422096E0,6.639861E0,1.8605995E0,6.3308253E0,2.3384811E1,7.3380566E-1,5.5119246E-1,0E0,3.4051967E0,1.2920258E0,5.3007936E0,4.7791696E0,1.7953444E0,1.8446579E0,3.8569546E0,3.2223573E0,3.156704E1,9.207087E0,3.4261684E0,6.8468904E-1,0E0,7.9847616E-1,1.3053206E0,2.2910542E0,0E0,9.6357775E-1,3.0282397E0,5.7958755E0,2.2860765E0,6.8032255E0,8.138788E-1,3.928064E0,1.5935351E1,4.2497253E-1,2.330906E0,0E0,2.3265953E0,1.3593221E0,1.0234442E1,8.693222E0,2.1599663E1,3.4502704E0,5.423174E-1,4.14602E0,1.0310936E-1,6.9854164E-1,0E0,0E0,3.354663E-1,0E0,0E0,3.1307898E0,8.581846E-1,2.1284482E0,1.7151579E0,1.3787496E0,1.1152E0,5.9414577E0,1.4482367E0,3.7651327E0,5.43923E0,3.3697817E0,5.4334292E0,6.772871E-1,2.21347E0,1.8151917E0,3.4776402E0,0E0,1.8723297E-1,1.9689413E0,3.025116E0,1.2430712E0,1.3348691E0,4.3605533E0,0E0,1.1737499E0,1.6036726E0,8.397484E0,2.430911E0,6.5393143E0,1.1799398E1,4.1386356E0,4.2095146E0,1.3377934E0,0E0,0E0,0E0,2.8362913E0,4.3877777E-1,5.5401802E-2,0E0,0E0,0E0,0E0,0E0,0E0,0E0,0E0,0E0,0E0,0E0,0E0,0E0,0E0,0E0,0E0,0E0,0E0,0E0,0E0,0E0,0E0,0E0,0E0,0E0,0E0,0E0,0E0,0E0,0E0,0E0,0E0,0E0,0E0,0E0,0E0,0E0,0E0,0E0,0E0,0E0,0E0,0E0,0E0,0E0,0E0,0E0,0E0,0E0,0E0,0E0,0E0,0E0,0E0,0E0,0E0,0E0,0E0,0E0,0E0,0E0,0E0,0E0,0E0,0E0,0E0,0E0,0E0,0E0,0E0,0E0,0E0],"parents":[2147483647,0,0,1,1,2,2,3,3,4,4,5,5,6,6,7,7,8,8,9,9,10,10,11,11,12,12,13,13,15,15,16,16,17,17,18,18,19,19,20,20,21,21,22,22,23,23,24,24,25,25,26,26,28,28,29,29,30,30,32,32,33,33,34,34,35,35,36,36,37,37,38,38,39,39,40,40,41,41,43,43,44,44,45,45,46,46,47,47,48,48,49,49,50,50,51,51,52,52,55,55,58,58,59,59,60,60,61,61,62,62,63,63,64,64,65,65,66,66,67,67,68,68,69,69,70,70,71,71,72,72,73,73,75,75,76,76,77,77,78,78,79,79,80,80,82,82,83,83,84,84,85,85,86,86,87,87,88,88,89,89,90,90,94,94,95,95,96,96],"right_children":[2,4,6,8,10,12,14,16,18,20,22,24,26,28,-1,30,32,34,36,38,40,42,44,46,48,50,52,-1,54,56,58,-1,60,62,64,66,68,70,72,74,76,78,-1,80,82,84,86,88,90,92,94,96,98,-1,-1,100,-1,-1,102,104,106,108,110,112,114,116,118,120,122,124,126,128,130,132,-1,134,136,138,140,142,144,-1,146,148,150,152,154,156,158,160,162,-1,-1,-1,164,166,168,-1,-1,-1,-1,-1,-1,-1,-1,-1,-1,-1,-1,-1,-1,-1,-1,-1,-1,-1,-1,-1,-1,-1,-1,-1,-1,-1,-1,-1,-1,-1,-1,-1,-1,-1,-1,-1,-1,-1,-1,-1,-1,-1,-1,-1,-1,-1,-1,-1,-1,-1,-1,-1,-1,-1,-1,-1,-1,-1,-1,-1,-1,-1,-1,-1,-1,-1,-1,-1,-1,-1,-1],"split_conditions":[4.553417E1,9.510814E1,4.6082764E1,3.069E1,1E1,1E0,8.837083E0,3.4018257E1,1.946E1,3E0,1.37E0,1.899E1,1.602E1,4E0,1.0784607E0,4.0730414E-1,9.533333E-1,4E0,3.1465E1,7.853E1,3.4857106E-1,1.5741458E1,1E0,5.5E-1,2.931E1,6E0,9.82E1,-7.403682E-1,2.2232986E2,3.168E1,6.116667E0,2.5260392E-1,7.0793335E1,5.444E1,1.2942E2,6.477E1,5.2938123E0,2.6138334E1,1.25099325E1,2.141E1,9.89E1,1.9E1,2.59479E0,5.819E1,2.19E0,3.68E0,1.0296375E2,6.2385E1,4.654286E0,3.736338E0,1.5007789E0,5.153E1,7.019E1,-1.4099808E0,1.9277954E-1,2.8662083E1,7.3464125E-1,-3.3280668E-1,1E1,3.64E1,1.6266E2,2.5E1,2.666E1,1.226E1,1.1E1,5.923E1,1.6227E2,3E0,4.658E1,5E0,6.283E1,2.9201666E1,1.4433334E0,4.234826E-1,-4.1578484E0,6E0,3.3170834E0,1.526E1,1.29E2,9.085E1,2.1E1,4.3080277E0,3.1E1,3.8383052E0,3.542E1,1.031E1,8.81E1,2.2791666E1,2.963E1,1.4480937E2,2.7654167E1,5.5372316E-1,-7.9334843E-1,-2.1138313E0,4.926E1,1.476E1,4.938E1,-3.7911308E0,1.7228012E0,-5.3115535E-1,1.3576416E0,6.583341E0,4.603986E0,-1.8717577E0,1.1854805E-1,2.6178384E0,8.426013E0,-4.7310495E-1,9.539467E0,-4.0775003E0,9.095102E0,9.600467E0,3.4106464E0,-7.755008E-1,7.3170695E0,1.4509314E0,-8.242408E-1,8.0953425E-1,5.008083E0,6.731651E0,7.110447E0,4.809938E-1,3.3805592E0,-2.2319992E0,1.8612408E1,-1.6952208E0,3.1342647E0,4.7156243E0,-2.9639187E0,2.4580128E0,-1.417017E-2,1.2780455E1,1.6751389E1,-2.5257509E0,-3.7947006E0,2.3811557E0,-3.0430982E0,-1.4665574E0,2.1562898E0,-3.105297E-1,4.0923235E-1,-9.612284E-1,2.4267106E0,-8.0603087E-1,2.2888284E0,-1.6117009E0,4.0521994E0,4.96777E-2,1.0409501E0,9.482965E0,2.696081E0,9.667644E0,-1.6924714E-1,4.8397446E0,2.1381953E0,1.4772686E0,4.268423E0,2.2300696E0,-6.0294193E-1,1.1519393E0,4.8791385E0,2.3189523E0,-4.7189647E-1,1.3956101E0,-1.6057312E0,8.9502794E-1,-2.1589215E0,1.9616853E-1,-1.3037757E0],"split_indices":[25,12,50,20,85,90,64,38,67,85,59,69,67,8,0,61,43,85,25,44,39,64,90,75,69,83,5,0,1,17,47,0,21,17,33,75,26,25,39,30,73,84,0,5,43,59,38,60,63,37,65,30,1,0,0,25,0,0,82,19,29,84,16,66,84,73,33,83,19,83,14,23,60,65,0,85,51,44,8,15,51,0,84,61,43,41,5,64,66,39,23,0,0,0,17,4,1,0,0,0,0,0,0,0,0,0,0,0,0,0,0,0,0,0,0,0,0,0,0,0,0,0,0,0,0,0,0,0,0,0,0,0,0,0,0,0,0,0,0,0,0,0,0,0,0,0,0,0,0,0,0,0,0,0,0,0,0,0,0,0,0,0,0,0,0,0,0,0,0],"split_type":[0,0,0,0,0,0,0,0,0,0,0,0,0,0,0,0,0,0,0,0,0,0,0,0,0,0,0,0,0,0,0,0,0,0,0,0,0,0,0,0,0,0,0,0,0,0,0,0,0,0,0,0,0,0,0,0,0,0,0,0,0,0,0,0,0,0,0,0,0,0,0,0,0,0,0,0,0,0,0,0,0,0,0,0,0,0,0,0,0,0,0,0,0,0,0,0,0,0,0,0,0,0,0,0,0,0,0,0,0,0,0,0,0,0,0,0,0,0,0,0,0,0,0,0,0,0,0,0,0,0,0,0,0,0,0,0,0,0,0,0,0,0,0,0,0,0,0,0,0,0,0,0,0,0,0,0,0,0,0,0,0,0,0,0,0,0,0,0,0],"sum_hessian":[6.7741E4,5.2029E4,1.5712E4,9.985E3,4.2044E4,1.5527E4,1.85E2,4.658E3,5.327E3,3.486E4,7.184E3,1.3797E4,1.73E3,8.9E1,9.6E1,2.76E2,4.382E3,3.35E2,4.992E3,4.668E3,3.0192E4,8.83E2,6.301E3,2.191E3,1.1606E4,2.08E2,1.522E3,8.3E1,6E0,1.72E2,1.04E2,2E0,4.38E3,1.75E2,1.6E2,2.512E3,2.48E3,3.972E3,6.96E2,9.04E2,2.9288E4,8.77E2,6E0,3.337E3,2.964E3,1.428E3,7.63E2,7.566E3,4.04E3,1.7E2,3.8E1,1.517E3,5E0,4E0,2E0,1.7E2,2E0,2.6E1,7.8E1,4.36E3,2E1,1.64E2,1.1E1,5.5E1,1.05E2,2.475E3,3.7E1,2.81E2,2.199E3,6.56E2,3.316E3,1.2E1,6.84E2,1.15E2,7.89E2,2.8562E4,7.26E2,5.98E2,2.79E2,1.066E3,2.271E3,2E0,2.962E3,9.01E2,5.27E2,8E1,6.83E2,7.527E3,3.9E1,1.503E3,2.537E3,1E0,1.69E2,1.9E1,1.9E1,9E0,1.508E3,3E0,2E0,1.68E2,2E0,2.2E1,5.6E1,3.255E3,1.105E3,1.6E1,4E0,1.49E2,1.5E1,3E0,8E0,2E0,5.3E1,2E1,8.5E1,4.54E2,2.021E3,2.6E1,1.1E1,1.58E2,1.23E2,1.456E3,7.43E2,5.81E2,7.5E1,3.242E3,7.4E1,8E0,4E0,6.8E1,6.16E2,5.3E1,6.2E1,9.966E3,1.8596E4,1.4E2,5.86E2,1.16E2,4.82E2,2.77E2,2E0,1.064E3,2E0,1.245E3,1.026E3,2.887E3,7.5E1,8.9E2,1.1E1,6.4E1,4.63E2,5E0,7.5E1,6.22E2,6.1E1,6.958E3,5.69E2,3.4E1,5E0,1.45E3,5.3E1,5E0,2.532E3,1.4E1,5E0,1E0,8E0,1.7E1,1.491E3],"tree_param":{"num_deleted":"0","num_feature":"92","num_nodes":"169","size_leaf_vector":"1"}},{"base_weights":[-8.3787935E-3,-2.1380752E-2,7.350878E-2,-3.0293632E-2,2.2138815E-2,6.529288E-2,5.052023E-1,-3.6114417E-2,-4.2419913E-3,1.2749472E-2,8.982629E-2,1.359295E-1,4.8358522E-2,9.402062E-2,-4.935066E-3,-3.8948357E-2,-1.7078882E-2,-1.0264439E-2,3.5076518E-2,-1.4077373E-3,4.1240487E-2,8.2873836E-2,7.2307694E-1,7.604333E-2,2.8083655E-1,5.568047E-2,-4.4330865E-2,-3.9140355E-2,1.4583333E-1,-1.8021455E-2,7.9166666E-2,-3.410953E-2,-2.1226534E-3,2.703286E-2,4.7619048E-1,-2.074752E-2,1.9264903E-2,3.843619E-2,7.7272725E-1,3.368421E-1,7.011392E-2,8.6363636E-2,-3.3333343E-3,2.6972374E-2,2.8927037E-1,3.735065E-1,4.2307572E-3,9.0905026E-2,3.8349397E-2,-4.989859E-3,1.6304336E-2,-4.061795E-2,-1.686102E-2,7.6E-2,4.5312487E-2,2.8461537E-1,-2.0335833E-2,2.9999998E-1,-3.4605544E-2,-4.0710117E-3,1.7301586E-1,7.6E-2,2.3828113E-2,-4.500001E-3,8.708333E-2,-2.4812937E-2,1.4788732E-1,-3.382271E-3,4.763999E-2,2.1877661E-2,1.09140754E-1,-2.5000006E-3,8.55E-2,1.0781249E-1,6.057692E-1,1.8165937E-1,4.2059135E-2,7.764941E-3,3.2177418E-1,5.39726E-1,1.7391303E-1,2.2896174E-1,5.019704E-1,2.55E-1,-1.6528938E-2,7.9369485E-2,3.7586206E-1,-1.21721E-2,5.167589E-2,6.333333E-2,-2.6136376E-2,-6.515313E-4,-4.1720746E-3,-2.747254E-3,6.987178E-3,-4.814816E-3,4.583333E-2,1.4516129E-2,7.333334E-2,-9.729849E-5,-4.3507344E-3,-2.5000006E-3,4.75E-2,-3.5556143E-3,1.3636363E-2,1.836006E-3,-1.3555288E-3,3.7096772E-2,-1.8181831E-3,5.0499884E-4,1.4640522E-2,1.2127659E-2,-2.717693E-3,5.8421053E-2,-1.1320766E-3,7.043268E-3,-1.466913E-3,1.5104601E-2,2.3171925E-3,1.8045915E-3,3.064516E-2,7.841139E-3,3.719298E-2,6.25E-2,-1.1111123E-3,6.6666654E-3,8.416667E-2,7.392857E-2,1.4467591E-2,1.5616955E-3,1.930147E-2,2.670821E-5,3.9722223E-2,5.9464283E-2,9.428571E-3,7.199999E-3,7.673469E-2,8.639999E-3,4.6486486E-2,-4.868422E-3,2.9965753E-2,5.738764E-2,-9.615396E-4,-4.285715E-3,7.125E-2,-4.0366985E-3,1.8461538E-2,8.651215E-4,1.1576544E-2,2.0689645E-3,5.440678E-2,-1.9977815E-3,1.2075471E-2,4.805321E-3,3.6585364E-2,3E-2,-4.8809536E-3],"categories":[],"categories_nodes":[],"categories_segments":[],"categories_sizes":[],"default_left":[0,0,0,0,0,0,0,0,0,0,0,0,0,0,0,0,0,0,0,0,0,0,0,0,0,0,0,0,0,0,0,0,0,0,0,0,0,0,0,0,0,0,0,0,0,0,0,0,0,0,0,0,0,0,0,0,0,0,0,0,0,0,0,0,0,0,0,0,0,0,0,0,0,0,0,0,0,0,0,0,0,0,0,0,0,0,0,0,0,0,0,0,0,0,0,0,0,0,0,0,0,0,0,0,0,0,0,0,0,0,0,0,0,0,0,0,0,0,0,0,0,0,0,0,0,0,0,0,0,0,0,0,0,0,0,0,0,0,0,0,0,0,0,0,0,0,0,0,0,0,0,0,0,0,0,0,0],"id":3,"left_children":[1,3,5,7,9,11,13,15,17,19,21,23,25,-1,-1,27,29,31,33,35,37,39,41,43,45,47,49,51,53,55,-1,57,59,61,63,65,67,69,71,73,75,-1,-1,77,79,81,83,85,87,-1,89,91,93,-1,95,97,99,101,103,105,107,-1,109,-1,-1,111,113,115,117,119,121,-1,-1,123,125,127,129,131,133,135,137,139,141,143,145,147,149,151,153,-1,155,-1,-1,-1,-1,-1,-1,-1,-1,-1,-1,-1,-1,-1,-1,-1,-1,-1,-1,-1,-1,-1,-1,-1,-1,-1,-1,-1,-1,-1,-1,-1,-1,-1,-1,-1,-1,-1,-1,-1,-1,-1,-1,-1,-1,-1,-1,-1,-1,-1,-1,-1,-1,-1,-1,-1,-1,-1,-1,-1,-1,-1,-1,-1,-1,-1,-1],"loss_changes":[7.2038025E1,2.264887E1,3.284895E1,7.34898E0,6.3072343E0,1.0877518E1,4.1779644E1,2.1362762E0,2.0964575E0,3.5164917E0,5.2628736E0,1.5243118E1,4.984562E0,0E0,0E0,1.2289467E0,3.9286823E0,1.4903529E0,4.159775E0,2.32926E0,5.906782E0,3.8553972E0,1.410955E0,1.3029412E1,1.3173805E1,4.150215E0,1.8244243E-1,1.1332054E0,2.1880784E0,3.5989225E0,0E0,3.3420444E-1,1.9539195E0,2.6973047E0,4.3585544E0,2.0672379E0,1.8097664E0,3.3740935E0,7.433181E-1,3.4454498E0,3.5629869E0,0E0,0E0,5.7391605E0,6.637947E0,7.034046E0,6.80981E-1,7.34321E0,3.072106E0,0E0,1.2211618E0,1.2145119E0,1.9751862E0,0E0,1.2573061E0,2.3339946E0,2.2845674E0,1.825E-1,3.220923E-1,1.2047968E0,2.3911648E0,0E0,2.6508977E0,0E0,0E0,1.0186384E0,4.938712E0,1.3065618E0,3.1591814E0,2.5438604E0,4.388048E0,0E0,0E0,1.9751303E0,3.2503843E0,4.6157E0,3.6413112E0,2.782745E0,3.792552E0,7.7166405E0,4.0592303E0,3.6065855E0,7.473091E0,1.3932321E0,5.876337E-1,5.5508127E0,5.1862993E0,9.912344E-1,4.091196E0,0E0,3.4000272E-1,0E0,0E0,0E0,0E0,0E0,0E0,0E0,0E0,0E0,0E0,0E0,0E0,0E0,0E0,0E0,0E0,0E0,0E0,0E0,0E0,0E0,0E0,0E0,0E0,0E0,0E0,0E0,0E0,0E0,0E0,0E0,0E0,0E0,0E0,0E0,0E0,0E0,0E0,0E0,0E0,0E0,0E0,0E0,0E0,0E0,0E0,0E0,0E0,0E0,0E0,0E0,0E0,0E0,0E0,0E0,0E0,0E0,0E0,0E0,0E0,0E0,0E0,0E0,0E0,0E0,0E0],"parents":[2147483647,0,0,1,1,2,2,3,3,4,4,5,5,6,6,7,7,8,8,9,9,10,10,11,11,12,12,15,15,16,16,17,17,18,18,19,19,20,20,21,21,22,22,23,23,24,24,25,25,26,26,27,27,28,28,29,29,31,31,32,32,33,33,34,34,35,35,36,36,37,37,38,38,39,39,40,40,43,43,44,44,45,45,46,46,47,47,48,48,50,50,51,51,52,52,54,54,55,55,56,56,57,57,58,58,59,59,60,60,62,62,65,65,66,66,67,67,68,68,69,69,70,70,73,73,74,74,75,75,76,76,77,77,78,78,79,79,80,80,81,81,82,82,83,83,84,84,85,85,86,86,87,87,88,88,90,90],"right_children":[2,4,6,8,10,12,14,16,18,20,22,24,26,-1,-1,28,30,32,34,36,38,40,42,44,46,48,50,52,54,56,-1,58,60,62,64,66,68,70,72,74,76,-1,-1,78,80,82,84,86,88,-1,90,92,94,-1,96,98,100,102,104,106,108,-1,110,-1,-1,112,114,116,118,120,122,-1,-1,124,126,128,130,132,134,136,138,140,142,144,146,148,150,152,154,-1,156,-1,-1,-1,-1,-1,-1,-1,-1,-1,-1,-1,-1,-1,-1,-1,-1,-1,-1,-1,-1,-1,-1,-1,-1,-1,-1,-1,-1,-1,-1,-1,-1,-1,-1,-1,-1,-1,-1,-1,-1,-1,-1,-1,-1,-1,-1,-1,-1,-1,-1,-1,-1,-1,-1,-1,-1,-1,-1,-1,-1,-1,-1,-1,-1,-1,-1],"split_conditions":[5.567E1,1.2065E2,4.6082764E1,1.0113917E2,5.6158646E1,1.88E1,3.375E1,1E1,1.604E1,1E1,3.536315E1,6.08E-1,1E0,1.7723362E0,-2.3492132E-1,1.3455E2,3.0120832E1,2.831E1,4.0672855E1,3.2037083E1,4.5E1,8.564793E1,5.954E1,1.0183333E1,8.315E1,5.1380734E0,1.18E0,4.428E1,3.018E1,2.53E0,1.0570732E0,9.533333E-1,1.7805833E2,4.27E0,5.772E1,1.28575E1,4.37E0,1.42E0,3.72E1,2.2467E2,1.979E1,3.7436264E0,-3.6604784E0,1.164456E2,1.3908417E2,1.2E1,2.959E1,3.034E1,4.2966666E0,-1.2172488E0,1.602E1,9.12029E-2,1.3105E2,3.8171747E0,9.749E1,3.459E1,1E0,2.247E1,3.1E1,1.1364E2,8.270588E0,1.9406608E0,6.705E1,-4.1306725E0,9.646851E-1,1.08845174E-1,1.6E1,3.3304167E0,2.383E1,9.853E1,2.2515E2,-2.0421777E0,1.1090829E1,3.25E0,2.53E1,5.481E1,2.579E1,4.8408066E1,4.3891945E0,8.268526E0,9.966E1,3.347851E-1,2.6E1,3.15E0,1.0293E2,5.066E1,6E0,3.068E1,4.0672855E1,3.07708E-1,2E0,-1.1200927E0,-2.6338797E0,-1.2222418E0,1.6608142E0,-2.6163024E-1,2.8200614E0,9.856715E0,1.6649879E0,-4.417197E-2,-1.9304298E0,-5.578876E0,2.2734375E-1,-1.9791495E0,2.850476E0,5.848033E-1,-5.028199E-1,1.195823E1,-8.495329E-1,2.0231234E-1,2.582565E0,6.404184E0,-1.10281E0,5.896258E0,-9.9704486E-1,2.507307E0,-4.6113083E-1,4.1504726E0,8.2900286E-1,6.534845E-1,3.3451288E0,2.5037656E0,7.5598636E0,2.639644E0,6.95919E-1,1.6564178E-1,4.864741E0,2.7920709E0,4.0735493E0,2.717158E-1,7.7415247E0,4.846039E-2,5.8937006E0,1.1163203E1,2.981483E0,3.8727078E0,4.4429793E0,4.0045166E0,1.2069852E1,-4.9177393E-1,3.84175E0,4.662575E0,2.728814E0,-1.5477753E-1,1.5244187E0,-4.702793E-1,1.5045418E0,6.5129626E-1,2.7843957E0,2.9003112E0,1.6325527E1,-5.068695E-1,7.483814E0,1.7558453E0,1.6636196E0,1.3065773E0,-3.742323E-1],"split_indices":[0,33,50,38,25,66,5,85,56,85,50,75,90,0,0,46,64,18,52,25,10,36,20,64,5,52,77,19,1,40,0,43,35,15,17,76,59,6,0,7,67,0,0,39,38,85,43,58,64,0,68,35,31,0,44,68,90,0,10,78,26,0,18,0,0,65,84,64,66,5,33,0,0,55,67,71,55,24,50,52,14,63,84,58,40,18,85,66,52,0,84,0,0,0,0,0,0,0,0,0,0,0,0,0,0,0,0,0,0,0,0,0,0,0,0,0,0,0,0,0,0,0,0,0,0,0,0,0,0,0,0,0,0,0,0,0,0,0,0,0,0,0,0,0,0,0,0,0,0,0,0,0,0,0,0,0,0],"split_type":[0,0,0,0,0,0,0,0,0,0,0,0,0,0,0,0,0,0,0,0,0,0,0,0,0,0,0,0,0,0,0,0,0,0,0,0,0,0,0,0,0,0,0,0,0,0,0,0,0,0,0,0,0,0,0,0,0,0,0,0,0,0,0,0,0,0,0,0,0,0,0,0,0,0,0,0,0,0,0,0,0,0,0,0,0,0,0,0,0,0,0,0,0,0,0,0,0,0,0,0,0,0,0,0,0,0,0,0,0,0,0,0,0,0,0,0,0,0,0,0,0,0,0,0,0,0,0,0,0,0,0,0,0,0,0,0,0,0,0,0,0,0,0,0,0,0,0,0,0,0,0,0,0,0,0,0,0],"sum_hessian":[6.7658E4,5.8388E4,9.27E3,4.8463E4,9.925E3,9.098E3,1.72E2,3.9612E4,8.851E3,8.717E3,1.208E3,1.758E3,7.34E3,9.6E1,7.6E1,3.4478E4,5.134E3,7.676E3,1.175E3,5.824E3,2.893E3,1.196E3,1.2E1,1.245E3,5.13E2,6.803E3,5.37E2,3.4443E4,3.5E1,5.129E3,5E0,1.953E3,5.723E3,1.155E3,2E1,3.009E3,2.815E3,2.883E3,1E1,5.6E1,1.14E3,1E1,2E0,1.013E3,2.32E2,3.84E2,1.29E2,2.242E3,4.561E3,4.92E2,4.5E1,3.23E4,2.143E3,4E0,3.1E1,3.8E1,5.091E3,2E0,1.951E3,5.661E3,6.2E1,4E0,1.151E3,9E0,1.1E1,2.939E3,7E1,1.566E3,1.249E3,2.337E3,5.46E2,1E0,9E0,3.1E1,2.5E1,2.28E2,9.12E2,9.52E2,6.1E1,7.2E1,1.6E2,1.82E2,2.02E2,9E0,1.2E2,2.156E3,8.6E1,9.52E2,3.609E3,2E0,4.3E1,1.012E3,3.1288E4,1.91E3,2.33E2,2.6E1,5E0,3E1,8E0,2.774E3,2.317E3,1E0,1E0,1.941E3,1E1,1.682E3,3.979E3,3E1,3.2E1,9.99E2,1.52E2,4.6E1,2.893E3,1.8E1,5.2E1,2.07E2,1.359E3,2.38E2,1.011E3,2.307E3,3E1,4.9E2,5.6E1,5E0,2.6E1,8E0,1.7E1,1.3E1,2.15E2,7.77E2,1.35E2,9.35E2,1.7E1,2.7E1,3.4E1,2.4E1,4.8E1,1.24E2,3.6E1,3.7E1,1.45E2,1.77E2,2.5E1,6E0,3E0,1.08E2,1.2E1,7.33E2,1.423E3,2.8E1,5.8E1,9E2,5.2E1,3.569E3,4E1,2E0,4.1E1],"tree_param":{"num_deleted":"0","num_feature":"92","num_nodes":"157","size_leaf_vector":"1"}},{"base_weights":[-1.0289095E-2,-2.6701571E-2,3.893248E-2,6.285492E-3,-3.42906E-2,3.2553013E-2,3.4045583E-1,-5.5229645E-3,5.551929E-2,-3.9432444E-2,-7.614567E-3,4.2019106E-2,-3.441149E-2,-1.780823E-2,9.278195E-2,1.0202763E-2,-3.0211138E-2,1.3434704E-1,2.1077272E-2,-2.0712322E-2,-4.2111095E-2,5.8782514E-2,-2.0364102E-2,1.4512345E-1,3.5934303E-2,-4.18598E-2,4.53171E-3,2.875E-1,-3.533655E-2,8.231797E-2,-1.8938569E-3,-3.1184973E-2,4.583333E-1,2.5333333E-1,8.430379E-2,1.88967E-2,7.125E-2,1.7735848E-1,-2.3156801E-2,-5.377919E-3,-4.3404747E-2,5.210673E-2,8.444445E-2,-3.1426925E-2,1.6499216E-2,8.697829E-2,3.087264E-1,1.4554076E-2,5.9950504E-2,7.2784694E-3,-4.6781402E-2,7.6E-2,-7.033651E-3,-4.285715E-3,6.25E-1,-4.480199E-2,2.4285713E-1,2.3873873E-1,5.133214E-2,-5.1465086E-3,1.4157303E-1,6.3789748E-3,-3.9354324E-2,7.125E-2,-3.3333343E-3,2.117647E-1,7.2307694E-1,7.1576215E-2,6.222222E-1,1.3596127E-2,2.0138888E-1,6.222221E-2,7.3333335E-1,-4.304372E-2,-7.6731765E-3,2.7153283E-1,-4.7712065E-2,3.1034471E-2,-4.362516E-2,4.0156696E-2,3.0520833E-1,-3.568435E-2,3.61328E-2,1.2613064E-1,-3.4215448E-3,8.55E-2,7.381355E-2,5.3011364E-1,1.5039998E-1,2.776807E-2,-1.7748827E-2,7.840357E-2,2.7371783E-2,7.6E-2,-1.7207803E-2,2.1249999E-1,-4.7413804E-2,3.0892855E-1,-3.650001E-2,7.6E-2,-2.5000006E-3,1.1764695E-2,-4.9731196E-3,6.333333E-2,-4.000001E-3,4.191489E-2,1.0461538E-2,1.4864746E-4,1.46134E-2,-1.3921162E-3,3.8761457E-3,5.52E-2,-1.846155E-3,2.9245164E-4,4.6249997E-2,-4.014346E-3,2.0624999E-2,6.1944444E-2,1.5624999E-2,8.6363636E-2,-3.3333343E-3,6.0949856E-3,5.111111E-2,-3.3333343E-3,8.142857E-2,6.333333E-2,1.2087015E-3,5.25E-2,-4.3478375E-4,4.5624997E-2,-2.2368433E-3,8.3125E-2,-2.5000006E-3,-4.5129186E-3,1.6315788E-2,4.638949E-3,-2.0306918E-3,-4.8529427E-3,3.735577E-2,6.333333E-2,-4.9944087E-3,4.923077E-2,-4.9333344E-3,-3.9317445E-3,-4.5875306E-3,5.55E-2,3.502963E-3,8.499999E-3,6.368421E-2,-3.7591716E-3,3.7864067E-3,2.2625E-2,9.2164715E-5,-9.600012E-4,3.5066664E-2,-2.291423E-3,6.402438E-3,-8.676482E-4,1.8525897E-2,8.333322E-4,6.549296E-2,4.729718E-4,3.5480767E-2,1.6403378E-3,9.056961E-3,-1.906801E-3,3.3125E-2,3.7728369E-3,1.0522718E-2,1.0347257E-4,6.3410923E-3,-3.6423856E-3,7.125E-2,-3.3333343E-3,4.75E-2,-4.804363E-3,8.124999E-3,-4.6428586E-3,6.2000003E-2,4.75E-2,-3.9799344E-3,4.75E-2,-4.687501E-3],"categories":[],"categories_nodes":[],"categories_segments":[],"categories_sizes":[],"default_left":[0,0,0,0,0,0,0,0,0,0,0,0,0,0,0,0,0,0,0,0,0,0,0,0,0,0,0,0,0,0,0,0,0,0,0,0,0,0,0,0,0,0,0,0,0,0,0,0,0,0,0,0,0,0,0,0,0,0,0,0,0,0,0,0,0,0,0,0,0,0,0,0,0,0,0,0,0,0,0,0,0,0,0,0,0,0,0,0,0,0,0,0,0,0,0,0,0,0,0,0,0,0,0,0,0,0,0,0,0,0,0,0,0,0,0,0,0,0,0,0,0,0,0,0,0,0,0,0,0,0,0,0,0,0,0,0,0,0,0,0,0,0,0,0,0,0,0,0,0,0,0,0,0,0,0,0,0,0,0,0,0,0,0,0,0,0,0,0,0,0,0,0,0,0,0,0,0,0,0,0,0,0,0],"id":4,"left_children":[1,3,5,7,9,11,13,15,17,19,21,23,25,27,-1,29,31,33,35,37,39,41,43,45,47,49,51,53,55,57,59,61,63,65,67,69,-1,71,73,75,77,79,-1,81,83,85,87,89,91,93,95,-1,97,-1,99,101,103,105,107,109,111,113,115,-1,-1,117,119,121,123,125,127,129,131,133,135,137,139,141,143,145,147,149,151,153,155,-1,157,159,161,163,165,167,169,-1,171,173,175,177,179,-1,-1,181,-1,-1,-1,-1,-1,-1,-1,-1,-1,-1,-1,-1,-1,-1,-1,-1,-1,-1,-1,-1,-1,-1,-1,-1,-1,-1,-1,-1,-1,-1,-1,-1,-1,-1,-1,-1,-1,-1,-1,-1,-1,-1,-1,-1,-1,-1,-1,-1,-1,-1,-1,-1,-1,-1,-1,-1,-1,-1,-1,-1,-1,-1,-1,-1,-1,-1,-1,-1,-1,-1,-1,-1,-1,-1,-1,-1,-1,-1,-1,-1,-1],"loss_changes":[5.4745667E1,1.2722733E1,3.2585533E1,5.5268593E0,5.666771E0,1.05215225E1,7.387791E1,2.9773283E0,4.990029E0,1.736084E0,5.6543374E0,9.117369E0,5.965555E-1,1.1821464E0,0E0,4.0871167E0,1.4339666E0,3.307187E0,1.9178939E0,2.10448E0,1.4397163E0,5.599523E0,2.2854915E0,7.6784515E0,7.050125E0,4.1775417E-1,2.8973799E0,1.3647323E0,5.5859154E-1,3.24966E0,1.8733863E0,9.144256E-1,7.7354157E-1,3.0687656E0,2.6597893E0,1.2334886E0,0E0,3.347052E0,1.3194218E0,1.2110865E1,4.816208E-1,3.217987E0,0E0,1.2409773E0,2.8264515E0,5.993262E0,7.351177E0,3.1019878E0,3.8856678E0,2.9252305E0,2.6734543E-1,0E0,3.0557299E0,0E0,5.4550004E-1,5.690846E-2,7.9847616E-1,2.6420422E0,2.660218E0,1.5127524E0,5.855933E0,8.384695E-1,4.8254228E-1,0E0,0E0,3.365942E0,1.410955E0,1.776392E0,1.1603177E0,1.154864E0,2.3991156E0,1.5101035E0,6.890626E-1,8.140907E-1,1.6476879E0,4.491768E0,1.393646E0,3.2495098E0,2.8108597E-1,2.6756258E0,3.4512377E0,5.702729E-1,1.7135181E0,6.068174E0,1.4423807E0,0E0,5.425557E0,5.7256756E0,3.7203374E0,3.6791701E0,9.7774607E-1,4.4999046E0,2.22098E0,0E0,2.1853554E0,2.7395833E-1,1.3080525E-1,3.1239464E0,5.25187E-1,0E0,0E0,4.8405334E-1,0E0,0E0,0E0,0E0,0E0,0E0,0E0,0E0,0E0,0E0,0E0,0E0,0E0,0E0,0E0,0E0,0E0,0E0,0E0,0E0,0E0,0E0,0E0,0E0,0E0,0E0,0E0,0E0,0E0,0E0,0E0,0E0,0E0,0E0,0E0,0E0,0E0,0E0,0E0,0E0,0E0,0E0,0E0,0E0,0E0,0E0,0E0,0E0,0E0,0E0,0E0,0E0,0E0,0E0,0E0,0E0,0E0,0E0,0E0,0E0,0E0,0E0,0E0,0E0,0E0,0E0,0E0,0E0,0E0,0E0,0E0,0E0,0E0,0E0,0E0,0E0,0E0,0E0,0E0,0E0,0E0],"parents":[2147483647,0,0,1,1,2,2,3,3,4,4,5,5,6,6,7,7,8,8,9,9,10,10,11,11,12,12,13,13,15,15,16,16,17,17,18,18,19,19,20,20,21,21,22,22,23,23,24,24,25,25,26,26,27,27,28,28,29,29,30,30,31,31,32,32,33,33,34,34,35,35,37,37,38,38,39,39,40,40,41,41,43,43,44,44,45,45,46,46,47,47,48,48,49,49,50,50,52,52,54,54,55,55,56,56,57,57,58,58,59,59,60,60,61,61,62,62,65,65,66,66,67,67,68,68,69,69,70,70,71,71,72,72,73,73,74,74,75,75,76,76,77,77,78,78,79,79,80,80,81,81,82,82,83,83,84,84,86,86,87,87,88,88,89,89,90,90,91,91,92,92,94,94,95,95,96,96,97,97,98,98,101,101],"right_children":[2,4,6,8,10,12,14,16,18,20,22,24,26,28,-1,30,32,34,36,38,40,42,44,46,48,50,52,54,56,58,60,62,64,66,68,70,-1,72,74,76,78,80,-1,82,84,86,88,90,92,94,96,-1,98,-1,100,102,104,106,108,110,112,114,116,-1,-1,118,120,122,124,126,128,130,132,134,136,138,140,142,144,146,148,150,152,154,156,-1,158,160,162,164,166,168,170,-1,172,174,176,178,180,-1,-1,182,-1,-1,-1,-1,-1,-1,-1,-1,-1,-1,-1,-1,-1,-1,-1,-1,-1,-1,-1,-1,-1,-1,-1,-1,-1,-1,-1,-1,-1,-1,-1,-1,-1,-1,-1,-1,-1,-1,-1,-1,-1,-1,-1,-1,-1,-1,-1,-1,-1,-1,-1,-1,-1,-1,-1,-1,-1,-1,-1,-1,-1,-1,-1,-1,-1,-1,-1,-1,-1,-1,-1,-1,-1,-1,-1,-1,-1,-1,-1,-1,-1],"split_conditions":[4.37E1,9.510814E1,3.832625E1,3.681E1,1E1,1E0,1E0,6.36E0,6.33E0,3E0,1.86E0,1.567E1,6E0,6.38E0,8.836915E-1,6.574E1,9.835E1,6.83E1,4.2E1,1.9864744E0,9.12029E-2,2.4875E1,1.17E0,6E-1,5.6325E1,1.096E1,5.808E1,2.822E1,5.481E1,2.53E0,6.477E1,5.353E1,9.476E1,4.0196667E1,3.3254545E0,8.042E1,1.8187042E0,3.96E0,4.703E1,2.1195E1,1.516E1,1.1E1,2.1580772E0,4.784E1,8.44E0,1.818E1,1.067E2,3.07E1,5.2917084E1,1.898E1,2.8796542E0,7.964012E-1,1.2838799E-1,-1.5910171E0,5.441E1,2.5E-1,1.257E1,3E0,3.683442E0,9.621E1,4.6567574E-1,6.815E1,1.324E2,2.2507875E0,-3.0226998E0,1.741E1,6.04E0,2.729697E1,2.176E1,9.533333E-1,4.1415E1,6.417625E1,6.414E1,6.282E1,2.7057917E1,1.9985E1,4.06E0,2.4E0,6E0,3.3523335E1,1.1354E2,1.4103166E2,1.717E1,4.85E0,3.514E1,9.9626875E0,6.2075E0,1.12E0,1.2E1,1.340375E1,9.853E1,3.1445E1,1.7954E2,1.9757904E0,5.5655E1,5.845E1,1.8656125E2,7.73089E-2,5.154E1,6.800591E-1,-1.9311097E0,3.149E1,-2.2367728E0,7.970505E-1,-3.1397378E0,8.392159E0,2.7732072E0,4.7045794E-1,3.738573E0,-9.437569E-1,8.919692E-1,1.8127367E1,-2.7821872E-1,1.2868099E-1,4.910351E0,-1.6706065E0,2.9479249E0,8.231705E0,3.7984574E0,6.023247E0,-1.1513519E0,1.6362137E0,1.7138618E0,-1.6224502E0,2.9659219E0,2.0460968E-1,4.007226E-1,3.0294693E0,2.2469995E0,2.624443E0,-4.485081E-2,1.7896401E0,-4.520683E0,-2.2507894E0,4.137742E0,4.0390043E0,-4.6425173E-1,-5.273321E0,1.4696489E1,8.4677887E-1,-3.6788392E0,1.2543976E0,-2.029639E0,-2.0130334E0,-3.134646E0,5.213363E0,1.0209326E0,3.7272644E-1,2.4481049E0,-1.3929566E0,1.5605298E-1,2.3530347E0,4.315239E-2,-6.458768E-1,5.7968774E0,-1.0202403E0,1.8193314E0,-1.8413317E-1,3.526381E0,5.519959E-1,4.2860074E0,1.8028166E0,4.0615177E0,6.47519E-1,2.5892506E0,-8.686849E-1,4.0848312E-1,1.3985482E0,2.780582E0,2.6338076E-2,1.3048055E0,-7.687666E-1,1.0916596E-1,-4.237826E0,5.992096E-1,-1.1569995E0,6.437073E-2,-4.588852E-2,1.6727456E0,2.6889801E-2,-8.774024E-1,2.927672E0,-2.1861374E0],"split_indices":[25,12,64,45,85,90,89,64,59,85,59,66,83,58,0,5,73,29,8,64,35,62,75,75,18,46,30,69,71,46,74,73,5,23,75,0,0,56,46,34,78,9,0,15,20,41,7,69,51,67,37,0,63,0,0,76,3,83,48,73,65,42,18,0,0,69,57,65,4,43,46,38,5,18,25,31,45,18,85,38,27,34,69,56,18,0,64,58,85,64,71,51,27,0,25,0,38,61,31,0,0,17,0,0,0,0,0,0,0,0,0,0,0,0,0,0,0,0,0,0,0,0,0,0,0,0,0,0,0,0,0,0,0,0,0,0,0,0,0,0,0,0,0,0,0,0,0,0,0,0,0,0,0,0,0,0,0,0,0,0,0,0,0,0,0,0,0,0,0,0,0,0,0,0,0,0,0,0,0,0,0,0,0],"split_type":[0,0,0,0,0,0,0,0,0,0,0,0,0,0,0,0,0,0,0,0,0,0,0,0,0,0,0,0,0,0,0,0,0,0,0,0,0,0,0,0,0,0,0,0,0,0,0,0,0,0,0,0,0,0,0,0,0,0,0,0,0,0,0,0,0,0,0,0,0,0,0,0,0,0,0,0,0,0,0,0,0,0,0,0,0,0,0,0,0,0,0,0,0,0,0,0,0,0,0,0,0,0,0,0,0,0,0,0,0,0,0,0,0,0,0,0,0,0,0,0,0,0,0,0,0,0,0,0,0,0,0,0,0,0,0,0,0,0,0,0,0,0,0,0,0,0,0,0,0,0,0,0,0,0,0,0,0,0,0,0,0,0,0,0,0,0,0,0,0,0,0,0,0,0,0,0,0,0,0,0,0,0,0],"sum_hessian":[6.7765E4,5.082E4,1.6945E4,9.505E3,4.1315E4,1.6595E4,3.5E2,7.667E3,1.838E3,3.4638E4,6.677E3,1.454E4,2.055E3,2.18E2,1.32E2,4.684E3,2.983E3,5.58E2,1.28E3,4.337E3,3.0301E4,1.075E3,5.602E3,8.09E2,1.3731E4,1.725E3,3.3E2,1.1E1,2.07E2,6.72E2,4.012E3,2.978E3,5E0,1.64E2,3.94E2,1.277E3,3E0,5.2E1,4.285E3,1.031E3,2.927E4,1.067E3,8E0,4.309E3,1.293E3,5.98E2,2.11E2,7.265E3,6.466E3,1.57E2,1.568E3,4E0,3.26E2,6E0,5E0,2.01E2,6E0,1.1E2,5.62E2,3.924E3,8.8E1,5.32E2,2.446E3,3E0,2E0,1.52E2,1.2E1,3.86E2,8E0,1.242E3,3.5E1,4.4E1,8E0,1.875E3,2.41E3,1.36E2,8.95E2,8.6E1,2.9184E4,1.02E3,4.7E1,4.054E3,2.55E2,1.98E2,1.095E3,9E0,5.89E2,8.7E1,1.24E2,5.156E3,2.109E3,4.127E3,2.339E3,4E0,1.53E2,3E0,1.565E3,2.7E1,2.99E2,4E0,1E0,1.6E1,1.85E2,2E0,4E0,4.6E1,6.4E1,3.69E2,1.93E2,3.271E3,6.53E2,2.4E1,6.4E1,5.29E2,3E0,2.439E3,7E0,1.7E1,1.35E2,1E1,2E0,3.78E2,8E0,2E0,6E0,2E0,1.24E3,1.3E1,2.2E1,7E0,3.7E1,7E0,1E0,1.857E3,1.8E1,4.56E2,1.954E3,3.3E1,1.03E2,2E0,8.93E2,1.2E1,7.4E1,1.002E4,1.9164E4,9E0,1.011E3,2.9E1,1.8E1,3.952E3,1.02E2,3.9E1,2.16E2,1.24E2,7.4E1,8.5E2,2.45E2,3.39E2,2.5E2,1.7E1,7E1,7.3E1,5.1E1,4.367E3,7.89E2,2.102E3,7E0,1.641E3,2.486E3,1.352E3,9.87E2,1.5E2,3E0,2E0,1E0,1.558E3,7E0,1.3E1,1.4E1,1E0,2.98E2,1E0,1.5E1],"tree_param":{"num_deleted":"0","num_feature":"92","num_nodes":"183","size_leaf_vector":"1"}},{"base_weights":[-1.083895E-2,-2.1352386E-2,5.5575974E-2,-3.0984187E-2,1.349224E-2,4.718797E-2,5.315625E-1,-3.490975E-2,-7.6968124E-4,1.2906197E-4,5.05519E-2,1.0014502E-1,3.7707563E-2,-3.4558836E-2,9.3978494E-2,3.9820047E-3,-3.6464043E-2,-3.0797222E-3,6.368421E-1,3.809205E-2,-7.1675973E-3,8.131837E-2,1.3639333E-2,2.3238511E-1,3.4561202E-2,1.418226E-2,6.313444E-2,-4.924244E-3,2.9999998E-1,1.6885245E-1,-1.7963648E-2,-3.6754545E-2,1.7735848E-1,-4.136428E-3,5E-1,-4.166668E-3,8.8214286E-2,-4.287317E-3,1.01245835E-1,6.596044E-2,-1.064331E-2,7.811984E-2,6.55E-1,1.083938E-2,3.3846152E-1,3.7753302E-1,8.874457E-2,5.025E-1,2.4170343E-2,9.428487E-3,5.6911767E-1,4.2205882E-1,5.979296E-2,-2.5000006E-3,4.75E-2,-4.9285726E-3,3.0131578E-1,-3.595553E-2,1.169753E-1,-4.2614967E-2,-3.1174092E-2,-4.87805E-3,8.769231E-2,6.6569718E-3,-4.451994E-2,-4.000001E-3,8.142857E-2,-7.4860454E-3,7.125E-2,2.463687E-1,3.9740555E-2,2.2393161E-1,-1.1974802E-2,-3.1264413E-2,7.3710573E-3,1.3079818E-1,4.7794107E-2,8.3125E-2,-3.3333343E-3,4.583333E-1,9.051712E-3,7.6E-2,6.6666655E-2,-1.1111123E-2,4.2786068E-1,5.7710268E-2,4.5277777E-1,5.499999E-2,8.6363636E-2,-4.21795E-2,7.436892E-2,1.18035704E-1,1.1914313E-3,5.499999E-2,7.52E-1,6.1875E-1,-4.545456E-3,8.523473E-2,2.4610883E-2,1.3913043E-2,5.3804345E-2,-4.321821E-3,2.7321428E-2,2.4602272E-2,-3.6000013E-3,-4.297668E-3,2.8571427E-2,1.9594582E-3,-3.2527712E-3,-4.845588E-5,9.347132E-3,4.75E-2,-4.542159E-3,7.599999E-3,-2.7739264E-3,1.5932834E-2,4.9456522E-2,-5.698541E-4,1.2026142E-2,4.3173075E-2,5.681817E-3,-4.9754917E-3,2.0857142E-2,-3.1547118E-3,4.75E-2,-5.0420285E-4,3.4786107E-3,3.192623E-2,8.821362E-3,3.5166666E-2,3.9662807E-3,7.125E-2,-3.3333343E-3,6.699988E-4,4E-2,-4.375001E-3,4.75E-2,-4.8076934E-3,4.75E-2,3.0560747E-2,5.6105264E-2,-3.618433E-4,2.047619E-2,8.55E-2,-4.444446E-3,4.75E-2,-4.444446E-3,3E-2,-4.471651E-3,4.3043476E-2,5.760648E-3,2.5471015E-2,-1.4685326E-3,-1.7572774E-3,1.9434051E-3,4.75E-2,-4.444446E-3,9.047619E-2,-4.000001E-3,-4.000001E-3,7.525E-2,7.821686E-3,3.4375E-2,-2.340095E-3,5.8702873E-3],"categories":[],"categories_nodes":[],"categories_segments":[],"categories_sizes":[],"default_left":[0,0,0,0,0,0,0,0,0,0,0,0,0,0,0,0,0,0,0,0,0,0,0,0,0,0,0,0,0,0,0,0,0,0,0,0,0,0,0,0,0,0,0,0,0,0,0,0,0,0,0,0,0,0,0,0,0,0,0,0,0,0,0,0,0,0,0,0,0,0,0,0,0,0,0,0,0,0,0,0,0,0,0,0,0,0,0,0,0,0,0,0,0,0,0,0,0,0,0,0,0,0,0,0,0,0,0,0,0,0,0,0,0,0,0,0,0,0,0,0,0,0,0,0,0,0,0,0,0,0,0,0,0,0,0,0,0,0,0,0,0,0,0,0,0,0,0,0,0,0,0,0,0,0,0,0,0,0,0,0,0,0,0,0,0],"id":5,"left_children":[1,3,5,7,9,11,13,15,17,19,21,23,25,27,-1,29,31,33,35,37,39,41,43,45,47,49,51,-1,53,55,57,59,61,63,65,-1,-1,67,69,71,73,75,77,79,81,83,85,87,89,91,93,95,97,-1,-1,-1,99,101,103,105,107,-1,-1,109,111,-1,-1,113,-1,115,117,119,121,123,125,127,129,-1,-1,131,133,-1,135,137,139,141,143,145,-1,147,149,151,153,155,157,159,-1,161,163,-1,-1,-1,-1,-1,-1,-1,-1,-1,-1,-1,-1,-1,-1,-1,-1,-1,-1,-1,-1,-1,-1,-1,-1,-1,-1,-1,-1,-1,-1,-1,-1,-1,-1,-1,-1,-1,-1,-1,-1,-1,-1,-1,-1,-1,-1,-1,-1,-1,-1,-1,-1,-1,-1,-1,-1,-1,-1,-1,-1,-1,-1,-1,-1,-1,-1],"loss_changes":[4.7234238E1,1.960076E1,3.6886295E1,5.4268036E0,6.263723E0,4.55789E0,3.7009026E1,2.447918E0,7.75241E0,2.5755696E0,3.8056545E0,1.1951774E1,4.6098366E0,3.4882462E-1,0E0,5.6365542E0,2.4251175E0,2.789816E0,3.1990914E0,4.0123835E0,1.98299E0,3.3031034E0,1.3832984E0,9.494547E0,4.4757442E0,1.0559971E1,4.4171104E0,0E0,1.825E-1,5.302691E0,3.3424385E0,1.270359E0,8.427314E0,2.2816682E0,1.8994286E0,0E0,0E0,2.0642753E0,5.363555E0,4.3609605E0,2.7662416E0,2.8996172E0,1.2408962E0,1.2062067E0,1.4387693E0,4.444771E0,2.5835967E0,3.18467E0,3.0140603E0,3.5532253E0,3.1554232E0,3.1546206E0,3.2837944E0,0E0,0E0,0E0,4.3020315E0,2.7377243E0,3.2069097E0,2.2644615E0,1.3697052E0,0E0,0E0,2.5612133E0,5.3871655E-1,0E0,0E0,1.5154285E0,0E0,3.7881594E0,1.5520146E0,4.038415E0,1.9934554E0,5.1190734E-1,1.3528893E0,5.3008776E0,2.8423865E0,0E0,0E0,7.7354157E-1,1.383779E0,0E0,4.2656252E-1,5.0801283E-1,3.1014519E0,1.930697E0,3.6378896E0,4.3877777E-1,0E0,3.5197872E-1,3.0489984E0,5.08282E0,1.264486E0,4.3877777E-1,3.060875E0,2.1446877E0,0E0,3.8374176E0,2.5253482E0,0E0,0E0,0E0,0E0,0E0,0E0,0E0,0E0,0E0,0E0,0E0,0E0,0E0,0E0,0E0,0E0,0E0,0E0,0E0,0E0,0E0,0E0,0E0,0E0,0E0,0E0,0E0,0E0,0E0,0E0,0E0,0E0,0E0,0E0,0E0,0E0,0E0,0E0,0E0,0E0,0E0,0E0,0E0,0E0,0E0,0E0,0E0,0E0,0E0,0E0,0E0,0E0,0E0,0E0,0E0,0E0,0E0,0E0,0E0,0E0,0E0,0E0,0E0,0E0,0E0,0E0],"parents":[2147483647,0,0,1,1,2,2,3,3,4,4,5,5,6,6,7,7,8,8,9,9,10,10,11,11,12,12,13,13,15,15,16,16,17,17,18,18,19,19,20,20,21,21,22,22,23,23,24,24,25,25,26,26,28,28,29,29,30,30,31,31,32,32,33,33,34,34,37,37,38,38,39,39,40,40,41,41,42,42,43,43,44,44,45,45,46,46,47,47,48,48,49,49,50,50,51,51,52,52,56,56,57,57,58,58,59,59,60,60,63,63,64,64,67,67,69,69,70,70,71,71,72,72,73,73,74,74,75,75,76,76,79,79,80,80,82,82,83,83,84,84,85,85,86,86,87,87,89,89,90,90,91,91,92,92,93,93,94,94,95,95,97,97,98,98],"right_children":[2,4,6,8,10,12,14,16,18,20,22,24,26,28,-1,30,32,34,36,38,40,42,44,46,48,50,52,-1,54,56,58,60,62,64,66,-1,-1,68,70,72,74,76,78,80,82,84,86,88,90,92,94,96,98,-1,-1,-1,100,102,104,106,108,-1,-1,110,112,-1,-1,114,-1,116,118,120,122,124,126,128,130,-1,-1,132,134,-1,136,138,140,142,144,146,-1,148,150,152,154,156,158,160,-1,162,164,-1,-1,-1,-1,-1,-1,-1,-1,-1,-1,-1,-1,-1,-1,-1,-1,-1,-1,-1,-1,-1,-1,-1,-1,-1,-1,-1,-1,-1,-1,-1,-1,-1,-1,-1,-1,-1,-1,-1,-1,-1,-1,-1,-1,-1,-1,-1,-1,-1,-1,-1,-1,-1,-1,-1,-1,-1,-1,-1,-1,-1,-1,-1,-1,-1,-1],"split_conditions":[5.567E1,1E0,4.6082764E1,4.54E1,3.572E1,1.807E1,2.4541666E1,1E0,4.27175E1,2.303E1,2.919E1,7.419E1,1E0,2.7177875E2,1.069323E0,2.152979E1,5.374921E1,8E1,4.052E1,1.6480417E1,3.4484165E1,4.1955265E1,3.3254545E0,2.44E1,2.0098333E1,3.832625E1,9E-2,-2.9684916E-1,6.938E1,1.9648333E1,8.324E1,4.892E1,2.67E1,2.9E1,3.311E1,-9.95224E-1,8.240616E-1,3.724E1,1.64E1,2.376E1,2.936E1,4.306E1,3.31E1,1.5317812E0,3.43E1,6.5E-1,1.347E1,1.553E1,2.2559125E0,4.0527754E0,5.7739166E1,1.7305E2,2.991E1,-4.0382037E0,6.651383E-2,-3.5018413E0,5.23004E-1,1.1E1,9.003875E1,1.3455E2,1.265E0,-2.5207188E0,6.835594E-1,1.88E0,7.75E-2,-1.1055993E0,1.8274673E0,5.588316E-1,4.5227137E0,5.33318E1,1.26E0,1E1,3.0312084E1,7.521E1,4.554E1,1.825E1,8.1E-1,2.583966E0,-4.5555673E0,3.392E1,1.5501E2,1.1960189E1,5.436E1,3.4083736E1,5.7593884E0,4.9E-1,1.7526604E1,5.924E1,1.0498964E1,2.8796542E0,1.74E1,1.1E1,1.2817E2,5.02E0,9.966E1,3.14E0,-1.0536941E0,2.897E1,3.718E1,1.2698291E1,1.270827E1,-1.8219216E0,1.2971902E0,2.9255884E0,-5.5399495E-1,-2.5295894E0,4.104159E0,9.131277E-1,-1.5029911E0,-5.3016176E-3,2.4881864E0,2.4484017E0,-1.7717661E0,2.905448E0,-1.3287319E0,8.405343E0,6.61439E0,-7.239203E-2,2.57255E0,5.127696E0,2.3601003E0,-3.1194055E0,7.9026523E0,-1.5060792E0,9.114891E-1,-1.4975703E-1,1.2590393E0,7.399742E0,1.9508175E0,1.1466033E1,8.1839293E-1,7.3148197E-1,-6.057839E-1,4.1788706E-1,1.5618019E0,-1.9762799E0,7.090271E-1,-5.188497E-1,1.6333641E0,3.6524518E0,4.629255E0,1.603546E-2,3.981091E0,5.3428025E0,-1.2329262E0,6.6104393E0,-3.3546907E-1,5.3928834E-1,-5.077372E-1,3.2681153E0,1.3625216E0,2.579663E0,-1.7505726E-1,-4.6346876E-1,6.0033005E-1,4.201935E-1,-9.088066E-1,1.4234202E0,-2.6538238E-1,-1.5117676E0,1.4402347E1,2.6973484E0,1.20005865E1,-7.676169E-1,1.5331124E0],"split_indices":[0,91,50,19,2,4,64,59,64,68,69,70,91,32,0,36,52,8,0,51,38,68,77,68,51,64,6,0,0,34,42,1,53,69,0,0,0,66,46,33,19,41,17,37,46,58,3,44,65,24,23,81,68,0,0,0,65,9,51,46,60,0,0,75,74,0,0,65,0,39,77,82,38,42,20,67,56,0,0,20,19,0,19,24,65,6,26,0,0,37,68,82,31,20,15,58,0,56,2,0,0,0,0,0,0,0,0,0,0,0,0,0,0,0,0,0,0,0,0,0,0,0,0,0,0,0,0,0,0,0,0,0,0,0,0,0,0,0,0,0,0,0,0,0,0,0,0,0,0,0,0,0,0,0,0,0,0,0,0,0,0,0,0,0,0],"split_type":[0,0,0,0,0,0,0,0,0,0,0,0,0,0,0,0,0,0,0,0,0,0,0,0,0,0,0,0,0,0,0,0,0,0,0,0,0,0,0,0,0,0,0,0,0,0,0,0,0,0,0,0,0,0,0,0,0,0,0,0,0,0,0,0,0,0,0,0,0,0,0,0,0,0,0,0,0,0,0,0,0,0,0,0,0,0,0,0,0,0,0,0,0,0,0,0,0,0,0,0,0,0,0,0,0,0,0,0,0,0,0,0,0,0,0,0,0,0,0,0,0,0,0,0,0,0,0,0,0,0,0,0,0,0,0,0,0,0,0,0,0,0,0,0,0,0,0,0,0,0,0,0,0,0,0,0,0,0,0,0,0,0,0,0,0],"sum_hessian":[6.7644E4,5.84E4,9.244E3,4.5753E4,1.2647E4,9.085E3,1.59E2,4.0492E4,5.261E3,9.296E3,3.351E3,1.378E3,7.707E3,6.7E1,9.2E1,1.556E3,3.8936E4,5.243E3,1.8E1,1.498E3,7.798E3,1.827E3,1.524E3,4.56E2,9.22E2,4.004E3,3.703E3,6.5E1,2E0,1.82E2,1.374E3,3.8884E4,5.2E1,5.233E3,1E1,5E0,1.3E1,8.97E2,6.01E2,3.53E2,7.445E3,1.818E3,9E0,1.512E3,1.2E1,2.26E2,2.3E2,1.9E1,9.03E2,3.971E3,3.3E1,3.3E1,3.67E3,1E0,1E0,6.9E1,1.13E2,1.213E3,1.61E2,1.8963E4,1.9921E4,4E1,1.2E1,4.13E3,1.103E3,4E0,6E0,8.94E2,3E0,1.78E2,4.23E2,1.16E2,2.37E2,3.471E3,3.974E3,6.63E2,1.155E3,7E0,2E0,5E0,1.507E3,4E0,8E0,2.6E1,2E2,2.13E2,1.7E1,9E0,1E1,3.89E2,5.14E2,2.79E2,3.692E3,9E0,2.4E1,2.3E1,1E1,2.129E3,1.541E3,6.8E1,4.5E1,1.186E3,2.7E1,8.7E1,7.4E1,1.8943E4,2E1,5.17E2,1.9404E4,3.817E3,3.13E2,1E0,1.102E3,1.74E2,7.2E2,1.33E2,4.5E1,2.71E2,1.52E2,5.1E1,6.5E1,2.03E2,3.4E1,3.47E3,1E0,2.736E3,1.238E3,1.21E2,5.42E2,2.9E1,1.126E3,3E0,2E0,1.499E3,8E0,7E0,1E0,2.5E1,1E0,1.06E2,9.4E1,1.51E2,6.2E1,9E0,8E0,1E0,8E0,2E0,3.87E2,2.2E1,4.92E2,1.37E2,1.42E2,1.82E3,1.872E3,1E0,8E0,2E1,4E0,4E0,1.9E1,2.074E3,5.5E1,6.4E2,9.01E2],"tree_param":{"num_deleted":"0","num_feature":"92","num_nodes":"165","size_leaf_vector":"1"}},{"base_weights":[-1.2413295E-2,-2.5315959E-2,3.1686585E-2,4.821015E-3,-3.3040702E-2,2.4948359E-2,3.767918E-1,3.2039624E-2,-9.225864E-3,-3.8154222E-2,-9.204634E-3,4.750903E-2,9.580055E-3,-2.4687512E-2,8.533582E-1,4.951681E-2,-2.6130965E-2,-1.9004706E-2,2.1124696E-2,-2.2193052E-2,-4.0607553E-2,-1.0505186E-2,7.8749996E-1,3.7639666E-2,9.872708E-2,-2.2818716E-2,3.388202E-2,6.333333E-2,-3.702533E-2,-3.3333343E-3,8.6704546E-1,4.685024E-2,4.8235294E-1,5.4850735E-2,-4.1442726E-2,2.5678283E-2,-2.3794191E-2,-2.899216E-2,6.1280157E-2,-2.530028E-2,1.6689187E-1,-2.5447624E-2,-4.23188E-2,1.9263157E-1,-1.3165529E-2,-2.5000006E-3,8.6363636E-2,8.843515E-2,1.4336752E-2,2.0907069E-2,1.6478342E-1,5.411062E-3,-3.5570737E-2,1.6252143E-2,1.02492794E-1,-4.9664443E-3,1.5499999E-1,8.874016E-1,2.9166666E-1,3.666533E-2,1.4410645E-1,6.6666655E-2,8.444445E-2,1.2890613E-2,8.142857E-2,-4.5598857E-2,1.5333332E-1,1.5049998E-1,-4.3165586E-3,-3.520629E-2,-6.399144E-5,1.1904644E-3,-4.7770713E-2,1.0233563E-1,-1.9946927E-3,-2.9038653E-2,5.4726355E-2,5.964286E-1,6.557376E-2,-3.1096132E-2,2.971154E-1,-1.585745E-2,-4.3312743E-2,8.767122E-2,5.1739126E-1,3.8623966E-2,-1.8996483E-2,7.3551975E-2,2.1191859E-1,4.5499998E-1,1.3069635E-2,1.11976035E-1,-3.234267E-2,9.89556E-2,3.328859E-1,6.222222E-1,7.178935E-4,3.4351133E-2,-3.9210223E-2,-1.4704369E-2,4.4212732E-2,5.3077877E-2,2.6068547E-1,6.333333E-2,-4.375001E-3,5.6923074E-1,9.1565216E-1,6.333333E-2,-3.7500008E-3,1.2080837E-2,2.3774612E-3,9.238577E-3,2.9402984E-2,3E-2,-4.285715E-3,-2.276787E-3,2.4705881E-2,-4.70333E-3,3E-2,7.125E-2,-4.5833346E-3,4.789474E-2,7.2560967E-3,3.2812502E-2,-1.7537326E-3,4.6249997E-2,-3.5808948E-3,2.7199998E-2,-4.4834428E-4,-2.0295214E-3,2.4375E-2,1.5624989E-3,-4.9890364E-3,2.1732954E-2,5.186103E-3,5.6E-2,-9.543023E-4,5.036618E-4,-3.399095E-3,3.890625E-2,-8.529424E-4,7.727273E-2,-3.7500008E-3,4.0909093E-2,-9.803934E-4,-3.69526E-3,4.876846E-3,8.525E-2,-4.8484863E-3,1.9849623E-2,-4.9940203E-3,-3.7128776E-3,-4.682662E-3,2.7321428E-2,-2.7173925E-3,1.3636363E-2,8.0000006E-2,2.5785703E-3,2.9428571E-2,-2.03352E-3,1.7840909E-2,-3.540671E-3,9.208162E-3,6.5104156E-3,3.9220776E-2,7.9166666E-2,-4.000001E-3,-1.2508373E-3,3.2230564E-3,4.761905E-2,5.9183664E-3,-3.9260574E-3,6.333333E-2,2.4269229E-2,2.4999988E-3,1.9320387E-2,6.319149E-2,-3.3333343E-3,8.142857E-2,-3.6819184E-3,2.4449024E-3,2.5166666E-2,-2.9901972E-3,1.6E-2,-3.95925E-3,2.7199998E-2,-1.8461145E-3,2.8031914E-2,3.331699E-3,3.2625E-2,3.8573302E-3,1.9907834E-2,6.703125E-2,-4.000001E-3,8.444445E-2,4.583333E-2,9.3227275E-2],"categories":[],"categories_nodes":[],"categories_segments":[],"categories_sizes":[],"default_left":[0,0,0,0,0,0,0,0,0,0,0,0,0,0,0,0,0,0,0,0,0,0,0,0,0,0,0,0,0,0,0,0,0,0,0,0,0,0,0,0,0,0,0,0,0,0,0,0,0,0,0,0,0,0,0,0,0,0,0,0,0,0,0,0,0,0,0,0,0,0,0,0,0,0,0,0,0,0,0,0,0,0,0,0,0,0,0,0,0,0,0,0,0,0,0,0,0,0,0,0,0,0,0,0,0,0,0,0,0,0,0,0,0,0,0,0,0,0,0,0,0,0,0,0,0,0,0,0,0,0,0,0,0,0,0,0,0,0,0,0,0,0,0,0,0,0,0,0,0,0,0,0,0,0,0,0,0,0,0,0,0,0,0,0,0,0,0,0,0,0,0,0,0,0,0,0,0,0,0,0,0,0,0,0,0,0,0,0,0,0,0,0,0,0,0,0,0],"id":6,"left_children":[1,3,5,7,9,11,13,15,17,19,21,23,25,27,29,31,33,35,37,39,41,43,45,47,49,51,53,-1,55,-1,57,59,61,63,65,67,69,71,73,75,77,79,81,83,85,-1,-1,87,89,91,93,95,97,99,101,-1,103,105,107,109,111,113,-1,115,-1,117,119,121,123,125,127,129,131,133,135,137,139,141,143,145,147,149,151,153,155,157,159,161,163,165,167,169,171,173,175,177,179,181,183,185,187,189,191,-1,-1,193,195,-1,-1,-1,-1,-1,-1,-1,-1,-1,-1,-1,-1,-1,-1,-1,-1,-1,-1,-1,-1,-1,-1,-1,-1,-1,-1,-1,-1,-1,-1,-1,-1,-1,-1,-1,-1,-1,-1,-1,-1,-1,-1,-1,-1,-1,-1,-1,-1,-1,-1,-1,-1,-1,-1,-1,-1,-1,-1,-1,-1,-1,-1,-1,-1,-1,-1,-1,-1,-1,-1,-1,-1,-1,-1,-1,-1,-1,-1,-1,-1,-1,-1,-1,-1,-1,-1,-1,-1,-1,-1],"loss_changes":[3.846845E1,1.2176315E1,3.557615E1,4.080591E0,5.0740166E0,5.2041483E0,5.608121E1,3.6948128E0,2.0898266E0,1.3413582E0,7.629196E0,3.070671E0,7.031842E0,1.3224158E0,1.6551743E0,3.2022018E0,1.0438502E0,1.1402059E0,3.4551668E0,2.6886458E0,7.6966476E-1,3.9713323E0,7.639203E-1,6.036699E0,5.044531E0,1.378222E0,6.170921E0,0E0,3.9116862E-1,0E0,1.2872238E0,2.7464523E0,2.5024836E0,4.259545E0,5.7931864E-1,1.9325573E0,1.3026011E0,4.3308133E-1,2.475887E0,1.3466551E0,3.1813586E0,5.5043907E0,7.0142746E-1,3.192895E0,2.1901045E0,0E0,0E0,2.9322834E0,1.9472375E0,2.1955495E0,5.843011E0,3.450153E0,6.7240953E-1,3.5156991E0,8.139377E0,0E0,9.783958E-1,6.203308E-1,6.9854164E-1,2.726144E0,2.0121741E0,2.4285713E-1,0E0,1.0744356E0,0E0,3.5765815E-1,1.7031665E0,2.5251336E0,1.8385246E0,9.907851E-1,1.8805294E0,1.5371444E0,6.407106E-2,3.3435988E0,1.6003816E0,7.2512484E-1,4.2542057E0,1.5936284E0,1.5835159E0,1.3886049E0,1.0022267E1,7.081892E0,5.5732346E-1,1.5629609E0,2.367588E0,2.401585E0,1.7258754E0,2.8964381E0,4.5271435E0,1.6981666E0,1.7103562E0,3.1828506E0,1.3419191E0,4.0652742E0,6.101488E0,1.1603177E0,1.0556041E0,1.8367043E0,1.9725156E-1,2.0816405E0,5.4804926E0,3.141363E0,6.1250706E0,0E0,0E0,2.21347E0,4.4680023E-1,0E0,0E0,0E0,0E0,0E0,0E0,0E0,0E0,0E0,0E0,0E0,0E0,0E0,0E0,0E0,0E0,0E0,0E0,0E0,0E0,0E0,0E0,0E0,0E0,0E0,0E0,0E0,0E0,0E0,0E0,0E0,0E0,0E0,0E0,0E0,0E0,0E0,0E0,0E0,0E0,0E0,0E0,0E0,0E0,0E0,0E0,0E0,0E0,0E0,0E0,0E0,0E0,0E0,0E0,0E0,0E0,0E0,0E0,0E0,0E0,0E0,0E0,0E0,0E0,0E0,0E0,0E0,0E0,0E0,0E0,0E0,0E0,0E0,0E0,0E0,0E0,0E0,0E0,0E0,0E0,0E0,0E0,0E0,0E0,0E0,0E0,0E0,0E0,0E0,0E0],"parents":[2147483647,0,0,1,1,2,2,3,3,4,4,5,5,6,6,7,7,8,8,9,9,10,10,11,11,12,12,13,13,14,14,15,15,16,16,17,17,18,18,19,19,20,20,21,21,22,22,23,23,24,24,25,25,26,26,28,28,30,30,31,31,32,32,33,33,34,34,35,35,36,36,37,37,38,38,39,39,40,40,41,41,42,42,43,43,44,44,47,47,48,48,49,49,50,50,51,51,52,52,53,53,54,54,56,56,57,57,58,58,59,59,60,60,61,61,63,63,65,65,66,66,67,67,68,68,69,69,70,70,71,71,72,72,73,73,74,74,75,75,76,76,77,77,78,78,79,79,80,80,81,81,82,82,83,83,84,84,85,85,86,86,87,87,88,88,89,89,90,90,91,91,92,92,93,93,94,94,95,95,96,96,97,97,98,98,99,99,100,100,101,101,102,102,105,105,106,106],"right_children":[2,4,6,8,10,12,14,16,18,20,22,24,26,28,30,32,34,36,38,40,42,44,46,48,50,52,54,-1,56,-1,58,60,62,64,66,68,70,72,74,76,78,80,82,84,86,-1,-1,88,90,92,94,96,98,100,102,-1,104,106,108,110,112,114,-1,116,-1,118,120,122,124,126,128,130,132,134,136,138,140,142,144,146,148,150,152,154,156,158,160,162,164,166,168,170,172,174,176,178,180,182,184,186,188,190,192,-1,-1,194,196,-1,-1,-1,-1,-1,-1,-1,-1,-1,-1,-1,-1,-1,-1,-1,-1,-1,-1,-1,-1,-1,-1,-1,-1,-1,-1,-1,-1,-1,-1,-1,-1,-1,-1,-1,-1,-1,-1,-1,-1,-1,-1,-1,-1,-1,-1,-1,-1,-1,-1,-1,-1,-1,-1,-1,-1,-1,-1,-1,-1,-1,-1,-1,-1,-1,-1,-1,-1,-1,-1,-1,-1,-1,-1,-1,-1,-1,-1,-1,-1,-1,-1,-1,-1,-1,-1,-1,-1,-1,-1],"split_conditions":[4.466E1,9.510814E1,3.832625E1,2E0,1E1,9.510814E1,6.969646E1,2.493E1,1E1,3E0,3.1902082E1,2.7E1,1E1,2.068E1,2.8856598E1,4.6E1,1.2872E2,3.0251667E1,2.42E1,3.527E1,4.07E0,6.851183E-2,2.143E1,1E0,8.283334E0,3E0,1.0622084E1,8.95179E-1,4E0,-2.5676727E-2,1.42E0,3.603E1,1.771E1,7E0,3.5882E2,6E0,3.2626717E1,5.9051523E0,1.3229E2,1.0299E2,2.7402916E1,1.9595833E1,9.12029E-2,5.421534E-2,1.37E0,-4.0298158E-1,9.738037E-1,1.3381667E1,6.715281E-1,1.219E1,3E0,8.1197906E-1,1.11E0,3.862E1,2.957E2,-1.0084003E0,1.288E1,2.162E1,1.0978E2,1.844E1,5.237896E1,5.52E0,8.455298E0,2.8E1,6.7555696E-1,7.637E1,1.2124583E1,6E0,7.419E1,1.76E0,3.6051226E0,8.471881E0,2E-1,4.1E-1,3.9832983E-2,2.5545834E1,3.0665417E1,3.064E1,1.892E1,9.89E1,2.2473333E1,2.1195E1,6E0,2.7461666E1,3.137E1,3.221944E1,4.3814587E1,1E0,2.6397E2,2.2109E2,5.521E1,3.6997917E1,1.17400566E2,5.67E0,8.316E1,1.844E1,4.271E1,4.5066667E0,3.23E0,1.7170833E0,1.787E1,1E1,2.0875416E1,6.7555696E-1,-2.1619065E0,1.6E-1,2.729697E1,3.6199495E-1,-5.0534822E-2,5.2070065E0,7.9064065E-1,2.0938041E0,3.5269017E0,8.8809586E-1,-2.5439038E0,-3.9087826E-1,8.6409235E0,-1.8957407E0,8.2034E-1,1.3562126E0,-2.7413843E0,4.5452266E0,3.0046709E0,4.3753977E0,-9.032858E-1,4.2262316E0,-1.989122E0,1.6565115E1,-3.7840718E-1,-1.1162655E0,1.9703377E0,2.5508752E0,-9.757291E-1,4.6773796E0,1.952405E0,9.797082E0,-1.16006985E-1,4.2207357E-1,-1.3662204E0,4.161985E0,-3.4881204E-1,1.5988983E0,-1.9562114E0,6.5692453E0,1.3541616E0,-1.8894179E0,8.0342704E-1,3.8205812E0,-2.1687355E0,1.0620859E1,-3.0677717E0,-1.6961071E0,-2.8384187E0,3.4953382E0,-3.056582E-1,2.1250603E0,2.7422378E0,4.9040148E-1,3.9472947E0,-6.868871E-1,2.2680314E0,-1.2119688E0,2.8987565E0,2.4811792E0,5.170634E0,5.067637E0,-3.1461008E0,-3.0027112E-1,1.125725E0,3.1392176E0,6.725034E-1,-9.033182E-1,1.6647186E0,3.874688E0,5.404636E-1,7.8323007E0,1.3558726E1,-8.282982E-1,3.758429E0,-1.8482437E0,4.9594688E-1,2.0591443E0,-4.6929154E-1,8.4386444E-1,-1.3761739E0,3.7827034E0,-2.4209996E-1,4.9425826E0,8.184013E-1,7.633434E0,1.1935695E0,3.1437309E0,5.1707397E0,-7.6702885E-2,5.0031585E-1,1.4646684E-1,8.773077E-1],"split_indices":[0,12,64,87,85,12,49,57,85,85,64,84,85,18,32,8,78,34,4,67,45,63,0,87,64,60,64,0,8,0,74,68,46,9,81,84,25,26,34,46,25,51,35,63,59,0,0,62,35,45,87,22,59,43,79,0,3,46,1,67,25,20,0,84,0,42,64,82,5,46,26,50,76,76,48,25,25,17,43,5,51,34,85,47,46,26,24,83,79,7,5,25,35,3,71,4,45,60,31,64,20,20,64,0,0,77,65,0,0,0,0,0,0,0,0,0,0,0,0,0,0,0,0,0,0,0,0,0,0,0,0,0,0,0,0,0,0,0,0,0,0,0,0,0,0,0,0,0,0,0,0,0,0,0,0,0,0,0,0,0,0,0,0,0,0,0,0,0,0,0,0,0,0,0,0,0,0,0,0,0,0,0,0,0,0,0,0,0,0,0,0,0,0,0,0,0,0],"split_type":[0,0,0,0,0,0,0,0,0,0,0,0,0,0,0,0,0,0,0,0,0,0,0,0,0,0,0,0,0,0,0,0,0,0,0,0,0,0,0,0,0,0,0,0,0,0,0,0,0,0,0,0,0,0,0,0,0,0,0,0,0,0,0,0,0,0,0,0,0,0,0,0,0,0,0,0,0,0,0,0,0,0,0,0,0,0,0,0,0,0,0,0,0,0,0,0,0,0,0,0,0,0,0,0,0,0,0,0,0,0,0,0,0,0,0,0,0,0,0,0,0,0,0,0,0,0,0,0,0,0,0,0,0,0,0,0,0,0,0,0,0,0,0,0,0,0,0,0,0,0,0,0,0,0,0,0,0,0,0,0,0,0,0,0,0,0,0,0,0,0,0,0,0,0,0,0,0,0,0,0,0,0,0,0,0,0,0,0,0,0,0,0,0,0,0,0,0],"sum_hessian":[6.7604E4,5.2302E4,1.5302E4,1.0671E4,4.1631E4,1.501E4,2.92E2,3.632E3,7.039E3,3.4277E4,7.354E3,6.081E3,8.929E3,1.59E2,1.33E2,2.793E3,8.39E2,5.324E3,1.715E3,4.568E3,2.9709E4,7.343E3,1.1E1,5.1E3,9.81E2,3.827E3,5.102E3,2E0,1.57E2,2E0,1.31E2,2.777E3,1.6E1,1.33E2,7.06E2,5.15E2,4.809E3,7.63E2,9.52E2,4.495E3,7.3E1,3.015E3,2.6694E4,9.4E1,7.249E3,1E0,1E1,1.603E3,3.497E3,4.51E2,5.3E2,1.191E3,2.636E3,4.06E3,1.042E3,1.48E2,9E0,1.26E2,5E0,2.515E3,2.62E2,8E0,8E0,1.27E2,6E0,6.92E2,1.4E1,9.9E1,4.16E2,3.247E3,1.562E3,2.93E2,4.7E2,5.77E2,3.75E2,4.295E3,2E2,1.3E1,6E1,2.964E3,5.1E1,9.67E2,2.5727E4,7.2E1,2.2E1,7.33E2,6.516E3,1.432E3,1.71E2,9E0,3.488E3,1.66E2,2.85E2,3.82E2,1.48E2,8E0,1.183E3,1.3E2,2.506E3,1.927E3,2.133E3,7.95E2,2.47E2,2E0,7E0,1.2E1,1.14E2,2E0,3E0,3.33E2,2.182E3,1.96E2,6.6E1,2E0,6E0,1.11E2,1.6E1,6.9E2,2E0,3E0,1.1E1,1.8E1,8.1E1,1.5E1,4.01E2,3E0,3.244E3,2.4E1,1.538E3,2.7E2,2.3E1,1.5E1,4.55E2,1.75E2,4.02E2,4E0,3.71E2,5.45E2,3.75E3,3.1E1,1.69E2,1E1,3E0,1E1,5E1,2.762E3,2.02E2,1.9E1,3.2E1,1.32E2,8.35E2,9.326E3,1.6401E4,2.7E1,4.5E1,1E1,1.2E1,6.99E2,3.4E1,6.473E3,4.3E1,2.08E2,1.224E3,9.5E1,7.6E1,5E0,4E0,1.494E3,1.994E3,2E1,1.46E2,2.83E2,2E0,1.29E2,2.53E2,1.02E2,4.6E1,2E0,6E0,4.58E2,7.25E2,2.9E1,1.01E2,4E0,2.502E3,2.4E1,1.903E3,9.3E1,2.04E3,3.9E1,7.56E2,2.16E2,3.1E1,4E0,8E0,5E0,1.09E2],"tree_param":{"num_deleted":"0","num_feature":"92","num_nodes":"197","size_leaf_vector":"1"}},{"base_weights":[-1.3156468E-2,-2.5397496E-2,2.6824415E-2,7.4108073E-4,-3.205778E-2,2.1600397E-2,4.401515E-1,-1.8944042E-2,1.495173E-2,-3.6956213E-2,-9.084034E-3,3.0086907E-2,-3.00769E-2,-4.947918E-3,8.92233E-1,-2.0610524E-2,1.0877192E-1,-1.3553602E-2,2.801764E-2,-3.8040537E-2,1.7780054E-3,1.0617272E-2,-4.0359955E-2,7.751051E-2,2.3400277E-2,-4.6903566E-2,-1.654443E-2,9.1089106E-1,-3.3333343E-3,-2.5349263E-2,2.3752958E-2,6.25E-1,4.7115374E-2,2.1987302E-2,-2.5137942E-2,6.476882E-2,1.381817E-2,-2.120532E-2,-4.0650517E-2,2.0705128E-1,-1.703879E-2,9.363747E-3,7.0625E-1,2.9166666E-1,-4.105678E-2,3.237563E-2,1.8303211E-1,2.1695599E-2,2.0270269E-1,-4.7912434E-2,2.1249999E-1,8.749999E-2,-2.821559E-2,-3.3333343E-3,9.3030304E-1,-3.165015E-2,9.001625E-3,4.5499998E-1,1.3228144E-2,-2.5000006E-3,7.6E-2,-4.8717964E-3,3.1071427E-1,4.2631578E-1,5.054933E-3,-2.7032673E-2,2.0416665E-1,-1.0091755E-2,9.3764834E-2,1.1580687E-2,3.333333E-1,-2.513483E-2,7.049179E-2,-3.5200935E-2,-4.336208E-2,6.442308E-1,-1.1320766E-2,7.318435E-2,-4.1010413E-2,3.8148344E-2,-1.0071548E-2,8.142857E-2,-2.5000006E-3,6.333333E-2,-3.7500008E-3,-2.1621633E-2,-4.849384E-2,5.232143E-1,2.0280937E-2,1.05653696E-1,2.835648E-1,-2.174766E-2,2.7016504E-2,-4.9342117E-3,7.291666E-1,-4.891418E-2,1.5624989E-2,4.75E-2,-3.3333343E-3,4.689655E-1,-2.8645845E-2,-4.238662E-2,4.5251384E-2,-2.5000006E-3,9.403061E-2,-3.468283E-3,1.8324595E-3,-1.0530835E-3,4.160714E-2,-4.000001E-3,7.9166666E-2,5.6E-2,6.495086E-4,5.8125E-2,-4.285715E-3,7.727273E-2,-4.444446E-3,-4.943832E-4,4.0909093E-2,2.9166667E-2,-2.8347294E-3,7.125E-2,-4.444446E-3,-1.5895074E-3,4.6249997E-2,8.555154E-3,8.444445E-2,1.7704161E-4,6.9380724E-3,7.5500004E-2,-4.5833346E-3,-2.3351768E-4,-3.2971029E-3,-8.275874E-4,3.6153845E-2,8.571427E-3,-3.6908195E-3,-3.0070886E-3,-4.5793685E-3,8.095238E-2,-4.166668E-3,-4.8979605E-3,3.6E-2,3.4375E-2,-4.9596787E-3,1.1874999E-2,-4.684617E-3,2.8806573E-3,2.0860216E-2,-1.5699271E-3,1.5055555E-2,3.181818E-2,-2.6466767E-3,3E-2,-4.898667E-3,-4.500001E-3,7.947368E-2,1.5990281E-5,1.1361386E-2,2.1523178E-2,-1.9548885E-3,5.4096382E-2,1.2201491E-2,-2.7195134E-3,1.2127659E-2,5.846298E-3,1.8971534E-3,8.85E-2,-4.285715E-3,-2.000001E-3,-4.994642E-3,-4.666668E-3,4.75E-2,-4.545456E-3,7.4210525E-2,-4.946238E-3,4.6249997E-2,2.3928571E-2,-4.6659377E-3,4.285714E-2,-5.6603894E-4],"categories":[],"categories_nodes":[],"categories_segments":[],"categories_sizes":[],"default_left":[0,0,0,0,0,0,0,0,0,0,0,0,0,0,0,0,0,0,0,0,0,0,0,0,0,0,0,0,0,0,0,0,0,0,0,0,0,0,0,0,0,0,0,0,0,0,0,0,0,0,0,0,0,0,0,0,0,0,0,0,0,0,0,0,0,0,0,0,0,0,0,0,0,0,0,0,0,0,0,0,0,0,0,0,0,0,0,0,0,0,0,0,0,0,0,0,0,0,0,0,0,0,0,0,0,0,0,0,0,0,0,0,0,0,0,0,0,0,0,0,0,0,0,0,0,0,0,0,0,0,0,0,0,0,0,0,0,0,0,0,0,0,0,0,0,0,0,0,0,0,0,0,0,0,0,0,0,0,0,0,0,0,0,0,0,0,0,0,0,0,0,0,0,0,0,0,0,0,0,0,0],"id":7,"left_children":[1,3,5,7,9,11,13,15,17,19,21,23,25,-1,27,29,31,33,35,37,39,41,43,45,47,49,51,53,-1,55,57,59,61,63,65,67,69,71,73,75,77,79,81,83,85,87,89,91,93,95,97,99,101,-1,103,105,107,109,111,-1,-1,-1,113,115,117,119,121,123,125,127,129,131,133,135,137,139,141,143,145,147,149,-1,-1,-1,-1,151,153,155,157,159,161,163,165,-1,167,169,171,-1,-1,173,175,177,179,-1,-1,-1,-1,-1,-1,-1,-1,-1,-1,-1,-1,-1,-1,-1,-1,-1,-1,-1,-1,-1,-1,-1,-1,-1,-1,-1,-1,-1,-1,-1,-1,-1,-1,-1,-1,-1,-1,-1,-1,-1,-1,-1,-1,-1,-1,-1,-1,-1,-1,-1,-1,-1,-1,-1,-1,-1,-1,-1,-1,-1,-1,-1,-1,-1,-1,-1,-1,-1,-1,-1,-1,-1,-1,-1,-1,-1,-1],"loss_changes":[3.313012E1,9.02243E0,3.4253124E1,2.9445295E0,4.647602E0,6.873576E0,4.387203E1,9.41489E-1,2.2771554E0,1.429882E0,4.47387E0,4.2667236E0,5.026829E-1,0E0,1.8091049E0,9.16561E-1,1.784797E0,7.918747E-1,2.1866891E0,1.4542465E0,3.588007E0,3.8781157E0,6.61181E-1,7.9144526E0,3.6019979E0,2.6796007E-1,1.4924386E0,1.8822632E0,0E0,8.5241294E-1,1.9048138E0,5.4550004E-1,1.3287386E0,3.236116E0,6.3550127E-1,2.536275E0,2.1587417E0,1.6041362E0,4.2212677E-1,7.453779E0,1.8435397E0,2.4887605E0,6.523659E-1,6.9854164E-1,4.0380907E-1,6.911399E0,3.8440132E0,2.7025867E0,1.4764849E1,6.3266754E-2,2.7395833E-1,5.507332E0,1.1512954E0,0E0,9.695511E-1,5.0486755E-1,4.8624873E0,1.6981666E0,1.5131185E0,0E0,0E0,0E0,1.3640625E0,3.1328025E0,1.8401589E0,6.11163E-1,1.5481942E0,9.0418184E-1,5.1191463E0,1.7038145E0,3.392125E0,7.61919E-1,4.1982794E0,1.9706802E0,6.172066E-1,2.9814568E0,7.5875854E-1,5.9634924E0,6.330159E-1,2.8490567E0,2.4032946E0,0E0,0E0,0E0,0E0,1.2876681E0,3.6248302E-1,4.3556876E0,2.1389723E0,3.886814E0,8.915876E0,9.9745613E-1,2.6334872E0,0E0,4.3689804E0,2.7862549E-2,4.8001042E-1,0E0,0E0,4.1084805E0,1.0043758E0,1.1256218E0,3.4957006E0,0E0,0E0,0E0,0E0,0E0,0E0,0E0,0E0,0E0,0E0,0E0,0E0,0E0,0E0,0E0,0E0,0E0,0E0,0E0,0E0,0E0,0E0,0E0,0E0,0E0,0E0,0E0,0E0,0E0,0E0,0E0,0E0,0E0,0E0,0E0,0E0,0E0,0E0,0E0,0E0,0E0,0E0,0E0,0E0,0E0,0E0,0E0,0E0,0E0,0E0,0E0,0E0,0E0,0E0,0E0,0E0,0E0,0E0,0E0,0E0,0E0,0E0,0E0,0E0,0E0,0E0,0E0,0E0,0E0,0E0,0E0,0E0,0E0,0E0,0E0,0E0,0E0,0E0],"parents":[2147483647,0,0,1,1,2,2,3,3,4,4,5,5,6,6,7,7,8,8,9,9,10,10,11,11,12,12,14,14,15,15,16,16,17,17,18,18,19,19,20,20,21,21,22,22,23,23,24,24,25,25,26,26,27,27,29,29,30,30,31,31,32,32,33,33,34,34,35,35,36,36,37,37,38,38,39,39,40,40,41,41,42,42,43,43,44,44,45,45,46,46,47,47,48,48,49,49,50,50,51,51,52,52,54,54,55,55,56,56,57,57,58,58,62,62,63,63,64,64,65,65,66,66,67,67,68,68,69,69,70,70,71,71,72,72,73,73,74,74,75,75,76,76,77,77,78,78,79,79,80,80,85,85,86,86,87,87,88,88,89,89,90,90,91,91,92,92,94,94,95,95,96,96,99,99,100,100,101,101,102,102],"right_children":[2,4,6,8,10,12,14,16,18,20,22,24,26,-1,28,30,32,34,36,38,40,42,44,46,48,50,52,54,-1,56,58,60,62,64,66,68,70,72,74,76,78,80,82,84,86,88,90,92,94,96,98,100,102,-1,104,106,108,110,112,-1,-1,-1,114,116,118,120,122,124,126,128,130,132,134,136,138,140,142,144,146,148,150,-1,-1,-1,-1,152,154,156,158,160,162,164,166,-1,168,170,172,-1,-1,174,176,178,180,-1,-1,-1,-1,-1,-1,-1,-1,-1,-1,-1,-1,-1,-1,-1,-1,-1,-1,-1,-1,-1,-1,-1,-1,-1,-1,-1,-1,-1,-1,-1,-1,-1,-1,-1,-1,-1,-1,-1,-1,-1,-1,-1,-1,-1,-1,-1,-1,-1,-1,-1,-1,-1,-1,-1,-1,-1,-1,-1,-1,-1,-1,-1,-1,-1,-1,-1,-1,-1,-1,-1,-1,-1,-1,-1,-1,-1,-1],"split_conditions":[4.394E1,9.510814E1,5.374921E1,2.941E1,1E1,1E0,3.1902082E1,5.354E1,1.073E1,9.89E1,1E0,1.807E1,1.1E1,-5.392899E-1,3E0,9.621E1,4.8282657E0,5.1209064E0,2E0,3E0,3.2275E0,3.4687084E1,1.226E1,6.2E-1,4.0672855E1,3.3894096E1,1.83225E1,3.487E1,-6.379509E-1,4.3344166E1,5.7E-1,4.235E1,3.65E1,5.147E1,1.5501E2,2.65E1,6.768013E1,6.8158E1,6E0,1.0715834E1,3.4857106E-1,2.541E1,8.489E1,3.971E1,2E0,2.0709583E1,1.2E1,5.803E1,2.652375E1,1.63E0,5.636E1,6.484102E0,6E0,-2.3108674E-2,8.108848E0,3.179E1,1.062651E2,2.531E1,1.275E-1,-5.5099106E0,3.023581E0,-1.0132567E0,3.2842E2,2.53E0,1.8536667E1,1.76E0,3.02E1,8.245E1,3.8E1,1.66E0,1.825E1,2.8662083E1,8.324E1,1.275E-1,4.09E0,2.6E1,1.25E0,2.14E1,2.014E1,3.221944E1,2.6E1,9.1591567E-1,-1.2416992E-1,2.5959703E-1,-8.640289E-2,1.81E0,2.19E0,8.371E1,5.47E0,4.848E1,7.169354E1,2.141E2,9.63325E1,-4.6085176E-1,1.7707E2,4.432E1,5.765E1,1.4566575E-1,-3.1920075E0,1.5299583E1,2.0548E2,4.955724E0,1.525E1,-4.846115E-2,5.25351E-1,-1.4040357E0,2.46991E0,-2.1751375E-1,4.0837445E0,-2.8441436E0,5.2690177E0,2.2141578E0,4.2582247E-1,3.3441086E0,-8.1455916E-1,7.2118974E0,-5.1985807E0,-1.1214473E-1,1.5808518E0,2.4188378E0,-1.3612081E0,8.817374E0,-2.9174378E0,-5.0050163E-1,2.7008088E0,2.649569E0,3.4287903E0,7.366597E-2,2.2014349E0,8.117907E0,-3.951622E-1,-8.651613E-2,-1.3412377E0,-2.0068572E-1,2.9906814E0,2.4459548E0,-1.597815E0,-1.6523182E0,-2.5415769E0,7.511277E0,-8.991318E-2,-1.9081696E0,6.722052E0,1.1571936E1,-2.84254E0,1.1930888E0,-1.5755932E0,5.2699107E-1,2.183709E0,-4.7526607E-1,1.8424578E0,2.009597E0,-1.0845726E0,3.7177994E0,-1.4046332E0,-1.0851517E0,9.336494E0,2.361182E-1,2.5993328E0,2.51014E0,-4.3286872E-1,3.727232E0,2.0122318E0,-9.532691E-1,3.4044328E0,1.7783813E0,5.2002853E-1,1.2633427E0,-4.548111E-2,-8.207656E-1,-1.8999205E0,-2.081604E0,8.265366E-1,-1.2141975E0,1.8029518E0,-3.199185E-1,2.211151E-2,6.600289E-1,-4.615263E-1,8.3305067E-1,-6.557161E-2],"split_indices":[0,12,52,20,85,90,64,41,2,73,90,66,85,0,9,73,52,26,83,85,49,64,66,75,52,61,49,18,0,25,3,2,68,73,19,19,26,19,85,25,39,66,16,20,83,51,85,32,64,77,0,26,83,0,48,6,39,17,77,0,0,0,80,42,49,2,16,18,10,6,68,25,42,6,45,69,74,31,79,26,10,0,0,0,0,20,43,70,57,2,25,31,81,0,31,0,19,0,0,51,29,37,66,0,0,0,0,0,0,0,0,0,0,0,0,0,0,0,0,0,0,0,0,0,0,0,0,0,0,0,0,0,0,0,0,0,0,0,0,0,0,0,0,0,0,0,0,0,0,0,0,0,0,0,0,0,0,0,0,0,0,0,0,0,0,0,0,0,0,0,0,0,0,0,0,0,0,0,0,0,0],"split_type":[0,0,0,0,0,0,0,0,0,0,0,0,0,0,0,0,0,0,0,0,0,0,0,0,0,0,0,0,0,0,0,0,0,0,0,0,0,0,0,0,0,0,0,0,0,0,0,0,0,0,0,0,0,0,0,0,0,0,0,0,0,0,0,0,0,0,0,0,0,0,0,0,0,0,0,0,0,0,0,0,0,0,0,0,0,0,0,0,0,0,0,0,0,0,0,0,0,0,0,0,0,0,0,0,0,0,0,0,0,0,0,0,0,0,0,0,0,0,0,0,0,0,0,0,0,0,0,0,0,0,0,0,0,0,0,0,0,0,0,0,0,0,0,0,0,0,0,0,0,0,0,0,0,0,0,0,0,0,0,0,0,0,0,0,0,0,0,0,0,0,0,0,0,0,0,0,0,0,0,0,0],"sum_hessian":[6.7692E4,5.1825E4,1.5867E4,1.0524E4,4.1301E4,1.567E4,1.97E2,4.412E3,6.112E3,3.4042E4,7.259E3,1.346E4,2.21E3,9.5E1,1.02E2,4.356E3,5.6E1,1.921E3,4.191E3,3.3115E4,9.27E2,4.454E3,2.805E3,1.662E3,1.1798E4,9.84E2,1.226E3,1E2,2E0,3.936E3,4.2E2,5E0,5.1E1,4.72E2,1.449E3,1.167E3,3.024E3,4.446E3,2.8669E4,7.7E1,8.5E2,4.447E3,7E0,5E0,2.8E3,1.165E3,4.97E2,1.1688E4,1.1E2,9.81E2,3E0,1.23E2,1.103E3,2E0,9.8E1,3.326E3,6.1E2,9E0,4.11E2,1E0,4E0,3.8E1,1.3E1,1.8E1,4.54E2,1.438E3,1.1E1,3.26E2,8.41E2,3.004E3,2E1,4.264E3,1.82E2,9.53E3,1.9139E4,2.5E1,5.2E1,1.78E2,6.72E2,1.792E3,2.655E3,6E0,1E0,2E0,3E0,7.76E2,2.024E3,2.7E1,1.138E3,2.82E2,2.15E2,1.275E3,1.0413E4,7.5E1,3.5E1,9.66E2,1.5E1,1E0,2E0,2.8E1,9.5E1,9.25E2,1.78E2,1E0,9.7E1,3.136E3,1.9E2,5.83E2,2.7E1,4E0,5E0,4E0,4.07E2,7E0,6E0,1E1,8E0,4.44E2,1E1,5E0,1.433E3,3E0,8E0,3.23E2,3E0,8.33E2,8E0,2.569E3,4.35E2,9E0,1.1E1,1.091E3,3.173E3,1.44E2,3.8E1,1.32E2,9.398E3,2.962E3,1.6177E4,2E1,5E0,4.8E1,4E0,5.5E1,1.23E2,2.3E1,6.49E2,1.7E3,9.2E1,2.566E3,8.9E1,1E1,7.66E2,2E0,2.022E3,9E0,1.8E1,9.37E2,2.01E2,1.5E2,1.32E2,8.2E1,1.33E2,1.229E3,4.6E1,2.12E3,8.293E3,2.9E1,6E0,3.4E1,9.32E2,1.4E1,1E0,1E1,1.8E1,9.2E1,3E0,1.3E1,9.12E2,2E1,1.58E2],"tree_param":{"num_deleted":"0","num_feature":"92","num_nodes":"181","size_leaf_vector":"1"}},{"base_weights":[-1.4016159E-2,-2.535583E-2,2.360756E-2,-3.1856366E-2,3.6651513E-4,1.8485757E-2,4.2025E-1,-1.342313E-2,-3.4729537E-2,7.0650224E-3,-3.6860187E-2,2.6972933E-2,-3.4170166E-2,-3.960397E-2,8.8049996E-1,-2.1286786E-2,9.642344E-3,-3.0308103E-2,-4.2346448E-2,-2.900071E-2,1.3970281E-2,-4.0346388E-2,8.749999E-2,3.208874E-2,-2.4916539E-2,4.583333E-1,-3.5531234E-2,-4.9489806E-3,2.1249999E-1,9.088541E-1,1.6E-1,2.866491E-2,-2.6302643E-2,1.5542167E-1,6.3242856E-4,-3.1605296E-2,2.0140093E-2,1.1199999E-1,-4.2636022E-2,2.8888887E-1,-3.0990876E-2,4.481455E-2,6.5054717E-3,-4.3361966E-2,5.97826E-2,7.0625E-1,-4.864866E-3,2.6747009E-2,8.7301575E-2,-3.2743797E-2,2.8758159E-2,-3.3333343E-3,7.125E-2,2.0703113E-2,-3.9078765E-2,4.75E-2,-3.3333343E-3,-3.3333343E-3,9.292553E-1,4.75E-2,-3.7500008E-3,-4.339624E-2,7.968749E-2,-2.893957E-2,7.684209E-2,3.632353E-1,1.0999989E-2,-1.5341452E-2,6.249999E-2,-3.93334E-2,-2.2641888E-2,1.16062164E-1,-2.8759906E-2,-4.761906E-3,7.6E-2,-4.564766E-2,-2.7079452E-2,-4.166668E-3,7.125E-2,1.06666654E-1,-3.546049E-2,3.6470586E-1,4.1006934E-2,3.8571426E-1,6.0628625E-3,8.2608685E-2,-4.527481E-2,3.1071427E-1,-4.8484863E-3,-2.5000006E-3,8.142857E-2,7.439292E-2,2.008128E-2,6.809755E-2,5.042553E-1,7.272726E-2,-3.6143996E-2,7.125E-2,1.0333321E-2,-6.465529E-3,2.6153845E-1,-4.0024888E-2,1.5499999E-1,-2.5000006E-3,9.3978494E-2,5.2631466E-4,-4.9645402E-3,1.4761904E-2,-4.935899E-3,-3.0813487E-3,9.3749985E-3,5.6923073E-2,-1.20483106E-4,5.6086957E-2,-4.5833346E-3,-2.7659587E-3,4.6249997E-2,8.051947E-3,-2.2759328E-3,-1.861714E-4,1.977528E-2,-4.034917E-3,2.0959585E-3,-9.803934E-4,-3.554559E-3,5.525E-2,6.522987E-3,-3.6533345E-3,5.6E-2,-4.6065273E-3,4.999882E-5,1.3348934E-3,-3.7135368E-3,5.405394E-4,5.111111E-2,-3.8146246E-3,1.05769215E-2,7.9166666E-2,1.2083332E-2,7.421554E-3,6.5677846E-4,-3.7500008E-3,7.125E-2,-1.1570667E-3,1.5055237E-3,5.6E-2,-4.7368435E-3,3.749999E-3,-4.5914934E-3,-4.375001E-3,6.714286E-2,5.0943387E-3,2.7659575E-2,3.2035317E-3,-4.1757678E-4,8.55E-2,6.0285423E-3,8.217391E-2,1.9199999E-2,-4.82143E-3,6.25E-2,-3.7974063E-3,1.0769229E-2,1.5142857E-2,-3.2327601E-3,3.6E-2,-2.276787E-3,7.6E-2,-4.444446E-3,3.999999E-3,-4.183623E-3,6.333333E-2,-4.375001E-3],"categories":[],"categories_nodes":[],"categories_segments":[],"categories_sizes":[],"default_left":[0,0,0,0,0,0,0,0,0,0,0,0,0,0,0,0,0,0,0,0,0,0,0,0,0,0,0,0,0,0,0,0,0,0,0,0,0,0,0,0,0,0,0,0,0,0,0,0,0,0,0,0,0,0,0,0,0,0,0,0,0,0,0,0,0,0,0,0,0,0,0,0,0,0,0,0,0,0,0,0,0,0,0,0,0,0,0,0,0,0,0,0,0,0,0,0,0,0,0,0,0,0,0,0,0,0,0,0,0,0,0,0,0,0,0,0,0,0,0,0,0,0,0,0,0,0,0,0,0,0,0,0,0,0,0,0,0,0,0,0,0,0,0,0,0,0,0,0,0,0,0,0,0,0,0,0,0,0,0,0,0,0,0,0,0,0,0,0,0,0,0,0,0],"id":8,"left_children":[1,3,5,7,9,11,13,15,17,19,21,23,25,27,29,31,33,35,37,39,41,43,45,47,49,51,53,-1,55,57,59,61,63,65,67,69,71,73,75,77,79,81,83,85,87,89,-1,91,93,95,97,-1,-1,99,101,-1,-1,-1,103,-1,-1,105,107,109,111,113,115,117,119,121,123,125,127,-1,-1,129,131,-1,-1,133,135,137,139,141,143,145,147,149,-1,-1,-1,151,153,155,157,159,161,-1,163,165,167,169,171,-1,-1,-1,-1,-1,-1,-1,-1,-1,-1,-1,-1,-1,-1,-1,-1,-1,-1,-1,-1,-1,-1,-1,-1,-1,-1,-1,-1,-1,-1,-1,-1,-1,-1,-1,-1,-1,-1,-1,-1,-1,-1,-1,-1,-1,-1,-1,-1,-1,-1,-1,-1,-1,-1,-1,-1,-1,-1,-1,-1,-1,-1,-1,-1,-1,-1,-1,-1,-1,-1],"loss_changes":[2.8907206E1,8.70541E0,3.187091E1,2.2006264E0,2.6195729E0,6.924746E0,4.236443E1,1.0170156E0,1.2096024E0,2.2176373E0,6.9806886E-1,3.5427866E0,1.4581661E0,2.6223466E-1,1.8974991E0,1.0483061E0,1.8728949E0,1.4896164E0,5.9488106E-1,9.142792E-1,1.7203408E0,4.7332716E-1,3.741005E0,3.5799122E0,5.0425225E-1,7.7354157E-1,4.2892122E-1,0E0,2.7395833E-1,1.8762589E0,3.28875E-1,1.407975E0,1.0357671E0,2.4870665E0,1.329187E0,1.5357285E0,2.6816642E0,2.6220193E0,6.1621094E-1,1.2899306E0,8.7932026E-1,1.758487E0,1.0077306E0,3.6855698E-1,1.2647808E0,6.523659E-1,0E0,3.5161858E0,8.541363E0,3.777479E-1,1.9201057E0,0E0,0E0,8.3921665E-1,3.7693787E-1,0E0,0E0,0E0,9.680023E-1,0E0,0E0,4.861009E-2,1.9709437E0,8.5493565E-1,3.651481E0,2.7744699E0,8.8553244E-1,7.619817E-1,2.402976E0,7.3031807E-1,1.7014475E0,4.2456913E0,1.7550238E0,0E0,0E0,2.1278381E-1,8.705009E-1,0E0,0E0,1.8401923E0,5.2710104E-1,1.6744487E0,1.6464062E0,9.948214E-1,9.534807E-1,1.4536752E0,8.077717E-2,1.8194196E0,0E0,0E0,0E0,6.4296937E0,2.818059E0,6.2495236E0,4.5016174E0,2.234294E0,2.7100492E-1,0E0,9.077832E-1,7.012089E-1,2.016547E0,2.930274E-1,9.783958E-1,0E0,0E0,0E0,0E0,0E0,0E0,0E0,0E0,0E0,0E0,0E0,0E0,0E0,0E0,0E0,0E0,0E0,0E0,0E0,0E0,0E0,0E0,0E0,0E0,0E0,0E0,0E0,0E0,0E0,0E0,0E0,0E0,0E0,0E0,0E0,0E0,0E0,0E0,0E0,0E0,0E0,0E0,0E0,0E0,0E0,0E0,0E0,0E0,0E0,0E0,0E0,0E0,0E0,0E0,0E0,0E0,0E0,0E0,0E0,0E0,0E0,0E0,0E0,0E0,0E0,0E0,0E0,0E0,0E0,0E0],"parents":[2147483647,0,0,1,1,2,2,3,3,4,4,5,5,6,6,7,7,8,8,9,9,10,10,11,11,12,12,13,13,14,14,15,15,16,16,17,17,18,18,19,19,20,20,21,21,22,22,23,23,24,24,25,25,26,26,28,28,29,29,30,30,31,31,32,32,33,33,34,34,35,35,36,36,37,37,38,38,39,39,40,40,41,41,42,42,43,43,44,44,45,45,47,47,48,48,49,49,50,50,53,53,54,54,58,58,61,61,62,62,63,63,64,64,65,65,66,66,67,67,68,68,69,69,70,70,71,71,72,72,75,75,76,76,79,79,80,80,81,81,82,82,83,83,84,84,85,85,86,86,87,87,91,91,92,92,93,93,94,94,95,95,96,96,98,98,99,99,100,100,101,101,102,102],"right_children":[2,4,6,8,10,12,14,16,18,20,22,24,26,28,30,32,34,36,38,40,42,44,46,48,50,52,54,-1,56,58,60,62,64,66,68,70,72,74,76,78,80,82,84,86,88,90,-1,92,94,96,98,-1,-1,100,102,-1,-1,-1,104,-1,-1,106,108,110,112,114,116,118,120,122,124,126,128,-1,-1,130,132,-1,-1,134,136,138,140,142,144,146,148,150,-1,-1,-1,152,154,156,158,160,162,-1,164,166,168,170,172,-1,-1,-1,-1,-1,-1,-1,-1,-1,-1,-1,-1,-1,-1,-1,-1,-1,-1,-1,-1,-1,-1,-1,-1,-1,-1,-1,-1,-1,-1,-1,-1,-1,-1,-1,-1,-1,-1,-1,-1,-1,-1,-1,-1,-1,-1,-1,-1,-1,-1,-1,-1,-1,-1,-1,-1,-1,-1,-1,-1,-1,-1,-1,-1,-1,-1,-1,-1,-1,-1],"split_conditions":[4.432E1,9.797E1,5.374921E1,9.510814E1,1E0,1E0,2.7080833E1,1.2568E2,1E0,1.89E1,3.1E1,3.374E1,9.31E0,2.7177875E2,1.42E0,3.1198334E1,1.845E1,9.89E1,4.1364583E-1,1.1E-1,8.667E1,5.376E1,1.2889E2,2.2791666E1,7.631E1,1.0107E2,1.476E1,-4.8597336E-1,2.2713E2,6.351E1,1.0261E2,3.4949487E-1,5.018E1,2.9855112E1,2.9575E2,4.892E1,2.1195E1,2.436E1,4.198E1,9.29E1,1.844E1,4.926121E-2,9.533333E-1,1.476E1,1.9640833E1,4.57E0,-8.5343264E-2,1.764E1,4.0672855E1,5.3452812E1,2.055E1,-7.480858E-1,2.7027056E-1,1.6411E2,1.8656125E2,3.1951904E-2,-2.3174775E0,-2.079773E-2,7.75E-2,2.732605E-1,-4.361496E-2,4E0,4.661E1,3.963E1,3.0854584E1,1.0618E2,1.6467E2,3.505E1,1.28E0,9.909E1,2.837E1,5.258333E-1,6.85E0,-4.075646E-1,9.254608E-1,4.504E1,2.8820138E0,-2.345335E0,8.41773E0,1.8145E2,2.9245443E1,6.252E1,6.639E1,3.923E1,1.2E1,3.18E0,1.226E1,5.8905834E1,-1.8053864E0,-2.4605656E0,5.8907075E0,1.26E0,2.4759E2,2.6792822E0,1.3137833E2,1.547E1,3.1E1,2.4878266E0,2.741E1,1.1E-1,9.939375E1,4.955724E0,6.942E1,-4.2364504E-2,4.734051E-1,9.5707095E-1,-1.811922E0,4.1719337E0,-2.1867528E0,-1.2128472E0,1.7725321E0,7.769464E0,2.2476247E-2,5.0098433E0,-1.2071381E-1,-2.6760858E-1,7.2617364E0,1.641178E0,-1.2124313E0,-3.1635743E-2,5.068772E0,-1.7882856E0,2.6091583E0,-2.8244933E-1,-1.4285522E0,1.0229502E1,2.06561E0,-8.5476E-1,6.7601495E0,-2.0311463E0,1.8449292E-2,3.8035169E0,-2.049946E0,1.6070925E-1,5.007699E0,-1.6266634E0,2.2273471E0,2.0305383E0,7.935636E0,1.8299267E0,2.934784E-1,-6.480942E-2,2.725544E0,-4.1259465E-1,4.5688906E-1,3.2328567E-1,-1.165474E-1,2.0432054E-1,-1.2041715E0,-3.6750832E0,4.368474E0,1.5877259E0,2.8016336E0,9.887337E-1,-1.0454651E-1,6.3073535E0,1.6980419E0,1.1754532E0,5.5468434E-1,-1.700416E0,2.676108E0,-1.1057101E0,1.9524788E0,5.7771983E0,-1.9050469E-1,4.1055223E-1,-1.20629944E-1,7.517403E-1,-7.5331114E-2,5.4957974E-1,-8.255665E-1,1.9900514E-2,-2.7903825E-1],"split_indices":[0,32,52,12,90,90,64,33,90,14,84,69,33,32,74,34,69,73,64,74,81,59,81,64,5,1,4,0,1,31,1,61,40,39,7,1,34,0,45,31,66,48,43,67,23,3,0,4,52,36,67,0,0,33,38,0,0,0,77,0,0,84,32,68,39,31,1,72,6,72,67,62,3,0,0,14,65,0,0,33,22,28,5,5,84,3,68,38,0,0,0,75,80,65,47,59,84,0,68,6,38,37,15,0,0,0,0,0,0,0,0,0,0,0,0,0,0,0,0,0,0,0,0,0,0,0,0,0,0,0,0,0,0,0,0,0,0,0,0,0,0,0,0,0,0,0,0,0,0,0,0,0,0,0,0,0,0,0,0,0,0,0,0,0,0,0,0,0,0,0,0,0,0],"split_type":[0,0,0,0,0,0,0,0,0,0,0,0,0,0,0,0,0,0,0,0,0,0,0,0,0,0,0,0,0,0,0,0,0,0,0,0,0,0,0,0,0,0,0,0,0,0,0,0,0,0,0,0,0,0,0,0,0,0,0,0,0,0,0,0,0,0,0,0,0,0,0,0,0,0,0,0,0,0,0,0,0,0,0,0,0,0,0,0,0,0,0,0,0,0,0,0,0,0,0,0,0,0,0,0,0,0,0,0,0,0,0,0,0,0,0,0,0,0,0,0,0,0,0,0,0,0,0,0,0,0,0,0,0,0,0,0,0,0,0,0,0,0,0,0,0,0,0,0,0,0,0,0,0,0,0,0,0,0,0,0,0,0,0,0,0,0,0,0,0,0,0,0,0],"sum_hessian":[6.7753E4,5.2062E4,1.5691E4,4.1559E4,1.0503E4,1.5492E4,1.99E2,5.605E3,3.5954E4,8.902E3,1.601E3,1.3342E4,2.15E3,1E2,9.9E1,4.18E3,1.425E3,2.2752E4,1.3202E4,1.43E3,7.472E3,1.558E3,4.3E1,1.2145E4,1.197E3,5E0,2.145E3,9.7E1,3E0,9.5E1,4E0,3.81E2,3.799E3,8.2E1,1.343E3,2.2182E4,5.7E2,2.4E1,1.3178E4,8E0,1.422E3,1.455E3,6.017E3,1.513E3,4.5E1,7E0,3.6E1,1.1075E4,1.07E3,1.045E3,1.52E2,2E0,3E0,1.27E2,2.018E3,1E0,2E0,2E0,9.3E1,1E0,3E0,1.58E2,2.23E2,3.705E3,9.4E1,3.3E1,4.9E1,1.068E3,2.75E2,1.191E4,1.0272E4,1.92E2,3.78E2,2E1,4E0,1.1039E4,2.139E3,5E0,3E0,4.4E1,1.378E3,1.6E1,1.439E3,6E0,6.011E3,2.2E1,1.491E3,1.3E1,3.2E1,1E0,6E0,1.358E3,9.717E3,1.024E3,4.6E1,3.2E1,1.013E3,3E0,1.49E2,1.15E2,1.2E1,2.009E3,9E0,1E0,9.2E1,1.8E1,1.4E2,1.46E2,7.7E1,3.65E3,5.5E1,1.2E1,8.2E1,2.2E1,1.1E1,4.6E1,3E0,7.6E1,9.92E2,1.87E2,8.8E1,1.1713E4,1.97E2,5.15E3,5.122E3,1.9E1,1.73E2,3.74E2,4E0,1.094E4,9.9E1,4.26E2,1.713E3,3.6E1,8E0,1.353E3,2.5E1,5E0,1.1E1,7.32E2,7.07E2,3E0,3E0,2.03E3,3.981E3,4E0,1.8E1,1.1E1,1.48E3,7E0,6E0,1.218E3,1.4E2,6.509E3,3.208E3,9E0,1.015E3,2.2E1,2.4E1,2.7E1,5E0,1.001E3,1.2E1,3.4E1,1.15E2,4E0,1.11E2,4E0,8E0,4.4E1,1.965E3,2E0,7E0],"tree_param":{"num_deleted":"0","num_feature":"92","num_nodes":"173","size_leaf_vector":"1"}},{"base_weights":[-1.4050452E-2,-1.5286617E-2,2.9850185E-1,-3.2468528E-2,3.950373E-3,-2.672415E-2,8.973404E-1,-2.7456908E-2,-4.3521278E-2,1.2302171E-2,-3.2970224E-2,-4.970061E-3,4.5624998E-1,-3.7500008E-3,9.285714E-1,6.0016103E-3,-2.9226225E-2,-4.6356183E-2,-2.5349313E-2,8.016076E-5,3.2612473E-2,3.4131724E-2,-3.492732E-2,-3.7500008E-3,7.6E-2,9.3932584E-2,2.9999998E-1,2.7199998E-1,4.96266E-4,-3.0713057E-2,1.0129552E-2,-8.529424E-3,-4.7031756E-2,1.7407407E-1,-2.897767E-2,-2.7480407E-2,6.165764E-3,7.5572506E-2,2.6704732E-2,4.0681818E-1,-2.2260286E-2,-3.5264738E-2,2.9166666E-1,-2.5000006E-3,4.75E-2,-4.615386E-3,5.6923074E-1,-3.174615E-3,3.3846152E-1,-3.1839967E-2,1.5514007E-2,2.1186322E-3,2.8541666E-1,-1.9940488E-2,6.333333E-2,-3.2613404E-2,-4.776926E-2,8.142857E-2,-4.761906E-3,2.3928571E-1,-3.1523235E-2,-2.9042237E-2,1.9047618E-1,3.5892542E-2,-2.7015843E-4,1.8171139E-1,3.962584E-2,9.260845E-3,3.8585134E-2,8.3125E-2,1.5333332E-1,-4.216419E-2,1.8461537E-1,1.2941176E-1,-3.5750717E-2,-3.7500008E-3,6.333333E-2,7.5500004E-2,-3.7500008E-3,6.087785E-3,-2.110044E-3,-4.375001E-3,7.9166666E-2,-3.6030354E-3,-1.8722935E-3,1.0209423E-2,-3.2463782E-3,-1.2943799E-3,6.9536413E-3,8.3125E-2,1.1764695E-3,6.741562E-4,-4.937501E-3,-3.8852112E-3,2.2727272E-2,-3.4091025E-4,-4.7982126E-3,7.6E-2,-4.500001E-3,4.4811307E-3,-3.7454024E-3,-2.9707917E-3,4.6249997E-2,5.8125E-2,-4.6428586E-3,4.816305E-3,-2.8703716E-3,-4.0705883E-4,4.4134716E-3,9.746192E-3,3.4264706E-2,3.8695652E-2,3.0290687E-3,3.0564866E-3,-1.3284036E-3,3.6227E-3,2.9148936E-2,-4.545456E-3,5.6E-2,1.2499999E-2,-4.9612415E-3,-4.444446E-3,5.6E-2,7.125E-2,-4.6428586E-3,1.207864E-3,-3.7289073E-3],"categories":[],"categories_nodes":[],"categories_segments":[],"categories_sizes":[],"default_left":[0,0,0,0,0,0,0,0,0,0,0,0,0,0,0,0,0,0,0,0,0,0,0,0,0,0,0,0,0,0,0,0,0,0,0,0,0,0,0,0,0,0,0,0,0,0,0,0,0,0,0,0,0,0,0,0,0,0,0,0,0,0,0,0,0,0,0,0,0,0,0,0,0,0,0,0,0,0,0,0,0,0,0,0,0,0,0,0,0,0,0,0,0,0,0,0,0,0,0,0,0,0,0,0,0,0,0,0,0,0,0,0,0,0,0,0,0,0,0,0,0,0,0,0,0,0,0],"id":9,"left_children":[1,3,5,7,9,11,13,15,17,19,21,-1,23,-1,25,27,29,31,33,35,37,39,41,-1,-1,-1,43,45,47,49,51,53,55,57,59,61,63,65,67,69,71,73,75,-1,-1,-1,77,79,81,83,85,87,89,91,-1,93,95,-1,-1,97,99,101,103,105,107,109,111,113,115,-1,117,119,121,123,125,-1,-1,-1,-1,-1,-1,-1,-1,-1,-1,-1,-1,-1,-1,-1,-1,-1,-1,-1,-1,-1,-1,-1,-1,-1,-1,-1,-1,-1,-1,-1,-1,-1,-1,-1,-1,-1,-1,-1,-1,-1,-1,-1,-1,-1,-1,-1,-1,-1,-1,-1,-1],"loss_changes":[2.6185892E1,2.2309795E1,5.2024338E1,1.9737015E0,9.81992E0,1.9535601E0,2.7792435E0,1.4524994E0,5.7173157E-1,6.446848E0,7.7272606E-1,0E0,1.2283126E0,0E0,3.3335114E-1,1.805486E0,1.363781E0,2.4541092E-1,1.0925834E0,2.7197926E0,2.4742765E0,3.5188177E0,6.3941145E-1,0E0,0E0,0E0,1.825E-1,2.3904E0,1.5009965E0,1.1701565E0,1.8716974E0,1.2577662E0,9.892845E-2,3.8708992E0,1.0161604E0,1.0039573E0,2.5413032E0,4.4910855E0,1.7775583E0,2.2394564E0,6.0895866E-1,4.6111107E-1,6.9854164E-1,0E0,0E0,0E0,1.493567E0,1.3756719E0,2.2864985E0,1.204113E0,2.2256656E0,8.39683E-1,3.5750613E0,1.3227561E-1,0E0,7.595166E-1,8.470726E-2,0E0,0E0,2.106643E0,6.6446614E-1,9.6690106E-1,1.9710863E0,1.8751564E0,1.8430128E0,4.0071106E0,2.8480625E0,1.6703972E0,3.0327773E0,0E0,1.2380606E0,1.7304178E-1,1.1427009E0,1.7760975E0,4.1896534E-1,0E0,0E0,0E0,0E0,0E0,0E0,0E0,0E0,0E0,0E0,0E0,0E0,0E0,0E0,0E0,0E0,0E0,0E0,0E0,0E0,0E0,0E0,0E0,0E0,0E0,0E0,0E0,0E0,0E0,0E0,0E0,0E0,0E0,0E0,0E0,0E0,0E0,0E0,0E0,0E0,0E0,0E0,0E0,0E0,0E0,0E0,0E0,0E0,0E0,0E0,0E0,0E0],"parents":[2147483647,0,0,1,1,2,2,3,3,4,4,5,5,6,6,7,7,8,8,9,9,10,10,12,12,14,14,15,15,16,16,17,17,18,18,19,19,20,20,21,21,22,22,26,26,27,27,28,28,29,29,30,30,31,31,32,32,33,33,34,34,35,35,36,36,37,37,38,38,39,39,40,40,41,41,42,42,46,46,47,47,48,48,49,49,50,50,51,51,52,52,53,53,55,55,56,56,59,59,60,60,61,61,62,62,63,63,64,64,65,65,66,66,67,67,68,68,70,70,71,71,72,72,73,73,74,74],"right_children":[2,4,6,8,10,12,14,16,18,20,22,-1,24,-1,26,28,30,32,34,36,38,40,42,-1,-1,-1,44,46,48,50,52,54,56,58,60,62,64,66,68,70,72,74,76,-1,-1,-1,78,80,82,84,86,88,90,92,-1,94,96,-1,-1,98,100,102,104,106,108,110,112,114,116,-1,118,120,122,124,126,-1,-1,-1,-1,-1,-1,-1,-1,-1,-1,-1,-1,-1,-1,-1,-1,-1,-1,-1,-1,-1,-1,-1,-1,-1,-1,-1,-1,-1,-1,-1,-1,-1,-1,-1,-1,-1,-1,-1,-1,-1,-1,-1,-1,-1,-1,-1,-1,-1,-1,-1,-1],"split_conditions":[4.6082764E1,7.178E1,2.9104898E1,1E0,1E0,3.8305832E1,6.8244553E0,2.055E1,4.74E1,4.746E1,1.476E1,-6.554751E-1,1.34660015E1,-9.640198E-2,1.4480937E2,1.08845174E-1,1.3382E2,2.41906E-3,2.3359432E0,2.1119167E1,1.764E1,2.815E0,3.13E0,-1.19953156E-1,3.5040894E-1,5.673524E-1,1.324E2,2.771E1,1.324E2,9.89E1,2.6854456E1,3.457E1,2.042E1,2.994E1,2.8806667E1,3.1E1,8.931E1,7E1,3.18E0,7.339E1,4.7922387E0,1.54E0,1.645E1,-3.81279E-2,3.8230667E-1,-3.488083E-1,6.5E-1,1.65E0,4.215E1,3E0,2.141E1,7.06575E1,8.274688E0,2.5E-1,9.6621746E-1,2.0847082E0,6.685581E-3,1.7336533E1,-2.2660508E0,2.951E1,1.5007789E0,1.5501E2,2.541E1,3.219E1,2.78E0,4.2E1,2.0709583E1,6.667E1,4.0672855E1,4.3675157E-1,1.3620917E2,1.1E-1,1.6028E2,7.73089E-2,1.476E1,-1.4357823E0,9.892513E-1,4.607792E0,-5.484894E-1,1.7598711E0,-4.7084162E-1,-5.1393304E0,3.4742029E0,-1.5832194E0,-5.935909E-1,4.8554335E0,-1.3868306E0,-3.6220518E-1,2.6128266E0,1.0874678E1,5.1604247E0,4.0377107E-1,-1.6046286E0,-1.0807256E0,5.5116687E0,2.0931864E0,-2.2375264E0,1.1792411E1,-2.6160886E0,6.8292184E0,-1.6889002E0,-1.327937E0,1.5540072E1,1.4624089E0,-1.9870682E-1,1.5005326E0,-7.2320694E-1,-1.06328264E-1,1.7709163E0,2.4180527E0,3.4311702E0,8.014192E0,9.703995E-1,7.4276936E-1,-3.0046472E-1,1.2804697E0,6.4553684E-1,-2.5460053E-2,5.2995914E-1,1.1316834E-1,-7.960343E-1,-3.537613E-1,6.3666767E-1,2.0117517E0,-2.942482E-1,3.71058E-2,-9.6662873E-1],"split_indices":[50,32,65,90,90,62,35,66,46,0,67,0,61,0,39,65,31,63,52,23,4,62,77,0,0,0,0,43,16,73,50,4,66,5,47,8,81,5,58,1,65,20,0,0,0,0,76,58,46,87,30,18,48,76,0,63,50,0,0,5,65,19,66,68,75,72,51,73,52,0,36,76,7,61,4,0,0,0,0,0,0,0,0,0,0,0,0,0,0,0,0,0,0,0,0,0,0,0,0,0,0,0,0,0,0,0,0,0,0,0,0,0,0,0,0,0,0,0,0,0,0,0,0,0,0,0,0],"split_type":[0,0,0,0,0,0,0,0,0,0,0,0,0,0,0,0,0,0,0,0,0,0,0,0,0,0,0,0,0,0,0,0,0,0,0,0,0,0,0,0,0,0,0,0,0,0,0,0,0,0,0,0,0,0,0,0,0,0,0,0,0,0,0,0,0,0,0,0,0,0,0,0,0,0,0,0,0,0,0,0,0,0,0,0,0,0,0,0,0,0,0,0,0,0,0,0,0,0,0,0,0,0,0,0,0,0,0,0,0,0,0,0,0,0,0,0,0,0,0,0,0,0,0,0,0,0,0],"sum_hessian":[6.7762E4,6.7496E4,2.66E2,3.5652E4,3.1844E4,1.73E2,9.3E1,2.4532E4,1.112E4,2.597E4,5.874E3,1.66E2,7E0,3E0,9E1,1.232E3,2.33E4,9.618E3,1.502E3,1.6214E4,9.756E3,1.66E2,5.708E3,3E0,4E0,8.8E1,2E0,2.4E1,1.208E3,2.2452E4,8.48E2,1.69E2,9.449E3,2.6E1,1.476E3,2.932E3,1.3282E4,1.178E3,8.578E3,2.1E1,1.45E2,5.703E3,5E0,1E0,1E0,1.2E1,1.2E1,1.196E3,1.2E1,2.1918E4,5.34E2,8.25E2,2.3E1,1.67E2,2E0,4.62E2,8.987E3,6E0,2E1,1.3E1,1.463E3,2.912E3,2E1,2.363E3,1.0919E4,2.97E2,8.81E2,3.476E3,5.102E3,7E0,1.4E1,1.33E2,1.2E1,1.6E1,5.687E3,3E0,2E0,9E0,3E0,2.61E2,9.35E2,7E0,5E0,1.661E4,5.308E3,1.9E2,3.44E2,6.75E2,1.5E2,7E0,1.6E1,8.8E1,7.9E1,4.52E2,1E1,4.3E1,8.944E3,4E0,9E0,1.05E2,1.358E3,2.909E3,3E0,7E0,1.3E1,1.986E3,3.77E2,1.0059E4,8.6E2,1.96E2,1.01E2,2.2E1,8.59E2,1.787E3,1.689E3,5.056E3,4.6E1,1E1,4E0,5E0,1.28E2,8E0,4E0,3E0,1.3E1,1.77E2,5.51E3],"tree_param":{"num_deleted":"0","num_feature":"92","num_nodes":"127","size_leaf_vector":"1"}},{"base_weights":[-1.3740492E-2,-1.4926913E-2,3.0478087E-1,-2.6519133E-2,1.0014488E-2,-3.0937511E-2,8.853261E-1,-3.1069085E-2,-1.8758836E-3,2.7982106E-2,-2.6427095E-3,-4.9664443E-3,2.0416665E-1,1.6E-1,9.1647726E-1,-1.1453688E-2,-3.5002485E-2,-2.6730995E-3,8.142857E-2,-2.2812983E-2,3.69458E-2,-3.7315341E-3,4.5166665E-1,-4.375001E-3,5.6E-1,-3.7500008E-3,4.75E-2,-2.5000006E-3,9.275862E-1,2.9399784E-2,-1.8746605E-2,-3.5367794E-2,1.0914633E-1,1.06912434E-1,-6.095291E-3,1.5044236E-2,-3.5779364E-2,4.6225972E-2,-2.6886804E-2,-2.6089642E-2,1.49062285E-2,6.525E-1,4.5454536E-2,-2.5000006E-3,7.125E-2,9.388235E-2,2.9999998E-1,4.5416665E-1,2.4125503E-2,1.2171052E-1,-2.0709036E-2,-3.9084643E-2,-2.685998E-2,5E-1,4.7916654E-2,2.7499998E-1,1.9791655E-2,4.7351338E-2,-1.4301141E-2,7.125E-2,6.6964165E-3,-3.8525455E-2,6.730768E-2,6.263421E-2,1.7166372E-2,-3.201478E-2,6.7142856E-1,-6.855632E-3,-3.702786E-2,1.3590297E-2,5.4117644E-1,-4.000001E-3,8.28125E-1,4.75E-2,-4.500001E-3,-2.5000006E-3,4.75E-2,8.142857E-2,-4.166668E-3,2.0372274E-3,6.25E-2,6.222222E-2,5.367646E-3,-2.1066703E-3,6.333333E-2,-4.0339213E-3,-5.60346E-4,-2.0897696E-3,-4.373293E-3,-4.000001E-3,8.142857E-2,9.558812E-4,5.6E-2,5E-2,1.1022727E-2,-1.7600012E-3,2.525E-2,2.698316E-3,2.2712765E-2,-2.6488719E-3,1.823994E-3,-1.3636482E-4,3.857143E-2,2.125E-2,-3.9531263E-3,4.6249997E-2,-4.3478375E-4,4.3043476E-2,6.059006E-3,3.2767844E-3,-2.0899868E-3,1.6363636E-2,-3.9028395E-3,-2.5000006E-3,7.9166666E-2,3.4166668E-2,-9.916964E-4,-4.4214143E-3,-1.3641699E-3,1.1033591E-2,7.759951E-4,-4.285715E-3,8.6363636E-2,-2.5000006E-3,8.866667E-2],"categories":[],"categories_nodes":[],"categories_segments":[],"categories_sizes":[],