{"learner":{"attributes":{"scikit_learn":"{\"_estimator_type\": \"regressor\"}"},"feature_names":["pm25","pm10","no2","o3","temperature","humidity","wind_speed","wind_direction","hours_since_measurement","interpolation_distance","consecutive_gaps","gap_ratio","measurement_frequency","interpolation_flag","pm25_lag_1","pm25_lag_3","pm25_lag_6","pm25_lag_12","pm25_lag_24","pm25_lag_48","pm25_lag_168","pm25_roll_mean_6","pm25_roll_std_6","pm25_roll_mean_12","pm25_roll_std_12","pm25_roll_mean_24","pm25_roll_std_24","pm10_lag_1","pm10_lag_3","pm10_lag_6","pm10_lag_12","pm10_lag_24","pm10_lag_48","pm10_lag_168","pm10_roll_mean_6","pm10_roll_std_6","pm10_roll_mean_12","pm10_roll_std_12","pm10_roll_mean_24","pm10_roll_std_24","no2_lag_1","no2_lag_3","no2_lag_6","no2_lag_12","no2_lag_24","no2_lag_48","no2_lag_168","no2_roll_mean_6","no2_roll_std_6","no2_roll_mean_12","no2_roll_std_12","no2_roll_mean_24","no2_roll_std_24","o3_lag_1","o3_lag_3","o3_lag_6","o3_lag_12","o3_lag_24","o3_lag_48","o3_lag_168","o3_roll_mean_6","o3_roll_std_6","o3_roll_mean_12","o3_roll_std_12","o3_roll_mean_24","o3_roll_std_24","temperature_lag_1","temperature_lag_6","temperature_lag_12","temperature_lag_24","humidity_lag_1","humidity_lag_6","humidity_lag_12","humidity_lag_24","wind_speed_lag_1","wind_speed_lag_6","wind_speed_lag_12","wind_speed_lag_24","wind_direction_lag_1","wind_direction_lag_6","wind_direction_lag_12","wind_direction_lag_24","hour","day_of_week","day_of_month","month","is_weekend","season","region_AIIMS","region_Bhatagaon","region_IGKV","region_SILTARA"],"feature_types":["float","float","float","float","float","float","float","float","float","float","float","float","float","float","float","float","float","float","float","float","float","float","float","float","float","float","float","float","float","float","float","float","float","float","float","float","float","float","float","float","float","float","float","float","float","float","float","float","float","float","float","float","float","float","float","float","float","float","float","float","float","float","float","float","float","float","float","float","float","float","float","float","float","float","float","float","float","float","float","float","float","float","int","int","int","int","int","int","i","i","i","i"],"gradient_booster":{"model":{"cats":{"enc":[],"feature_segments":[],"sorted_idx":[]},"gbtree_model_param":{"num_parallel_tree":"1","num_trees":"500"},"iteration_indptr":[0,1,2,3,4,5,6,7,8,9,10,11,12,13,14,15,16,17,18,19,20,21,22,23,24,25,26,27,28,29,30,31,32,33,34,35,36,37,38,39,40,41,42,43,44,45,46,47,48,49,50,51,52,53,54,55,56,57,58,59,60,61,62,63,64,65,66,67,68,69,70,71,72,73,74,75,76,77,78,79,80,81,82,83,84,85,86,87,88,89,90,91,92,93,94,95,96,97,98,99,100,101,102,103,104,105,106,107,108,109,110,111,112,113,114,115,116,117,118,119,120,121,122,123,124,125,126,127,128,129,130,131,132,133,134,135,136,137,138,139,140,141,142,143,144,145,146,147,148,149,150,151,152,153,154,155,156,157,158,159,160,161,162,163,164,165,166,167,168,169,170,171,172,173,174,175,176,177,178,179,180,181,182,183,184,185,186,187,188,189,190,191,192,193,194,195,196,197,198,199,200,201,202,203,204,205,206,207,208,209,210,211,212,213,214,215,216,217,218,219,220,221,222,223,224,225,226,227,228,229,230,231,232,233,234,235,236,237,238,239,240,241,242,243,244,245,246,247,248,249,250,251,252,253,254,255,256,257,258,259,260,261,262,263,264,265,266,267,268,269,270,271,272,273,274,275,276,277,278,279,280,281,282,283,284,285,286,287,288,289,290,291,292,293,294,295,296,297,298,299,300,301,302,303,304,305,306,307,308,309,310,311,312,313,314,315,316,317,318,319,320,321,322,323,324,325,326,327,328,329,330,331,332,333,334,335,336,337,338,339,340,341,342,343,344,345,346,347,348,349,350,351,352,353,354,355,356,357,358,359,360,361,362,363,364,365,366,367,368,369,370,371,372,373,374,375,376,377,378,379,380,381,382,383,384,385,386,387,388,389,390,391,392,393,394,395,396,397,398,399,400,401,402,403,404,405,406,407,408,409,410,411,412,413,414,415,416,417,418,419,420,421,422,423,424,425,426,427,428,429,430,431,432,433,434,435,436,437,438,439,440,441,442,443,444,445,446,447,448,449,450,451,452,453,454,455,456,457,458,459,460,461,462,463,464,465,466,467,468,469,470,471,472,473,474,475,476,477,478,479,480,481,482,483,484,485,486,487,488,489,490,491,492,493,494,495,496,497,498,499,500],"tree_info":[0,0,0,0,0,0,0,0,0,0,0,0,0,0,0,0,0,0,0,0,0,0,0,0,0,0,0,0,0,0,0,0,0,0,0,0,0,0,0,0,0,0,0,0,0,0,0,0,0,0,0,0,0,0,0,0,0,0,0,0,0,0,0,0,0,0,0,0,0,0,0,0,0,0,0,0,0,0,0,0,0,0,0,0,0,0,0,0,0,0,0,0,0,0,0,0,0,0,0,0,0,0,0,0,0,0,0,0,0,0,0,0,0,0,0,0,0,0,0,0,0,0,0,0,0,0,0,0,0,0,0,0,0,0,0,0,0,0,0,0,0,0,0,0,0,0,0,0,0,0,0,0,0,0,0,0,0,0,0,0,0,0,0,0,0,0,0,0,0,0,0,0,0,0,0,0,0,0,0,0,0,0,0,0,0,0,0,0,0,0,0,0,0,0,0,0,0,0,0,0,0,0,0,0,0,0,0,0,0,0,0,0,0,0,0,0,0,0,0,0,0,0,0,0,0,0,0,0,0,0,0,0,0,0,0,0,0,0,0,0,0,0,0,0,0,0,0,0,0,0,0,0,0,0,0,0,0,0,0,0,0,0,0,0,0,0,0,0,0,0,0,0,0,0,0,0,0,0,0,0,0,0,0,0,0,0,0,0,0,0,0,0,0,0,0,0,0,0,0,0,0,0,0,0,0,0,0,0,0,0,0,0,0,0,0,0,0,0,0,0,0,0,0,0,0,0,0,0,0,0,0,0,0,0,0,0,0,0,0,0,0,0,0,0,0,0,0,0,0,0,0,0,0,0,0,0,0,0,0,0,0,0,0,0,0,0,0,0,0,0,0,0,0,0,0,0,0,0,0,0,0,0,0,0,0,0,0,0,0,0,0,0,0,0,0,0,0,0,0,0,0,0,0,0,0,0,0,0,0,0,0,0,0,0,0,0,0,0,0,0,0,0,0,0,0,0,0,0,0,0,0,0,0,0,0,0,0,0,0,0,0,0,0,0,0,0,0,0,0,0,0,0,0,0,0,0,0,0,0,0,0,0,0,0,0,0,0,0,0,0,0,0,0,0,0,0,0,0,0,0,0,0,0,0,0,0,0,0,0,0,0,0,0,0,0,0,0,0,0,0],"trees":[{"base_weights":[-3.6194207E-4,-6.5243334E-1,3.2339454E-2,-7.630667E-1,-4.8010284E-1,-3.370452E-1,3.762161E-2,-8.878214E-1,-6.871837E-1,-7.3629516E-1,-3.8842443E-1,-7.2434783E-1,-2.8045398E-1,-8.171075E-2,4.1060913E-2,4E-3,-8.9292514E-1,-7.3348063E-1,-5.5451715E-1,-1.2941176E-1,-7.666139E-1,-4.8767605E-1,-3.0442914E-1,-7.9362744E-1,-1.6785714E-1,-3.5949478E-1,-7.295454E-2,-4.50641E-1,-6.473529E-2,-1.3007712E-1,4.214702E-2,-8.942098E-1,2.5000002E-3,-5.2298385E-1,-7.659207E-1,-6.0609317E-1,-2.0697674E-1,4.6153846E-3,-5.6E-1,-7.7708334E-1,4E-3,-5.2481014E-1,-1.4062499E-2,-4.1142857E-1,-2.0397727E-1,-8.1919193E-1,3.7500001E-3,-5.6E-1,4.5000003E-3,-3.075301E-1,-6.909091E-1,-4.8484835E-3,-2.7232143E-1,-2.1111111E-1,-5.6634617E-1,-5.256331E-2,-3.042683E-1,-3.5287356E-1,-6.567656E-2,1.0089256E-2,4.5444153E-2,-6.948718E-1,-9.040948E-1,-6.5346533E-1,4.7916668E-3,-7.847446E-1,-3.871795E-1,-6.5189075E-1,-3.3214286E-1,-4.522727E-1,4.7727274E-3,-7.125E-2,2.5000002E-3,-7.872964E-1,-1.25E-1,-7.024793E-1,-4.4472727E-1,-6.333333E-2,4.8333337E-3,-6.685897E-1,-2.8958333E-1,-1.3643616E-1,-3.6623377E-1,-1.6E-1,-8.452631E-1,-7.125E-2,2.5000002E-3,-1.9827584E-2,-3.446712E-1,-2.875E-1,-7.537879E-1,-4.583333E-1,1.2187501E-2,-1.0512821E-1,-6.1944443E-1,-8.863636E-2,-6.25E-1,-4.3846154E-1,-8.8214286E-2,-8.812728E-3,-9.701121E-2,-5.0666666E-1,-5.6578945E-2,-5.511111E-1,-1.372093E-1,-2.8452381E-1,-3.034351E-2,-1.2932138E-1,3.215444E-2,4.576097E-2,-1.3802083E-1,-7.9531245E-2,-2.0625E-2,-9.304158E-2,-8.502083E-2,-7.222826E-2,4.5000003E-3,-8.446043E-2,-7.0625E-2,-6.525E-2,-1.025E-2,-7.1761005E-2,-5.1312502E-2,-7.7083334E-3,-6.368421E-2,-8.0000006E-2,4.5000003E-3,-4.525E-2,-8.078125E-2,-4.75E-2,4E-3,-8.3670884E-2,-4.395349E-2,-6.015504E-2,-3.0408163E-2,-5.5E-3,-7.478261E-2,-4.3253012E-2,-1.4825582E-2,-6.222222E-2,-1.1138889E-2,-4.9811322E-2,-7.2E-3,-4.75E-2,3.7500001E-3,3.3333336E-3,-8.645161E-2,3.0909092E-3,-7.125E-2,-6.301282E-2,-2.8255496E-2,4.375E-3,-7.6E-2,-8.258929E-2,-3.181818E-2,3.3333336E-3,-7.125E-2,2.9934212E-3,-2.8888887E-2,-3.533333E-2,4.8E-3,3.7500001E-3,-7.5333335E-2,-6.333333E-2,-2.499999E-4,-7.6E-2,2.5000002E-3,-7.03125E-2,-2.4375E-2,-6.333333E-2,-6.5030664E-4,-4.8934105E-3,-1.828125E-2,-2.8518518E-2,-7.947368E-2,-5.6E-2,1.9117648E-3,-3.3653848E-2,-8.025E-2,-4.5416664E-2,-1.4062499E-3,-7.9166666E-2,-1.945946E-2,-1.3944221E-3,-3.7083335E-2,-1.6376305E-3,-1.9454544E-2,-9.147058E-3,3.6558236E-3,-1.0307897E-3,4.6525784E-3,-3.0666664E-3,-4.977273E-2],"categories":[],"categories_nodes":[],"categories_segments":[],"categories_sizes":[],"default_left":[0,0,0,0,0,0,0,0,0,0,0,0,0,0,0,0,0,0,0,0,0,0,0,0,0,0,0,0,0,0,0,0,0,0,0,0,0,0,0,0,0,0,0,0,0,0,0,0,0,0,0,0,0,0,0,0,0,0,0,0,0,0,0,0,0,0,0,0,0,0,0,0,0,0,0,0,0,0,0,0,0,0,0,0,0,0,0,0,0,0,0,0,0,0,0,0,0,0,0,0,0,0,0,0,0,0,0,0,0,0,0,0,0,0,0,0,0,0,0,0,0,0,0,0,0,0,0,0,0,0,0,0,0,0,0,0,0,0,0,0,0,0,0,0,0,0,0,0,0,0,0,0,0,0,0,0,0,0,0,0,0,0,0,0,0,0,0,0,0,0,0,0,0,0,0,0,0,0,0,0,0,0,0,0,0,0,0,0,0,0,0,0,0],"id":0,"left_children":[1,3,5,7,9,11,13,15,17,19,21,23,25,27,29,-1,31,33,35,37,39,41,43,45,47,49,51,53,55,57,59,61,-1,63,65,67,69,-1,71,73,-1,75,77,79,81,83,-1,85,-1,87,89,91,93,95,97,99,101,103,105,107,109,111,113,115,-1,117,119,121,123,125,-1,-1,-1,127,129,131,133,-1,-1,135,137,139,141,143,145,-1,-1,147,149,151,153,155,157,159,161,163,165,167,-1,169,171,173,175,177,179,181,183,185,187,189,191,-1,-1,-1,-1,-1,-1,-1,-1,-1,-1,-1,-1,-1,-1,-1,-1,-1,-1,-1,-1,-1,-1,-1,-1,-1,-1,-1,-1,-1,-1,-1,-1,-1,-1,-1,-1,-1,-1,-1,-1,-1,-1,-1,-1,-1,-1,-1,-1,-1,-1,-1,-1,-1,-1,-1,-1,-1,-1,-1,-1,-1,-1,-1,-1,-1,-1,-1,-1,-1,-1,-1,-1,-1,-1,-1,-1,-1,-1,-1,-1,-1,-1],"loss_changes":[1.4404761E3,6.1138794E1,1.2552411E2,1.7973267E1,2.9401947E1,1.9676414E1,2.6032623E1,3.5352173E0,7.1172485E0,6.0095673E0,7.629654E0,4.300434E0,1.2979702E1,1.109975E1,1.1463692E1,0E0,8.890381E-1,5.779236E0,5.6284027E0,1.3109864E0,2.6996155E0,7.484764E0,5.376213E0,2.1979446E0,1.1937857E0,9.672859E0,2.9858599E0,2.0421953E0,4.9405127E0,5.5582805E0,6.474327E0,8.180542E-1,0E0,9.268311E0,5.271332E0,3.2838821E0,2.7081342E0,0E0,4.6387494E-1,1.9794464E0,0E0,5.3077545E0,1.2670885E0,7.483181E0,2.8432035E0,1.5661621E0,0E0,4.6387494E-1,0E0,5.3145866E0,1.7364578E0,1.2803035E0,3.184929E0,1.3132576E0,1.7132626E0,3.1474872E0,4.08215E0,3.6438713E0,2.3343265E0,1.7581116E1,3.2348022E0,1.7499905E0,1.9610596E-1,4.8872147E0,0E0,2.8993225E0,2.878839E0,1.8022385E0,3.215001E0,3.8401365E0,0E0,0E0,0E0,1.7431488E0,3.6549997E-1,3.9029198E0,5.882614E0,0E0,0E0,3.7511215E0,3.3298616E0,2.2182038E0,2.951995E0,3.28875E-1,1.6358032E0,0E0,0E0,2.0603688E0,7.641556E0,1.9114375E0,1.8102341E0,7.7354157E-1,8.6354613E-1,1.499241E0,1.6114864E0,1.0306175E0,5.4550004E-1,1.8384013E0,0E0,1.1743479E0,3.3034916E0,2.644453E0,1.4587817E0,2.1572819E0,1.6720016E0,1.7614384E0,1.4577823E0,5.7502356E0,2.6895103E0,2.3782501E0,3.6918707E0,0E0,0E0,0E0,0E0,0E0,0E0,0E0,0E0,0E0,0E0,0E0,0E0,0E0,0E0,0E0,0E0,0E0,0E0,0E0,0E0,0E0,0E0,0E0,0E0,0E0,0E0,0E0,0E0,0E0,0E0,0E0,0E0,0E0,0E0,0E0,0E0,0E0,0E0,0E0,0E0,0E0,0E0,0E0,0E0,0E0,0E0,0E0,0E0,0E0,0E0,0E0,0E0,0E0,0E0,0E0,0E0,0E0,0E0,0E0,0E0,0E0,0E0,0E0,0E0,0E0,0E0,0E0,0E0,0E0,0E0,0E0,0E0,0E0,0E0,0E0,0E0,0E0,0E0,0E0,0E0,0E0,0E0],"parents":[2147483647,0,0,1,1,2,2,3,3,4,4,5,5,6,6,7,7,8,8,9,9,10,10,11,11,12,12,13,13,14,14,16,16,17,17,18,18,19,19,20,20,21,21,22,22,23,23,24,24,25,25,26,26,27,27,28,28,29,29,30,30,31,31,33,33,34,34,35,35,36,36,38,38,39,39,41,41,42,42,43,43,44,44,45,45,47,47,49,49,50,50,51,51,52,52,53,53,54,54,55,55,56,56,57,57,58,58,59,59,60,60,61,61,62,62,63,63,65,65,66,66,67,67,68,68,69,69,73,73,74,74,75,75,76,76,79,79,80,80,81,81,82,82,83,83,84,84,87,87,88,88,89,89,90,90,91,91,92,92,93,93,94,94,95,95,96,96,97,97,99,99,100,100,101,101,102,102,103,103,104,104,105,105,106,106,107,107,108,108,109,109,110,110],"right_children":[2,4,6,8,10,12,14,16,18,20,22,24,26,28,30,-1,32,34,36,38,40,42,44,46,48,50,52,54,56,58,60,62,-1,64,66,68,70,-1,72,74,-1,76,78,80,82,84,-1,86,-1,88,90,92,94,96,98,100,102,104,106,108,110,112,114,116,-1,118,120,122,124,126,-1,-1,-1,128,130,132,134,-1,-1,136,138,140,142,144,146,-1,-1,148,150,152,154,156,158,160,162,164,166,168,-1,170,172,174,176,178,180,182,184,186,188,190,192,-1,-1,-1,-1,-1,-1,-1,-1,-1,-1,-1,-1,-1,-1,-1,-1,-1,-1,-1,-1,-1,-1,-1,-1,-1,-1,-1,-1,-1,-1,-1,-1,-1,-1,-1,-1,-1,-1,-1,-1,-1,-1,-1,-1,-1,-1,-1,-1,-1,-1,-1,-1,-1,-1,-1,-1,-1,-1,-1,-1,-1,-1,-1,-1,-1,-1,-1,-1,-1,-1,-1,-1,-1,-1,-1,-1,-1,-1,-1,-1,-1,-1],"split_conditions":[1.1E0,1E0,1.09E0,1.617123E0,2.096E1,1.6818799E0,1.2E0,5.755E1,6.6E-1,4.4279414E-1,1.16E0,6.060243E0,4.47E0,1.1E0,1.1E0,2.1249998E-2,3.3987684E0,3E0,8.129275E0,8.925E1,1.017E1,1E0,8.1E-1,1.0443E2,1.1E0,9.347E1,6.005E1,5.669E1,3.702E1,5.648808E-1,2.46E0,8.47E0,2.9999972E-3,2.3E1,9.249E1,4.573172E1,5.017E1,8.9E-2,1.1185682E0,9.875E1,8.000004E-3,5.1E-1,2.2E-1,6.383E1,5E0,9.631667E0,2.3333312E-3,3.1563E2,1.2000001E-2,1.8326665E-1,6.204E1,3E0,7.45E0,1.18E0,6.8684106E0,4.159E1,2.6338725E0,7.6E1,9.01E0,9.731544E1,5.332E1,8.3E0,9.519E1,9.610219E1,2.278E-1,3.4090567E-1,7.816667E-1,1.03E0,2.4E0,1.48E0,4.5999973E-3,-7.575001E-2,4.2999994E-2,2.406E1,1.1865E2,3.3177E2,1.5522166E0,-1.1000002E-2,1.925E-1,3.685E1,3.125016E0,2.6223E1,8.426206E0,4.52E0,1.945E1,-6.3E-2,5.5999994E-2,9.003875E1,2.096E1,1.0806621E1,1.9152E2,1.23E1,9.783E1,9.555583E1,3.923E1,1.2E-1,4.821E1,2.0195E2,-1.01E-1,1.2E-1,7.482E1,2.07E0,9.25E0,8.696E1,2.471E1,4.9E-1,2.78E0,2.125E1,1.1716666E0,1.1E0,1.892E1,-9.57E-2,-7.4E-2,-1.03E-1,-1.0175001E-1,-1.1000001E-1,4.02E-1,-1.00150004E-1,-1.03E-1,-1.0700001E-1,-6.3E-2,-1.0043001E-1,-1.01E-1,-8.86E-2,-7.8E-2,-1.0500001E-1,3.9999965E-3,-8.3333336E-2,-1.04399994E-1,-3.55E-2,2.9999972E-3,-1.05075E-1,-1.02699995E-1,-8.055001E-2,-7.0387505E-2,-6.5E-2,-1.11E-1,-1.038E-1,-5.1700003E-2,-7.9E-2,-4.4999998E-2,-4.6550002E-2,-9.025001E-2,-2.8000003E-2,1.7999995E-2,9.4E-2,-9.52375E-2,9.250001E-3,-9.600001E-2,-9.8400004E-2,-7.2000004E-2,1.3999999E-2,-5.8000006E-2,-1.038E-1,-4.0000003E-2,1.8236364E-1,-4.2000003E-2,2.3400003E-2,-5E-2,-9.600001E-2,2.8E-2,2.9000002E-1,-9.1000006E-2,-7.7E-2,-1.5000003E-2,-7.4E-2,2.21E-1,-8.3000004E-2,-6.0200002E-2,-8.5E-2,0E0,-9.999991E-4,-9.999991E-4,-1.01600006E-1,-9E-2,-1.9E-2,-3.600003E-3,-1.002E-1,-1.08E-1,-9.4000004E-2,-2.3800006E-2,-1.08E-1,-5.5800002E-2,-7.800004E-3,-5.9250005E-2,-2.26E-2,-8.8162504E-2,-9.999991E-4,3.9999965E-3,-1.1000002E-2,1.4899999E-1,-4.1500002E-2,-1.07300006E-1],"split_indices":[53,58,57,39,4,35,58,5,74,22,57,22,53,54,54,0,61,85,65,7,57,90,53,30,77,46,44,73,69,61,53,43,0,84,71,69,0,0,11,5,0,77,75,71,83,51,0,7,0,61,30,84,53,55,50,42,65,71,2,12,67,43,71,37,0,61,60,75,77,55,0,0,0,78,7,79,48,0,0,73,50,70,26,0,33,0,0,51,66,48,28,0,5,36,5,55,4,78,0,56,5,56,18,32,32,54,74,18,60,56,43,0,0,0,0,0,0,0,0,0,0,0,0,0,0,0,0,0,0,0,0,0,0,0,0,0,0,0,0,0,0,0,0,0,0,0,0,0,0,0,0,0,0,0,0,0,0,0,0,0,0,0,0,0,0,0,0,0,0,0,0,0,0,0,0,0,0,0,0,0,0,0,0,0,0,0,0,0,0,0,0,0,0],"split_type":[0,0,0,0,0,0,0,0,0,0,0,0,0,0,0,0,0,0,0,0,0,0,0,0,0,0,0,0,0,0,0,0,0,0,0,0,0,0,0,0,0,0,0,0,0,0,0,0,0,0,0,0,0,0,0,0,0,0,0,0,0,0,0,0,0,0,0,0,0,0,0,0,0,0,0,0,0,0,0,0,0,0,0,0,0,0,0,0,0,0,0,0,0,0,0,0,0,0,0,0,0,0,0,0,0,0,0,0,0,0,0,0,0,0,0,0,0,0,0,0,0,0,0,0,0,0,0,0,0,0,0,0,0,0,0,0,0,0,0,0,0,0,0,0,0,0,0,0,0,0,0,0,0,0,0,0,0,0,0,0,0,0,0,0,0,0,0,0,0,0,0,0,0,0,0,0,0,0,0,0,0,0,0,0,0,0,0,0,0,0,0,0,0],"sum_hessian":[6.7551E4,3.225E3,6.4326E4,1.962E3,1.263E3,9.06E2,6.342E4,7.38E2,1.224E3,3.31E2,9.32E2,1.14E2,7.92E2,1.776E3,6.1644E4,4E0,7.34E2,9.04E2,3.2E2,1.6E1,3.15E2,4.25E2,5.07E2,1.01E2,1.3E1,5.73E2,2.19E2,7.7E1,1.699E3,3.88E2,6.1256E4,7.33E2,1E0,1.23E2,7.81E2,2.78E2,4.2E1,1.2E1,4E0,3.11E2,4E0,3.94E2,3.1E1,2.44E2,2.63E2,9.8E1,3E0,4E0,9E0,4.97E2,7.6E1,1.64E2,5.5E1,2.6E1,5.1E1,1.618E3,8.1E1,8.6E1,3.02E2,5.713E3,5.5543E4,3.8E1,6.95E2,1E2,2.3E1,7.43E2,3.8E1,2.37E2,4.1E1,2.1E1,2.1E1,3E0,1E0,3.06E2,5E0,1.2E2,2.74E2,2E0,2.9E1,7.7E1,1.67E2,1.87E2,7.6E1,4E0,9.4E1,3E0,1E0,5.7E1,4.4E2,1.1E1,6.5E1,5E0,1.59E2,3.8E1,1.7E1,2.1E1,5E0,3.8E1,1.3E1,8.16E2,8.02E2,4.4E1,3.7E1,4.4E1,4.2E1,4.1E1,2.61E2,7.8E2,4.933E3,5.5448E4,9.5E1,3.1E1,7E0,4.56E2,2.39E2,9.1E1,9E0,4.16E2,3.27E2,1.9E1,1.9E1,1.58E2,7.9E1,2.3E1,1.8E1,1.2E1,9E0,1.9E1,2.87E2,1E0,4E0,7.8E1,4.2E1,1.28E2,1.46E2,9E0,6.8E1,8.2E1,8.5E1,8E0,1.79E2,5.2E1,2.4E1,1E0,3E0,2E0,9.2E1,5.4E1,3E0,7.7E1,3.63E2,7E0,4E0,5.5E1,1E1,2E0,3E0,1.51E2,8E0,1.4E1,2.4E1,3E0,1.4E1,2E0,1.9E1,4E0,1E0,1.5E1,2.3E1,2E0,8.14E2,5.15E2,2.87E2,2.6E1,1.8E1,4E0,3.3E1,2.5E1,1.9E1,1.1E1,3.1E1,5E0,3.6E1,2.5E2,1.1E1,2.86E2,4.94E2,1.69E2,4.764E3,7.46E2,5.4702E4,7.4E1,2.1E1],"tree_param":{"num_deleted":"0","num_feature":"92","num_nodes":"193","size_leaf_vector":"1"}},{"base_weights":[5.6770892E-5,-6.2941176E-1,3.1709567E-2,-7.496044E-1,-4.60392E-1,-2.2965272E-1,3.633491E-2,-8.752005E-1,-6.671888E-1,-6.8365383E-1,-3.777553E-1,-4.0429905E-1,-7.062818E-2,-1.7624481E-1,3.796154E-2,-1.25E-1,-8.8008076E-1,-7.567219E-1,-5.859967E-1,-1.9999998E-2,-7.1014285E-1,-5.979508E-1,-3.4637097E-1,2.2368422E-2,-4.3604416E-1,-7.704545E-1,-4.3397885E-2,-4.224E-1,-8.980447E-2,-8.976833E-3,4.263078E-2,4E-3,-4.75E-2,-8.8133425E-1,2.5000002E-3,-7.705104E-1,-2.2E-1,-1.1875E-1,-6.041952E-1,-4.75E-2,4.6428572E-3,-7.628975E-1,-4.8014706E-1,-3.7499998E-2,-6.531531E-1,-2.965643E-1,-5.286486E-1,4.864865E-3,-4.75E-2,-7.152941E-1,-3.77657E-1,3.3333336E-3,-8.5249996E-1,-1.5968062E-2,-2.4485293E-1,-2.3014705E-1,-6.4051723E-1,-5.0344825E-1,-5.3181816E-2,-4.3636364E-1,-6.486056E-3,-7.6108524E-3,4.3991428E-2,-9.134174E-1,-8.3289903E-1,-7.8440547E-1,-3.0588233E-1,-7.125E-2,-3.7499998E-2,-7.125E-2,1.2417635E-9,-6.1675394E-1,4.5833336E-3,-7.77518E-1,4.166667E-3,4.4444446E-3,-5.5083334E-1,-4.75E-2,4.545455E-3,-6.8125E-1,-2.0625E-1,-2.5603145E-1,-4.9911505E-1,-6.0193545E-1,-1.4516129E-1,-7.75E-1,-2.875E-1,-6.963636E-1,-3.2791665E-1,-8.9999996E-2,2.5000002E-3,-7.383953E-4,-2.7321428E-1,-7.2499996E-1,-1.4893616E-2,-1.2327586E-1,-7.7272725E-1,-7.1568626E-1,-8.125E-2,-6.666666E-2,-6.666667E-1,-2.6072606E-2,-3.4464285E-1,-7.525E-1,4.6428572E-3,-3.223213E-3,-2.7910447E-1,-1.723611E-1,4.388021E-2,-1.5226062E-2,4.4800133E-2,-3E-2,-9.15553E-2,-8.3832234E-2,-2.125E-2,-7.9199605E-2,-2.0625E-2,-7.0625E-2,4.5000003E-3,4.545455E-3,-4.75E-2,4.75E-3,-4.75E-2,-7.8125E-3,-6.310932E-2,3.7500001E-3,-7.865455E-2,-6.175926E-2,4.2857146E-3,-6.955882E-2,3.3333336E-3,4.166667E-3,-6.333333E-2,-3.156658E-2,-1.34473685E-2,-6.0965907E-2,-1.0576923E-2,-4.0273976E-2,-7.698795E-2,-6.25E-2,-2.8846152E-3,-5.3541668E-2,-8.7254904E-2,-7.6E-2,4.375E-3,4E-3,-7.54902E-2,-1.02020195E-2,-4.1202288E-2,-1.5142857E-2,1.1250002E-3,-5.964286E-2,4.666667E-3,4E-3,-8.972222E-2,4.875E-3,-3.3125E-2,-3.3653848E-2,4.8484853E-3,-8.55E-2,2.5000002E-3,-7.920455E-2,-2.0625E-2,4.2857146E-3,-4.75E-2,-4.75E-2,4.375E-3,3.3333336E-3,-7.4210525E-2,1.7361112E-3,-1.3238636E-2,-1.9999999E-3,-6.6785716E-2,-8.9062504E-2,-1.6E-2,-7.9166666E-2,-2.377121E-4,-6.32E-2,-6.744186E-3,-1.3169231E-2,-5.347222E-2,-3E-2,4.473913E-3,1.1885896E-3,-1.5532787E-2,4.5013377E-3,-1.690909E-2],"categories":[],"categories_nodes":[],"categories_segments":[],"categories_sizes":[],"default_left":[0,0,0,0,0,0,0,0,0,0,0,0,0,0,0,0,0,0,0,0,0,0,0,0,0,0,0,0,0,0,0,0,0,0,0,0,0,0,0,0,0,0,0,0,0,0,0,0,0,0,0,0,0,0,0,0,0,0,0,0,0,0,0,0,0,0,0,0,0,0,0,0,0,0,0,0,0,0,0,0,0,0,0,0,0,0,0,0,0,0,0,0,0,0,0,0,0,0,0,0,0,0,0,0,0,0,0,0,0,0,0,0,0,0,0,0,0,0,0,0,0,0,0,0,0,0,0,0,0,0,0,0,0,0,0,0,0,0,0,0,0,0,0,0,0,0,0,0,0,0,0,0,0,0,0,0,0,0,0,0,0,0,0,0,0,0,0,0,0,0,0,0,0,0,0,0,0,0,0,0,0,0,0,0,0,0,0],"id":1,"left_children":[1,3,5,7,9,11,13,15,17,19,21,23,25,27,29,31,33,35,37,39,41,43,45,47,49,51,53,55,57,59,61,-1,-1,63,-1,65,67,69,71,-1,-1,73,75,77,79,81,83,-1,-1,85,87,-1,89,91,93,95,97,99,101,103,105,107,109,111,113,115,117,-1,119,-1,121,123,-1,125,-1,-1,127,-1,-1,129,131,133,135,137,139,141,143,145,147,-1,-1,149,151,153,155,157,159,161,163,165,167,169,171,173,-1,175,177,179,181,183,185,-1,-1,-1,-1,-1,-1,-1,-1,-1,-1,-1,-1,-1,-1,-1,-1,-1,-1,-1,-1,-1,-1,-1,-1,-1,-1,-1,-1,-1,-1,-1,-1,-1,-1,-1,-1,-1,-1,-1,-1,-1,-1,-1,-1,-1,-1,-1,-1,-1,-1,-1,-1,-1,-1,-1,-1,-1,-1,-1,-1,-1,-1,-1,-1,-1,-1,-1,-1,-1,-1,-1,-1,-1,-1,-1,-1],"loss_changes":[1.3512554E3,6.561755E1,7.806883E1,1.9041748E1,2.4685638E1,3.1160583E1,2.1946938E1,2.62854E0,7.9091187E0,6.3847504E0,6.6275635E0,7.256119E0,1.1190829E1,1.0217936E1,1.3801086E1,3.6549997E-1,8.649292E-1,3.848999E0,5.089676E0,4.7542855E-1,3.8803558E0,3.7499695E0,7.72348E0,5.1980436E-1,7.8495636E0,1.4792528E0,3.134788E0,5.0942955E0,5.396472E0,6.062834E0,3.9155197E0,0E0,0E0,3.9227295E-1,0E0,3.175293E0,1.3215E0,1.6921874E0,4.7957764E0,0E0,0E0,3.3613586E0,2.5460196E0,4.5710227E-1,1.2532692E0,5.4878235E0,5.111969E0,0E0,0E0,1.948246E0,6.334614E0,0E0,8.561268E-1,1.9626033E0,7.4973745E0,3.8478034E0,2.380148E0,2.0229883E0,2.5984364E0,5.071667E0,5.03907E0,1.2825626E1,2.6710892E0,2.9644775E-1,8.547821E-1,2.0879822E0,2.4199743E0,0E0,4.5710227E-1,0E0,4.96375E-1,4.3762817E0,0E0,2.0749054E0,0E0,0E0,2.4045277E0,0E0,0E0,1.0887566E0,8.734374E-1,4.1039886E0,4.8489895E0,4.875271E0,1.7121588E0,1.2622833E0,1.9114375E0,2.400999E0,6.797714E0,0E0,0E0,8.580004E-1,2.9227557E0,2.9343882E0,9.6244943E-1,2.1408648E0,7.433181E-1,1.8205471E0,4.1129464E-1,4.265625E-1,1.1336842E0,1.4014316E0,2.924661E0,1.4942818E0,0E0,3.7338536E0,4.9619274E0,5.234827E0,3.5368395E-1,2.8582687E0,2.5167084E0,0E0,0E0,0E0,0E0,0E0,0E0,0E0,0E0,0E0,0E0,0E0,0E0,0E0,0E0,0E0,0E0,0E0,0E0,0E0,0E0,0E0,0E0,0E0,0E0,0E0,0E0,0E0,0E0,0E0,0E0,0E0,0E0,0E0,0E0,0E0,0E0,0E0,0E0,0E0,0E0,0E0,0E0,0E0,0E0,0E0,0E0,0E0,0E0,0E0,0E0,0E0,0E0,0E0,0E0,0E0,0E0,0E0,0E0,0E0,0E0,0E0,0E0,0E0,0E0,0E0,0E0,0E0,0E0,0E0,0E0,0E0,0E0,0E0,0E0,0E0,0E0],"parents":[2147483647,0,0,1,1,2,2,3,3,4,4,5,5,6,6,7,7,8,8,9,9,10,10,11,11,12,12,13,13,14,14,15,15,16,16,17,17,18,18,19,19,20,20,21,21,22,22,23,23,24,24,25,25,26,26,27,27,28,28,29,29,30,30,33,33,35,35,36,36,37,37,38,38,41,41,42,42,43,43,44,44,45,45,46,46,49,49,50,50,52,52,53,53,54,54,55,55,56,56,57,57,58,58,59,59,60,60,61,61,62,62,63,63,64,64,65,65,66,66,68,68,70,70,71,71,73,73,76,76,79,79,80,80,81,81,82,82,83,83,84,84,85,85,86,86,87,87,88,88,91,91,92,92,93,93,94,94,95,95,96,96,97,97,98,98,99,99,100,100,101,101,102,102,103,103,105,105,106,106,107,107,108,108,109,109,110,110],"right_children":[2,4,6,8,10,12,14,16,18,20,22,24,26,28,30,32,34,36,38,40,42,44,46,48,50,52,54,56,58,60,62,-1,-1,64,-1,66,68,70,72,-1,-1,74,76,78,80,82,84,-1,-1,86,88,-1,90,92,94,96,98,100,102,104,106,108,110,112,114,116,118,-1,120,-1,122,124,-1,126,-1,-1,128,-1,-1,130,132,134,136,138,140,142,144,146,148,-1,-1,150,152,154,156,158,160,162,164,166,168,170,172,174,-1,176,178,180,182,184,186,-1,-1,-1,-1,-1,-1,-1,-1,-1,-1,-1,-1,-1,-1,-1,-1,-1,-1,-1,-1,-1,-1,-1,-1,-1,-1,-1,-1,-1,-1,-1,-1,-1,-1,-1,-1,-1,-1,-1,-1,-1,-1,-1,-1,-1,-1,-1,-1,-1,-1,-1,-1,-1,-1,-1,-1,-1,-1,-1,-1,-1,-1,-1,-1,-1,-1,-1,-1,-1,-1,-1,-1,-1,-1,-1,-1],"split_conditions":[1.1E0,9.2E-1,1.0825E0,6.9765077E0,2.122E1,2.74E0,1.1E0,5.929E1,2.8E-1,4.4279414E-1,1.617123E0,1.7181385E-1,3.1530373E0,1E1,2E0,3.081E1,1.9152E2,1.1898286E2,8.24E0,1.6E-1,1.05E0,6.503E1,3.2786118E1,3.7875E0,1.963E1,1.539E1,8.280542E1,6.7E-1,2.2361953E0,5.1928157E-1,1.81E0,7.0500015E-3,-3.8699996E-2,1.335E1,4.5043003E-2,1.192654E2,6.8728266E0,3.01E0,4.1125E0,-5.2425005E-2,1.8099999E-2,1.3575458E2,2.9283134E1,5.75E0,3.245E1,2.64E0,6.18E0,9.378243E-3,-2.1000003E-2,9.37425E1,9.12029E-2,5.0399996E-2,6.0959663E0,7.536875E1,8.270588E0,3.788E1,7.221928E1,6.506E1,1.7E1,4.494E1,5.3465E1,9.852408E1,1.1E0,2.406E1,4.322E1,1.08261665E2,2.487E1,-7.57E-2,3.04175E2,-3.1200005E-2,3.4519E2,6.64E0,3.4999966E-3,2.423E1,4.333341E-3,5.4399967E-3,9.615E1,-5.019501E-2,3.874302E-5,1.73E0,2.043E1,4.78E0,1.917E1,2.0847082E0,9.19E0,7.435E1,5.6E-1,9.631667E0,1.307E1,-8.0476254E-2,1.0999918E-3,2.2858334E0,2.9066353E1,3.539E1,2.0757776E1,4.752E1,7.453E1,4.1962807E1,6.28425E1,5.75E0,1.238E1,5E0,6.660333E1,1.51E0,5.5999993E-3,9.12029E-2,1.02E0,8.038E1,1.2E-1,1.9E1,5.332E1,-8.9075E-2,-9.27375E-2,-8.9425E-2,-6.66E-2,-9.549E-2,-7.4985005E-2,-8.698501E-2,5.800009E-3,5.2300002E-2,-2.0699997E-2,5.5999993E-3,-2.6985003E-2,-4.7985006E-2,-9.04113E-2,2.6999952E-3,-9.3645E-2,-8.3459996E-2,4.439998E-3,-7.866701E-2,1.1038745E-2,2.7269995E-2,-6.0825E-2,-5.9896257E-2,-5.0653126E-2,-9.99E-2,-5.867775E-2,-8.658713E-2,-9.5978625E-2,-9.5975004E-2,-6.5249E-2,-8.7832004E-2,-8.994301E-2,-9.916001E-2,8.840001E-3,1.6199995E-2,-8.681375E-2,-3.605E-2,-8.078E-2,-6.735E-2,1.3000001E-2,-5.3799998E-2,7.7068806E-3,8.099997E-3,-1.069E-1,3.42E-2,-9.09E-2,-6.137338E-2,5.0299945E-3,-7.5160004E-2,1.3878E-1,-7.1404E-2,-4.6600003E-2,4.799998E-3,-5.7199996E-2,-1.0098E-1,1.0800004E-2,6.1523747E-2,-9.628667E-2,9.580002E-3,-4.5512002E-2,-4.980004E-3,-9.442001E-2,-8.218375E-2,-5.9000016E-3,-5.172625E-2,-1.3499444E-4,-1.089E-1,-1.435E-2,-5.4145932E-2,-9.878375E-2,-3.9999487E-4,4.6000006E-3,1.9603185E-2,-5.5155367E-2,1.2409999E-1,-7.0350006E-2],"split_indices":[53,58,58,39,4,53,54,5,74,22,39,61,37,82,59,0,1,19,19,6,6,5,35,6,4,1,51,6,37,26,53,0,0,46,0,37,22,0,6,0,0,21,81,0,20,76,58,0,0,15,35,0,50,25,26,45,39,70,82,5,68,12,56,7,17,25,45,0,1,0,7,46,0,1,0,0,5,0,0,54,1,59,2,63,2,81,58,51,18,0,0,64,26,15,26,27,5,69,0,0,2,83,34,59,0,35,77,19,74,82,67,0,0,0,0,0,0,0,0,0,0,0,0,0,0,0,0,0,0,0,0,0,0,0,0,0,0,0,0,0,0,0,0,0,0,0,0,0,0,0,0,0,0,0,0,0,0,0,0,0,0,0,0,0,0,0,0,0,0,0,0,0,0,0,0,0,0,0,0,0,0,0,0,0,0,0,0],"split_type":[0,0,0,0,0,0,0,0,0,0,0,0,0,0,0,0,0,0,0,0,0,0,0,0,0,0,0,0,0,0,0,0,0,0,0,0,0,0,0,0,0,0,0,0,0,0,0,0,0,0,0,0,0,0,0,0,0,0,0,0,0,0,0,0,0,0,0,0,0,0,0,0,0,0,0,0,0,0,0,0,0,0,0,0,0,0,0,0,0,0,0,0,0,0,0,0,0,0,0,0,0,0,0,0,0,0,0,0,0,0,0,0,0,0,0,0,0,0,0,0,0,0,0,0,0,0,0,0,0,0,0,0,0,0,0,0,0,0,0,0,0,0,0,0,0,0,0,0,0,0,0,0,0,0,0,0,0,0,0,0,0,0,0,0,0,0,0,0,0,0,0,0,0,0,0,0,0,0,0,0,0,0,0,0,0,0,0],"sum_hessian":[6.7817E4,3.246E3,6.4571E4,1.895E3,1.351E3,1.122E3,6.3449E4,7.47E2,1.148E3,3.63E2,9.88E2,5.34E2,5.88E2,4.81E2,6.2968E4,5E0,7.42E2,5.42E2,6.06E2,1.4E1,3.49E2,1.21E2,8.67E2,3.7E1,4.97E2,2.1E1,5.67E2,1.24E2,3.57E2,5.697E3,5.7271E4,4E0,1E0,7.41E2,1E0,5.28E2,1.4E1,2.3E1,5.83E2,1E0,1.3E1,2.82E2,6.7E1,1.1E1,1.1E2,6.83E2,1.84E2,3.6E1,1E0,8.4E1,4.13E2,2E0,1.9E1,5E2,6.7E1,6.7E1,5.7E1,2.8E1,3.29E2,3.2E1,5.665E3,1.51E3,5.5761E4,4.35E2,3.06E2,5.12E2,1.6E1,3E0,1.1E1,3E0,2E1,5.72E2,1.1E1,2.77E2,5E0,8E0,5.9E1,1E0,1E1,1.03E2,7E0,5.71E2,1.12E2,1.54E2,3E1,7.3E1,1.1E1,5.4E1,3.59E2,1.8E1,1E0,4.73E2,2.7E1,2.1E1,4.6E1,5.7E1,1E1,5E1,7E0,8E0,2E1,3.02E2,2.7E1,1.9E1,1.3E1,5.599E3,6.6E1,3.59E2,1.151E3,7.51E2,5.501E4,2E0,4.33E2,3.03E2,3E0,5.05E2,7E0,7E0,9E0,1E1,1E0,1.9E1,1E0,1.5E1,5.57E2,3E0,2.74E2,5.3E1,6E0,1.01E2,2E0,5E0,2E0,3.82E2,1.89E2,8.7E1,2.5E1,7.2E1,8.2E1,5E0,2.5E1,2.3E1,5E1,4E0,7E0,4E0,5E1,9.8E1,2.61E2,3.4E1,4.39E2,1.3E1,1.4E1,4E0,1.7E1,3.9E1,7E0,2.5E1,3.2E1,9E0,1E0,4.3E1,7E0,6E0,1E0,1E0,7E0,2E0,1.8E1,2.15E2,8.7E1,1.4E1,1.3E1,1.5E1,4E0,5E0,5.594E3,2.4E1,4.2E1,3.24E2,3.5E1,2E0,1.149E3,6.3E2,1.21E2,5.4956E4,5.4E1],"tree_param":{"num_deleted":"0","num_feature":"92","num_nodes":"187","size_leaf_vector":"1"}},{"base_weights":[1.7721662E-3,-6.4645845E-1,3.0408312E-2,-7.3464286E-1,-4.9255013E-1,-3.539112E-1,3.3230342E-2,-8.660256E-1,-6.515639E-1,-6.5100443E-1,-3.7341666E-1,-4.5180327E-1,-1.7514792E-1,-2.6203277E-2,4.1210968E-2,-4.72E-1,-8.792773E-1,-6.812004E-1,-3.7901786E-1,-1.3333333E-1,-6.905048E-1,-5.535714E-1,-3.248421E-1,-6.960784E-1,-4.0117645E-1,-1.4140128E-1,-5.6923074E-1,-1.8901515E-1,1.20910285E-2,-3.0598339E-2,4.3410353E-2,-2.4705882E-1,-8.444445E-2,-9.1080785E-1,-8.0995476E-1,4.4444446E-3,-6.8705E-1,-8.107143E-1,-3.1414142E-1,4.782609E-3,-5E-1,-7.0317847E-1,4.375E-3,-1.4285713E-1,-6.29717E-1,-5.419355E-1,-2.7127936E-1,-2.55E-1,-7.845238E-1,-3.283582E-1,-6.5999997E-1,-8.6016946E-2,-3.0124998E-1,-6.818182E-1,3.3333336E-3,-3.0612245E-1,-1.3779645E-1,-3.9194137E-2,1.993092E-2,-7.176471E-1,-2.3594497E-2,2.3082665E-3,4.443649E-2,-1.0769231E-1,-5.6E-1,-9.129103E-1,2.5000002E-3,-8.28169E-1,-2.8888887E-1,-5.331288E-1,-7.161694E-1,2.5000002E-3,-8.769231E-2,-3.9935896E-1,2.2727286E-3,4E-3,-8.142857E-2,-7.276178E-1,-3.4464285E-1,-5.6E-1,-1.1764704E-2,-4.390244E-1,-7.386364E-1,-6.38961E-1,-7.058823E-2,-2.3149846E-1,-4.9473682E-1,4.166667E-3,-5.6E-1,3.7500001E-3,-8.487179E-1,-4.6631578E-1,-2.0280373E-1,-7.6931816E-1,-2.0416667E-1,-2.7199998E-1,-3.5638295E-2,-6.4615387E-1,-1.3035715E-1,-2.1249999E-1,-8.3125E-2,-3.7683332E-1,-1.5457746E-1,-5.37931E-1,-1.2586382E-1,-2.640625E-1,-3.001269E-2,2.8684784E-2,-3.32893E-2,-8.2E-1,3.3333336E-3,-1.5157232E-1,-1.0138704E-2,-3.2471728E-2,3.2E-2,2.1795303E-2,4.5764484E-2,-4.625E-2,4.5000003E-3,2.5000002E-3,-7.125E-2,-9.169248E-2,-4.583333E-2,-5.15625E-2,-8.492424E-2,-5.6E-2,4E-3,-6.3418366E-2,-3.75E-2,-8.372385E-2,-6.6675E-2,-6.1818182E-2,-2.3369564E-2,4.761905E-3,-4.75E-2,-7.920956E-2,-5.630631E-2,-5.964286E-2,-8.666667E-3,2.5000002E-3,-7.125E-2,4.6875E-3,-4.75E-2,-6.604167E-2,-1.1944445E-2,-2.0625E-2,-7.983051E-2,-6.830986E-2,-1E-2,-4.625E-2,4.6428572E-3,-1.2947977E-2,-3.4387097E-2,-5.9555557E-2,-1.0769231E-2,-7.125E-2,2.5000002E-3,-4.583333E-2,-8.9264706E-2,-5.7578124E-2,-2.328125E-2,-4.72E-2,-1.1927711E-2,3.7500001E-3,-8.292683E-2,4.4444446E-3,-7.125E-2,-6.222222E-2,-7.058823E-3,-1.6483516E-3,-4.625E-2,3.3333336E-3,-7.727273E-2,4.3478273E-4,-6.25E-2,-4.75E-2,3.3333336E-3,-3.1191489E-2,-6.0227275E-2,-7.0625E-2,-1.2074075E-2,4.5000003E-3,-8.025E-2,-3.3207547E-3,-1.5979167E-2,-5.263157E-4,-5.964286E-2,-5.6E-2,-2.6594386E-3,2.951427E-3,-3.55E-2,-1.5511811E-2,-8.716322E-4,2.5000002E-3,-8.8214286E-2,-7.65625E-2,-8.229166E-3,5.864199E-4,-5.774278E-3,-1.0017123E-3,-3.9583333E-2,-6.333333E-2,3.4716462E-3,-8.867925E-3,2.8012048E-3,4.5919074E-3,-1.618421E-2],"categories":[],"categories_nodes":[],"categories_segments":[],"categories_sizes":[],"default_left":[0,0,0,0,0,0,0,0,0,0,0,0,0,0,0,0,0,0,0,0,0,0,0,0,0,0,0,0,0,0,0,0,0,0,0,0,0,0,0,0,0,0,0,0,0,0,0,0,0,0,0,0,0,0,0,0,0,0,0,0,0,0,0,0,0,0,0,0,0,0,0,0,0,0,0,0,0,0,0,0,0,0,0,0,0,0,0,0,0,0,0,0,0,0,0,0,0,0,0,0,0,0,0,0,0,0,0,0,0,0,0,0,0,0,0,0,0,0,0,0,0,0,0,0,0,0,0,0,0,0,0,0,0,0,0,0,0,0,0,0,0,0,0,0,0,0,0,0,0,0,0,0,0,0,0,0,0,0,0,0,0,0,0,0,0,0,0,0,0,0,0,0,0,0,0,0,0,0,0,0,0,0,0,0,0,0,0,0,0,0,0,0,0,0,0,0,0,0,0,0,0,0,0,0,0,0,0],"id":2,"left_children":[1,3,5,7,9,11,13,15,17,19,21,23,25,27,29,31,33,35,37,39,41,43,45,47,49,51,53,55,57,59,61,63,-1,65,67,-1,69,71,73,-1,75,77,-1,79,81,83,85,87,89,91,93,95,97,99,-1,101,103,105,107,109,111,113,115,117,119,121,-1,123,125,127,129,-1,-1,131,133,-1,-1,135,137,139,141,143,145,147,149,151,153,-1,155,-1,157,159,161,163,165,167,169,171,173,175,-1,177,179,181,183,185,187,189,191,193,-1,195,197,199,201,203,205,-1,-1,-1,-1,-1,-1,-1,-1,-1,-1,-1,-1,-1,-1,-1,-1,-1,-1,-1,-1,-1,-1,-1,-1,-1,-1,-1,-1,-1,-1,-1,-1,-1,-1,-1,-1,-1,-1,-1,-1,-1,-1,-1,-1,-1,-1,-1,-1,-1,-1,-1,-1,-1,-1,-1,-1,-1,-1,-1,-1,-1,-1,-1,-1,-1,-1,-1,-1,-1,-1,-1,-1,-1,-1,-1,-1,-1,-1,-1,-1,-1,-1,-1,-1,-1,-1,-1,-1,-1,-1],"loss_changes":[1.2575027E3,3.8536377E1,7.03748E1,1.930127E1,1.9521362E1,8.198135E0,3.05495E1,3.2504883E0,8.780304E0,9.068726E0,5.0707397E0,3.4926453E0,2.167037E0,4.754239E1,8.969124E0,1.8858247E0,7.442627E-1,4.3092346E0,2.8820972E0,2.2159421E0,3.901947E0,3.8505707E0,5.376335E0,1.7895241E0,4.589287E0,1.3640265E0,9.046626E-1,8.667038E0,2.4831622E0,8.105692E0,2.323555E0,6.811222E-1,0E0,9.2388916E-1,1.8582153E0,0E0,4.100281E0,7.96566E-1,2.6703472E0,0E0,1.8994284E0,3.3330383E0,0E0,1.1417814E0,1.8773537E0,4.20804E0,3.2900867E0,9.281666E-1,2.248129E0,3.3869877E0,2.5836296E0,1.0959163E0,2.2734327E0,5.9480095E-1,0E0,4.66745E0,4.764246E0,1.6829963E0,2.4962218E0,1.3340387E0,2.8777194E0,1.3879261E0,1.6151733E0,7.2510576E-1,4.6387494E-1,4.137268E-1,0E0,9.650116E-1,8.248889E-1,2.366867E0,4.4556885E0,0E0,0E0,2.6831064E0,4.987554E-1,0E0,0E0,3.607071E0,1.7670414E0,4.6387494E-1,4.8405328E-1,2.82197E0,1.9319572E0,1.763401E0,8.0109763E-1,3.704235E0,2.160079E0,0E0,4.6387494E-1,0E0,2.5969124E-1,2.2942028E0,2.3496022E0,2.1593266E0,1.5481942E0,1.7195503E0,7.6096195E-1,1.1438236E0,1.8683813E0,2.7395833E-1,0E0,4.202694E0,2.565411E0,4.508651E0,3.0880241E0,2.7493768E0,1.4126928E0,1.4744766E0,2.2648761E0,8.097143E-1,0E0,6.701169E0,1.153709E0,5.046543E0,1.3323163E0,2.0491247E0,1.63694E0,0E0,0E0,0E0,0E0,0E0,0E0,0E0,0E0,0E0,0E0,0E0,0E0,0E0,0E0,0E0,0E0,0E0,0E0,0E0,0E0,0E0,0E0,0E0,0E0,0E0,0E0,0E0,0E0,0E0,0E0,0E0,0E0,0E0,0E0,0E0,0E0,0E0,0E0,0E0,0E0,0E0,0E0,0E0,0E0,0E0,0E0,0E0,0E0,0E0,0E0,0E0,0E0,0E0,0E0,0E0,0E0,0E0,0E0,0E0,0E0,0E0,0E0,0E0,0E0,0E0,0E0,0E0,0E0,0E0,0E0,0E0,0E0,0E0,0E0,0E0,0E0,0E0,0E0,0E0,0E0,0E0,0E0,0E0,0E0,0E0,0E0,0E0,0E0,0E0,0E0],"parents":[2147483647,0,0,1,1,2,2,3,3,4,4,5,5,6,6,7,7,8,8,9,9,10,10,11,11,12,12,13,13,14,14,15,15,16,16,17,17,18,18,19,19,20,20,21,21,22,22,23,23,24,24,25,25,26,26,27,27,28,28,29,29,30,30,31,31,33,33,34,34,36,36,37,37,38,38,40,40,41,41,43,43,44,44,45,45,46,46,47,47,48,48,49,49,50,50,51,51,52,52,53,53,55,55,56,56,57,57,58,58,59,59,60,60,61,61,62,62,63,63,64,64,65,65,67,67,68,68,69,69,70,70,73,73,74,74,77,77,78,78,79,79,80,80,81,81,82,82,83,83,84,84,85,85,86,86,88,88,90,90,91,91,92,92,93,93,94,94,95,95,96,96,97,97,98,98,99,99,101,101,102,102,103,103,104,104,105,105,106,106,107,107,108,108,109,109,111,111,112,112,113,113,114,114,115,115,116,116],"right_children":[2,4,6,8,10,12,14,16,18,20,22,24,26,28,30,32,34,36,38,40,42,44,46,48,50,52,54,56,58,60,62,64,-1,66,68,-1,70,72,74,-1,76,78,-1,80,82,84,86,88,90,92,94,96,98,100,-1,102,104,106,108,110,112,114,116,118,120,122,-1,124,126,128,130,-1,-1,132,134,-1,-1,136,138,140,142,144,146,148,150,152,154,-1,156,-1,158,160,162,164,166,168,170,172,174,176,-1,178,180,182,184,186,188,190,192,194,-1,196,198,200,202,204,206,-1,-1,-1,-1,-1,-1,-1,-1,-1,-1,-1,-1,-1,-1,-1,-1,-1,-1,-1,-1,-1,-1,-1,-1,-1,-1,-1,-1,-1,-1,-1,-1,-1,-1,-1,-1,-1,-1,-1,-1,-1,-1,-1,-1,-1,-1,-1,-1,-1,-1,-1,-1,-1,-1,-1,-1,-1,-1,-1,-1,-1,-1,-1,-1,-1,-1,-1,-1,-1,-1,-1,-1,-1,-1,-1,-1,-1,-1,-1,-1,-1,-1,-1,-1,-1,-1,-1,-1,-1,-1],"split_conditions":[1E0,9.2E-1,1E0,6.70251E0,2.391E1,1.65E0,2.46E0,6.503E1,1.21E0,1.846301E0,3.078E1,1.0028803E0,8.771E1,9.731544E1,2E0,7.8E-1,9.519E1,3.16E0,1.5977466E0,9.1045976E-1,4.8408066E1,6.871E1,4E-1,6.773E1,9.347E1,9.4E-1,1.5575E2,1.38E0,1.16E0,5.1137066E-1,1.51E0,2.749E1,-8.8722E-2,1.7170833E0,1.57E0,6.5639974E-3,1.1032E2,6.22E0,3E0,4.049283E-3,2E-1,8.42E0,4.00666E-3,1.118E1,1.8785414E0,9.613E1,4.9177593E1,1.765E1,3.2695832E0,9E0,1.9839E2,4.9E-1,1.7292E2,3.7328163E1,1.3489616E-2,2.76E0,7.49E0,1.656E1,2.62E0,4.395E1,6E0,7.76125E0,1.99E0,2.7731574E0,5.755E1,4.237E1,2.8804993E-2,9.621E1,1.393E1,3.6155197E1,1E1,9.1127795E-1,-9.1762E-2,2.063E2,8.832E1,5.6710006E-3,-6.734675E-2,7.3333335E-1,3.573E1,2.33E1,3.5001E2,1.30725E1,6E0,1.3E1,1.539E1,1.17E0,4.975E1,2.742499E-3,2.86E0,1.3242495E-2,3.01E0,8.914E1,9.7728664E-1,1.40448065E1,2.7027E2,2.3096E2,3.3566666E0,2.9E-1,1.1286042E2,1.946E1,-4.4286292E-2,1.2854974E1,6.36E0,1.8098663E1,2.208E1,9.4E-1,1.094E1,1.3E1,2.471E1,1.367E1,9.899974E-4,1.88E1,1E1,7.557083E0,3.23E0,2.42E1,5.332E1,-2.7257502E-2,6.205124E-3,3.5169996E-2,-4.742625E-2,-8.367625E-2,-4.639825E-2,-7.429488E-2,-8.285125E-2,-8.2551256E-2,4.705125E-3,-8.299101E-2,-7.72505E-2,-7.905672E-2,-8.725887E-2,-7.579132E-2,-8.302781E-2,1.971966E-3,-1.2858874E-2,-8.757015E-2,-7.3746145E-2,-8.03355E-2,-4.4862166E-2,5.537137E-2,-8.991E-2,4.1366997E-3,-3.81083E-2,-7.41418E-2,-4.5328308E-2,-4.7863305E-2,-7.3014304E-2,-8.991E-2,-4.530214E-2,-3.431001E-2,3.6961437E-4,-5.262613E-2,-8.991E-2,-8.870554E-2,-1.417129E-2,-3.483E-2,1.0566699E-2,-6.78825E-2,-7.828612E-2,-7.451258E-2,-4.856085E-2,-6.112007E-2,-5.529992E-2,2.248962E-2,-7.266481E-2,7.587135E-4,-7.3451005E-2,-4.6094555E-2,-8.474038E-2,-2.3423756E-2,-2.6747137E-2,6.149712E-2,-6.857831E-2,-4.095545E-2,-5.51955E-2,-4.6195503E-2,4.0741563E-3,-6.477395E-2,-7.9165705E-2,-5.8658864E-2,-3.7841734E-2,1.5131188E-2,-1.1359375E-1,-2.673751E-2,-6.538446E-2,-2.3809994E-2,-9.0881996E-2,-1.3864994E-3,-8.864999E-4,1.6134977E-3,-1.2380999E-1,-1.631E-2,-2.0770817E-3,2.5713742E-3,-7.5780004E-2,-8.6710006E-2,-1.6001998E-2,2.354997E-3,-2.5828976E-2,-6.211043E-3,-1.2388652E-1,-7.886517E-3,2.886349E-2,-2.6313726E-2,3.469E-2,1.3369E-1,-8.825701E-2],"split_indices":[3,58,53,39,69,58,3,5,74,24,38,39,16,12,58,75,71,40,50,75,24,70,74,73,44,76,15,58,3,37,59,19,0,64,59,0,7,43,87,0,3,59,0,41,24,70,37,2,25,82,1,53,7,37,0,59,40,1,53,17,84,64,56,24,5,32,0,71,44,35,84,0,0,78,20,0,0,3,44,1,7,45,84,60,1,76,44,0,3,0,16,70,65,37,78,80,60,77,38,4,0,50,40,37,67,74,27,9,4,2,0,66,85,64,33,4,67,0,0,0,0,0,0,0,0,0,0,0,0,0,0,0,0,0,0,0,0,0,0,0,0,0,0,0,0,0,0,0,0,0,0,0,0,0,0,0,0,0,0,0,0,0,0,0,0,0,0,0,0,0,0,0,0,0,0,0,0,0,0,0,0,0,0,0,0,0,0,0,0,0,0,0,0,0,0,0,0,0,0,0,0,0,0,0,0,0,0],"split_type":[0,0,0,0,0,0,0,0,0,0,0,0,0,0,0,0,0,0,0,0,0,0,0,0,0,0,0,0,0,0,0,0,0,0,0,0,0,0,0,0,0,0,0,0,0,0,0,0,0,0,0,0,0,0,0,0,0,0,0,0,0,0,0,0,0,0,0,0,0,0,0,0,0,0,0,0,0,0,0,0,0,0,0,0,0,0,0,0,0,0,0,0,0,0,0,0,0,0,0,0,0,0,0,0,0,0,0,0,0,0,0,0,0,0,0,0,0,0,0,0,0,0,0,0,0,0,0,0,0,0,0,0,0,0,0,0,0,0,0,0,0,0,0,0,0,0,0,0,0,0,0,0,0,0,0,0,0,0,0,0,0,0,0,0,0,0,0,0,0,0,0,0,0,0,0,0,0,0,0,0,0,0,0,0,0,0,0,0,0,0,0,0,0,0,0,0,0,0,0,0,0,0,0,0,0,0,0],"sum_hessian":[6.7741E4,2.865E3,6.4876E4,1.819E3,1.046E3,4.72E2,6.4404E4,7.01E2,1.118E3,4.47E2,5.99E2,3.04E2,1.68E2,7.624E3,5.678E4,2.4E1,6.77E2,1.007E3,1.11E2,3.2E1,4.15E2,1.25E2,4.74E2,5E1,2.54E2,1.56E2,1.2E1,1.451E3,6.173E3,1.687E3,5.5093E4,1.6E1,8E0,4.57E2,2.2E2,8E0,9.99E2,1.3E1,9.8E1,2.2E1,1E1,4.08E2,7E0,2E1,1.05E2,9.2E1,3.82E2,9E0,4.1E1,2E2,5.4E1,1.17E2,3.9E1,1E1,2E0,4.4E2,1.011E3,8.18E2,5.355E3,1.6E1,1.671E3,1.342E3,5.3751E4,1.2E1,4E0,4.56E2,1E0,2.12E2,8E0,1.62E2,8.37E2,1E0,1.2E1,7.7E1,2.1E1,4E0,6E0,3.81E2,2.7E1,4E0,1.6E1,4E1,6.5E1,7.6E1,1.6E1,3.26E2,5.6E1,5E0,4E0,3E0,3.8E1,9.4E1,1.06E2,4.3E1,1.1E1,2.4E1,9.3E1,1.2E1,2.7E1,3E0,7E0,2.99E2,1.41E2,2.8E1,9.83E2,3.1E1,7.87E2,4.599E3,7.56E2,1.4E1,2E0,1.58E2,1.513E3,6.18E2,7.24E2,2.979E3,5.0772E4,3E0,9E0,1E0,3E0,4.51E2,5E0,1.5E1,1.97E2,4E0,4E0,9.7E1,6.5E1,2.38E2,5.99E2,3.2E1,4.5E1,2E1,1E0,2.71E2,1.1E2,1.3E1,1.4E1,1E0,3E0,1.5E1,1E0,2.3E1,1.7E1,7E0,5.8E1,7E1,6E0,3E0,1.3E1,1.72E2,1.54E2,4.4E1,1.2E1,3E0,1E0,5E0,3.3E1,6.3E1,3.1E1,2.4E1,8.2E1,3E0,4E1,8E0,3E0,8E0,1.6E1,9E1,3E0,2E0,1E1,2.2E1,5E0,1E0,2E0,2.34E2,6.5E1,7E0,1.34E2,9E0,1.9E1,2.64E2,7.19E2,1.8E1,1.3E1,4E0,7.83E2,4.59E3,9E0,1.26E2,6.3E2,1E0,1.3E1,1.5E1,1.43E2,1.133E3,3.8E2,5.83E2,3.5E1,2E0,7.22E2,1.58E2,2.821E3,5.0735E4,3.7E1],"tree_param":{"num_deleted":"0","num_feature":"92","num_nodes":"207","size_leaf_vector":"1"}},{"base_weights":[2.4224431E-3,-6.1351967E-1,2.9448748E-2,-7.464579E-1,-4.945811E-1,-3.4040084E-1,3.217289E-2,-8.680067E-1,-6.480537E-1,-5.7818973E-1,-3.6335033E-1,-4.6231884E-1,-2.4496268E-1,-3.767979E-2,3.9145187E-2,4.166667E-3,-8.7576014E-1,4.6428572E-3,-6.604508E-1,-6.612037E-1,-4.580688E-1,-6.104575E-1,-2.7580276E-1,-3.940625E-1,-6.802083E-1,-4.6078432E-1,-1.9334862E-1,-1.1629784E-1,-6.14056E-3,-4.6062738E-2,4.1481834E-2,-4.5416665E-1,-8.829604E-1,-6.884903E-1,-3.5703126E-1,4.6428572E-3,-6.787476E-1,-5.844512E-1,-3.595349E-1,-7.554878E-1,-4.3680555E-1,-4.583333E-1,-2.0096463E-1,-6.232759E-1,-2.6116505E-1,-7.4186045E-1,-1.25E-1,4.375E-3,-5.420455E-1,-2.5098038E-1,-5.681818E-2,-2.3328467E-1,-3.5070848E-2,-6.370321E-2,6.4436016E-3,-1.4030796E-1,5.4401597E-3,3.4546305E-3,4.2988334E-2,-6.222222E-1,3.7500001E-3,-9.1344744E-1,-8.0578035E-1,-7.822519E-1,-6.265931E-1,-4.612245E-1,-1.5624998E-2,-7.3719674E-1,-5.363057E-1,4.166667E-3,-6.044025E-1,-4.5447153E-1,-2.3010752E-1,-8.2954544E-1,-4.2352942E-1,-6.355263E-1,-2.0857142E-1,-2.0697674E-1,-5.815476E-1,-2.7363184E-1,-6.7567565E-2,-6.7314816E-1,4E-3,-6.2E-1,-1.977528E-1,3.3333336E-3,-7.804878E-1,-4.75E-2,4E-3,-6.3714284E-1,-1.55E-1,-3.50625E-1,-1.3986486E-1,-1.5322579E-2,-5.6E-1,-2.237426E-1,-8.55E-2,-6.75E-1,-2.3171986E-2,-1.8136019E-2,-1.1491477E-1,2.056962E-2,-4.5047488E-2,6.4655184E-3,-1.7894736E-1,7.3339953E-3,-6.333333E-2,-2.1207863E-2,2.7309783E-2,1.812419E-2,4.4466905E-2,2.5000002E-3,-7.0625E-2,-6.894737E-2,-9.219949E-2,3.7500001E-3,-8.208823E-2,3.3333336E-3,-7.886539E-2,-4.573944E-2,-7.1423225E-2,4.166667E-3,-5.1931817E-2,4.666667E-3,-4.75E-2,-6.6666664E-3,-7.517906E-2,-6.0687024E-2,-1.7407408E-2,-6.768868E-2,-4.5092594E-2,-4.849138E-2,4.375E-3,-3.4067795E-2,-3.7142856E-3,-8.430769E-2,2.5000002E-3,4.2857146E-3,-6.818182E-2,-7.328125E-2,-1E-2,4.7058826E-3,-4.2631578E-2,-9.852941E-3,-5.55E-2,-7.101852E-2,-3.387097E-2,-3.5560347E-2,-1.5988372E-2,-2.2424242E-2,-1.2658215E-4,-4.72E-2,-8.183333E-2,-2.4285715E-2,-8.444445E-2,-7.6041664E-3,-3.3214286E-2,-2.125E-2,-8.197369E-2,-7.1833335E-2,-1.25E-2,4.375E-3,-6.333333E-2,-7.5333335E-2,-2.5378788E-2,-3.8695652E-2,-2.7884615E-3,-2.3928571E-2,4.897959E-3,-7.125E-2,2.5000002E-3,-2.8602565E-2,-1.3832753E-2,-2.4285715E-2,-8.708333E-2,-2.6666665E-2,-7.9781405E-4,-5.6E-2,-1.1195927E-3,-2.1191861E-2,-2.2099447E-3,2.8221759E-3,-4.107744E-3,-4.535714E-2,-3.7085635E-3,-3.6E-2,2.276786E-3,-9.769585E-3,-2.5791854E-2,-4.2636986E-3,2.764624E-3,-1.2302158E-2,-5.9677404E-4,2.9954547E-3,-5.6E-2,2.5317126E-3,-6.7364015E-3,-4.3579764E-3,4.4905916E-3],"categories":[],"categories_nodes":[],"categories_segments":[],"categories_sizes":[],"default_left":[0,0,0,0,0,0,0,0,0,0,0,0,0,0,0,0,0,0,0,0,0,0,0,0,0,0,0,0,0,0,0,0,0,0,0,0,0,0,0,0,0,0,0,0,0,0,0,0,0,0,0,0,0,0,0,0,0,0,0,0,0,0,0,0,0,0,0,0,0,0,0,0,0,0,0,0,0,0,0,0,0,0,0,0,0,0,0,0,0,0,0,0,0,0,0,0,0,0,0,0,0,0,0,0,0,0,0,0,0,0,0,0,0,0,0,0,0,0,0,0,0,0,0,0,0,0,0,0,0,0,0,0,0,0,0,0,0,0,0,0,0,0,0,0,0,0,0,0,0,0,0,0,0,0,0,0,0,0,0,0,0,0,0,0,0,0,0,0,0,0,0,0,0,0,0,0,0,0,0,0,0,0,0,0,0,0,0,0,0,0,0,0,0,0,0,0,0,0,0],"id":3,"left_children":[1,3,5,7,9,11,13,15,17,19,21,23,25,27,29,-1,31,-1,33,35,37,39,41,43,45,47,49,51,53,55,57,59,61,63,65,-1,67,69,71,73,75,77,79,81,83,85,87,-1,89,91,93,95,97,99,101,103,105,107,109,111,-1,113,115,117,119,121,123,125,127,-1,129,131,133,135,137,139,141,143,145,147,149,151,-1,153,155,-1,157,-1,-1,159,161,163,165,167,169,171,-1,173,175,177,179,181,183,185,187,189,-1,191,193,195,197,-1,-1,-1,-1,-1,-1,-1,-1,-1,-1,-1,-1,-1,-1,-1,-1,-1,-1,-1,-1,-1,-1,-1,-1,-1,-1,-1,-1,-1,-1,-1,-1,-1,-1,-1,-1,-1,-1,-1,-1,-1,-1,-1,-1,-1,-1,-1,-1,-1,-1,-1,-1,-1,-1,-1,-1,-1,-1,-1,-1,-1,-1,-1,-1,-1,-1,-1,-1,-1,-1,-1,-1,-1,-1,-1,-1,-1,-1,-1,-1,-1,-1,-1,-1,-1,-1,-1,-1],"loss_changes":[1.1263131E3,4.4598633E1,6.531447E1,1.547699E1,1.629181E1,5.402031E0,3.1338692E1,4.247223E0,6.4447937E0,8.841187E0,1.2552208E1,2.8105354E0,2.8962746E0,1.4479875E1,1.1650101E1,0E0,1.3960571E0,0E0,5.9818726E0,6.735443E0,4.497093E0,3.5232773E0,5.863758E0,4.7111206E0,1.5502968E0,2.114665E0,1.7010708E0,1.587998E1,3.0203412E0,7.5825586E0,3.2620087E0,1.0148611E0,6.310425E-1,3.3924255E0,2.269415E0,0E0,3.9922333E0,2.0738487E0,2.5372124E0,1.6645546E0,3.1329966E0,3.7819443E0,2.9962196E0,1.9455128E0,2.221109E0,1.3135948E0,3.6549997E-1,0E0,1.520751E0,1.6449862E0,1.3694882E0,3.872429E0,7.507415E0,1.7434237E0,2.4899666E0,3.1316814E0,1.2276839E0,1.2778383E0,2.0128326E0,5.07118E-1,0E0,1.4730835E-1,2.2339706E0,1.3942566E0,5.723297E0,1.453165E0,4.800104E-1,3.5803223E0,3.9073906E0,0E0,1.4635925E0,1.886755E0,1.971611E0,7.8425217E-1,2.0770817E0,1.9064922E0,1.9682336E0,1.5682306E0,2.3834496E0,1.8172913E0,1.1527638E0,1.1907482E0,0E0,1.0646348E0,1.4304957E0,0E0,7.398186E-1,0E0,0E0,1.3655481E0,9.783958E-1,2.9285822E0,2.0367444E0,9.046017E-1,4.6387494E-1,3.556694E0,0E0,1.3118153E0,3.590204E0,1.4866827E0,3.1645284E0,1.2682308E0,2.380351E0,7.012089E-1,2.7788267E0,1.0253367E0,0E0,1.6564317E0,1.7316122E0,1.8931726E0,2.0002518E0,0E0,0E0,0E0,0E0,0E0,0E0,0E0,0E0,0E0,0E0,0E0,0E0,0E0,0E0,0E0,0E0,0E0,0E0,0E0,0E0,0E0,0E0,0E0,0E0,0E0,0E0,0E0,0E0,0E0,0E0,0E0,0E0,0E0,0E0,0E0,0E0,0E0,0E0,0E0,0E0,0E0,0E0,0E0,0E0,0E0,0E0,0E0,0E0,0E0,0E0,0E0,0E0,0E0,0E0,0E0,0E0,0E0,0E0,0E0,0E0,0E0,0E0,0E0,0E0,0E0,0E0,0E0,0E0,0E0,0E0,0E0,0E0,0E0,0E0,0E0,0E0,0E0,0E0,0E0,0E0,0E0,0E0,0E0,0E0,0E0,0E0,0E0,0E0],"parents":[2147483647,0,0,1,1,2,2,3,3,4,4,5,5,6,6,7,7,8,8,9,9,10,10,11,11,12,12,13,13,14,14,16,16,18,18,19,19,20,20,21,21,22,22,23,23,24,24,25,25,26,26,27,27,28,28,29,29,30,30,31,31,32,32,33,33,34,34,36,36,37,37,38,38,39,39,40,40,41,41,42,42,43,43,44,44,45,45,46,46,48,48,49,49,50,50,51,51,52,52,53,53,54,54,55,55,56,56,57,57,58,58,59,59,61,61,62,62,63,63,64,64,65,65,66,66,67,67,68,68,70,70,71,71,72,72,73,73,74,74,75,75,76,76,77,77,78,78,79,79,80,80,81,81,83,83,84,84,86,86,89,89,90,90,91,91,92,92,93,93,94,94,95,95,97,97,98,98,99,99,100,100,101,101,102,102,103,103,104,104,105,105,107,107,108,108,109,109,110,110],"right_children":[2,4,6,8,10,12,14,16,18,20,22,24,26,28,30,-1,32,-1,34,36,38,40,42,44,46,48,50,52,54,56,58,60,62,64,66,-1,68,70,72,74,76,78,80,82,84,86,88,-1,90,92,94,96,98,100,102,104,106,108,110,112,-1,114,116,118,120,122,124,126,128,-1,130,132,134,136,138,140,142,144,146,148,150,152,-1,154,156,-1,158,-1,-1,160,162,164,166,168,170,172,-1,174,176,178,180,182,184,186,188,190,-1,192,194,196,198,-1,-1,-1,-1,-1,-1,-1,-1,-1,-1,-1,-1,-1,-1,-1,-1,-1,-1,-1,-1,-1,-1,-1,-1,-1,-1,-1,-1,-1,-1,-1,-1,-1,-1,-1,-1,-1,-1,-1,-1,-1,-1,-1,-1,-1,-1,-1,-1,-1,-1,-1,-1,-1,-1,-1,-1,-1,-1,-1,-1,-1,-1,-1,-1,-1,-1,-1,-1,-1,-1,-1,-1,-1,-1,-1,-1,-1,-1,-1,-1,-1,-1,-1,-1,-1,-1,-1,-1],"split_conditions":[1E0,6.5E-1,1E0,4.7792826E0,7.1E-1,1E0,2E0,5.929E1,6.64E0,7.3E-1,4.674042E-1,8.274688E0,2.055E1,1E0,2E0,5.7244897E-3,7.76E0,4.822439E-2,1.21E0,5.75E0,1.7079E2,1.6684E2,6.6E-1,3.178293E0,1.7007146E2,9.9148375E-1,3.7642262E0,2.46E0,3E0,1E0,2E0,1E0,9.61E1,2.601E1,2.32E0,4.367608E-3,8.343E1,2.14E1,1.53E0,4.411E1,1E0,2.912E1,1.2E1,2.52E0,1.476E1,2.23E1,1.0293E2,3.4139515E-3,2.9181308E2,9.8E-1,2.3275E2,5E1,1.0028803E0,6.906E1,2.46E0,1.4683334E0,1.347E1,2E1,1.99E0,1E-1,7.1301223E-3,8.47E0,9.621E1,9.533333E-1,2.0463889E0,9.72E0,2.278E1,2.406E1,2.94E0,9.164812E-2,8.77927E0,9.537E1,2.85E0,3.179E1,6.043E1,3.487E1,3.2937596E0,2.7529E2,1.6323584E2,2E1,1.962E1,1.392E1,4.7923923E-3,1.9538333E2,4.895033E0,5.861223E-4,3E0,-3.923893E-4,1.2773126E-2,8.542E1,3.642E1,8E0,1.22E0,2.5E-1,1.0293E2,1.59E0,-6.7426935E-2,2.99E0,6E0,1.2885834E1,7.72E1,6.3480835E1,3.932E1,1.6E1,2.552E1,5.4E1,-3.8102295E-2,3.4920833E0,9.89E1,2E1,2E0,8.294198E-2,-6.411988E-2,-8.470802E-2,-7.5058624E-2,1.0378236E-2,-7.476613E-2,2.7907599E-2,-7.542511E-2,-7.952081E-2,-8.000253E-2,1.6439259E-3,-8.6563304E-2,5.096197E-3,-2.3556089E-2,-3.857922E-2,-7.923464E-2,-6.631695E-2,-4.9017556E-2,-6.061204E-2,-4.3154143E-2,-6.263571E-2,1.3355232E-2,-6.0776662E-2,-7.831691E-2,-8.0919005E-2,6.402769E-2,2.2312404E-4,-4.9561076E-2,-7.140713E-2,-5.157237E-2,3.5910725E-3,-7.928339E-2,-3.9471347E-2,-7.98498E-2,-8.41439E-2,-6.410539E-2,-7.972599E-2,-4.3530475E-2,-6.643725E-2,-3.81628E-2,-6.1021656E-2,-7.0285134E-2,-2.349261E-2,-7.146461E-2,-7.316037E-2,-5.1572908E-2,-4.069239E-2,-7.116025E-2,-6.0168684E-2,-4.0850908E-2,1.0569328E-2,-4.796017E-2,-7.246386E-2,-5.8044046E-2,-4.422781E-2,-2.3150904E-2,-6.2675945E-2,2.7043785E-3,-3.3052545E-2,1.7772568E-2,-6.26752E-2,-4.417611E-2,-6.796688E-2,-6.8202004E-2,-7.736049E-2,-8.700901E-3,-1.2255514E-2,-1.2201071E-4,-1.1478544E-3,-1.4285503E-4,1.9786477E-3,-7.9785584E-4,-1.9545496E-2,-5.2448655E-3,-1.305455E-2,6.934645E-3,-5.228689E-2,-7.349046E-2,-3.5502382E-3,3.8781476E-3,-4.6465408E-2,-2.176684E-3,3.2744493E-2,-5.8265407E-2,2.8196765E-2,-9.424737E-3,-1.411809E-2,1.10320985E-1],"split_indices":[3,58,53,39,74,58,58,5,46,53,35,48,66,88,3,0,43,0,74,43,80,7,77,35,38,48,64,3,85,88,59,77,71,45,76,0,71,33,56,67,58,14,82,59,66,18,2,0,80,77,31,10,39,5,53,62,53,84,56,6,0,43,71,40,64,46,2,78,58,0,22,19,55,6,81,0,50,81,36,84,18,40,0,38,50,0,84,0,0,20,2,85,3,77,2,3,0,3,84,23,5,23,78,32,66,71,0,64,5,82,53,0,0,0,0,0,0,0,0,0,0,0,0,0,0,0,0,0,0,0,0,0,0,0,0,0,0,0,0,0,0,0,0,0,0,0,0,0,0,0,0,0,0,0,0,0,0,0,0,0,0,0,0,0,0,0,0,0,0,0,0,0,0,0,0,0,0,0,0,0,0,0,0,0,0,0,0,0,0,0,0,0,0,0,0,0,0,0,0],"split_type":[0,0,0,0,0,0,0,0,0,0,0,0,0,0,0,0,0,0,0,0,0,0,0,0,0,0,0,0,0,0,0,0,0,0,0,0,0,0,0,0,0,0,0,0,0,0,0,0,0,0,0,0,0,0,0,0,0,0,0,0,0,0,0,0,0,0,0,0,0,0,0,0,0,0,0,0,0,0,0,0,0,0,0,0,0,0,0,0,0,0,0,0,0,0,0,0,0,0,0,0,0,0,0,0,0,0,0,0,0,0,0,0,0,0,0,0,0,0,0,0,0,0,0,0,0,0,0,0,0,0,0,0,0,0,0,0,0,0,0,0,0,0,0,0,0,0,0,0,0,0,0,0,0,0,0,0,0,0,0,0,0,0,0,0,0,0,0,0,0,0,0,0,0,0,0,0,0,0,0,0,0,0,0,0,0,0,0,0,0,0,0,0,0,0,0,0,0,0,0],"sum_hessian":[6.7658E4,2.843E3,6.4815E4,1.34E3,1.503E3,4.73E2,6.4342E4,5.96E2,7.44E2,9.16E2,5.87E2,2.06E2,2.67E2,5.839E3,5.8503E4,5E0,5.91E2,1.3E1,7.31E2,5.39E2,3.77E2,1.52E2,4.35E2,1.59E2,4.7E1,5E1,2.17E2,1.671E3,4.168E3,1.561E3,5.6942E4,1.1E1,5.8E2,6.68E2,6.3E1,1.3E1,5.26E2,1.63E2,2.14E2,8.1E1,7.1E1,1.25E2,3.1E2,5.7E1,1.02E2,4.2E1,5E0,7E0,4.3E1,1.52E2,6.5E1,6.84E2,9.87E2,7.47E2,3.421E3,5.51E2,1.01E3,2.17E3,5.4772E4,8E0,3E0,4.08E2,1.72E2,2.61E2,4.07E2,4.8E1,1.5E1,3.7E2,1.56E2,5E0,1.58E2,1.22E2,9.2E1,6.5E1,1.6E1,3.7E1,3.4E1,4.2E1,8.3E1,2E2,1.1E2,5.3E1,4E0,1.4E1,8.8E1,2E0,4E1,1E0,4E0,3.4E1,9E0,7.9E1,7.3E1,6.1E1,4E0,6.75E2,9E0,1.7E1,9.7E2,3.96E2,3.51E2,2.685E3,7.36E2,1.15E2,4.36E2,1.008E3,2E0,1.067E3,1.103E3,3.075E3,5.1697E4,1E0,7E0,1.8E1,3.9E2,3E0,1.69E2,2E0,2.59E2,1.41E2,2.66E2,5E0,4.3E1,1.4E1,1E0,8E0,3.62E2,1.3E2,2.6E1,1.05E2,5.3E1,1.15E2,7E0,5.8E1,3.4E1,6.4E1,1E0,6E0,1E1,3.1E1,6E0,1.6E1,1.8E1,3.3E1,9E0,5.3E1,3E1,1.15E2,8.5E1,3.2E1,7.8E1,2.4E1,2.9E1,6E0,8E0,4.7E1,4.1E1,3E0,3.7E1,2.9E1,5E0,7E0,2E0,1.4E1,6.5E1,2.2E1,5.1E1,1.3E1,4.8E1,3E0,1E0,3.89E2,2.86E2,6E0,1.1E1,5.6E1,9.14E2,4E0,3.92E2,1.71E2,1.8E2,2.389E3,2.96E2,1.3E1,7.23E2,4E0,1.11E2,2.16E2,2.2E2,2.91E2,7.17E2,1.38E2,9.29E2,1.099E3,4E0,2.837E3,2.38E2,2.56E2,5.1441E4],"tree_param":{"num_deleted":"0","num_feature":"92","num_nodes":"199","size_leaf_vector":"1"}},{"base_weights":[4.9471725E-3,-5.639854E-1,3.018077E-2,-7.093636E-1,-4.3217593E-1,-2.589041E-1,3.3802487E-2,-8.1114167E-1,-5.928237E-1,-5.100102E-1,-2.8657845E-1,-3.3181003E-1,-9.2479676E-2,-3.61731E-2,3.992025E-2,-2.25E-1,-8.282578E-1,-4.5876068E-1,-6.682598E-1,-5.6676096E-1,-3.6384892E-1,-3.361399E-1,-1.5173611E-1,-4.0444162E-1,-1.5636364E-1,-4.3448275E-1,-4.655963E-2,-1.4349894E-1,-1.20365955E-2,-3.4853313E-2,4.196329E-2,-4.5416665E-1,4.545455E-3,-8.4125E-1,-4.7037035E-1,-5.187817E-1,-1.3552631E-1,-5.503333E-1,-7.3397684E-1,-7.0962566E-1,-5.143954E-1,-5.732456E-1,-2.169697E-1,-1.778409E-1,-3.8160536E-1,-3.1293103E-1,-4.2528734E-2,-5.601626E-1,-3.3253676E-1,-2.6630433E-2,-3.1554052E-1,4.375E-3,-5.8863634E-1,1.6776318E-2,-1.8955223E-1,-1.3226151E-1,-8.8214286E-2,4.4640247E-3,-8.190298E-2,-1.3329741E-1,6.515838E-3,4.2361535E-2,-1.08223684E-1,-6.7142856E-1,-1.25E-1,-1.6E-1,-8.450444E-1,4.4444446E-3,-6.894737E-1,-6.138614E-1,-4.1443297E-1,-5E-1,1.2500001E-2,-6.3007814E-1,-8.260869E-2,-7.890995E-1,-4.8163265E-1,-3.7499998E-2,-7.5142044E-1,-5.2862823E-1,-1.10526316E-1,-8.292683E-1,-4.2364866E-1,-3.108108E-1,-2.3636362E-2,-9.539474E-2,-6.4615387E-1,-4.0836364E-1,-7.2E-2,-5.78125E-1,-2.0697674E-1,-2.1176469E-2,-6.333333E-2,-3.1477273E-1,-6.88125E-1,-4.8552632E-1,-2.2075471E-1,-6.1111096E-3,-6.333333E-2,-4.7625E-1,-1.2285714E-1,3.7500001E-3,-6.894737E-1,2.910959E-2,-2.4285714E-1,-9.6363634E-2,-5.6923074E-1,-1.7896126E-1,-5.9426226E-2,-3.8422816E-2,1.9725319E-2,-3.932692E-1,-6.0292162E-2,-3.2E-1,-1.02625E-1,-5.6E-1,9.082654E-3,6.721447E-4,4.335976E-2,-6.542055E-3,-3.423913E-1,-7.9166666E-2,2.5000002E-3,4E-3,-4.75E-2,3.7500001E-3,-4.75E-2,-8.649063E-2,-7.061111E-2,-8.28125E-2,3.7500001E-3,4.166667E-3,-6.484375E-2,-3.3037975E-2,-7.4210525E-2,4E-3,-8.142857E-2,-4.75E-2,4.814815E-3,-7.026549E-2,-7.8125E-3,4.736842E-3,-5.6E-2,-8.608209E-2,-6.5576926E-2,-8.025E-2,-2.5166666E-2,4.545455E-3,-4.75E-2,-7.797059E-2,4.2857146E-3,-1.2941176E-2,-5.4147847E-2,-6.333333E-2,-1.1764704E-3,-8.972973E-2,-1.6E-2,-2.91E-2,-6.72E-2,-4.8297875E-2,-1.8153846E-2,2.9411765E-3,-5.6E-2,-5.6E-2,-6.1805556E-3,-8.55E-2,3.7500001E-3,-3.753937E-2,-7.7045456E-2,-3.3125E-2,4.722222E-3,-7.23077E-2,3.7500001E-3,-9.428571E-3,-6.222222E-2,1.0897437E-3,-3.3125E-2,-8.333332E-4,-5.0740745E-2,-7.2399996E-2,-1.25E-2,-1.8269232E-2,-5.685393E-2,-4.622222E-2,-1.2434782E-2,-3.6E-2,1.4534885E-3,-6.604167E-2,-1.882353E-2,1.1111113E-3,-5.111111E-2,-7.764706E-2,3.3333336E-3,3.586207E-3,-4.75E-2,-6.333333E-2,4E-3,4.814815E-3,-2.2758622E-2,3.7500001E-3,-7.5500004E-2,-3.410156E-2,-1.3151928E-2,-4.0000003E-2,-5.0698323E-3,-2.7045457E-2,-3.25315E-3,3.355623E-3,-6.5092155E-4,-5.9464287E-2,-1.5199999E-2,-5.3749997E-2,-5.249326E-3,-1.1805556E-2,-5.516667E-2,-3.2307692E-3,-1.6868932E-2,2.5000002E-3,-7.125E-2,1.0828027E-3,-6.333333E-2,1.1841039E-3,-1.2803738E-2,2.1110734E-3,4.4596307E-3,2.929293E-3,-4.0000003E-2,-4.969697E-2,4.6428572E-3],"categories":[],"categories_nodes":[],"categories_segments":[],"categories_sizes":[],"default_left":[0,0,0,0,0,0,0,0,0,0,0,0,0,0,0,0,0,0,0,0,0,0,0,0,0,0,0,0,0,0,0,0,0,0,0,0,0,0,0,0,0,0,0,0,0,0,0,0,0,0,0,0,0,0,0,0,0,0,0,0,0,0,0,0,0,0,0,0,0,0,0,0,0,0,0,0,0,0,0,0,0,0,0,0,0,0,0,0,0,0,0,0,0,0,0,0,0,0,0,0,0,0,0,0,0,0,0,0,0,0,0,0,0,0,0,0,0,0,0,0,0,0,0,0,0,0,0,0,0,0,0,0,0,0,0,0,0,0,0,0,0,0,0,0,0,0,0,0,0,0,0,0,0,0,0,0,0,0,0,0,0,0,0,0,0,0,0,0,0,0,0,0,0,0,0,0,0,0,0,0,0,0,0,0,0,0,0,0,0,0,0,0,0,0,0,0,0,0,0,0,0,0,0,0,0,0,0,0,0,0,0,0,0,0,0,0,0,0,0,0,0,0,0,0,0,0,0,0,0],"id":4,"left_children":[1,3,5,7,9,11,13,15,17,19,21,23,25,27,29,31,33,35,37,39,41,43,45,47,49,51,53,55,57,59,61,63,-1,65,67,69,71,73,75,77,79,81,83,85,87,89,91,93,95,97,99,-1,101,103,105,107,-1,109,111,113,115,117,119,121,123,125,127,-1,129,131,133,135,137,139,141,143,145,147,149,151,153,155,157,159,161,163,165,167,169,171,173,175,-1,177,179,181,183,185,-1,187,189,-1,191,193,195,197,199,201,203,205,207,209,211,213,215,217,219,221,223,225,227,-1,-1,-1,-1,-1,-1,-1,-1,-1,-1,-1,-1,-1,-1,-1,-1,-1,-1,-1,-1,-1,-1,-1,-1,-1,-1,-1,-1,-1,-1,-1,-1,-1,-1,-1,-1,-1,-1,-1,-1,-1,-1,-1,-1,-1,-1,-1,-1,-1,-1,-1,-1,-1,-1,-1,-1,-1,-1,-1,-1,-1,-1,-1,-1,-1,-1,-1,-1,-1,-1,-1,-1,-1,-1,-1,-1,-1,-1,-1,-1,-1,-1,-1,-1,-1,-1,-1,-1,-1,-1,-1,-1,-1,-1,-1,-1,-1,-1,-1,-1,-1,-1,-1,-1,-1,-1,-1,-1],"loss_changes":[9.728803E2,5.4842285E1,6.794647E1,1.5733459E1,1.6988556E1,9.712372E0,2.7436714E1,7.1072083E0,6.1759796E0,7.955826E0,3.484295E0,7.047325E0,3.8431504E0,1.334697E1,9.004684E0,1.3841856E0,2.8869934E0,4.469494E0,2.7579803E0,4.9241943E0,8.4258E0,2.710228E0,2.5216203E0,4.2253876E0,3.3989344E0,2.163671E0,1.9775128E0,7.735552E0,4.8515105E0,6.3866253E0,3.4358368E0,7.74256E-1,0E0,1.6225586E0,3.0761795E0,1.700119E0,2.0564146E0,5.54274E0,3.2226105E0,5.2249146E0,2.9363708E0,4.014904E0,2.986185E0,3.3360937E0,2.44767E0,1.5100513E0,1.0840946E0,3.6456795E0,4.544422E0,1.1414498E0,2.232977E0,0E0,1.4148893E0,4.9379325E-1,2.3157215E0,3.1628609E0,0E0,2.22936E0,5.386308E0,2.6243105E0,1.6119124E0,2.3810806E0,3.616963E0,6.059525E-1,3.6549997E-1,3.28875E-1,1.2546692E0,0E0,1.9461756E0,2.316246E0,2.4263878E0,1.8994284E0,5.094676E-1,5.072651E0,1.453675E0,1.4532166E0,3.4136791E0,4.5710227E-1,3.9875107E0,2.510315E0,9.7358096E-1,1.7231483E0,2.2422647E0,2.3827972E0,1.5813904E0,1.1514229E0,1.8881831E0,2.9937553E0,7.8835136E-1,1.4548917E0,1.9534943E0,8.489576E-1,0E0,2.5931292E0,1.5256691E0,2.7619972E0,3.6439042E0,6.628075E-1,0E0,1.9973946E0,1.8261588E0,0E0,1.2206392E0,5.14017E-1,7.9847616E-1,1.0539343E0,1.493567E0,4.3220367E0,1.0676543E0,1.2132756E0,9.116914E-1,2.4360476E0,2.7742229E0,2.975819E0,1.852736E0,4.6387494E-1,1.2413603E0,1.9263862E0,1.5364075E0,1.5203701E0,2.787819E0,0E0,0E0,0E0,0E0,0E0,0E0,0E0,0E0,0E0,0E0,0E0,0E0,0E0,0E0,0E0,0E0,0E0,0E0,0E0,0E0,0E0,0E0,0E0,0E0,0E0,0E0,0E0,0E0,0E0,0E0,0E0,0E0,0E0,0E0,0E0,0E0,0E0,0E0,0E0,0E0,0E0,0E0,0E0,0E0,0E0,0E0,0E0,0E0,0E0,0E0,0E0,0E0,0E0,0E0,0E0,0E0,0E0,0E0,0E0,0E0,0E0,0E0,0E0,0E0,0E0,0E0,0E0,0E0,0E0,0E0,0E0,0E0,0E0,0E0,0E0,0E0,0E0,0E0,0E0,0E0,0E0,0E0,0E0,0E0,0E0,0E0,0E0,0E0,0E0,0E0,0E0,0E0,0E0,0E0,0E0,0E0,0E0,0E0,0E0,0E0,0E0,0E0,0E0,0E0,0E0,0E0,0E0,0E0],"parents":[2147483647,0,0,1,1,2,2,3,3,4,4,5,5,6,6,7,7,8,8,9,9,10,10,11,11,12,12,13,13,14,14,15,15,16,16,17,17,18,18,19,19,20,20,21,21,22,22,23,23,24,24,25,25,26,26,27,27,28,28,29,29,30,30,31,31,33,33,34,34,35,35,36,36,37,37,38,38,39,39,40,40,41,41,42,42,43,43,44,44,45,45,46,46,47,47,48,48,49,49,50,50,52,52,53,53,54,54,55,55,57,57,58,58,59,59,60,60,61,61,62,62,63,63,64,64,65,65,66,66,68,68,69,69,70,70,71,71,72,72,73,73,74,74,75,75,76,76,77,77,78,78,79,79,80,80,81,81,82,82,83,83,84,84,85,85,86,86,87,87,88,88,89,89,90,90,91,91,93,93,94,94,95,95,96,96,97,97,99,99,100,100,102,102,103,103,104,104,105,105,106,106,107,107,108,108,109,109,110,110,111,111,112,112,113,113,114,114,115,115,116,116,117,117,118,118,119,119,120,120],"right_children":[2,4,6,8,10,12,14,16,18,20,22,24,26,28,30,32,34,36,38,40,42,44,46,48,50,52,54,56,58,60,62,64,-1,66,68,70,72,74,76,78,80,82,84,86,88,90,92,94,96,98,100,-1,102,104,106,108,-1,110,112,114,116,118,120,122,124,126,128,-1,130,132,134,136,138,140,142,144,146,148,150,152,154,156,158,160,162,164,166,168,170,172,174,176,-1,178,180,182,184,186,-1,188,190,-1,192,194,196,198,200,202,204,206,208,210,212,214,216,218,220,222,224,226,228,-1,-1,-1,-1,-1,-1,-1,-1,-1,-1,-1,-1,-1,-1,-1,-1,-1,-1,-1,-1,-1,-1,-1,-1,-1,-1,-1,-1,-1,-1,-1,-1,-1,-1,-1,-1,-1,-1,-1,-1,-1,-1,-1,-1,-1,-1,-1,-1,-1,-1,-1,-1,-1,-1,-1,-1,-1,-1,-1,-1,-1,-1,-1,-1,-1,-1,-1,-1,-1,-1,-1,-1,-1,-1,-1,-1,-1,-1,-1,-1,-1,-1,-1,-1,-1,-1,-1,-1,-1,-1,-1,-1,-1,-1,-1,-1,-1,-1,-1,-1,-1,-1,-1,-1,-1,-1,-1,-1],"split_conditions":[1E0,6.5E-1,1E0,3.763E1,7.3333335E-1,4.6554165E0,2E0,6.574E1,2.3322E2,9.3E-1,1.26E0,3.16E0,8.1E-1,9.731544E1,2E0,6.933333E-1,1.6029167E0,8.914E1,1.8945833E0,3E-1,3.245E1,1.5197587E-1,5.793657E0,1.669E2,2.125E0,6.749E1,8.817614E0,5E1,2.59E0,9.731544E1,4.8258263E1,8.1E1,6.5023307E-4,6.25E0,1.6270416E1,1.1552E2,1.0480208E0,1.6029167E0,5.6183333E0,5.75E0,8.283334E0,1.051E1,3.88E0,3.6970832E0,4.408E1,3.005E1,1.654E1,4.9050587E1,4.1556667E1,1.9487E2,9E0,2.4813253E-2,1.2E-1,3.5747E2,6.8039894E1,8.289E1,-5.674529E-2,2.096E1,2.3674166E1,2.33E1,4.674042E-1,1.37E0,2.981E1,6.606E1,1.5997E2,6.17E0,6.55E-1,1.4795363E-3,2.8631205E1,1.795E1,2.4322E2,3.9E-1,1.355E1,1.4800525E2,6.55E-1,5.7E-1,5.843E1,2E-1,6.17E0,1.831E1,4.9E-1,5.33025E1,1.418E1,9.726474E0,6.3797543E1,2.813096E-2,1.7963E2,3.626E1,3E-1,3.7875E0,5.321828E0,2.96E0,-7.995475E-2,7.689E1,8.447003E1,6.667E1,1.8962E2,2.424E1,-3.7087407E-2,5.510065E0,6.474E1,1.0464901E-2,2.718E1,1.6063E2,3.278E1,6.04E0,1.0077E2,1.5616666E0,4.9E-1,2.841E1,3.2623568E0,3.58E0,3.932E1,2.4065528E0,1.0683399E1,1.4228537E1,1.448E1,1.0299E2,1.81E0,6E0,5.526E1,-7.370987E-2,1.3629231E-1,5.1520467E-3,-2.939812E-2,4.3401953E-2,-6.2802754E-2,-6.7855574E-2,-6.528246E-2,-7.1709864E-2,4.832393E-3,6.8094316E-3,-6.761747E-2,-7.1926974E-2,-6.693273E-2,2.6095272E-3,-7.039047E-2,-3.239047E-2,2.724272E-3,-7.176329E-2,-7.2899766E-2,3.7067593E-3,-3.5782456E-3,-7.217362E-2,-7.254142E-2,-7.471752E-2,-4.8761733E-2,1.019547E-2,-2.8395176E-2,-7.2995536E-2,6.5452315E-2,-6.389565E-2,-6.1853886E-2,-7.2621666E-2,-1.0552752E-2,-7.578676E-2,-2.2568226E-2,-5.3844567E-2,-5.9187215E-2,-5.951783E-2,-4.7837026E-2,7.1590617E-3,-4.5443144E-2,-7.648915E-3,-1.5711585E-2,-2.2898633E-2,4.101366E-3,-5.4921098E-2,-7.1809776E-2,-7.186482E-2,3.873694E-3,-7.1355045E-2,5.7141483E-3,-5.459636E-2,-8.435179E-2,5.4385467E-4,-3.19384E-2,-3.8028073E-2,-7.480223E-2,-6.614717E-2,-7.299918E-3,-6.118654E-2,-6.633287E-2,-6.498786E-2,-4.997596E-2,-1.3797695E-2,1.9937938E-3,-8.3862655E-2,-7.608741E-2,-2.3597738E-2,-6.298988E-2,-8.3103836E-2,2.6307655E-2,3.3579823E-2,-9.357917E-3,-5.6408353E-2,3.6329698E-2,8.05718E-3,-6.8678014E-2,2.611265E-1,-5.587687E-2,-6.7206934E-2,-4.605097E-2,-3.4238715E-2,-2.6311321E-2,-1.6994978E-3,-6.8306923E-4,2.316928E-3,-2.702188E-4,-4.25111E-2,-2.1057371E-2,-1.7590953E-2,-1.01459455E-2,-4.8507832E-2,-5.8802944E-2,-2.2262027E-2,-5.443263E-2,1.3615099E0,-1.04079954E-1,2.2211573E-3,-3.429207E-2,8.923329E-3,-1.0728021E-1,1.978196E-2,9.828889E-2,7.4474015E-3,-6.274237E-2,-9.15684E-2,6.28891E-3],"split_indices":[3,58,57,33,3,64,57,5,78,74,75,59,53,12,3,60,64,5,64,53,30,61,35,80,64,33,48,8,53,12,68,71,0,46,51,30,64,64,64,43,64,40,59,64,4,69,56,80,34,31,82,0,77,79,25,71,0,4,4,33,35,59,20,0,20,0,3,0,24,7,30,3,4,37,3,57,18,3,57,33,54,66,42,35,37,61,30,67,56,77,24,6,0,34,37,73,81,33,0,22,46,0,4,46,42,54,7,60,53,33,63,54,78,22,35,0,53,46,56,83,20,0,0,0,0,0,0,0,0,0,0,0,0,0,0,0,0,0,0,0,0,0,0,0,0,0,0,0,0,0,0,0,0,0,0,0,0,0,0,0,0,0,0,0,0,0,0,0,0,0,0,0,0,0,0,0,0,0,0,0,0,0,0,0,0,0,0,0,0,0,0,0,0,0,0,0,0,0,0,0,0,0,0,0,0,0,0,0,0,0,0,0,0,0,0,0,0,0,0,0,0,0,0,0,0,0,0,0,0],"split_type":[0,0,0,0,0,0,0,0,0,0,0,0,0,0,0,0,0,0,0,0,0,0,0,0,0,0,0,0,0,0,0,0,0,0,0,0,0,0,0,0,0,0,0,0,0,0,0,0,0,0,0,0,0,0,0,0,0,0,0,0,0,0,0,0,0,0,0,0,0,0,0,0,0,0,0,0,0,0,0,0,0,0,0,0,0,0,0,0,0,0,0,0,0,0,0,0,0,0,0,0,0,0,0,0,0,0,0,0,0,0,0,0,0,0,0,0,0,0,0,0,0,0,0,0,0,0,0,0,0,0,0,0,0,0,0,0,0,0,0,0,0,0,0,0,0,0,0,0,0,0,0,0,0,0,0,0,0,0,0,0,0,0,0,0,0,0,0,0,0,0,0,0,0,0,0,0,0,0,0,0,0,0,0,0,0,0,0,0,0,0,0,0,0,0,0,0,0,0,0,0,0,0,0,0,0,0,0,0,0,0,0,0,0,0,0,0,0,0,0,0,0,0,0,0,0,0,0,0,0],"sum_hessian":[6.7765E4,2.877E3,6.4888E4,1.366E3,1.511E3,8.02E2,6.4086E4,7.26E2,6.4E2,9.83E2,5.28E2,5.57E2,2.45E2,5.152E3,5.8934E4,2.1E1,7.05E2,2.33E2,4.07E2,7.06E2,2.77E2,3.85E2,1.43E2,3.93E2,1.64E2,2.8E1,2.17E2,9.45E2,4.207E3,1.567E3,5.7367E4,1.1E1,1E1,6.79E2,2.6E1,1.96E2,3.7E1,1.49E2,2.58E2,1.86E2,5.2E2,1.13E2,1.64E2,8.7E1,2.98E2,5.7E1,8.6E1,1.22E2,2.71E2,9.1E1,7.3E1,7E0,2.1E1,1.51E2,6.6E1,9.32E2,1.3E1,3.404E3,8.03E2,4.63E2,1.104E3,5.7216E4,1.51E2,6E0,5E0,4E0,6.75E2,8E0,1.8E1,1E2,9.6E1,1E1,2.7E1,1.27E2,2.2E1,2.1E2,4.8E1,1.1E1,1.75E2,5.02E2,1.8E1,4E1,7.3E1,1.1E2,5.4E1,7.5E1,1.2E1,2.74E2,2.4E1,1.5E1,4.2E1,8.4E1,2E0,4.3E1,7.9E1,1.13E2,1.58E2,8.9E1,2E0,3.9E1,3.4E1,3E0,1.8E1,1.45E2,6E0,5.4E1,1.2E1,5.67E2,3.65E2,8.93E2,2.511E3,5.1E1,7.52E2,6.4E1,3.99E2,4E0,1.1E3,1.338E3,5.5878E4,1.06E2,4.5E1,5E0,1E0,4E0,1E0,3E0,1E0,5.86E2,8.9E1,1.5E1,3E0,5E0,9.5E1,7.8E1,1.8E1,4E0,6E0,1E0,2.6E1,1.12E2,1.5E1,1.8E1,4E0,1.33E2,7.7E1,1.9E1,2.9E1,1E1,1E0,1.69E2,6E0,1.6E1,4.86E2,2E0,1.6E1,3.6E1,4E0,4.9E1,2.4E1,4.6E1,6.4E1,5E1,4E0,4E0,7.1E1,9E0,3E0,2.53E2,2.1E1,7E0,1.7E1,1.2E1,3E0,3.4E1,8E0,7.7E1,7E0,1.7E1,2.6E1,7.4E1,5E0,2.5E1,8.8E1,4.4E1,1.14E2,4E0,8.5E1,2.3E1,1.6E1,2.6E1,8E0,1.6E1,2E0,1.44E2,1E0,2E0,4E0,2.6E1,2.8E1,3E0,9E0,1.27E2,4.4E2,8E0,3.57E2,2.1E1,8.72E2,1.644E3,8.67E2,2.7E1,2.4E1,1.1E1,7.41E2,3.5E1,2.9E1,1.94E2,2.05E2,1E0,3E0,1.098E3,2E0,1.232E3,1.06E2,2.943E3,5.2935E4,9.8E1,8E0,3.2E1,1.3E1],"tree_param":{"num_deleted":"0","num_feature":"92","num_nodes":"229","size_leaf_vector":"1"}},{"base_weights":[7.098826E-3,-5.189346E-1,3.0185027E-2,-6.931465E-1,-3.9869437E-1,-2.2496846E-1,3.3345573E-2,-8.224762E-1,-5.852987E-1,-4.9376333E-1,-2.7894384E-1,-5.9011626E-1,-1.802966E-1,-1.9950433E-2,4.0166173E-2,-8.787267E-1,-7.296569E-1,-4.7619045E-2,-6.0267854E-1,-5.458741E-1,-3.252232E-1,-5.073864E-1,-2.4810892E-1,4.4444446E-3,-6.557692E-1,-2.4759725E-1,-7.150735E-2,-2.4879032E-1,-1.5973387E-2,-1.999514E-2,4.2429287E-2,-8.84326E-1,-2.1249999E-1,-9.9999994E-2,-7.482323E-1,4.7058826E-3,-3.5999998E-1,-6.2238175E-1,-1.11999996E-1,-3.9130434E-2,-5.619047E-1,-4.7007874E-1,-1.3418368E-1,-5.9859157E-1,-1.19444445E-1,-2.6612642E-1,4.4444455E-3,-8.909091E-1,-4.728261E-1,-2.938028E-1,-4.698795E-2,-1.9208333E-1,2.3529412E-2,-9.365079E-2,-4.0241936E-1,-1.1583176E-2,-1.9166666E-1,-8.91167E-3,-1.5414013E-1,-9.0361317E-4,4.3645438E-2,2.5000002E-3,-8.8726413E-1,-4.75E-2,3.3333336E-3,4.166667E-3,-4.75E-2,-7.585492E-1,-2.9166666E-1,-6.333333E-2,3.3333336E-3,-6.3893884E-1,-3.5675675E-1,-5.285714E-1,4.736842E-3,4.75E-3,-4.625E-1,-7.3945576E-1,-5.131627E-1,-6.526316E-1,-3.1690142E-1,-1.9827584E-2,-2.9268292E-1,-6.373134E-1,4E-3,-5.6E-1,4.6428572E-3,-2.2396265E-1,-4.1360295E-1,-2.9166666E-1,4.875E-3,-2.9999998E-1,-9.1935486E-2,-5.3658533E-1,4.166667E-3,-3.5836735E-1,-1.4864865E-1,-1.3924049E-2,-5.6E-1,-2.8906249E-2,-3.7192982E-1,-3.5999998E-1,3.6241613E-2,-5.6E-1,-5.254237E-2,-4.6E-1,4.375E-3,-1.0099193E-2,-8.708333E-2,-1.5152438E-1,-7.7272725E-1,-2.6710525E-1,-3.6461113E-3,-4.8297873E-1,-1.3513512E-2,-1.8709677E-1,1.1447933E-2,-8.217054E-2,4.3950442E-2,-9.051903E-2,-6.8500005E-2,-6.232759E-2,-8.106618E-2,-6.333333E-2,3.7500001E-3,-5.6554485E-2,-7.297959E-2,-5.1739134E-2,-8.666667E-3,3.3333336E-3,-7.6E-2,-6.333333E-2,2.5000002E-3,-8.433036E-2,-3.9583333E-2,-5.25E-2,-2.5E-3,-1E-2,-7.156863E-2,-5.5892855E-2,-1.5568182E-2,-4.625E-2,1.2727274E-3,-1.390625E-2,-7.5500004E-2,-6.695312E-2,3.7500001E-3,-7.125E-2,2.5000002E-3,-2.9806763E-2,-1.6757246E-2,-4.8198197E-2,-1.0576923E-2,-6.333333E-2,3.7500001E-3,-4.75E-2,2.5000002E-3,4E-3,-6E-2,-2.7151516E-2,-5.308642E-2,-3.757576E-2,-5.1898733E-3,-3.857143E-2,2.1917808E-3,-7.125E-2,2.5000002E-3,1.4655174E-3,-3.857143E-2,-4.6170212E-2,4.545455E-3,3.3333336E-3,-6.333333E-2,4.2905407E-3,-4.75E-2,2.5000002E-3,-7.125E-2,-6.4814807E-4,-4.583333E-2,-5.2244898E-2,4.2857146E-3,-6.1125046E-4,-1.5679348E-2,-1.2229299E-2,-7.0625E-2,-8.55E-2,2.5000002E-3,-1.5624998E-3,-4.3043476E-2,-4.583333E-2,-2.177418E-4,-6.279412E-2,-9.642857E-3,1.2500001E-3,-7.125E-2,-2.6956523E-2,4.8E-3,-4.0000003E-2,1.4096128E-3,2.2522525E-3,-6.894737E-2,1.903349E-3,4.5108655E-3],"categories":[],"categories_nodes":[],"categories_segments":[],"categories_sizes":[],"default_left":[0,0,0,0,0,0,0,0,0,0,0,0,0,0,0,0,0,0,0,0,0,0,0,0,0,0,0,0,0,0,0,0,0,0,0,0,0,0,0,0,0,0,0,0,0,0,0,0,0,0,0,0,0,0,0,0,0,0,0,0,0,0,0,0,0,0,0,0,0,0,0,0,0,0,0,0,0,0,0,0,0,0,0,0,0,0,0,0,0,0,0,0,0,0,0,0,0,0,0,0,0,0,0,0,0,0,0,0,0,0,0,0,0,0,0,0,0,0,0,0,0,0,0,0,0,0,0,0,0,0,0,0,0,0,0,0,0,0,0,0,0,0,0,0,0,0,0,0,0,0,0,0,0,0,0,0,0,0,0,0,0,0,0,0,0,0,0,0,0,0,0,0,0,0,0,0,0,0,0,0,0,0,0,0,0,0,0,0,0,0,0,0,0,0,0,0,0,0,0,0,0,0,0],"id":5,"left_children":[1,3,5,7,9,11,13,15,17,19,21,23,25,27,29,31,33,35,37,39,41,43,45,-1,47,49,51,53,55,57,59,61,63,65,67,-1,69,71,73,75,77,79,81,83,85,87,89,91,93,95,97,99,101,103,105,107,109,111,113,115,117,-1,119,-1,-1,-1,-1,121,123,-1,-1,125,127,129,-1,-1,131,133,135,137,139,141,143,145,-1,147,-1,149,151,153,-1,155,-1,157,-1,159,161,163,165,167,169,171,173,175,177,179,-1,181,-1,183,185,187,189,191,193,195,197,199,201,-1,-1,-1,-1,-1,-1,-1,-1,-1,-1,-1,-1,-1,-1,-1,-1,-1,-1,-1,-1,-1,-1,-1,-1,-1,-1,-1,-1,-1,-1,-1,-1,-1,-1,-1,-1,-1,-1,-1,-1,-1,-1,-1,-1,-1,-1,-1,-1,-1,-1,-1,-1,-1,-1,-1,-1,-1,-1,-1,-1,-1,-1,-1,-1,-1,-1,-1,-1,-1,-1,-1,-1,-1,-1,-1,-1,-1,-1,-1,-1,-1,-1,-1,-1],"loss_changes":[8.2150415E2,5.929773E1,5.2265404E1,1.5698181E1,1.9045258E1,1.2828888E1,2.3269127E1,2.099945E0,5.9145813E0,8.060684E0,5.143036E0,3.611971E0,5.1659794E0,6.606129E0,7.7271957E0,1.0132446E0,2.3111954E0,6.38028E-1,5.885742E0,5.78627E0,6.135704E0,3.0421467E0,3.0089798E0,0E0,2.9340973E0,4.0368614E0,3.1214085E0,2.9177217E0,5.50508E0,3.0584435E0,2.8822174E0,8.7446594E-1,2.7395833E-1,3.9166665E-1,7.1139526E-1,0E0,5.586666E-1,2.3756561E0,1.6847459E0,8.655326E-1,5.617874E0,3.3444767E0,1.7704816E0,1.7811394E0,1.341373E0,3.7439766E0,6.045903E-1,2.788868E-1,1.5313282E0,3.2737236E0,1.4000634E0,3.5108676E0,7.589988E-1,1.1783416E0,1.6129484E0,8.874914E0,3.9414802E0,2.5848594E0,7.253696E0,3.438003E0,2.0450592E0,0E0,5.329437E-1,0E0,0E0,0E0,0E0,8.55278E-1,6.985416E-1,0E0,0E0,3.2948608E0,1.5604343E0,9.356191E-1,0E0,0E0,3.489583E-1,4.911812E0,3.1477356E0,1.9146538E0,2.6833715E0,8.417324E-1,2.8068829E0,1.4817562E0,0E0,4.6387494E-1,0E0,1.9642315E0,2.8117352E0,6.985416E-1,0E0,1.8249997E-1,0E0,1.5231218E0,0E0,3.5263863E0,2.4194758E0,1.0611806E0,4.6387494E-1,1.0004089E0,2.1567512E0,5.586666E-1,5.2799463E-1,4.6387494E-1,1.0998038E0,1.7495518E0,0E0,4.0670805E0,0E0,2.572957E0,7.433181E-1,1.5540917E0,1.2444416E0,2.5731058E0,2.0272295E0,1.8160295E0,1.5332497E0,8.217403E0,1.5307007E0,0E0,0E0,0E0,0E0,0E0,0E0,0E0,0E0,0E0,0E0,0E0,0E0,0E0,0E0,0E0,0E0,0E0,0E0,0E0,0E0,0E0,0E0,0E0,0E0,0E0,0E0,0E0,0E0,0E0,0E0,0E0,0E0,0E0,0E0,0E0,0E0,0E0,0E0,0E0,0E0,0E0,0E0,0E0,0E0,0E0,0E0,0E0,0E0,0E0,0E0,0E0,0E0,0E0,0E0,0E0,0E0,0E0,0E0,0E0,0E0,0E0,0E0,0E0,0E0,0E0,0E0,0E0,0E0,0E0,0E0,0E0,0E0,0E0,0E0,0E0,0E0,0E0,0E0,0E0,0E0,0E0,0E0,0E0,0E0],"parents":[2147483647,0,0,1,1,2,2,3,3,4,4,5,5,6,6,7,7,8,8,9,9,10,10,11,11,12,12,13,13,14,14,15,15,16,16,17,17,18,18,19,19,20,20,21,21,22,22,24,24,25,25,26,26,27,27,28,28,29,29,30,30,31,31,32,32,33,33,34,34,36,36,37,37,38,38,39,39,40,40,41,41,42,42,43,43,44,44,45,45,46,46,47,47,48,48,49,49,50,50,51,51,52,52,53,53,54,54,55,55,56,56,57,57,58,58,59,59,60,60,62,62,67,67,68,68,71,71,72,72,73,73,76,76,77,77,78,78,79,79,80,80,81,81,82,82,83,83,85,85,87,87,88,88,89,89,91,91,93,93,95,95,96,96,97,97,98,98,99,99,100,100,101,101,102,102,103,103,104,104,105,105,107,107,109,109,110,110,111,111,112,112,113,113,114,114,115,115,116,116,117,117,118,118],"right_children":[2,4,6,8,10,12,14,16,18,20,22,24,26,28,30,32,34,36,38,40,42,44,46,-1,48,50,52,54,56,58,60,62,64,66,68,-1,70,72,74,76,78,80,82,84,86,88,90,92,94,96,98,100,102,104,106,108,110,112,114,116,118,-1,120,-1,-1,-1,-1,122,124,-1,-1,126,128,130,-1,-1,132,134,136,138,140,142,144,146,-1,148,-1,150,152,154,-1,156,-1,158,-1,160,162,164,166,168,170,172,174,176,178,180,-1,182,-1,184,186,188,190,192,194,196,198,200,202,-1,-1,-1,-1,-1,-1,-1,-1,-1,-1,-1,-1,-1,-1,-1,-1,-1,-1,-1,-1,-1,-1,-1,-1,-1,-1,-1,-1,-1,-1,-1,-1,-1,-1,-1,-1,-1,-1,-1,-1,-1,-1,-1,-1,-1,-1,-1,-1,-1,-1,-1,-1,-1,-1,-1,-1,-1,-1,-1,-1,-1,-1,-1,-1,-1,-1,-1,-1,-1,-1,-1,-1,-1,-1,-1,-1,-1,-1,-1,-1,-1,-1,-1,-1],"split_conditions":[1E0,5.6E-1,1E0,9.222324E-2,6.55E-1,9.12029E-2,2.39E0,3.9E-1,7.39E0,1.03E0,1.146086E0,1.4192296E0,4.3775E0,9.3E-1,2.4E0,1.979E1,1.81E0,2.3861666E1,1.66E0,6.517083E0,1.63E0,4.569E1,5.374921E1,9.583324E-3,4.8E-1,8.96E1,3.04E0,6.9E-1,7.88125E1,1E0,2.25E0,6.89E0,9.04E0,2.536E1,8.175649E0,1.3795084E-2,2.178E1,6.7258334E0,8E-1,2.093293E1,2E-1,1.281E1,8.426206E0,2.745E1,1.1542084E1,5.703E1,1.8E-1,1.5177938E0,4.573E1,1.1861E2,9.89E1,8.350125E0,9.3E-1,1.1E-1,2.82685E2,5E1,9.945E1,6.3E-1,2.183E1,6E0,3.7646892E-3,9.015441E-4,3.4076E2,-1.362083E-2,2.9044718E-2,5.8521033E-4,-3.283034E-2,3E-1,7.46E0,-6.4889915E-2,3.8527728E-3,3.3200781E0,1.2962E2,1.476E1,1.1130333E-3,9.175921E-3,1.194E1,1E0,7E0,9.45375E0,1.31E0,2.4E0,9.9E-1,2.347E1,1.9061584E-2,1.23E1,9.074748E-4,2.004983E0,8.3E-1,3.168E1,1.7324269E-3,1.81E0,-6.3915245E-2,6.209E1,9.771079E-3,3.665E1,1.845E1,2.069E1,1.604E1,3.227425E2,1.0295E2,2.818E1,4.43E0,7.24E0,9.376E1,9.909E1,1.5993321E-2,3.89E1,-5.500971E-2,2.315425E2,6.003E1,6.026E1,9E-2,2.257E1,6.768013E1,1.1134167E1,5.6E-1,6.0959663E0,2.36E0,-6.2436234E-2,-6.006148E-2,-5.9590872E-2,-5.6948453E-2,-1.3463027E-2,2.4015426E-3,-6.370499E-2,-6.55075E-2,-6.585656E-2,-3.53689E-2,3.0402107E0,-8.1871845E-2,-2.555566E-2,1.3631762E-3,-6.6295676E-2,-5.973761E-2,-5.7249714E-2,-3.0052185E-2,-2.8396249E-3,-5.3507168E-2,-5.9213568E-2,-4.1470565E-2,-3.683044E-2,2.839268E-3,-6.0715098E-2,-8.3035395E-2,-6.2740535E-2,3.5667599E-3,-4.5245945E-2,3.4083076E-2,-4.5646645E-2,-2.703665E-2,-5.156997E-2,-5.9818562E-2,-6.8840208E-3,2.6790684E-2,-4.8377376E-2,2.6575285E-1,1.5229583E-2,-5.8985293E-2,-4.4706218E-2,-6.0439374E-2,-5.7530638E-2,-1.351315E-2,-6.1136693E-2,1.1443575E-2,-3.3017334E-2,8.203126E-2,7.272764E-4,-3.2796986E-2,-6.6571675E-2,2.4625005E-3,3.485595E-1,-5.076752E-2,3.8366254E-2,-7.2832825E-3,8.44711E-2,-4.100668E-2,-1.0145845E-2,-4.0357914E-2,-6.398564E-2,2.6411384E-2,-4.9297896E-4,-4.2901725E-2,-3.395635E-2,-3.5269875E-2,-7.177872E-2,2.697527E-1,-1.006431E-2,-6.9653265E-2,-2.6327176E-2,-4.4132472E-4,-1.06507815E-1,-6.488376E-2,3.2068666E-3,-3.3646714E-2,-5.0762024E-2,1.0483134E-2,-4.619791E-2,1.4934494E-2,6.033309E-2,-1.7254E-1,2.453773E-2,1.0546001E-1],"split_indices":[3,58,57,35,3,35,57,57,46,74,35,26,64,53,3,44,17,25,74,51,59,66,52,0,58,72,3,76,51,91,54,2,0,20,52,0,0,64,77,39,3,2,26,44,51,0,74,26,68,29,71,50,53,6,33,8,19,59,46,82,65,0,81,0,0,0,0,55,0,0,0,65,28,4,0,0,0,91,58,51,6,17,76,41,0,0,0,65,74,17,0,0,0,70,0,15,69,68,2,33,42,2,6,0,17,71,0,69,0,34,0,31,6,44,26,62,58,50,59,0,0,0,0,0,0,0,0,0,0,0,0,0,0,0,0,0,0,0,0,0,0,0,0,0,0,0,0,0,0,0,0,0,0,0,0,0,0,0,0,0,0,0,0,0,0,0,0,0,0,0,0,0,0,0,0,0,0,0,0,0,0,0,0,0,0,0,0,0,0,0,0,0,0,0,0,0,0,0,0,0,0,0,0],"split_type":[0,0,0,0,0,0,0,0,0,0,0,0,0,0,0,0,0,0,0,0,0,0,0,0,0,0,0,0,0,0,0,0,0,0,0,0,0,0,0,0,0,0,0,0,0,0,0,0,0,0,0,0,0,0,0,0,0,0,0,0,0,0,0,0,0,0,0,0,0,0,0,0,0,0,0,0,0,0,0,0,0,0,0,0,0,0,0,0,0,0,0,0,0,0,0,0,0,0,0,0,0,0,0,0,0,0,0,0,0,0,0,0,0,0,0,0,0,0,0,0,0,0,0,0,0,0,0,0,0,0,0,0,0,0,0,0,0,0,0,0,0,0,0,0,0,0,0,0,0,0,0,0,0,0,0,0,0,0,0,0,0,0,0,0,0,0,0,0,0,0,0,0,0,0,0,0,0,0,0,0,0,0,0,0,0,0,0,0,0,0,0,0,0,0,0,0,0,0,0,0,0,0,0],"sum_hessian":[6.7644E4,2.843E3,6.4801E4,1.159E3,1.684E3,7.92E2,6.4009E4,5.24E2,6.35E2,9.37E2,7.47E2,8.5E1,7.07E2,7.262E3,5.6747E4,3.21E2,2.03E2,2E1,6.15E2,7.14E2,2.23E2,8.7E1,6.6E2,8E0,7.7E1,4.36E2,2.71E2,1.23E2,7.139E3,2.057E3,5.469E4,3.18E2,3E0,6E0,1.97E2,1.6E1,4E0,5.91E2,2.4E1,2.2E1,6.92E2,1.26E2,9.7E1,7E1,1.7E1,6.16E2,4.4E1,3.2E1,4.5E1,3.54E2,8.2E1,1.19E2,1.52E2,6.2E1,6.1E1,6.966E3,1.73E2,1.901E3,1.56E2,1.493E3,5.3197E4,1E0,3.17E2,1E0,2E0,5E0,1E0,1.92E2,5E0,2E0,2E0,5.55E2,3.6E1,6E0,1.8E1,1.9E1,3E0,1.46E2,5.46E2,5.6E1,7E1,5.7E1,4E1,6.6E1,4E0,4E0,1.3E1,4.81E2,1.35E2,5E0,3.9E1,2E0,3E1,4E1,5E0,2.44E2,1.1E2,7.8E1,4E0,6.3E1,5.6E1,4E0,1.48E2,4E0,5.8E1,5.4E1,7E0,6.955E3,1.1E1,1.63E2,1E1,3.7E1,1.864E3,4.6E1,1.1E2,9.2E1,1.401E3,1.28E2,5.3069E4,2.88E2,2.9E1,5.7E1,1.35E2,2E0,3E0,3.11E2,2.44E2,2.2E1,1.4E1,2E0,4E0,2E0,1E0,1.11E2,3.5E1,5.33E2,1.3E1,6E0,5E1,2.7E1,4.3E1,3E0,5.4E1,3.1E1,9E0,6.3E1,3E0,3E0,1E0,2.06E2,2.75E2,1.1E2,2.5E1,2E0,3E0,1E0,1E0,4E0,3.6E1,1.64E2,8E1,3.2E1,7.8E1,6E0,7.2E1,3E0,1E0,5.7E1,6E0,4.6E1,1E1,2E0,2E0,1.47E2,1E0,1E0,3E0,5.3E1,5E0,4.8E1,6E0,6.772E3,1.83E2,1.56E2,7E0,9E0,1E0,1.5E1,2.2E1,5E0,1.859E3,3.3E1,1.3E1,1.07E2,3E0,6.8E1,2.4E1,8E0,1.393E3,1.1E2,1.8E1,2.358E3,5.0711E4],"tree_param":{"num_deleted":"0","num_feature":"92","num_nodes":"203","size_leaf_vector":"1"}},{"base_weights":[8.996377E-3,-5.162708E-1,2.8329449E-2,-6.664091E-1,-3.8893157E-1,-1.8352534E-1,3.2645334E-2,-7.922105E-1,-5.698882E-1,-5.5167097E-1,-3.1916758E-1,-4.971223E-1,-1.4591925E-1,-1.7566988E-2,3.883723E-2,-8.185941E-1,-4.3714285E-1,-6.604457E-1,-4.464552E-1,-7.016949E-1,-4.2441314E-1,-4.2290908E-1,-2.740219E-1,-7.201923E-1,-3.5965908E-1,-1.8859763E-1,-6.455224E-2,-1.0095313E-1,6.6863623E-4,-2.107537E-2,4.1113526E-2,-1.25E-1,-8.2626146E-1,4.4444446E-3,-5.8148146E-1,-5.9192914E-1,-8.183962E-1,-4.7609562E-1,-8.333332E-3,-7.541139E-1,-2.525E-1,-6.5842694E-1,-2.5439999E-1,-5.440625E-1,-2.5215515E-1,-5.0624996E-1,-2.441021E-1,4.2857146E-3,-8.206522E-1,-5.1454544E-1,-9.8529406E-2,-2.8709677E-1,-1.315464E-1,-1.3432835E-1,5.198021E-3,-4.0857142E-1,-9.208163E-2,2.9419828E-2,-1.6960783E-2,-9.571197E-2,1.0402457E-2,3.4986958E-3,4.247457E-2,-4.75E-2,4E-3,-8.4254277E-1,-5.5892855E-1,3.7500001E-3,-6.6041666E-1,4.375E-3,-6.101214E-1,-1.7777777E-1,-8.6887753E-1,-5.9145296E-1,-3.725926E-1,-4.75E-2,4.7058826E-3,-7.870748E-1,-2.875E-1,-8.142857E-2,4.6428572E-3,-8.3214283E-1,-4.9270833E-1,2.5581397E-2,-3.9638555E-1,-6.4747477E-1,-3.701613E-1,-9.3571424E-2,-4.8297873E-1,-5.779661E-1,-1.6785714E-1,-2.2869003E-1,-5.4444444E-1,2.5000002E-3,-8.4E-1,4.166667E-3,-5.71E-1,-1.612903E-2,-7.125E-2,-2.4999999E-2,-3.4845132E-1,-1.530611E-3,-1.6404639E-1,-9.944751E-2,-4.2857143E-1,-3.5999998E-1,1.4393941E-2,-1.6956522E-1,-8E-1,-1.2473622E-1,-1.7158175E-2,3.0306498E-2,-4.625E-1,-9.900976E-4,-6.854265E-2,-1.4900568E-1,-2.5093632E-2,-6.7142856E-1,1.3664384E-2,-5.285714E-1,5.44788E-3,-1.7946428E-2,4.3120284E-2,-5.8148146E-2,-8.587467E-2,-1E-2,-6.795455E-2,3.3333336E-3,-7.25E-2,-5.512626E-2,-8.31E-2,-6.333333E-2,4.2857146E-3,-2.9166667E-2,-8.9677416E-2,-4.5080643E-2,-7.366072E-2,-4.609375E-2,-1.5124999E-2,3.3333336E-3,-7.986207E-2,-6.25E-2,4.2857146E-3,-8.7625E-2,3.3333336E-3,-6.72E-2,-2.8541667E-2,-4.75E-2,4.8809526E-3,-1.9999999E-3,-4.7246378E-2,-7.3445946E-2,-3.75E-2,-1.390625E-2,-5.967742E-2,-3.7068964E-3,-3.3846155E-2,-7.020833E-2,-2.4375E-2,-4.25E-2,-8.159091E-2,-3.857143E-2,4.375E-3,-2.5641013E-4,-2.4573414E-2,4.2857146E-3,-7.1428575E-2,2.5000002E-3,-8.602273E-2,-8.416667E-2,-4.0606063E-2,4.814815E-3,-3.6E-2,4.8809526E-3,-2.6153846E-2,-5.2193876E-2,-2.1395348E-2,-3.55E-2,3.820225E-3,-2.9033333E-2,-8.410042E-3,-1.977528E-2,-4.301074E-4,4.166667E-3,-5.78125E-2,3.3333336E-3,-6.333333E-2,-1.6785715E-2,2.810811E-3,-5.2857142E-2,-1.1764704E-3,-8.708333E-2,2.5000002E-3,-1.5094615E-2,-1.6167663E-3,1.3636377E-4,-1.5568182E-2,-1.1785715E-2,3.3193473E-3,-6.333333E-2,2.5000002E-3,-2.2445694E-3,1.6969697E-3,2.0833334E-3,-1.1177504E-2,-9.608541E-3,-3.534722E-2,-2.0638298E-2,1.3574662E-3,2.5000002E-3,-7.9166666E-2,-6.333333E-2,1.4986284E-3,-7.6E-2,3.3333336E-3,6.929135E-4,-5.6E-2,-4.0000003E-2,-1.1684782E-3,-6.5163933E-3,4.337247E-3],"categories":[],"categories_nodes":[],"categories_segments":[],"categories_sizes":[],"default_left":[0,0,0,0,0,0,0,0,0,0,0,0,0,0,0,0,0,0,0,0,0,0,0,0,0,0,0,0,0,0,0,0,0,0,0,0,0,0,0,0,0,0,0,0,0,0,0,0,0,0,0,0,0,0,0,0,0,0,0,0,0,0,0,0,0,0,0,0,0,0,0,0,0,0,0,0,0,0,0,0,0,0,0,0,0,0,0,0,0,0,0,0,0,0,0,0,0,0,0,0,0,0,0,0,0,0,0,0,0,0,0,0,0,0,0,0,0,0,0,0,0,0,0,0,0,0,0,0,0,0,0,0,0,0,0,0,0,0,0,0,0,0,0,0,0,0,0,0,0,0,0,0,0,0,0,0,0,0,0,0,0,0,0,0,0,0,0,0,0,0,0,0,0,0,0,0,0,0,0,0,0,0,0,0,0,0,0,0,0,0,0,0,0,0,0,0,0,0,0,0,0,0,0,0,0,0,0,0,0,0,0,0,0,0,0,0,0,0,0,0,0],"id":6,"left_children":[1,3,5,7,9,11,13,15,17,19,21,23,25,27,29,31,33,35,37,39,41,43,45,47,49,51,53,55,57,59,61,63,65,-1,67,69,71,73,75,77,79,81,83,85,87,89,91,-1,93,95,97,99,101,103,105,107,109,111,113,115,117,119,121,-1,-1,123,125,-1,127,-1,129,131,133,135,137,-1,-1,139,141,-1,-1,143,145,147,149,151,153,155,157,159,161,163,165,-1,167,-1,169,171,-1,173,175,177,179,181,183,185,187,189,191,193,195,197,199,201,203,205,207,209,211,213,215,217,219,-1,-1,-1,-1,-1,-1,-1,-1,-1,-1,-1,-1,-1,-1,-1,-1,-1,-1,-1,-1,-1,-1,-1,-1,-1,-1,-1,-1,-1,-1,-1,-1,-1,-1,-1,-1,-1,-1,-1,-1,-1,-1,-1,-1,-1,-1,-1,-1,-1,-1,-1,-1,-1,-1,-1,-1,-1,-1,-1,-1,-1,-1,-1,-1,-1,-1,-1,-1,-1,-1,-1,-1,-1,-1,-1,-1,-1,-1,-1,-1,-1,-1,-1,-1,-1,-1,-1,-1,-1,-1,-1,-1,-1,-1,-1,-1,-1,-1],"loss_changes":[6.8654535E2,4.5625244E1,5.9626507E1,1.2905243E1,1.459462E1,1.528215E1,1.9869354E1,4.0919495E0,6.7024384E0,7.128868E0,4.1601257E0,4.0032616E0,4.0299473E0,1.0668587E1,7.759453E0,2.2419739E0,2.4587507E0,3.4007263E0,3.4763107E0,3.9772873E0,8.306793E0,5.5518494E0,4.316334E0,4.0212765E0,3.5084991E0,4.2499123E0,1.957193E0,3.3982363E0,2.919038E0,4.894792E0,2.8057709E0,3.6549997E-1,1.4267578E0,0E0,1.3439693E0,2.9640808E0,3.2734985E0,2.7765236E0,4.8764706E-1,2.2037582E0,3.396482E0,2.1521225E0,4.9793024E0,2.6376953E0,4.2009706E0,1.6502953E0,2.5047035E0,0E0,7.7362823E-1,1.7508297E0,1.7086158E0,4.4778423E0,2.0491219E0,2.020332E0,6.835648E-1,3.138733E0,2.9949389E0,9.687935E-1,2.9408903E0,2.322112E0,3.2696812E0,1.988931E0,2.0644073E0,0E0,0E0,1.230835E0,1.4819708E0,0E0,1.0994797E0,0E0,2.7530594E0,9.31746E-1,1.3164597E0,2.0565414E0,2.5701408E0,0E0,0E0,1.4190521E0,1.3647323E0,0E0,0E0,1.6325035E0,1.5921507E0,5.2317E-1,2.3672352E0,2.0709877E0,3.163948E0,9.5603615E-1,2.2924252E0,1.8006744E0,6.6227686E-1,2.0882988E0,2.7238102E0,0E0,8.0885315E-1,0E0,1.8904114E0,7.025281E-1,0E0,9.5554024E-1,5.1617413E0,1.3899081E0,3.8928823E0,1.6921146E0,1.5009298E0,5.586666E-1,4.996037E-1,1.296763E0,7.8145885E-1,2.4248323E0,9.572218E-1,9.389627E-1,3.489583E-1,1.051198E0,3.2634916E0,3.774826E0,1.8745115E0,6.059525E-1,1.2581792E0,9.356191E-1,1.6028067E0,1.3350053E0,1.4319687E0,0E0,0E0,0E0,0E0,0E0,0E0,0E0,0E0,0E0,0E0,0E0,0E0,0E0,0E0,0E0,0E0,0E0,0E0,0E0,0E0,0E0,0E0,0E0,0E0,0E0,0E0,0E0,0E0,0E0,0E0,0E0,0E0,0E0,0E0,0E0,0E0,0E0,0E0,0E0,0E0,0E0,0E0,0E0,0E0,0E0,0E0,0E0,0E0,0E0,0E0,0E0,0E0,0E0,0E0,0E0,0E0,0E0,0E0,0E0,0E0,0E0,0E0,0E0,0E0,0E0,0E0,0E0,0E0,0E0,0E0,0E0,0E0,0E0,0E0,0E0,0E0,0E0,0E0,0E0,0E0,0E0,0E0,0E0,0E0,0E0,0E0,0E0,0E0,0E0,0E0,0E0,0E0,0E0,0E0,0E0,0E0,0E0,0E0],"parents":[2147483647,0,0,1,1,2,2,3,3,4,4,5,5,6,6,7,7,8,8,9,9,10,10,11,11,12,12,13,13,14,14,15,15,16,16,17,17,18,18,19,19,20,20,21,21,22,22,23,23,24,24,25,25,26,26,27,27,28,28,29,29,30,30,31,31,32,32,34,34,35,35,36,36,37,37,38,38,39,39,40,40,41,41,42,42,43,43,44,44,45,45,46,46,48,48,49,49,50,50,51,51,52,52,53,53,54,54,55,55,56,56,57,57,58,58,59,59,60,60,61,61,62,62,65,65,66,66,68,68,70,70,71,71,72,72,73,73,74,74,77,77,78,78,81,81,82,82,83,83,84,84,85,85,86,86,87,87,88,88,89,89,90,90,91,91,92,92,94,94,96,96,97,97,99,99,100,100,101,101,102,102,103,103,104,104,105,105,106,106,107,107,108,108,109,109,110,110,111,111,112,112,113,113,114,114,115,115,116,116,117,117,118,118,119,119,120,120,121,121,122,122],"right_children":[2,4,6,8,10,12,14,16,18,20,22,24,26,28,30,32,34,36,38,40,42,44,46,48,50,52,54,56,58,60,62,64,66,-1,68,70,72,74,76,78,80,82,84,86,88,90,92,-1,94,96,98,100,102,104,106,108,110,112,114,116,118,120,122,-1,-1,124,126,-1,128,-1,130,132,134,136,138,-1,-1,140,142,-1,-1,144,146,148,150,152,154,156,158,160,162,164,166,-1,168,-1,170,172,-1,174,176,178,180,182,184,186,188,190,192,194,196,198,200,202,204,206,208,210,212,214,216,218,220,-1,-1,-1,-1,-1,-1,-1,-1,-1,-1,-1,-1,-1,-1,-1,-1,-1,-1,-1,-1,-1,-1,-1,-1,-1,-1,-1,-1,-1,-1,-1,-1,-1,-1,-1,-1,-1,-1,-1,-1,-1,-1,-1,-1,-1,-1,-1,-1,-1,-1,-1,-1,-1,-1,-1,-1,-1,-1,-1,-1,-1,-1,-1,-1,-1,-1,-1,-1,-1,-1,-1,-1,-1,-1,-1,-1,-1,-1,-1,-1,-1,-1,-1,-1,-1,-1,-1,-1,-1,-1,-1,-1,-1,-1,-1,-1,-1,-1],"split_conditions":[8.2E-1,5.6E-1,1.09E0,9.12029E-2,5.2166665E-1,9.12029E-2,2.39E0,1.846E1,3.1E-1,4.2E-1,5.7E-1,4.9E-1,4.6554165E0,9.731544E1,2.4E0,6.503E1,1.011E1,7.213E1,4.573172E1,9.853E1,3.2E1,2.42E1,4.674042E-1,1.4192296E0,4.569E1,6.5E-1,3.04E0,5.7E-1,3.856E1,9.731544E1,1.95E0,3.27E0,6.55E-1,2.846396E-3,1E0,9.866917E-2,1.68E1,2.9E-1,1E-1,3.542E2,2.2E-1,1E1,2.477E1,1.3529E2,3.411E1,7.426794E-1,1.969E1,8.624989E-3,4.4279414E-1,2.2731636E-1,1.577E1,2.8356493E0,1.2042916E1,2.55E0,3E0,3.607E1,2.2E1,7.852E1,2.59E0,3.412E1,4.674042E-1,1.2266667E0,2E0,-1.6279895E-2,5.266905E-4,3.314E1,4.1364583E-1,1.290769E-2,9E-2,8.058244E-3,1.3455E2,1.1E-1,5.27E0,2E1,5E0,-2.5687505E-2,4.3273154E-3,3.85E0,2.4E1,-4.5119815E-2,3.8926066E-3,5.066E1,1.8089E2,1.9E-1,2.926E1,1.14E0,1.0825E0,2.744E1,1.9122E2,1.3040799E1,1.096E1,2.935E1,3.692E1,5.5198092E-2,1.3351654E-1,5.0928234E-3,8.1E-1,1.73E0,-4.2781122E-2,2.5059E2,2.2574E2,1E0,5.0239453E0,2.541E1,1.269E1,2.125E2,2.8616667E0,1.8269E2,1.0293E2,4.19E0,4.411E1,1.12E0,3.02E1,8E0,4.575E1,2.3275E1,1.8E0,1.4228537E1,1.226E1,5.81E0,9.89E1,1.1E-1,3.7646892E-3,-5.5865366E-2,-5.5448573E-2,-4.0767644E-2,-5.264578E-2,6.9595575E-2,-4.734679E-2,-5.6841314E-2,-5.9794176E-2,-4.43967E-2,3.988451E-3,-3.8062047E-2,-5.8606207E-2,-5.9155453E-2,-6.036712E-2,-5.2919805E-2,-3.8367916E-2,1.9943242E-1,-5.9066415E-2,-8.148581E-3,1.4141024E-3,-4.8756246E-2,1.1073835E-1,-5.803102E-2,-3.328217E-2,-6.2038065E-3,8.973962E-3,-1.8154243E-2,-7.257082E-2,-5.572029E-2,-4.526733E-2,-4.060356E-2,-5.0987463E-2,-3.922802E-2,-5.6051046E-2,-5.873273E-2,-5.044764E-2,-5.8956098E-2,-4.88297E-2,-3.170424E-2,1.8143058E-3,-5.3596217E-2,-4.0124193E-2,5.5495384E-3,-6.821493E-2,1.2817247E-1,-5.4571252E-2,-5.2685656E-2,-5.14629E-2,2.298674E-3,-4.2867186E-3,1.9335836E-3,-4.076625E-2,-5.5490173E-2,-5.2841783E-2,-2.805462E-2,2.6155075E-3,-5.2037556E-2,-3.2238785E-2,-4.035628E-2,-4.222111E-3,7.148189E-2,-5.366205E-2,1.2177479E-2,-3.9547216E-2,-3.9547216E-2,8.1576586E-2,-4.3975253E-2,-1.0899484E-2,-4.965631E-2,3.7918365E-1,-4.713153E-2,-1.1409315E-2,-4.657771E-4,-2.2930728E-2,-4.181533E-3,4.8218756E-3,-2.3920083E-2,6.8834904E-3,-5.6626974E-4,3.9952993E-4,8.019636E-3,-1.5518541E-2,-4.014701E-2,-6.72084E-2,-5.3187985E-2,3.806112E-3,1.2254031E0,-1.3224587E-1,-5.9288204E-2,3.2892064E-3,-3.903695E-2,2.5185752E-1,5.0673974E-3,-6.472152E-2,-5.8050312E-2,-1.0287179E-2,-1.55286E-1,9.191401E-2],"split_indices":[3,58,57,35,60,35,57,46,74,74,53,57,64,12,3,5,42,71,69,71,30,4,35,26,66,57,3,53,32,12,59,0,3,0,83,63,0,58,6,7,76,82,17,29,4,63,56,0,22,63,42,24,25,3,84,41,84,2,53,45,35,60,58,0,0,4,64,0,74,0,41,6,20,84,83,0,0,2,84,0,0,31,79,75,78,75,58,45,79,42,20,7,0,0,61,0,53,53,0,79,79,58,24,4,15,7,60,7,2,3,67,3,0,85,5,51,58,0,69,57,5,75,65,0,0,0,0,0,0,0,0,0,0,0,0,0,0,0,0,0,0,0,0,0,0,0,0,0,0,0,0,0,0,0,0,0,0,0,0,0,0,0,0,0,0,0,0,0,0,0,0,0,0,0,0,0,0,0,0,0,0,0,0,0,0,0,0,0,0,0,0,0,0,0,0,0,0,0,0,0,0,0,0,0,0,0,0,0,0,0,0,0,0,0,0,0,0,0,0,0,0],"split_type":[0,0,0,0,0,0,0,0,0,0,0,0,0,0,0,0,0,0,0,0,0,0,0,0,0,0,0,0,0,0,0,0,0,0,0,0,0,0,0,0,0,0,0,0,0,0,0,0,0,0,0,0,0,0,0,0,0,0,0,0,0,0,0,0,0,0,0,0,0,0,0,0,0,0,0,0,0,0,0,0,0,0,0,0,0,0,0,0,0,0,0,0,0,0,0,0,0,0,0,0,0,0,0,0,0,0,0,0,0,0,0,0,0,0,0,0,0,0,0,0,0,0,0,0,0,0,0,0,0,0,0,0,0,0,0,0,0,0,0,0,0,0,0,0,0,0,0,0,0,0,0,0,0,0,0,0,0,0,0,0,0,0,0,0,0,0,0,0,0,0,0,0,0,0,0,0,0,0,0,0,0,0,0,0,0,0,0,0,0,0,0,0,0,0,0,0,0,0,0,0,0,0,0,0,0,0,0,0,0,0,0,0,0,0,0,0,0,0,0,0,0],"sum_hessian":[6.7604E4,2.399E3,6.5205E4,1.099E3,1.3E3,1.301E3,6.3904E4,4.74E2,6.25E2,3.88E2,9.12E2,1.38E2,1.163E3,7.015E3,5.6889E4,4.4E2,3.4E1,3.58E2,2.67E2,1.76E2,2.12E2,2.74E2,6.38E2,5.1E1,8.7E1,7.62E2,4.01E2,1.258E3,5.757E3,2.082E3,5.4807E4,5E0,4.35E2,8E0,2.6E1,2.53E2,1.05E2,2.5E2,1.7E1,1.57E2,1.9E1,8.8E1,1.24E2,1.59E2,1.15E2,7.1E1,5.67E2,6E0,4.5E1,5.4E1,3.3E1,2.78E2,4.84E2,2E2,2.01E2,3.4E1,1.224E3,2.188E3,3.569E3,6.17E2,1.465E3,1.914E3,5.2893E4,1E0,4E0,4.08E2,2.7E1,3E0,2.3E1,7E0,2.46E2,8E0,9.7E1,1.16E2,1.34E2,1E0,1.6E1,1.46E2,1.1E1,6E0,1.3E1,4.1E1,4.7E1,4.2E1,8.2E1,9.8E1,6.1E1,6.9E1,4.6E1,5.8E1,1.3E1,5.41E2,2.6E1,1E0,4.4E1,5E0,4.9E1,3E1,3E0,5.3E1,2.25E2,9.7E1,3.87E2,1.8E2,2E1,4E0,1.97E2,2.2E1,1.2E1,8.52E2,3.72E2,2.185E3,3E0,2.726E3,8.43E2,3.51E2,2.66E2,6E0,1.459E3,6E0,1.908E3,5.59E2,5.2334E4,2.6E1,3.82E2,6E0,2.1E1,2E0,2.1E1,1.97E2,4.9E1,2E0,6E0,5E0,9.2E1,6.1E1,5.5E1,9.5E1,3.9E1,2E0,1.44E2,5E0,6E0,3.9E1,2E0,2.4E1,2.3E1,1E0,4.1E1,1.4E1,6.8E1,7.3E1,2.5E1,3.1E1,3E1,5.7E1,1.2E1,2.3E1,2.3E1,3.7E1,2.1E1,6E0,7E0,3.8E1,5.03E2,6E0,2E1,1E0,4.3E1,1.7E1,3.2E1,2.6E1,4E0,4.1E1,1.2E1,9.7E1,1.28E2,9E0,8.8E1,1.49E2,2.38E2,8.8E1,9.2E1,5E0,1.5E1,2E0,2E0,1.3E1,1.84E2,6E0,1.6E1,1.1E1,1E0,6.86E2,1.66E2,3.29E2,4.3E1,4.1E1,2.144E3,2E0,1E0,1.242E3,1.484E3,2.75E2,5.68E2,2.8E2,7.1E1,4.6E1,2.2E2,1E0,5E0,2E0,1.457E3,4E0,2E0,1.904E3,4E0,8E0,5.51E2,1.21E2,5.2213E4],"tree_param":{"num_deleted":"0","num_feature":"92","num_nodes":"221","size_leaf_vector":"1"}},{"base_weights":[1.0068989E-2,-4.8161915E-1,2.8305732E-2,-6.4632285E-1,-3.5585454E-1,-1.6188307E-1,3.222165E-2,-7.6024437E-1,-5.2761626E-1,-5.295265E-1,-2.9419863E-1,-4.8827586E-1,-1.2139812E-1,-2.5571683E-2,3.7153184E-2,-5.8E-1,-8.194724E-1,-3.025568E-1,-6.422287E-1,-6.8476564E-1,-4.415948E-1,-4.502809E-1,-2.607738E-1,-1.025E-1,-5.456349E-1,-2.6871508E-1,-9.4773866E-2,-1.18075356E-1,-3.1249986E-3,-3.1787675E-2,3.912482E-2,-6.778409E-1,-3.8854167E-1,-9.031414E-1,-7.3870194E-1,-4.6504855E-1,-7.22973E-2,-6.7515624E-1,-1.340909E-1,-7.146341E-1,4.166667E-3,-2.724138E-1,-5.3938353E-1,-1.5862069E-1,-5.0366664E-1,-5.875E-1,-2.4240904E-1,4.666667E-3,-4.583333E-1,-4.111842E-1,-7.352941E-1,-3.6556605E-1,-1.2635134E-1,2.3684222E-3,-1.1755583E-1,-1.07076444E-1,-8.2E-1,9.460669E-3,-6.406926E-2,-1.068097E-1,4.6648565E-3,6.9934092E-3,4.1207742E-2,-7.5624996E-1,-3.0588233E-1,-4.7625E-1,4.4444446E-3,-9.079365E-1,-2.9999998E-1,-7.808743E-1,-4.1346154E-1,-2.0697674E-1,-6.393443E-1,-5.6E-1,-3.642857E-2,-7.356322E-1,-4.0083334E-1,-7.125E-2,-5.2631567E-3,3.7500001E-3,-7.3375E-1,-2.1312499E-1,-8.3125E-2,-7.6406246E-1,-4.721739E-1,4.6875E-3,-3.8214284E-1,-5.503846E-1,-1.904762E-1,4.5000003E-3,-7.5142854E-1,-2.6213592E-1,-5.454545E-2,3.3333336E-3,-7.125E-2,-1.3703704E-1,-5.51E-1,-7.84375E-1,3.7500001E-3,-4.2880434E-1,4.666667E-3,4.782609E-3,-2.0096153E-1,-2.3928571E-1,2.1468928E-2,-9.52346E-2,-2.384E-1,-7.7272725E-1,-9.93215E-2,-2.9999998E-1,-8.769231E-2,-3.977941E-2,2.1964887E-2,-1.428899E-1,-2.7836133E-2,-1.2413791E-2,-1.4145409E-1,8.970858E-3,-6.7142856E-1,-4.5416665E-1,8.58252E-3,-2.6880875E-2,4.202404E-2,-5.3225804E-2,-9.035715E-2,-7.6E-2,-1.0769231E-2,-1.2083333E-2,-6.0689654E-2,-3E-2,-9.1283426E-2,2.5000002E-3,-4.75E-2,-3.736842E-2,-8.230303E-2,-1.4062501E-2,-7.727273E-2,-5.964286E-2,-1.8333333E-3,-7.101852E-2,-8.125E-3,-7.125E-2,2.5000002E-3,-6.333333E-2,-9.558822E-4,-7.875598E-2,-5.1698115E-2,-5.6477275E-2,4.7058826E-3,-4.75E-2,4.722222E-3,3.3333336E-3,-7.470339E-2,-3.4239132E-2,-3.7142856E-3,-2.8888887E-2,-9.104167E-2,-5.165094E-2,4.5000003E-3,-6.714286E-2,-8.125E-3,-1.2083333E-2,-5.8907565E-2,-5.2857142E-2,-1.9999999E-3,-8.803572E-2,-2.0625E-2,-1.5119617E-2,-3.068226E-2,-1.5735295E-2,2.6136364E-3,4.3478273E-4,-7.6E-2,-6.3295454E-2,4.2857146E-3,-2.125E-2,-8.1777774E-2,-3.2E-2,-6.660714E-2,-4.535714E-2,-1.051282E-2,-6.25E-2,4.4444446E-3,2.6988636E-3,-4.75E-2,-1.2880228E-2,1.7834395E-3,-6.666667E-2,-1.5047619E-2,-8.55E-2,2.5000002E-3,-3.1293105E-2,-8.54606E-3,2.5000002E-3,-4.75E-2,-5.6E-2,-3.587278E-3,-6.333333E-2,2.269159E-3,-1.2559242E-2,-5.8125E-2,-1.7062634E-3,-3.8214285E-2,-6.333333E-2,6.99302E-5,-4.0125E-2,-1.1161473E-2,2.3943663E-3,-6.9602276E-3,2.5000002E-3,-7.9166666E-2,-8.142857E-2,4.166667E-3,-3.4620096E-3,2.18175E-3,-1.6316638E-3,-3.525E-2,4.2277635E-3,-1.5661765E-2],"categories":[],"categories_nodes":[],"categories_segments":[],"categories_sizes":[],"default_left":[0,0,0,0,0,0,0,0,0,0,0,0,0,0,0,0,0,0,0,0,0,0,0,0,0,0,0,0,0,0,0,0,0,0,0,0,0,0,0,0,0,0,0,0,0,0,0,0,0,0,0,0,0,0,0,0,0,0,0,0,0,0,0,0,0,0,0,0,0,0,0,0,0,0,0,0,0,0,0,0,0,0,0,0,0,0,0,0,0,0,0,0,0,0,0,0,0,0,0,0,0,0,0,0,0,0,0,0,0,0,0,0,0,0,0,0,0,0,0,0,0,0,0,0,0,0,0,0,0,0,0,0,0,0,0,0,0,0,0,0,0,0,0,0,0,0,0,0,0,0,0,0,0,0,0,0,0,0,0,0,0,0,0,0,0,0,0,0,0,0,0,0,0,0,0,0,0,0,0,0,0,0,0,0,0,0,0,0,0,0,0,0,0,0,0,0,0,0,0,0,0,0,0,0,0,0,0,0,0,0,0,0,0,0,0,0,0,0,0],"id":7,"left_children":[1,3,5,7,9,11,13,15,17,19,21,23,25,27,29,31,33,35,37,39,41,43,45,47,49,51,53,55,57,59,61,63,65,67,69,71,73,75,77,79,-1,81,83,85,87,89,91,-1,93,95,97,99,101,103,105,107,109,111,113,115,117,119,121,123,125,127,-1,129,131,133,135,137,139,141,143,145,147,-1,149,-1,151,153,-1,155,157,-1,159,161,163,-1,165,167,169,-1,-1,171,173,175,-1,177,-1,-1,179,181,183,185,187,189,191,193,-1,195,197,199,201,203,205,207,209,211,213,215,217,-1,-1,-1,-1,-1,-1,-1,-1,-1,-1,-1,-1,-1,-1,-1,-1,-1,-1,-1,-1,-1,-1,-1,-1,-1,-1,-1,-1,-1,-1,-1,-1,-1,-1,-1,-1,-1,-1,-1,-1,-1,-1,-1,-1,-1,-1,-1,-1,-1,-1,-1,-1,-1,-1,-1,-1,-1,-1,-1,-1,-1,-1,-1,-1,-1,-1,-1,-1,-1,-1,-1,-1,-1,-1,-1,-1,-1,-1,-1,-1,-1,-1,-1,-1,-1,-1,-1,-1,-1,-1,-1,-1,-1,-1,-1,-1],"loss_changes":[6.0700256E2,4.9918335E1,4.8618176E1,1.3757751E1,1.4567566E1,1.7343548E1,1.8229324E1,5.204071E0,1.3115692E1,4.5981216E0,5.188286E0,3.1525993E0,4.5752773E0,1.0441851E1,8.011238E0,2.2655144E0,2.022522E0,6.551464E0,5.61499E0,2.8070488E0,3.6912766E0,2.6916542E0,4.8977966E0,1.0829583E0,2.910633E0,2.421874E0,2.2023067E0,7.493635E0,3.10552E0,4.4827414E0,3.8340302E0,2.3351898E0,1.844038E0,2.8001404E-1,2.530098E0,4.5006943E0,1.2741023E0,5.013916E0,1.6355832E0,1.7959671E0,0E0,2.7053866E0,1.8439178E0,1.3499655E0,2.0899086E0,4.5959473E0,2.9393578E0,0E0,7.7354157E-1,2.8375807E0,1.9638119E0,2.7833157E0,9.7127175E-1,8.821233E-1,2.151392E0,4.92015E0,1.8092346E-1,2.0671923E0,1.975174E0,1.7511182E0,3.2200532E0,2.5607574E0,2.991539E0,1.8949814E0,1.448181E0,1.7840242E0,0E0,2.889099E-1,1.8249997E-1,2.8337326E0,2.4398766E0,3.1481686E0,2.3539867E0,4.6387494E-1,1.1166536E0,2.556244E0,4.432207E0,0E0,4.9086258E-1,0E0,1.2476883E0,1.8071675E0,0E0,1.9623871E0,2.6600971E0,0E0,1.1640625E0,2.0893936E0,1.1998096E0,0E0,2.2785454E0,3.5279884E0,6.4280415E-1,0E0,0E0,2.3813977E0,2.4605923E0,7.4312973E-1,0E0,2.1618996E0,0E0,0E0,1.2111559E0,1.5599205E0,4.978641E-1,2.5908036E0,4.6065364E0,7.433181E-1,2.809723E0,1.8249997E-1,0E0,1.3618819E0,1.2891773E0,1.5799913E0,1.8104303E0,1.1810584E0,2.9940543E0,1.2934198E0,6.059525E-1,2.1766367E0,1.9894263E0,2.1889162E0,2.684822E0,0E0,0E0,0E0,0E0,0E0,0E0,0E0,0E0,0E0,0E0,0E0,0E0,0E0,0E0,0E0,0E0,0E0,0E0,0E0,0E0,0E0,0E0,0E0,0E0,0E0,0E0,0E0,0E0,0E0,0E0,0E0,0E0,0E0,0E0,0E0,0E0,0E0,0E0,0E0,0E0,0E0,0E0,0E0,0E0,0E0,0E0,0E0,0E0,0E0,0E0,0E0,0E0,0E0,0E0,0E0,0E0,0E0,0E0,0E0,0E0,0E0,0E0,0E0,0E0,0E0,0E0,0E0,0E0,0E0,0E0,0E0,0E0,0E0,0E0,0E0,0E0,0E0,0E0,0E0,0E0,0E0,0E0,0E0,0E0,0E0,0E0,0E0,0E0,0E0,0E0,0E0,0E0,0E0,0E0,0E0,0E0],"parents":[2147483647,0,0,1,1,2,2,3,3,4,4,5,5,6,6,7,7,8,8,9,9,10,10,11,11,12,12,13,13,14,14,15,15,16,16,17,17,18,18,19,19,20,20,21,21,22,22,23,23,24,24,25,25,26,26,27,27,28,28,29,29,30,30,31,31,32,32,33,33,34,34,35,35,36,36,37,37,38,38,39,39,41,41,42,42,43,43,44,44,45,45,46,46,48,48,49,49,50,50,51,51,52,52,53,53,54,54,55,55,56,56,57,57,58,58,59,59,60,60,61,61,62,62,63,63,64,64,65,65,67,67,68,68,69,69,70,70,71,71,72,72,73,73,74,74,75,75,76,76,78,78,80,80,81,81,83,83,84,84,86,86,87,87,88,88,90,90,91,91,92,92,95,95,96,96,97,97,99,99,102,102,103,103,104,104,105,105,106,106,107,107,108,108,109,109,111,111,112,112,113,113,114,114,115,115,116,116,117,117,118,118,119,119,120,120,121,121,122,122],"right_children":[2,4,6,8,10,12,14,16,18,20,22,24,26,28,30,32,34,36,38,40,42,44,46,48,50,52,54,56,58,60,62,64,66,68,70,72,74,76,78,80,-1,82,84,86,88,90,92,-1,94,96,98,100,102,104,106,108,110,112,114,116,118,120,122,124,126,128,-1,130,132,134,136,138,140,142,144,146,148,-1,150,-1,152,154,-1,156,158,-1,160,162,164,-1,166,168,170,-1,-1,172,174,176,-1,178,-1,-1,180,182,184,186,188,190,192,194,-1,196,198,200,202,204,206,208,210,212,214,216,218,-1,-1,-1,-1,-1,-1,-1,-1,-1,-1,-1,-1,-1,-1,-1,-1,-1,-1,-1,-1,-1,-1,-1,-1,-1,-1,-1,-1,-1,-1,-1,-1,-1,-1,-1,-1,-1,-1,-1,-1,-1,-1,-1,-1,-1,-1,-1,-1,-1,-1,-1,-1,-1,-1,-1,-1,-1,-1,-1,-1,-1,-1,-1,-1,-1,-1,-1,-1,-1,-1,-1,-1,-1,-1,-1,-1,-1,-1,-1,-1,-1,-1,-1,-1,-1,-1,-1,-1,-1,-1,-1,-1,-1,-1,-1,-1],"split_conditions":[8.2E-1,5.2166665E-1,1.09E0,3.109E1,4.8E-1,9.12029E-2,2E0,2.284E1,3.669229E1,3.2E1,8.194814E0,6.5E1,6.5E-1,9.852408E1,2E0,1.3205417E1,2E-1,1.0825E0,1.1E1,1E0,1.8945833E0,9.73E0,3E0,2.417E1,4.045E1,6.6E-1,3.875E1,5E1,2.59E0,9.731544E1,1.99E0,1.14E0,1.16E0,5.33025E1,8.1E-1,3E0,1.692E1,9.610219E1,1.692E1,6.49E0,1.7357528E-3,1.0295E2,5.7E-1,9.2E1,7.3333335E-1,5.7E-1,3.0394802E1,3.4163296E-3,1.686E1,1.095E1,5.3465E1,8.486823E0,1.3113334E1,1.355E1,1.2E1,1.786E1,3.214E1,3E0,2.59E1,9.981923E0,1.1E1,2.07E1,1.9975E0,3.629E1,4.242298E1,1.0109412E1,1.3584316E-2,1.81E0,3.563E1,1.39782E-1,1.4225E1,1.4165E1,3.434E1,6.62E0,1.2E-1,9E0,7.1753817E0,-3.8793422E-2,9.63325E1,4.1572633E-3,1.81E0,5.4239285E-1,-5.5092074E-2,2.8E-1,6.5E0,1.3310731E-3,1.219E1,8.65E0,2.1839602E0,6.581057E-2,2.489E1,2.711E1,1.3815E2,1.0754443E-2,-4.2763628E-2,1.635E1,5.687E1,4.27E0,4.690272E-3,2.2326052E1,4.657024E-3,9.882426E-3,6.35E1,4.37E0,1.5997E2,6.024E1,2.241503E0,2.62E0,6.715281E-1,2.46E0,-4.4795584E-2,1.42E1,1.795E1,3.564E1,3.4515E2,5.2166665E-1,3.2128592E0,7.112665E0,2.569E1,1.5699129E0,2.8820138E0,9.884E1,4.8258263E1,-4.355562E-2,-4.0607832E-2,-4.011289E-2,-3.9957028E-2,-8.593569E-3,-4.5352668E-2,-3.1728715E-2,-5.3159773E-2,4.5021284E-2,-3.2978714E-2,-4.896547E-2,-4.8978716E-2,-4.1858748E-2,-5.114178E-2,-3.98776E-2,-1.3370375E-2,-5.304409E-2,-2.8583853E-2,-2.3190623E-2,1.478855E-2,-3.5930516E-3,-1.2257007E-2,-5.2935936E-2,-5.235095E-2,-5.0471213E-2,1.1560303E-2,-1.253683E-2,1.2726904E-3,4.7402384E-4,-4.7751937E-2,-5.3374756E-2,-2.0182578E-2,-3.509831E-2,-5.3885397E-2,-5.4272898E-2,1.7553509E-3,-2.6990516E-2,-2.3241246E-2,-1.0948271E-2,-4.2449377E-2,-3.6334593E-2,-6.651342E-4,-5.3008016E-2,-8.9416854E-2,-2.8387858E-2,-4.2916857E-2,-1.821802E-2,4.1013598E-4,-2.6229037E-2,-5.777472E-2,-4.0408585E-2,1.1901266E-2,-3.057376E-2,-5.4229375E-2,-5.1780026E-2,-5.651889E-2,-4.0590536E-2,-4.688048E-2,-4.801494E-2,7.044721E-3,1.7753852E-3,-1.442808E-3,-3.8031425E-2,1.2906803E-3,-4.968897E-2,-3.2959804E-2,-5.6058127E-2,7.865508E-1,-4.012464E-2,-2.6994808E-2,3.2044172E-3,-1.3623732E-2,-1.0077E-3,-5.619716E-4,-1.057508E-2,9.6633733E-4,-1.2789237E-2,-4.5892883E-2,-5.9817913E-3,-4.1095354E-2,-4.681496E-2,-1.6009294E-3,-6.22843E-2,-3.7710205E-2,3.2659823E-3,-1.1738519E-2,2.1209978E-1,-8.040323E-2,-3.081205E-2,2.0871044E-3,-1.8980717E-2,2.7544582E-2,-9.168001E-3,-7.722485E-2,7.172262E-2,-9.527785E-2],"split_indices":[3,60,57,30,58,35,57,29,23,33,39,73,54,12,3,25,53,58,82,57,64,43,85,16,68,74,73,10,53,12,56,56,6,4,57,83,69,37,4,44,0,42,56,73,3,55,50,0,2,42,69,65,49,68,85,71,2,85,4,37,9,72,54,69,68,40,0,16,0,65,18,51,0,19,74,82,52,0,81,0,17,61,0,59,60,0,45,42,26,0,69,0,80,0,0,44,33,19,0,26,0,0,29,59,20,20,50,3,35,3,0,33,79,68,80,60,52,52,0,50,65,71,68,0,0,0,0,0,0,0,0,0,0,0,0,0,0,0,0,0,0,0,0,0,0,0,0,0,0,0,0,0,0,0,0,0,0,0,0,0,0,0,0,0,0,0,0,0,0,0,0,0,0,0,0,0,0,0,0,0,0,0,0,0,0,0,0,0,0,0,0,0,0,0,0,0,0,0,0,0,0,0,0,0,0,0,0,0,0,0,0,0,0,0,0,0,0,0,0],"split_type":[0,0,0,0,0,0,0,0,0,0,0,0,0,0,0,0,0,0,0,0,0,0,0,0,0,0,0,0,0,0,0,0,0,0,0,0,0,0,0,0,0,0,0,0,0,0,0,0,0,0,0,0,0,0,0,0,0,0,0,0,0,0,0,0,0,0,0,0,0,0,0,0,0,0,0,0,0,0,0,0,0,0,0,0,0,0,0,0,0,0,0,0,0,0,0,0,0,0,0,0,0,0,0,0,0,0,0,0,0,0,0,0,0,0,0,0,0,0,0,0,0,0,0,0,0,0,0,0,0,0,0,0,0,0,0,0,0,0,0,0,0,0,0,0,0,0,0,0,0,0,0,0,0,0,0,0,0,0,0,0,0,0,0,0,0,0,0,0,0,0,0,0,0,0,0,0,0,0,0,0,0,0,0,0,0,0,0,0,0,0,0,0,0,0,0,0,0,0,0,0,0,0,0,0,0,0,0,0,0,0,0,0,0,0,0,0,0,0,0],"sum_hessian":[6.7692E4,2.42E3,6.5272E4,1.046E3,1.374E3,1.316E3,6.3956E4,5.31E2,5.15E2,3.58E2,1.016E3,1.44E2,1.172E3,5.028E3,5.8928E4,1.34E2,3.97E2,1.75E2,3.4E2,1.27E2,2.31E2,1.77E2,8.39E2,1.9E1,1.25E2,1.78E2,9.94E2,9.81E2,4.047E3,1.638E3,5.729E4,8.7E1,4.7E1,1.9E2,2.07E2,1.02E2,7.3E1,3.19E2,2.1E1,1.22E2,5E0,8.6E1,1.45E2,2.8E1,1.49E2,4.3E1,7.96E2,1.4E1,5E0,7.5E1,5E1,1.05E2,7.3E1,1.89E2,8.05E2,9.67E2,1.4E1,3.355E3,6.92E2,5.35E2,1.103E3,3.488E3,5.3802E4,7.1E1,1.6E1,3.9E1,8E0,1.88E2,2E0,1.82E2,2.5E1,4.2E1,6E1,4E0,6.9E1,2.6E2,5.9E1,3E0,1.8E1,3E0,1.19E2,7.9E1,7E0,3.1E1,1.14E2,1.5E1,1.3E1,1.29E2,2E1,9E0,3.4E1,7.2E2,7.6E1,2E0,3E0,2.6E1,4.9E1,4.7E1,3E0,9.1E1,1.4E1,2.2E1,5.1E1,1.3E1,1.76E2,6.81E2,1.24E2,1E1,9.57E2,2E0,1.2E1,6.79E2,2.676E3,2.17E2,4.75E2,1.44E2,3.91E2,1.097E3,6E0,1.1E1,3.477E3,6.37E2,5.3165E4,3E1,4.1E1,4E0,1.2E1,1.1E1,2.8E1,2E0,1.86E2,1E0,1E0,1.8E1,1.64E2,1.5E1,1E1,1.3E1,2.9E1,5.3E1,7E0,3E0,1E0,2E0,6.7E1,2.08E2,5.2E1,4.3E1,1.6E1,1E0,1.7E1,2E0,1.17E2,4.5E1,3.4E1,8E0,2.3E1,1.05E2,9E0,6E0,7E0,1.1E1,1.18E2,6E0,1.4E1,2.7E1,7E0,2.08E2,5.12E2,3.3E1,4.3E1,2.2E1,4E0,4.3E1,6E0,3E0,4.4E1,6.4E1,2.7E1,1.3E1,3.8E1,5E0,8E0,1.75E2,1E0,5.25E2,1.56E2,2E1,1.04E2,9E0,1E0,5.7E1,9E2,1E0,1E0,4E0,6.75E2,2E0,2.674E3,2.1E2,7E0,4.62E2,1.3E1,2E0,1.42E2,3.9E1,3.52E2,9.22E2,1.75E2,1E0,5E0,6E0,5E0,8.15E2,2.662E3,6.18E2,1.9E1,5.3098E4,6.7E1],"tree_param":{"num_deleted":"0","num_feature":"92","num_nodes":"219","size_leaf_vector":"1"}},{"base_weights":[1.2466424E-2,-4.3630508E-1,2.8988969E-2,-6.296133E-1,-3.1954062E-1,-4.407905E-2,3.68183E-2,-7.628995E-1,-5.035256E-1,-4.782524E-1,-2.3648785E-1,-3.7434554E-1,-3.3789728E-2,-1.2410866E-3,3.9426856E-2,-3.7499998E-2,-7.814988E-1,-4.6350363E-1,-7.784483E-1,-6.13785E-1,-3.8062912E-1,-4.2729884E-1,-1.9546013E-1,-2.0052083E-1,-5.442708E-1,-9.702253E-2,-6.191478E-3,-7.520468E-2,2.0320492E-2,3.982019E-2,-1.3293651E-1,-4.75E-2,4.545455E-3,-6.261261E-1,-8.3343846E-1,-3.5025E-1,-5.6816036E-1,-8.2363635E-1,3.7500001E-3,-2.4814814E-1,-6.6303194E-1,-6.2171054E-1,-2.982379E-1,-2.792857E-1,-5.2190477E-1,-3.1942308E-1,-1.3714029E-1,-1.3882352E-1,-6.2083334E-1,-2.4999999E-2,-6.253012E-1,-9.342318E-2,-7.5500004E-2,3.431463E-2,-2.0009415E-2,-2.8412697E-1,-5.8511976E-2,2.226215E-2,-4.5416665E-1,1.1965335E-2,4.175269E-2,-4.7572814E-2,-4.9375E-1,-9.9999994E-2,-6.552381E-1,-8.4693545E-1,-2.0625E-1,-5.6268656E-1,-2.414179E-1,4.545455E-3,-5.987624E-1,-2.1249999E-1,-8.548077E-1,-9.523809E-2,-6.7142856E-1,-7.629464E-1,-5.090909E-1,-1.8461539E-1,-7.007812E-1,-7.368421E-2,-3.71345E-1,-8.3125E-2,-2.0476191E-1,-5.9499997E-1,-7.8125E-2,-5.74026E-1,-2.111413E-1,-1.6740577E-1,-7.0754704E-3,-7.6E-2,-9.876543E-2,3.3333336E-3,-7.55E-1,4.6153846E-3,-4.75E-2,-1.3636364E-1,-6.90411E-1,-1.07147254E-1,2.5751085E-3,3.5220996E-2,-4.75E-2,-8.26923E-2,-1.5035556E-2,1.2500001E-2,-5.069444E-1,-7.544248E-2,4.0948275E-2,4.4615384E-2,-1.1554608E-3,-8.142857E-2,4.166667E-3,1.6401274E-2,-1.11693546E-1,1.6963765E-2,4.3514766E-2,-1.9393939E-1,2.1126762E-2,-8.107143E-1,-4.5454543E-2,4.166667E-3,-4.75E-2,3.7500001E-3,-6.759804E-2,-6.244898E-2,-8.853053E-2,4.166667E-3,-6.333333E-2,-3.0645162E-2,-7.621621E-2,-5.902778E-2,-1.1212121E-2,-6.60355E-2,-2.7500002E-2,-4.75E-2,3.3333336E-3,2.5000002E-3,-8.7254904E-2,-3.3125E-2,4.6428572E-3,-7.9166666E-2,2.5000002E-3,-8.309783E-2,-4.2857144E-2,-2.0312501E-2,-5.798387E-2,-7.125E-2,4.5000003E-3,-7.377049E-2,3.7500001E-3,-2.5E-3,-7.125E-2,4.75E-3,-4.2401314E-2,-3.3382352E-2,-5.1666666E-3,-4.395349E-2,-7.2187506E-2,-4.625E-2,4.6153846E-3,-6.3257575E-2,-2.0416668E-2,-1.3899371E-2,-6.442308E-2,-2.0918675E-2,-5.0416663E-3,2.7472528E-3,-2.0312501E-2,-2.105263E-3,-2.7199998E-2,-8.444445E-2,2.5000002E-3,-6.333333E-2,4.4444446E-3,-4.5178574E-2,-8.206522E-2,-2.8387098E-2,-9.634226E-3,-5.6E-2,1.4847163E-3,-4.75E-2,3.6129032E-3,-5.352113E-3,-3.6136363E-2,1.5017464E-3,-2.7350835E-3,4.814815E-3,-4.75E-2,-6.660714E-2,4.4444446E-3,-1.1367292E-2,-2.859477E-3,4.956522E-3,-4.75E-2,-1.9230756E-4,4.7143865E-3,-2.8541667E-2,3.701069E-4,-2.6153846E-2,1.7446254E-3,2.9807694E-3,-2.109589E-2,1.8854628E-3,-3.4166668E-2,-1.3680153E-3,4.413748E-3,-5.8125E-2,-6.730769E-3,4.924243E-3,-2.9166667E-2,-8.769231E-2,2.5000002E-3,-4.75E-2,4.5000003E-3],"categories":[],"categories_nodes":[],"categories_segments":[],"categories_sizes":[],"default_left":[0,0,0,0,0,0,0,0,0,0,0,0,0,0,0,0,0,0,0,0,0,0,0,0,0,0,0,0,0,0,0,0,0,0,0,0,0,0,0,0,0,0,0,0,0,0,0,0,0,0,0,0,0,0,0,0,0,0,0,0,0,0,0,0,0,0,0,0,0,0,0,0,0,0,0,0,0,0,0,0,0,0,0,0,0,0,0,0,0,0,0,0,0,0,0,0,0,0,0,0,0,0,0,0,0,0,0,0,0,0,0,0,0,0,0,0,0,0,0,0,0,0,0,0,0,0,0,0,0,0,0,0,0,0,0,0,0,0,0,0,0,0,0,0,0,0,0,0,0,0,0,0,0,0,0,0,0,0,0,0,0,0,0,0,0,0,0,0,0,0,0,0,0,0,0,0,0,0,0,0,0,0,0,0,0,0,0,0,0,0,0,0,0,0,0,0,0,0,0,0,0,0,0,0,0,0,0,0,0,0,0,0,0],"id":8,"left_children":[1,3,5,7,9,11,13,15,17,19,21,23,25,27,29,31,33,35,37,39,41,43,45,47,49,51,53,55,57,59,61,-1,-1,63,65,67,69,71,-1,73,75,77,79,81,83,85,87,89,91,93,95,97,-1,99,101,103,105,107,109,111,113,115,117,119,121,123,125,127,129,